Iteration,Energy,Loss Function,Bias
0,0.21470391280742007,0.19930912538948695,0.0
1,0.13067719416692214,0.1307861873404159,0.26736989313677706
2,0.06215980172571482,0.07161096086880635,0.4771992979737232
3,0.04870613788287106,0.04960194376193494,0.7614830125956229
4,0.026504760593915544,0.03060408739124217,0.9270302625773633
5,0.015955085684861793,0.020366257390099528,1.1669673268249183
6,0.007988854351841785,0.01030879731573806,1.3268451073258212
7,0.0036225947401894083,0.004484129317713236,1.5431924980817409
8,0.0006644074666980227,0.0010824039898166262,1.7227314207605788
9,0.0001445231535746577,-0.0005456842959056361,1.866929955200246
10,0.0005866272773165153,-0.0007677120906523998,2.008409062628355
11,0.0005866272773165153,-0.0007786870325232897,2.0098175294139793
12,0.0004434227819623862,-0.0007993285065044685,2.0124378469910815
13,0.00032297535049548244,-0.0008374667691709644,2.0181122934778517
14,0.00018880397746793708,-0.0008861486940409041,2.0306839791601763
15,0.0001693734753485117,-0.0009322048867613303,2.051159429549711
16,0.00017961457643255924,-0.0009635927046400411,2.069319368540544
17,0.0004030931136179959,-0.0009862512194329692,2.102136015268478
18,0.00020069281475613594,-0.0010039718699593266,2.108909614941623
19,0.00022163600573346613,-0.0010206930154506412,2.1097165907486852
20,0.00038911749683562643,-0.001037628651424764,2.125141059165487
21,0.00017574470129985286,-0.0010536234355819271,2.1541152752777464
22,0.0001576937437656985,-0.0010657899349918094,2.1883110838306887
23,0.000149878336463015,-0.001075100943733607,2.1988519969364053
24,0.00019309525190802965,-0.001089186804764429,2.220891738799991
25,0.000119978449296907,-0.0011022283441374904,2.2551993645360815
26,7.627697976953635e-05,-0.0011092560409364388,2.274059191098235
27,8.799084461482527e-05,-0.0011176978274106042,2.278511664349931
28,9.867496730624111e-05,-0.0011246177471789954,2.2937559286586953
29,0.00011466319997347263,-0.0011310469457922975,2.312618743302109
30,0.00014818113381461314,-0.0011376450561628962,2.337284906193353
31,0.00010948436179181143,-0.0011427255994533511,2.360208749793449
32,7.735600533737953e-05,-0.00114747472717017,2.374066952285102
33,5.464277189957086e-05,-0.0011518510429121894,2.4094142854622658
34,5.8313405424615e-05,-0.0011567473805053977,2.4127246783591025
35,6.476178576816863e-05,-0.0011630397504656846,2.434576613233936
36,5.5679043007092055e-05,-0.0011663032109811163,2.445245466993001
37,4.786614542700546e-05,-0.001170226651019594,2.469028242730133
38,5.335412106926271e-05,-0.0011730710835823048,2.4635876783514163
39,6.695441555405163e-05,-0.0011762334056556565,2.476294112693571
40,8.424560322086398e-05,-0.0011791520919368379,2.488472512233481
41,7.842430396464449e-05,-0.001180871440454219,2.498324523479623
42,0.000140920030190464,-0.0011830632462155734,2.5115102058093886
43,0.00010909811539400891,-0.0011846338095637934,2.522087025927939
44,0.0001130006267931605,-0.0011861407213713266,2.53320729802419
45,9.856430936372221e-05,-0.0011873757098231463,2.5429660690052365
46,9.856430936372221e-05,-0.0011884728127104691,2.552723275856087
47,0.0001288694183197065,-0.001189435317146497,2.5631384826733368
48,0.00011089502533208707,-0.0011904212331104022,2.575146571263225
49,9.671029748655647e-05,-0.0011914742163588285,2.588976797111785
50,9.671029748655647e-05,-0.001192530716137202,2.602716908520415
51,0.00010789765899409993,-0.0011935266230348356,2.6164561440498186
52,0.00010582244696427422,-0.0011943999344531024,2.62726567029575
53,0.00010728640898022027,-0.001195144240642492,2.636545328961835
54,0.00010881680768858142,-0.0011957971456919593,2.643187795625443
55,0.00010881680768858142,-0.0011964220614194684,2.6526992060842707
56,0.00011468981628248395,-0.0011971014346932817,2.6619184873746544
57,0.00010848288620348101,-0.001197854807403412,2.67667243665288
58,9.662958102390274e-05,-0.0011986010135790282,2.687739541502256
59,9.5883048628134e-05,-0.0011992456896002196,2.6999727050012394
60,9.5883048628134e-05,-0.0011998626852667402,2.7062694489968737
61,0.00011049500901955936,-0.0012005280402469828,2.7173331016747055
62,0.00011049500901955936,-0.001201253282965591,2.7255835864593485
63,0.00011049500901955936,-0.0012018864202769663,2.7392913961013474
64,0.00010889601074534833,-0.0012024173546764819,2.743212534371991
65,0.00010344740118097973,-0.0012028789119221247,2.7542010020261367
66,0.00010334023824434195,-0.001203370299322391,2.757080748389914
67,8.47013707324726e-05,-0.00120390548778994,2.766305408839991
68,8.47013707324726e-05,-0.0012044518845584786,2.7734051238213016
69,7.749979754656136e-05,-0.0012049644815338352,2.7818970525604128
70,7.475993589336397e-05,-0.0012055035149854713,2.788962611212204
71,7.060790281167253e-05,-0.001206107114903784,2.7984600586496153
72,6.563111770158591e-05,-0.0012067279768634594,2.8065566928197723
73,5.823452208785295e-05,-0.0012072617699250704,2.8159259784849096
74,6.0878405891782406e-05,-0.0012077340475988184,2.819923576493386
75,6.444689686876059e-05,-0.0012081925105069363,2.8296991615838483
76,6.679245296004788e-05,-0.001208678615737894,2.8310681942364155
77,7.160392028349988e-05,-0.0012091482734429971,2.8419349036720063
78,7.160392028349988e-05,-0.0012096074030673244,2.8434727564683806
79,7.160392028349988e-05,-0.0012100152454637692,2.8488790632191345
80,6.226030577487373e-05,-0.0012103900048187962,2.851662979590068
81,6.004068766673818e-05,-0.0012107272720198005,2.856945268757865
82,6.004068766673818e-05,-0.001211050453281169,2.861101911789033
83,6.004068766673818e-05,-0.0012113679697139453,2.8664959342743144
84,6.004068766673818e-05,-0.0012117020982269798,2.8709134800655844
85,4.9333704812401594e-05,-0.0012120434993167578,2.875840154749992
86,5.466836769059029e-05,-0.0012124045984193573,2.879509495291231
87,4.8252371023652e-05,-0.0012127761602874884,2.8829712785979837
88,6.204624444202896e-05,-0.0012131551758790646,2.8836568769878275
89,6.204624444202896e-05,-0.0012135386571705653,2.884223985613699
90,5.8549299276069094e-05,-0.0012138829427334468,2.8857406963811596
91,5.8549299276069094e-05,-0.001214213658206161,2.8897185439477444
92,5.8549299276069094e-05,-0.0012145128739331893,2.8925443681319747
93,6.230897686576174e-05,-0.0012147379236384938,2.8975036807687093
94,5.150339143200343e-05,-0.0012149282354201323,2.895159158329521
95,5.480027806834893e-05,-0.0012151144301583668,2.8984342148471836
96,5.9901075612146537e-05,-0.0012153226889612984,2.897472294891831
97,5.261783302056998e-05,-0.0012155588328988508,2.8980070644428904
98,4.446742966791857e-05,-0.0012157449289509827,2.900194328817178
99,4.446742966791857e-05,-0.001215953125009187,2.904267909647299
100,4.317734789681278e-05,-0.0012161465624773056,2.9089318607933086
101,4.317734789681278e-05,-0.0012163175708394302,2.9127524493728036
102,4.466851953519481e-05,-0.001216471875592685,2.9153851168212737
103,5.421282205517625e-05,-0.0012166384575298874,2.9173316360635093
104,5.4020741662255354e-05,-0.001216815948050673,2.919033797458238
105,5.14613347893632e-05,-0.0012169980419557927,2.92082534849097
106,5.263176014776026e-05,-0.0012171838519639936,2.9231120763674157
107,4.76961733836118e-05,-0.0012173750844640986,2.925847809195979
108,5.0158119642466585e-05,-0.001217560743692361,2.928706056754733
109,5.0158119642466585e-05,-0.001217727004821073,2.9309906583615457
110,5.262257210027792e-05,-0.0012178741264467754,2.932493618150328
111,6.0264225848062946e-05,-0.0012180179603360662,2.9332863291201225
112,6.479985148931379e-05,-0.0012181685174531228,2.933790069939777
113,6.479985148931379e-05,-0.001218314500623084,2.9341392687867525
114,6.38298808339224e-05,-0.0012184473207929646,2.934947954719604
115,5.987421587005519e-05,-0.0012185754068853693,2.93599306500319
116,6.97742341275218e-05,-0.0012187086852435075,2.9378306405816077
117,7.066586050852261e-05,-0.0012188549172291894,2.9388582325962966
118,8.794797973093457e-05,-0.0012190166617224215,2.9409286040743052
119,7.38438068545985e-05,-0.001219190467680838,2.939151182463758
120,6.862026819322203e-05,-0.001219371978729064,2.939506530383207
121,6.862026819322203e-05,-0.0012195674627420686,2.9367508923918244
122,6.995829504676307e-05,-0.0012197458719508667,2.9352511431142454
123,6.995829504676307e-05,-0.001219897396952375,2.934958602022571
124,6.995829504676307e-05,-0.0012200551384853717,2.934834801488295
125,6.963971339406707e-05,-0.0012202133438644336,2.9368455346406734
126,6.963971339406707e-05,-0.0012203618034741532,2.9370780757087425
127,6.375203906331347e-05,-0.001220493783413253,2.939419558651091
128,5.770550968946358e-05,-0.0012206305016317835,2.9390199965860773
129,5.770550968946358e-05,-0.0012207761856534468,2.940229385467442
130,5.175223252156521e-05,-0.001220921087019025,2.9406968187900158
131,5.175223252156521e-05,-0.0012210547673346954,2.942706148007182
132,4.6494156314973415e-05,-0.0012211890750791756,2.9443636431560796
133,4.6494156314973415e-05,-0.0012213309605157573,2.9467608285524953
134,4.6494156314973415e-05,-0.0012214831653892682,2.9486132821987754
135,4.449866946931972e-05,-0.0012216204040172744,2.9503036232717803
136,4.9812858251721574e-05,-0.0012217445080800857,2.9513088129395495
137,4.9812858251721574e-05,-0.0012218626681828897,2.9526370950928755
138,4.9812858251721574e-05,-0.0012219825063347683,2.953980570312041
139,4.9812858251721574e-05,-0.0012221031693857621,2.956089309704037
140,5.820762459162921e-05,-0.0012222236337190993,2.9574866726390954
141,5.820762459162921e-05,-0.0012223457258921622,2.9594205946184733
142,5.820762459162921e-05,-0.0012224761221384726,2.9597973039144274
143,5.6149660952382995e-05,-0.0012226077010671443,2.961469929864688
144,6.046696707690901e-05,-0.0012227312238816176,2.961032769126791
145,5.296939825140202e-05,-0.0012228450619343658,2.963455618032732
146,5.794910877760223e-05,-0.001222960518135521,2.963680577368369
147,5.794910877760223e-05,-0.0012230776838362694,2.9668501502607025
148,5.794910877760223e-05,-0.0012231857727308898,2.9677354269694596
149,5.4670430861381556e-05,-0.0012232783929493145,2.9694906873285074
150,5.4670430861381556e-05,-0.0012233656603282297,2.9694975232084473
151,6.91041117465498e-05,-0.0012234564511437558,2.969587783027927
152,6.91041117465498e-05,-0.0012235547023936447,2.968835636933281
153,6.91041117465498e-05,-0.0012236588933830265,2.9684379036788875
154,6.317143707029502e-05,-0.0012237774165195798,2.968481298291857
155,6.783907798543546e-05,-0.001223918810692969,2.9695589171592625
156,5.902042432551562e-05,-0.0012240806545116844,2.9714948075426313
157,5.902042432551562e-05,-0.0012242516372500437,2.973981532097211
158,5.1410722200584204e-05,-0.0012244210645233843,2.9762645098212976
159,5.1410722200584204e-05,-0.0012245943620982388,2.9788470452089713
160,4.875795978319241e-05,-0.0012247748375445531,2.9807766068876687
161,4.4010276226023575e-05,-0.0012249696604021071,2.9835555684126938
162,4.4010276226023575e-05,-0.0012251660647857503,2.9852606542740836
163,5.162665869786284e-05,-0.001225348500903495,2.9871993517491493
164,5.346864470374948e-05,-0.0012255195856112323,2.98921678995851
165,5.0420561908452434e-05,-0.0012257225242855898,2.9915274184896434
166,5.378631485919693e-05,-0.0012259337646343947,2.9943716333659833
167,5.8418854178281474e-05,-0.0012261521513850552,2.9955787660338937
168,5.450280886000216e-05,-0.0012263521792916102,2.998479874467092
169,5.450280886000216e-05,-0.0012265311579734686,2.997037386508155
170,5.450280886000216e-05,-0.0012267092983730236,3.0004990942542906
171,5.14843784158327e-05,-0.001226912740788506,3.000782632295307
172,5.7732118300825884e-05,-0.001227136957930248,3.0019361341052866
173,5.7732118300825884e-05,-0.0012273018934237233,3.004388987963529
174,4.810597174200174e-05,-0.0012274578394753956,3.0059289976438843
175,4.810597174200174e-05,-0.0012276228733601488,3.008062083579718
176,4.810597174200174e-05,-0.0012278313705075088,3.00974889842898
177,5.49665035421507e-05,-0.001228074228267424,3.0119692333305688
178,5.192849944619166e-05,-0.0012283456543900192,3.0144221044136406
179,7.300805809760509e-05,-0.001228671004853851,3.01896109871958
180,8.25835126406466e-05,-0.0012289101034159036,3.0219672721139945
181,8.25835126406466e-05,-0.0012292373116007174,3.020495186982953
182,7.300805809760509e-05,-0.0012296458653857764,3.0252934669376015
183,7.300805809760509e-05,-0.0012299328853863864,3.0234526933650474
184,7.300805809760509e-05,-0.0012301259151530324,3.024696776813438
185,7.300805809760509e-05,-0.0012303475022889413,3.0256289835573633
186,8.324942106619792e-05,-0.0012304817992515391,3.025470804685276
187,7.320541896899161e-05,-0.001230671155946946,3.025434691889123
188,7.320541896899161e-05,-0.001230827011802726,3.0260753100484328
189,7.491837756798392e-05,-0.001231001494324073,3.0267261054401877
190,5.081820263911209e-05,-0.0012312528632546305,3.029673775156987
191,4.527269965943623e-05,-0.001231534601038566,3.0337504624001577
192,4.527269965943623e-05,-0.0012318396347052328,3.0347870824055803
193,5.1181735408289715e-05,-0.0012323141624725647,3.0372957170317805
194,4.725082999598947e-05,-0.00123271231489722,3.0397177895028937
195,3.999297346904801e-05,-0.0012328926313785048,3.0427519963998275
196,3.999297346904801e-05,-0.0012331539502037105,3.044279640932478
197,4.6722010197906095e-05,-0.0012334098740771281,3.0472539870948587
198,5.329852720601817e-05,-0.0012336009599230536,3.050329880747735
199,5.030329442628477e-05,-0.0012338318233380229,3.0542975580189147
200,5.030329442628477e-05,-0.0012340347298794145,3.0598520121701793
201,5.056549266975551e-05,-0.0012342164071577912,3.062835032438978
202,4.999669899726755e-05,-0.0012343939435163322,3.065968380994994
203,5.603030846753895e-05,-0.0012345967290807185,3.0676092365199197
204,5.5088303453348006e-05,-0.0012347881588722941,3.069843084568954
205,5.5088303453348006e-05,-0.0012349648827096177,3.0726966733553636
206,5.5088303453348006e-05,-0.00123513126558253,3.0766943749796707
207,5.5088303453348006e-05,-0.001235301594129596,3.082292398096138
208,5.175765575563149e-05,-0.0012354603349157773,3.087531255594736
209,4.781464819644929e-05,-0.0012355926534742096,3.0927865971894675
210,4.781464819644929e-05,-0.0012357170796547035,3.096071230038342
211,4.781464819644929e-05,-0.001235850206383015,3.100800129489203
212,4.534989441731026e-05,-0.001235981219951248,3.103216715823283
213,4.296513042213077e-05,-0.0012360935080122655,3.1073382945139234
214,4.04284594639411e-05,-0.001236191001408419,3.10957090100692
215,4.04284594639411e-05,-0.001236282982752574,3.11352179714974
216,4.246633118511844e-05,-0.0012363890736183784,3.117482286307363
217,4.246633118511844e-05,-0.001236501099516292,3.1223352805338123
218,4.246633118511844e-05,-0.0012366225137074045,3.1259406470471314
219,3.714229306005055e-05,-0.0012367431429580454,3.1288956660319855
220,3.714229306005055e-05,-0.001236853031393943,3.130220628072416
221,3.714229306005055e-05,-0.001236948450629113,3.1314476065132766
222,3.5582860496505565e-05,-0.0012370402040010533,3.13345056094811
223,4.213924291741591e-05,-0.001237142918284782,3.136075775813076
224,4.213924291741591e-05,-0.001237258534262661,3.1409845310470885
225,4.213924291741591e-05,-0.0012373687837224675,3.14402617219057
226,4.43461248196524e-05,-0.0012374608790021039,3.14835367959661
227,4.213924291741591e-05,-0.0012375384848882331,3.1475898751333062
228,4.213924291741591e-05,-0.001237616193685494,3.149353785988006
229,4.213924291741591e-05,-0.0012377097591256343,3.148487020880372
230,4.213924291741591e-05,-0.001237800813515211,3.149943320633798
231,4.446430271227904e-05,-0.001237875109789523,3.1514114688918204
232,4.446430271227904e-05,-0.0012379482822521767,3.1542664758816987
233,3.967643972023258e-05,-0.0012380330978777401,3.1576252514959164
234,4.586510057935776e-05,-0.0012381207406013022,3.1612472702388903
235,4.586510057935776e-05,-0.0012381978575174391,3.1635422345562665
236,4.586510057935776e-05,-0.0012382629810273264,3.1646582671187553
237,3.711336437587789e-05,-0.0012383303384867208,3.1649328108309733
238,3.711336437587789e-05,-0.0012384138156103942,3.165416494843777
239,3.711336437587789e-05,-0.0012385075184100465,3.166555201724988
240,3.711336437587789e-05,-0.0012385936740930523,3.1679396389482233
241,3.902610371090095e-05,-0.0012386698290654992,3.170117652826574
242,3.902610371090095e-05,-0.0012387410218970584,3.1722057503836987
243,3.902610371090095e-05,-0.001238810899158325,3.175177911853011
244,3.902610371090095e-05,-0.0012388761816431305,3.176196251313705
245,3.902610371090095e-05,-0.00123893096101996,3.1780170854599405
246,3.902610371090095e-05,-0.0012389838401893308,3.177105311479159
247,3.902610371090095e-05,-0.0012390400215233385,3.17904951806856
248,3.902610371090095e-05,-0.0012390990461997908,3.1793783737711494
249,3.902610371090095e-05,-0.001239147965707551,3.1819371118100968
250,3.902610371090095e-05,-0.001239186434911541,3.1836949205997
251,3.902610371090095e-05,-0.0012392256640993493,3.1858733871152305
252,3.902610371090095e-05,-0.0012392733340223024,3.1880094724292287
253,4.216760293563637e-05,-0.0012393235281166913,3.1898025161992196
254,4.216760293563637e-05,-0.001239369802014461,3.1908609436410216
255,4.216760293563637e-05,-0.001239412311810403,3.1914839147788387
256,4.216760293563637e-05,-0.001239456338412501,3.1920997362832573
257,4.216760293563637e-05,-0.0012395035639746882,3.1930909900762665
258,4.216760293563637e-05,-0.0012395495173225816,3.19434123772988
259,4.1557473575636573e-05,-0.0012395893521316788,3.195821262798312
260,4.1557473575636573e-05,-0.0012396251704218375,3.197009596831589
261,4.1557473575636573e-05,-0.0012396631191783974,3.198395903157071
262,4.1557473575636573e-05,-0.0012397057797878855,3.1994763396373664
263,4.1557473575636573e-05,-0.0012397490443420557,3.2009196180758104
264,4.1557473575636573e-05,-0.0012397882550852061,3.201848231851959
265,4.1557473575636573e-05,-0.0012398241250236076,3.2033898414742095
266,4.1557473575636573e-05,-0.0012398632503737934,3.20448951261974
267,3.880790421887003e-05,-0.0012399088971392744,3.2064039730024705
268,3.880790421887003e-05,-0.001239957407617452,3.20739277630625
269,3.880790421887003e-05,-0.0012400028965133397,3.2086906996898388
270,3.880790421887003e-05,-0.001240047056010726,3.2088315804580234
271,3.880790421887003e-05,-0.001240096921133867,3.209610759784663
272,3.819814084084609e-05,-0.001240156086671186,3.209759831202138
273,3.819814084084609e-05,-0.001240217513494906,3.2108172922301144
274,3.819814084084609e-05,-0.0012402734190672174,3.2112085774884966
275,3.4323919566510736e-05,-0.0012403242827333642,3.2122111146750103
276,3.4323919566510736e-05,-0.0012403756458085255,3.2124529690995653
277,3.4323919566510736e-05,-0.001240427174152497,3.2129697747281623
278,3.4323919566510736e-05,-0.0012404764919952608,3.2127252435077835
279,3.4323919566510736e-05,-0.0012405241449143125,3.2124314732385026
280,3.6306369849478674e-05,-0.0012405740770256978,3.211931772153596
281,3.6306369849478674e-05,-0.001240627530185977,3.211050362067348
282,3.6306369849478674e-05,-0.0012406829058433273,3.210744555865906
283,3.6306369849478674e-05,-0.001240734967302412,3.209511084733384
284,4.066998605669166e-05,-0.0012407792998086794,3.2096331109033027
285,4.066998605669166e-05,-0.001240819826811521,3.208307817100868
286,4.066998605669166e-05,-0.001240859883642111,3.2080455830259917
287,4.295840803338447e-05,-0.0012409009970065926,3.2064612518326605
288,4.295840803338447e-05,-0.0012409408160985755,3.205671761711879
289,4.295840803338447e-05,-0.001240979112786214,3.204409738978388
290,4.295840803338447e-05,-0.0012410158842048357,3.2039972997583237
291,3.9249580592267544e-05,-0.0012410534461239707,3.2034826872333433
292,3.9249580592267544e-05,-0.0012410917648697664,3.2034779152951933
293,3.9249580592267544e-05,-0.0012411304972019986,3.2032665546070898
294,3.9249580592267544e-05,-0.0012411692528262915,3.203169446025813
295,4.186301092192169e-05,-0.0012412078073039596,3.202752696124149
296,4.186301092192169e-05,-0.001241245253464227,3.2024387945193
297,4.186301092192169e-05,-0.0012412830587370687,3.2019666085963507
298,4.186301092192169e-05,-0.0012413213075031604,3.2018354934765316
299,4.186301092192169e-05,-0.0012413592307129395,3.201639952655735
300,4.186301092192169e-05,-0.0012413957919598935,3.2019034483667923
301,4.186301092192169e-05,-0.001241432438416296,3.2017960028424572
302,4.4740256393952336e-05,-0.0012414702006350582,3.202181203936391
303,4.9384551229863065e-05,-0.0012415091226054445,3.201878347673748
304,4.9384551229863065e-05,-0.0012415471357428275,3.2021868117567585
305,4.9384551229863065e-05,-0.0012415845380921633,3.2021026173955334
306,4.9384551229863065e-05,-0.001241622064474552,3.2025177655349046
307,4.9384551229863065e-05,-0.0012416607710110871,3.20316749125528
308,4.9384551229863065e-05,-0.0012416984377688833,3.204022605633278
309,4.9384551229863065e-05,-0.0012417338301837792,3.205030309968635
310,5.0135189424696076e-05,-0.001241766963210639,3.2057121760642637
311,5.0135189424696076e-05,-0.0012418014908183424,3.206370092193099
312,5.0135189424696076e-05,-0.0012418402596369807,3.2064506937600634
313,5.0135189424696076e-05,-0.001241882716824821,3.206436310293991
314,5.0135189424696076e-05,-0.0012419237023056336,3.205745883478952
315,5.0135189424696076e-05,-0.001241960305514432,3.205335822597619
316,5.0135189424696076e-05,-0.0012419954563638233,3.2045512883244482
317,5.0135189424696076e-05,-0.0012420343947429195,3.204156128166833
318,5.0135189424696076e-05,-0.0012420753720728459,3.2033539875318047
319,5.0135189424696076e-05,-0.0012421120112631003,3.203234486705579
320,5.0135189424696076e-05,-0.0012421433967157076,3.2029207983466117
321,5.0135189424696076e-05,-0.0012421749199067785,3.2034306866833298
322,5.557849428151396e-05,-0.0012422108232953638,3.2036227276200493
323,4.668216411669032e-05,-0.0012422480140748646,3.2046435709567147
324,5.417774437068871e-05,-0.0012422798304524525,3.204878757733189
325,5.417774437068871e-05,-0.0012423058011929724,3.2056669386720245
326,5.417774437068871e-05,-0.0012423316434714716,3.205798636699988
327,5.417774437068871e-05,-0.0012423621109006707,3.206151896218638
328,5.417774437068871e-05,-0.0012423972239341368,3.2068550419936193
329,5.16799542690183e-05,-0.0012424320609271326,3.2072071569337823
330,5.16799542690183e-05,-0.0012424679092699772,3.2084737588486214
331,4.325822921352016e-05,-0.0012425120981854932,3.2096487989285207
332,4.325822921352016e-05,-0.0012425551740376736,3.211523150006208
333,4.325822921352016e-05,-0.0012426006695222544,3.2116334862033806
334,3.936703401278962e-05,-0.0012426528944581732,3.211845840712848
335,3.936703401278962e-05,-0.0012426860211867698,3.2119978914027816
336,3.936703401278962e-05,-0.001242734626999389,3.2127071583396045
337,3.936703401278962e-05,-0.00124278061107052,3.21348053212847
338,4.325822921352016e-05,-0.0012428212061842958,3.2146629027679743
339,4.325822921352016e-05,-0.001242856048854877,3.2154150277230746
340,4.5933976078286016e-05,-0.001242879863348085,3.2170003999085166
341,4.164922697760157e-05,-0.0012429033840489314,3.21712888261767
342,3.936703401278962e-05,-0.0012429254567989398,3.217597029891263
343,3.936703401278962e-05,-0.0012429501432098472,3.218499076391187
344,3.936703401278962e-05,-0.001242973527981189,3.219713909570174
345,4.164922697760157e-05,-0.0012430020163083212,3.221194335439085
346,4.164922697760157e-05,-0.0012430278129700583,3.2224300871197356
347,4.164922697760157e-05,-0.0012430526437493977,3.2232125469041932
348,4.164922697760157e-05,-0.0012430757022761992,3.223781248408567
349,4.164922697760157e-05,-0.0012430987472104038,3.2241943346453494
350,4.164922697760157e-05,-0.001243120534554023,3.224732726724452
351,4.164922697760157e-05,-0.0012431419308002428,3.225445162349402
352,4.164922697760157e-05,-0.001243165948217983,3.226437223198289
353,4.164922697760157e-05,-0.0012431951001294146,3.2279669661049346
354,3.936703401278962e-05,-0.001243228449060393,3.2298324240243046
355,4.2079862244176166e-05,-0.0012432626001494997,3.232116236884722
356,4.2079862244176166e-05,-0.0012433003274847023,3.234591821987437
357,3.399137564232533e-05,-0.0012433578671625176,3.2392108771948065
358,3.499247609369764e-05,-0.0012434124288840016,3.2458874218153735
359,3.499247609369764e-05,-0.0012434921434480713,3.244109370566147
360,3.499247609369764e-05,-0.0012436128329271442,3.2440826626300345
361,3.499247609369764e-05,-0.0012437146821360615,3.2467825753404043
362,3.499247609369764e-05,-0.0012437669930297059,3.246398278344144
363,3.499247609369764e-05,-0.0012438379210940368,3.2489092966829682
364,3.353421103004206e-05,-0.0012439086450850138,3.2491370534628117
365,3.353421103004206e-05,-0.0012439594406933486,3.2505353716495824
366,3.499247609369764e-05,-0.0012439991694685043,3.25027255834376
367,3.499247609369764e-05,-0.0012440304750629416,3.251017343037697
368,3.499247609369764e-05,-0.00124406449606554,3.2512489332095904
369,3.499247609369764e-05,-0.0012441021723873424,3.2525342407275524
370,3.499247609369764e-05,-0.0012441409429059481,3.253424221759208
371,3.499247609369764e-05,-0.0012441754287038657,3.255100827401496
372,3.499247609369764e-05,-0.0012442058100950585,3.2556731048802585
373,3.499247609369764e-05,-0.0012442357444081413,3.256857683183175
374,3.499247609369764e-05,-0.0012442676275349939,3.2572564520319505
375,3.499247609369764e-05,-0.0012442990703934232,3.2582536429623694
376,3.499247609369764e-05,-0.0012443255763963372,3.258844313371751
377,3.499247609369764e-05,-0.0012443490714568889,3.2597200319830595
378,3.499247609369764e-05,-0.0012443755720916848,3.260664978915044
379,3.499247609369764e-05,-0.0012444073779713234,3.2618169101955914
380,3.499247609369764e-05,-0.0012444393054436053,3.2629073072465475
381,3.499247609369764e-05,-0.0012444650382263877,3.263407925110191
382,3.499247609369764e-05,-0.001244486023947689,3.2637329622371443
383,3.499247609369764e-05,-0.0012445083918820165,3.2637823840432656
384,3.499247609369764e-05,-0.0012445354293599347,3.2644117087829385
385,3.706099125005215e-05,-0.0012445639694153752,3.265216597990054
386,3.706099125005215e-05,-0.0012445880060932178,3.2667370875456805
387,3.706099125005215e-05,-0.0012446074342829544,3.267975336102768
388,4.004666248528691e-05,-0.0012446265574591357,3.2694498061554076
389,4.004666248528691e-05,-0.0012446493343375577,3.270714270414229
390,4.004666248528691e-05,-0.0012446733419243655,3.271959796833868
391,4.004666248528691e-05,-0.0012446947050421223,3.2724182102976553
392,4.004666248528691e-05,-0.0012447129865783674,3.27282500565695
393,4.004666248528691e-05,-0.0012447308820533398,3.2728573592768155
394,4.004666248528691e-05,-0.0012447492751929794,3.273452058608597
395,4.004666248528691e-05,-0.00124476722377133,3.274112046889043
396,4.004666248528691e-05,-0.00124478349925884,3.275356449728435
397,4.004666248528691e-05,-0.0012447990058476754,3.276455674009924
398,4.004666248528691e-05,-0.0012448162575971772,3.277797883770972
399,4.528767506073568e-05,-0.0012448375950056328,3.2789454463468086
400,3.7844010485440396e-05,-0.0012448637153162651,3.280211721239809
401,3.7844010485440396e-05,-0.0012448937086120527,3.2812794928290776
402,3.7844010485440396e-05,-0.0012449264199335015,3.282511696952346
403,3.7844010485440396e-05,-0.0012449635059704823,3.283481705545936
404,3.7844010485440396e-05,-0.0012450117095523375,3.2841744503562644
405,3.7844010485440396e-05,-0.0012450715667158931,3.284752370818199
406,3.7844010485440396e-05,-0.001245130352580038,3.286006836594164
407,3.7844010485440396e-05,-0.001245176963939338,3.2863846581631333
408,3.7844010485440396e-05,-0.0012452087955550062,3.2878848183077256
409,3.7844010485440396e-05,-0.0012452365978243994,3.2866236555236745
410,3.7844010485440396e-05,-0.0012452687276185456,3.287764360808014
411,3.7844010485440396e-05,-0.0012453120508961616,3.2880109327529072
412,3.7844010485440396e-05,-0.0012453412807108604,3.2881526724532026
413,3.7844010485440396e-05,-0.0012453608765031425,3.288113718986816
414,3.7844010485440396e-05,-0.0012453798963257751,3.288354448204688
415,3.7844010485440396e-05,-0.0012454008790139593,3.2884347714863105
416,3.845273977284423e-05,-0.001245425089189677,3.288663226880298
417,3.585285477803931e-05,-0.0012454474709292348,3.2885103913807647
418,3.335794508352385e-05,-0.0012454657762033493,3.288450607912654
419,3.335794508352385e-05,-0.0012454822385728303,3.2881311574327285
420,3.335794508352385e-05,-0.001245500381802937,3.2880350695281275
421,3.335794508352385e-05,-0.0012455215409459652,3.287829277901134
422,3.2019761248137124e-05,-0.001245543959409786,3.287905661105962
423,3.2019761248137124e-05,-0.0012455642199943786,3.2879263239431973
424,3.2019761248137124e-05,-0.001245582012699481,3.2880421288601878
425,3.2019761248137124e-05,-0.0012456003981464875,3.2880137730203067
426,3.2019761248137124e-05,-0.0012456218097425741,3.287935351846316
427,3.2019761248137124e-05,-0.0012456457797037324,3.287743808000755
428,3.2019761248137124e-05,-0.0012456691837388072,3.287624690345665
429,3.2019761248137124e-05,-0.001245689434882287,3.2875939933935596
430,3.2019761248137124e-05,-0.0012457081976933355,3.287857800874323
431,3.445756283385631e-05,-0.0012457299354197635,3.2882494757005825
432,3.445756283385631e-05,-0.001245756538695397,3.2890531843230146
433,3.445756283385631e-05,-0.0012457837072678611,3.289658181505846
434,3.445756283385631e-05,-0.0012458065548591447,3.2902860859610894
435,3.445756283385631e-05,-0.0012458264933209431,3.2902274560822335
436,3.445756283385631e-05,-0.0012458489265523853,3.2904417086488373
437,3.286810903424552e-05,-0.001245878098019413,3.2898939157350173
438,3.286810903424552e-05,-0.0012459106350432116,3.289978114165079
439,3.286810903424552e-05,-0.0012459388532378157,3.289216238733331
440,3.286810903424552e-05,-0.0012459606151047594,3.2894827976325587
441,3.286810903424552e-05,-0.0012459816888472988,3.289385951643332
442,3.5593866238370384e-05,-0.001246007760537575,3.28969953413426
443,3.5593866238370384e-05,-0.001246038814997127,3.2900263722840366
444,3.5593866238370384e-05,-0.0012460680862285674,3.2903006609060976
445,3.5593866238370384e-05,-0.0012460918013342123,3.290661845674393
446,3.5593866238370384e-05,-0.0012461132207329747,3.2908752754670267
447,3.661230974636156e-05,-0.001246138172366784,3.291425078838683
448,3.661230974636156e-05,-0.0012461688447709144,3.2919518673772226
449,4.052209382448892e-05,-0.0012462022888208109,3.292892003333448
450,4.052209382448892e-05,-0.001246232417494073,3.2935104170336915
451,4.052209382448892e-05,-0.0012462575903530399,3.2941463266001714
452,4.052209382448892e-05,-0.001246281510625134,3.2944928723259665
453,4.052209382448892e-05,-0.0012463086967433538,3.2948516604869353
454,4.052209382448892e-05,-0.0012463386941283783,3.2953172228734835
455,4.106633075617321e-05,-0.0012463665234290916,3.2955951624921638
456,4.106633075617321e-05,-0.0012463889997299485,3.2961375326531077
457,4.106633075617321e-05,-0.0012464091933336058,3.296214379503545
458,4.106633075617321e-05,-0.0012464315545836482,3.2968245003655268
459,4.106633075617321e-05,-0.0012464579045694726,3.2968561530290015
460,4.106633075617321e-05,-0.0012464844159744228,3.297321193367321
461,4.106633075617321e-05,-0.0012465062120104954,3.2970362921890444
462,4.106633075617321e-05,-0.0012465236892177558,3.2971838077381648
463,3.735120870550297e-05,-0.0012465408258818564,3.2969395478426033
464,3.735120870550297e-05,-0.001246560214531026,3.2971314218121393
465,3.735120870550297e-05,-0.0012465824324532067,3.2972203104042555
466,3.735120870550297e-05,-0.001246605650007882,3.297624540367055
467,3.735120870550297e-05,-0.0012466269839638536,3.2978755739649186
468,3.7794946555480926e-05,-0.001246645427251049,3.297988880917149
469,3.7794946555480926e-05,-0.0012466632536334435,3.297858105137213
470,3.7794946555480926e-05,-0.0012466823247917224,3.2975111066178884
471,4.156941485955447e-05,-0.0012467017961820556,3.2971264060907384
472,4.156941485955447e-05,-0.0012467187269537394,3.2968496268959626
473,4.156941485955447e-05,-0.0012467321941027976,3.2968238014815525
474,4.156941485955447e-05,-0.0012467453830236662,3.2970859903310976
475,4.156941485955447e-05,-0.0012467622629393825,3.2974162014438257
476,4.156941485955447e-05,-0.0012467833062421159,3.2980089123602
477,4.156941485955447e-05,-0.0012468040260240783,3.298203457960003
478,4.156941485955447e-05,-0.0012468204859773702,3.2983634554446852
479,4.156941485955447e-05,-0.0012468345469851707,3.2981061712375688
480,4.156941485955447e-05,-0.0012468504944763404,3.298047704261523
481,4.156941485955447e-05,-0.0012468700584484676,3.297825950110575
482,4.156941485955447e-05,-0.0012468890094797728,3.297974150215612
483,4.156941485955447e-05,-0.0012469030557678911,3.2980134843510793
484,4.156941485955447e-05,-0.0012469135801235003,3.298246181233484
485,4.156941485955447e-05,-0.0012469244412419503,3.2982394517937683
486,4.156941485955447e-05,-0.0012469374066777104,3.29827389136117
487,4.156941485955447e-05,-0.0012469511132059627,3.2980019980911357
488,4.156941485955447e-05,-0.0012469636040646525,3.2978169623451166
489,4.156941485955447e-05,-0.0012469753380479538,3.297523808910824
490,4.156941485955447e-05,-0.0012469886700304028,3.2973740835970986
491,4.156941485955447e-05,-0.0012470054458985386,3.2971735821549935
492,4.156941485955447e-05,-0.0012470247192851683,3.296988567007618
493,4.156941485955447e-05,-0.0012470422955843307,3.2966952665208686
494,4.156941485955447e-05,-0.0012470557046259155,3.2962378918522752
495,4.156941485955447e-05,-0.0012470666980992327,3.295672680506345
496,4.156941485955447e-05,-0.0012470783760335092,3.294751861363372
497,4.156941485955447e-05,-0.0012470928056937415,3.293521862235554
498,4.156941485955447e-05,-0.0012471094912234336,3.2918294239572616
499,4.526922682798948e-05,-0.0012471252750537037,3.2903335457182097
500,4.526922682798948e-05,-0.0012471387770418456,3.289091198311513
501,4.526922682798948e-05,-0.0012471520922128906,3.2881915647834785
502,4.526922682798948e-05,-0.001247168291663849,3.2870651338610553
503,4.526922682798948e-05,-0.0012471868183844964,3.2858247201115507
504,4.526922682798948e-05,-0.0012472037654327525,3.28453398605704
505,4.526922682798948e-05,-0.0012472165457008404,3.2836893386899444
506,4.526922682798948e-05,-0.0012472273185532923,3.2831065019593266
507,4.526922682798948e-05,-0.0012472392795558043,3.2826245068076165
508,4.526922682798948e-05,-0.00124725368588583,3.2821395567026688
509,4.526922682798948e-05,-0.0012472681481456652,3.281591569585825
510,4.526922682798948e-05,-0.0012472804132611826,3.2812859555024736
511,4.526922682798948e-05,-0.0012472913519782814,3.2808443612896183
512,4.526922682798948e-05,-0.0012473031637345755,3.280722385321309
513,4.526922682798948e-05,-0.0012473165310309862,3.280248495118406
514,4.526922682798948e-05,-0.0012473302648282004,3.2801160310098703
515,4.526922682798948e-05,-0.001247342625255826,3.2796362512757398
516,4.526922682798948e-05,-0.0012473536253541193,3.279459134618099
517,4.526922682798948e-05,-0.0012473649969898923,3.279038198492092
518,4.526922682798948e-05,-0.0012473778913018798,3.2787662076074895
519,4.526922682798948e-05,-0.001247391608543772,3.2782934655361453
520,4.526922682798948e-05,-0.0012474043191018048,3.2780712017352855
521,4.1832552614909326e-05,-0.001247414625900097,3.2778310155748662
522,4.1832552614909326e-05,-0.0012474230965746358,3.2778381882854126
523,4.5337992851671384e-05,-0.0012474315967353558,3.277835563301825
524,4.5337992851671384e-05,-0.00124744174253943,3.277816634789081
525,4.1832552614909326e-05,-0.0012474531279273347,3.2778380869080617
526,4.1832552614909326e-05,-0.0012474639788920326,3.2777097715658243
527,4.1832552614909326e-05,-0.0012474732695621515,3.2777305955784137
528,4.1832552614909326e-05,-0.001247481839607844,3.277582399121074
529,4.1832552614909326e-05,-0.0012474908867709318,3.2776373366403413
530,4.5337992851671384e-05,-0.0012475003805627143,3.2775942548573886
531,4.5337992851671384e-05,-0.001247509196349329,3.277756779807092
532,4.5337992851671384e-05,-0.001247516929352163,3.2778034073086895
533,4.5337992851671384e-05,-0.0012475245018177426,3.2779179407894143
534,4.5337992851671384e-05,-0.0012475331074237807,3.277836221088785
535,4.5337992851671384e-05,-0.0012475427318837918,3.2777442072373772
536,4.5337992851671384e-05,-0.0012475519454253144,3.2774524067228112
537,4.5337992851671384e-05,-0.0012475596768250627,3.277331543058792
538,4.5337992851671384e-05,-0.001247566589170292,3.2772089284630006
539,4.052118450564452e-05,-0.001247574225390571,3.2773952430161537
540,4.052118450564452e-05,-0.0012475834614523737,3.277728867016008
541,4.052118450564452e-05,-0.0012475932933250745,3.278450250508659
542,4.052118450564452e-05,-0.0012476016934604031,3.279129516319038
543,4.5337992851671384e-05,-0.001247608350417413,3.2797447651331133
544,4.5337992851671384e-05,-0.0012476147051931274,3.2801700982993798
545,4.5337992851671384e-05,-0.001247622353608863,3.2805719529313064
546,4.5337992851671384e-05,-0.0012476316457790471,3.280984368159145
547,4.219158292254143e-05,-0.001247640925841389,3.281318738476839
548,4.219158292254143e-05,-0.0012476486296244425,3.2816768673339856
549,4.219158292254143e-05,-0.001247655410498372,3.2819557196645794
550,4.219158292254143e-05,-0.0012476631663138028,3.282516195768824
551,4.657326503840919e-05,-0.0012476729840926108,3.283277365535385
552,4.657326503840919e-05,-0.0012476836151316935,3.2844473883456664
553,4.657326503840919e-05,-0.001247692261041624,3.285377745823664
554,4.657326503840919e-05,-0.001247698071430154,3.286054166590627
555,4.657326503840919e-05,-0.0012477027730727925,3.286346986058332
556,4.657326503840919e-05,-0.0012477084119451739,3.286727289866717
557,4.657326503840919e-05,-0.0012477160097280374,3.287168486147067
558,4.163899758452954e-05,-0.0012477248169694799,3.2879458891719655
559,4.163899758452954e-05,-0.0012477323682780258,3.2887188049053897
560,4.163899758452954e-05,-0.0012477375808885968,3.289476219831411
561,3.7546507682256094e-05,-0.001247741882843973,3.290057337131829
562,3.7546507682256094e-05,-0.0012477472736319517,3.290898315503177
563,3.7546507682256094e-05,-0.001247754664756995,3.291980430326174
564,3.7546507682256094e-05,-0.0012477625815169606,3.2932759947549277
565,3.7546507682256094e-05,-0.001247768625382141,3.294092124668696
566,3.7546507682256094e-05,-0.0012477729398701009,3.2945983434064496
567,3.7546507682256094e-05,-0.0012477773191390225,3.2948677954597936
568,3.7546507682256094e-05,-0.0012477832525372573,3.2953859804261203
569,3.7546507682256094e-05,-0.0012477902274339045,3.296094256787418
570,3.7546507682256094e-05,-0.001247796164821342,3.296984942954528
571,3.7546507682256094e-05,-0.0012478001675893665,3.2976101241031186
572,3.7546507682256094e-05,-0.0012478032689212408,3.2980746680282085
573,3.7546507682256094e-05,-0.0012478067890001475,3.298423051814061
574,3.7546507682256094e-05,-0.0012478113384674265,3.298756659729219
575,3.7546507682256094e-05,-0.001247816565666235,3.2989645147991205
576,3.7546507682256094e-05,-0.0012478212552617016,3.2990353233830385
577,3.7546507682256094e-05,-0.001247824751447289,3.298991450948279
578,3.7546507682256094e-05,-0.0012478277764982335,3.298988185437961
579,3.767779146950815e-05,-0.001247831676745806,3.2990870914559136
580,3.767779146950815e-05,-0.0012478375943001635,3.299410319705988
581,3.767779146950815e-05,-0.001247845312391869,3.299984541029138
582,3.767779146950815e-05,-0.0012478524303194507,3.3006169678164436
583,3.767779146950815e-05,-0.0012478572913085066,3.30096260219354
584,3.767779146950815e-05,-0.0012478611459421354,3.301130890894215
585,3.767779146950815e-05,-0.0012478659930908248,3.301264311969083
586,3.767779146950815e-05,-0.001247873051816906,3.301553197391383
587,3.767779146950815e-05,-0.0012478813631333235,3.3019317572206246
588,3.767779146950815e-05,-0.0012478886715289312,3.302310515588685
589,3.767779146950815e-05,-0.0012478945629485776,3.302573443926766
590,3.767779146950815e-05,-0.001247900580378561,3.3027291919026065
591,3.767779146950815e-05,-0.001247908224315765,3.302891221918115
592,3.6871908328500204e-05,-0.0012479169156922624,3.3025106335737124
593,4.080447590551114e-05,-0.001247924104636918,3.3021653940935436
594,4.080447590551114e-05,-0.0012479295750983084,3.301264850438678
595,4.080447590551114e-05,-0.0012479352544231771,3.3008981606075567
596,4.080447590551114e-05,-0.0012479429905725868,3.299830970422045
597,4.080447590551114e-05,-0.0012479519908693637,3.299471824914243
598,4.080447590551114e-05,-0.0012479592659462083,3.2989921200292702
599,4.080447590551114e-05,-0.0012479636133939482,3.2993527833502
600,4.080447590551114e-05,-0.0012479668920963127,3.2995430638583927
601,4.080447590551114e-05,-0.0012479709909950668,3.2998338366795386
602,4.080447590551114e-05,-0.0012479767735635607,3.2998591747851984
603,4.080447590551114e-05,-0.0012479832526852345,3.299639136480279
604,4.080447590551114e-05,-0.0012479884427865613,3.299050087988266
605,4.080447590551114e-05,-0.0012479918949068068,3.298630167652242
606,4.080447590551114e-05,-0.001247994943938876,3.2981207502623135
607,4.080447590551114e-05,-0.0012479990619301481,3.2978165396101207
608,4.080447590551114e-05,-0.0012480048822165392,3.297287269475176
609,4.080447590551114e-05,-0.001248010979888278,3.297090008584467
610,4.080447590551114e-05,-0.0012480154504038374,3.2968600064112845
611,4.080447590551114e-05,-0.0012480187625287017,3.296900469325354
612,4.080447590551114e-05,-0.001248022636972026,3.2967729069681595
613,4.080447590551114e-05,-0.0012480285822905504,3.2966128613549905
614,4.080447590551114e-05,-0.001248036863237291,3.2961426890828323
615,4.080447590551114e-05,-0.0012480453192623487,3.29557618978341
616,4.080447590551114e-05,-0.0012480517439035445,3.2950803559296817
617,4.080447590551114e-05,-0.0012480565498269626,3.2947761662596773
618,4.080447590551114e-05,-0.0012480617173828573,3.2946021221109105
619,4.080447590551114e-05,-0.0012480690440188017,3.2942735521892974
620,4.080447590551114e-05,-0.0012480784659404693,3.2939474271661675
621,4.080447590551114e-05,-0.0012480872619858936,3.293355741079049
622,4.080447590551114e-05,-0.001248093308680635,3.2931162817093425
623,4.080447590551114e-05,-0.0012480977985955997,3.292665367860908
624,4.080447590551114e-05,-0.0012481032046271763,3.292381001052123
625,4.080447590551114e-05,-0.0012481115608294437,3.291510840666587
626,4.080447590551114e-05,-0.0012481238095275568,3.290276630877618
627,4.080447590551114e-05,-0.0012481353828509012,3.2886861875626203
628,4.080447590551114e-05,-0.0012481430123376185,3.287672946267667
629,4.080447590551114e-05,-0.0012481478459569133,3.2871610265538465
630,4.080447590551114e-05,-0.0012481529647368822,3.286710011996488
631,4.080447590551114e-05,-0.0012481607973081202,3.2861302130926657
632,4.080447590551114e-05,-0.0012481714965687297,3.285132354656109
633,3.751883928394262e-05,-0.0012481806178691209,3.2843038432214042
634,3.807195344933773e-05,-0.001248187364008181,3.283818192651119
635,3.807195344933773e-05,-0.0012481935475538773,3.2835562322333014
636,3.807195344933773e-05,-0.00124820284273764,3.2833385257766827
637,3.9399252104367737e-05,-0.0012482173947326778,3.2828609635034645
638,3.430767031809363e-05,-0.001248237860287926,3.2821064832521505
639,3.4760981966308504e-05,-0.001248253268408786,3.2815310203153603
640,3.732416354541396e-05,-0.0012482651782141669,3.2811220430154084
641,3.732416354541396e-05,-0.001248274162068889,3.2808346908673367
642,3.732416354541396e-05,-0.0012482869631818922,3.2803029568380966
643,3.333092206633968e-05,-0.0012483065999100186,3.280232739632077
644,3.176923930688334e-05,-0.0012483313832026318,3.280087584068571
645,3.176923930688334e-05,-0.0012483461502422741,3.2821317134259513
646,3.4156951208527176e-05,-0.0012483605594385493,3.28258551744879
647,3.176923930688334e-05,-0.0012483711471906636,3.283111118617308
648,3.388774881129511e-05,-0.0012483820593906841,3.284179314293891
649,3.670074777620682e-05,-0.0012483971852466187,3.285411669971863
650,3.670074777620682e-05,-0.0012484141549059691,3.286677624459799
651,3.670074777620682e-05,-0.001248428854221296,3.2872841726708097
652,3.4156951208527176e-05,-0.001248440895915122,3.287437223356024
653,3.861382618676162e-05,-0.001248451728403752,3.2873535655178534
654,3.861382618676162e-05,-0.0012484646756934536,3.287347886239606
655,3.861382618676162e-05,-0.001248481939205454,3.2876972585318023
656,3.861382618676162e-05,-0.0012485005781522997,3.288385783215282
657,3.861382618676162e-05,-0.0012485145571330088,3.28934763212215
658,3.861382618676162e-05,-0.0012485233394874497,3.2898361510064333
659,3.861382618676162e-05,-0.0012485314236327651,3.2903180475274385
660,3.861382618676162e-05,-0.0012485439943083975,3.290526820994442
661,3.861382618676162e-05,-0.0012485630744898557,3.2909865794344366
662,3.861382618676162e-05,-0.0012485846013947975,3.2910321157224005
663,3.861382618676162e-05,-0.00124859823126883,3.2914080938342734
664,4.160114919851397e-05,-0.0012486075766099897,3.2914257928874684
665,4.160114919851397e-05,-0.0012486158093218942,3.291336494168009
666,4.160114919851397e-05,-0.0012486289626753232,3.291641172186049
667,4.160114919851397e-05,-0.001248649036130342,3.2917750407543576
668,4.5170751356705805e-05,-0.0012486729127411025,3.292260899696274
669,4.5170751356705805e-05,-0.0012486924495984995,3.292362607327844
670,4.5170751356705805e-05,-0.0012487078099015492,3.2923681519398054
671,4.5170751356705805e-05,-0.0012487198672219376,3.2925606039849264
672,4.580121809159674e-05,-0.0012487344758693132,3.2923417342314063
673,4.580121809159674e-05,-0.001248756628109886,3.2932937550986683
674,3.743018692561931e-05,-0.0012487873970011732,3.2940782730386573
675,4.343001396055329e-05,-0.0012488141942817775,3.2964037354931235
676,4.343001396055329e-05,-0.0012488350685714966,3.2969612018326893
677,4.343001396055329e-05,-0.0012488535090216552,3.2983155757794407
678,4.0809341890875415e-05,-0.0012488769158283432,3.2987515725527876
679,4.1313479017071894e-05,-0.0012489115352723103,3.299769918550508
680,4.1313479017071894e-05,-0.0012489480922617982,3.3006375465228066
681,4.617633891051293e-05,-0.0012489718423019751,3.3006008342969095
682,4.617633891051293e-05,-0.0012489890987085563,3.3017541917406303
683,4.617633891051293e-05,-0.0012490048098305036,3.3012003191083585
684,4.617633891051293e-05,-0.001249027658940221,3.301781533910481
685,4.185992716059672e-05,-0.0012490582720157534,3.302226278927591
686,4.257293191197764e-05,-0.0012490871325223018,3.303304868599813
687,4.257293191197764e-05,-0.0012491049052723146,3.30397401471486
688,4.257293191197764e-05,-0.0012491165179714843,3.3042241563624657
689,4.257293191197764e-05,-0.0012491293289525148,3.304590442590195
690,4.257293191197764e-05,-0.001249148996420623,3.3045197315620607
691,4.257293191197764e-05,-0.0012491754732020367,3.304815492375845
692,4.257293191197764e-05,-0.0012491968665929228,3.304203527085202
693,4.257293191197764e-05,-0.0012492113782658434,3.3043589732648315
694,4.257293191197764e-05,-0.0012492208584945759,3.304159728012142
695,4.183813884899713e-05,-0.0012492317407348992,3.304079106601483
696,4.5342305105405364e-05,-0.0012492481898834977,3.3045980587509987
697,4.5342305105405364e-05,-0.0012492701229900138,3.3045037124875436
698,4.5342305105405364e-05,-0.0012492893921826661,3.3052648286230855
699,4.5342305105405364e-05,-0.001249303856241739,3.3046288921053235
700,4.5342305105405364e-05,-0.001249314029114778,3.304689749270585
701,4.6152441581098864e-05,-0.001249324662436145,3.303858991528927
702,4.6152441581098864e-05,-0.0012493391106197873,3.3033121820307167
703,4.6152441581098864e-05,-0.0012493576961472427,3.30231675216831
704,4.5342305105405364e-05,-0.0012493763322262384,3.3019105837601397
705,4.5342305105405364e-05,-0.0012493897634355934,3.3017617340283856
706,4.5342305105405364e-05,-0.0012493983732936756,3.302082679126641
707,4.5342305105405364e-05,-0.001249405863746161,3.302466107225882
708,4.188493412830759e-05,-0.0012494158021956602,3.302777369013775
709,4.188493412830759e-05,-0.0012494304795689873,3.3031290033325695
710,4.188493412830759e-05,-0.001249446700993212,3.3029953490932686
711,4.188493412830759e-05,-0.001249458774675852,3.3027018183561476
712,4.188493412830759e-05,-0.0012494674468713097,3.302290409061681
713,4.188493412830759e-05,-0.001249476005819275,3.3018788762740425
714,4.188493412830759e-05,-0.0012494876286809628,3.301542259278746
715,4.188493412830759e-05,-0.0012495029251466674,3.3012397615398776
716,4.188493412830759e-05,-0.0012495177196345123,3.300847992031623
717,4.188493412830759e-05,-0.0012495300362405527,3.3009738256261834
718,4.188493412830759e-05,-0.0012495403925915436,3.300431695787099
719,4.188493412830759e-05,-0.0012495505954207447,3.3006004649801417
720,4.188493412830759e-05,-0.0012495634137038004,3.30006138382061
721,3.7413747375494746e-05,-0.0012495812210054765,3.2998066693931234
722,3.7413747375494746e-05,-0.0012496040105629033,3.29905391927227
723,3.677195548158485e-05,-0.0012496257132563887,3.2986476870856545
724,3.677195548158485e-05,-0.0012496406452867604,3.2982635058980474
725,3.677195548158485e-05,-0.0012496502021160172,3.2982770459205875
726,3.677195548158485e-05,-0.001249659583486429,3.298298606042375
727,3.677195548158485e-05,-0.001249673213078702,3.2980521886191947
728,3.677195548158485e-05,-0.001249692647531518,3.29759291814115
729,3.677195548158485e-05,-0.0012497161879797172,3.296659001453123
730,3.677195548158485e-05,-0.001249738531199142,3.2959623572614434
731,3.677195548158485e-05,-0.0012497551069534122,3.295273611157848
732,3.677195548158485e-05,-0.0012497671008434494,3.295173789284105
733,3.677195548158485e-05,-0.0012497780365897018,3.295118411058332
734,3.677195548158485e-05,-0.001249791502828464,3.295204242919606
735,3.677195548158485e-05,-0.0012498088765937499,3.29541350391939
736,3.677195548158485e-05,-0.0012498277302437496,3.295300023669576
737,3.4271269000972624e-05,-0.0012498432307854594,3.2954026230117583
738,3.4271269000972624e-05,-0.0012498541585446359,3.295059466448493
739,3.4271269000972624e-05,-0.0012498632431006758,3.2950188165245082
740,3.4271269000972624e-05,-0.0012498737962305675,3.295286742374648
741,3.4271269000972624e-05,-0.0012498892908358872,3.2949034981094965
742,3.4271269000972624e-05,-0.0012499081505950923,3.295620229773973
743,3.4271269000972624e-05,-0.0012499225838929966,3.2951404301424465
744,3.4271269000972624e-05,-0.0012499320724633212,3.2955367206823927
745,3.4271269000972624e-05,-0.0012499383692646548,3.295282033156913
746,3.4271269000972624e-05,-0.0012499451385386538,3.2953277871471
747,3.4271269000972624e-05,-0.0012499554152789814,3.295391883351864
748,3.4271269000972624e-05,-0.0012499693307605475,3.2958672289295037
749,3.4271269000972624e-05,-0.001249983181198214,3.296490597684466
750,3.4271269000972624e-05,-0.0012499928905803249,3.297301462967292
751,3.4271269000972624e-05,-0.0012499991778425893,3.29773520837079
752,3.4271269000972624e-05,-0.0012500052530027188,3.2982439954310636
753,3.4271269000972624e-05,-0.001250014066159484,3.298886130962535
754,3.4271269000972624e-05,-0.0012500260009071862,3.299900328745304
755,3.4271269000972624e-05,-0.0012500380506909653,3.3011677659878216
756,3.4271269000972624e-05,-0.0012500468248917256,3.30223599514578
757,3.4271269000972624e-05,-0.001250052766158466,3.3028965148074723
758,3.4271269000972624e-05,-0.0012500582111664939,3.3034789171741914
759,3.4271269000972624e-05,-0.0012500661957191845,3.304064376093265
760,3.4271269000972624e-05,-0.0012500776151243508,3.3049833510171585
761,3.4271269000972624e-05,-0.0012500918147529641,3.305711914829448
762,3.4271269000972624e-05,-0.0012501043723213156,3.306157664829607
763,3.4271269000972624e-05,-0.0012501123630012218,3.305950538081077
764,3.4271269000972624e-05,-0.0012501174254955511,3.3057138311464365
765,3.4271269000972624e-05,-0.0012501228519809812,3.3055916729840074
766,3.4271269000972624e-05,-0.0012501313035324518,3.3058596276847276
767,3.4271269000972624e-05,-0.0012501441048371879,3.306744418974057
768,3.4271269000972624e-05,-0.001250159634484479,3.3084251709962444
769,3.4271269000972624e-05,-0.0012501721915673713,3.3102125588853855
770,3.4271269000972624e-05,-0.0012501803472204029,3.311241055500136
771,3.4271269000972624e-05,-0.0012501866487475359,3.311710540920056
772,3.4271269000972624e-05,-0.0012501954500043146,3.3118298395775474
773,3.829784915637877e-05,-0.0012502095568485568,3.312473359574022
774,3.233867427372367e-05,-0.0012502313768756664,3.3138628484948254
775,3.233867427372367e-05,-0.0012502557017129046,3.316108853832646
776,3.233867427372367e-05,-0.0012502709239642495,3.3166156913068656
777,3.233867427372367e-05,-0.0012502836440640268,3.3175787148985894
778,3.233867427372367e-05,-0.0012502915892654233,3.3176056174409405
779,3.233867427372367e-05,-0.0012503028816694846,3.3180528692925146
780,3.233867427372367e-05,-0.0012503202453856153,3.3183717099738717
781,3.233867427372367e-05,-0.0012503414608694122,3.3186547123251517
782,3.233867427372367e-05,-0.0012503573533573342,3.318991952334482
783,3.233867427372367e-05,-0.0012503712667435239,3.3194413987527573
784,3.233867427372367e-05,-0.00125038097166829,3.3201227347775784
785,3.233867427372367e-05,-0.0012503908799620595,3.321159771764463
786,3.4604333058606766e-05,-0.0012504040993160223,3.322372302807561
787,3.4604333058606766e-05,-0.0012504217485507353,3.324762863265993
788,3.166704220816195e-05,-0.0012504423660783834,3.3262600963184057
789,3.166704220816195e-05,-0.00125046061913799,3.328782336465344
790,2.98744098438388e-05,-0.0012504739484523238,3.3286712649283694
791,3.166704220816195e-05,-0.0012504852293356607,3.3293771849297387
792,3.166704220816195e-05,-0.0012504999925599428,3.3298636792985863
793,3.166704220816195e-05,-0.0012505207061427692,3.331399253092058
794,3.166704220816195e-05,-0.001250547246948938,3.334034594301311
795,3.238078226294991e-05,-0.001250571247915523,3.336835671598539
796,3.238078226294991e-05,-0.0012505865640617235,3.3384603072530257
797,3.166704220816195e-05,-0.001250595743302386,3.3390767857875594
798,3.166704220816195e-05,-0.0012506042621303335,3.339011498251361
799,3.166704220816195e-05,-0.0012506172444052771,3.3391431346501332
800,3.238078226294991e-05,-0.0012506358779658276,3.339409462095592
801,3.238078226294991e-05,-0.001250655429301897,3.3404730533311757
802,3.238078226294991e-05,-0.00125067172889739,3.341290133405572
803,3.238078226294991e-05,-0.0012506824391162084,3.342000595988462
804,3.238078226294991e-05,-0.0012506905213770607,3.342338727766589
805,3.238078226294991e-05,-0.001250699430180601,3.3423973666214706
806,3.238078226294991e-05,-0.0012507119043172203,3.342610518500038
807,3.238078226294991e-05,-0.00125072751089686,3.34288783201416
808,3.238078226294991e-05,-0.0012507439791272278,3.343405555071282
809,3.238078226294991e-05,-0.001250757700460746,3.344265475193538
810,3.238078226294991e-05,-0.0012507677922898894,3.3445504159496804
811,3.49322347936994e-05,-0.0012507759512091897,3.3452845323251617
812,3.263059372442845e-05,-0.001250785548332068,3.3454454405598533
813,3.6072298844356735e-05,-0.0012507980946644642,3.3466188873685883
814,3.361304714327789e-05,-0.0012508139659507098,3.3469112526626787
815,2.949121070631284e-05,-0.001250830097849021,3.348538658743748
816,2.949121070631284e-05,-0.0012508431158161852,3.3486077466530544
817,2.949121070631284e-05,-0.0012508536996914804,3.34924031986191
818,2.949121070631284e-05,-0.0012508645135876461,3.349186437981737
819,2.949121070631284e-05,-0.001250877875188772,3.3492670232310346
820,3.1335156434184804e-05,-0.001250896122209135,3.349259845835658
821,3.1335156434184804e-05,-0.0012509165451585723,3.348969834300961
822,3.1335156434184804e-05,-0.00125093521821144,3.348536545150322
823,3.406758575252188e-05,-0.0012509484915269574,3.348507045545343
824,3.406758575252188e-05,-0.0012509572461425508,3.348652031259856
825,3.406758575252188e-05,-0.001250965409326985,3.349249771767645
826,3.406758575252188e-05,-0.0012509769404553815,3.349439544963181
827,3.406758575252188e-05,-0.0012509922984157151,3.3501892018541235
828,3.406758575252188e-05,-0.0012510078466891738,3.349074757549417
829,3.406758575252188e-05,-0.001251019848406155,3.349137554353472
830,3.406758575252188e-05,-0.0012510281451782851,3.347842936199611
831,3.406758575252188e-05,-0.001251034405154461,3.3475523094634005
832,3.406758575252188e-05,-0.0012510426966221054,3.3473145268331117
833,3.3626196200903316e-05,-0.0012510552435617795,3.3474747166405567
834,3.3626196200903316e-05,-0.001251071402844709,3.3479063201828305
835,3.3626196200903316e-05,-0.0012510859982255316,3.348501604836227
836,3.098511448034832e-05,-0.0012510953962738963,3.3487105330920377
837,3.351493807226188e-05,-0.0012511010176978578,3.3487207691801126
838,3.351493807226188e-05,-0.0012511061245091201,3.348392916418502
839,3.351493807226188e-05,-0.0012511131041367978,3.3480332193529203
840,3.351493807226188e-05,-0.0012511232021940274,3.347426064095935
841,3.098511448034832e-05,-0.0012511356769275104,3.347005325018434
842,3.098511448034832e-05,-0.0012511486256711532,3.3467134432669123
843,3.3626196200903316e-05,-0.0012511590339719715,3.3466726112262157
844,3.3626196200903316e-05,-0.001251166154475564,3.3468309196629655
845,3.663123481123261e-05,-0.0012511715307677916,3.3467511237504497
846,3.663123481123261e-05,-0.0012511774774281842,3.3467637771169563
847,3.4288568298492217e-05,-0.0012511859683054392,3.346418775936844
848,3.4288568298492217e-05,-0.0012511968870900923,3.3462916880457168
849,3.68795297039105e-05,-0.001251208184186632,3.3461024532214187
850,3.68795297039105e-05,-0.0012512166310286175,3.3464769136609824
851,3.68795297039105e-05,-0.0012512221227098856,3.3467821202997836
852,3.68795297039105e-05,-0.0012512267865219086,3.34724846159255
853,3.68795297039105e-05,-0.001251233090308276,3.3475795530054038
854,3.965311598168387e-05,-0.0012512424424836533,3.347860582327558
855,3.965311598168387e-05,-0.0012512537060268933,3.347641381152702
856,3.965311598168387e-05,-0.001251263209972189,3.3473156446202115
857,3.965311598168387e-05,-0.001251268732930635,3.3466918984762524
858,3.965311598168387e-05,-0.0012512720558485843,3.346644131597015
859,3.965311598168387e-05,-0.001251275671971992,3.3465458737749074
860,3.68795297039105e-05,-0.0012512813481330154,3.3466254757350296
861,3.68795297039105e-05,-0.0012512900243358768,3.3467302561569525
862,3.68795297039105e-05,-0.0012513005312908142,3.346713164957117
863,3.68795297039105e-05,-0.0012513077649326206,3.3464784839259303
864,3.965311598168387e-05,-0.0012513124322193177,3.346130770228527
865,3.965311598168387e-05,-0.0012513152736050679,3.3457329824577213
866,3.965311598168387e-05,-0.0012513183262476508,3.345432294974829
867,3.965311598168387e-05,-0.0012513226784356412,3.344959691968562
868,3.965311598168387e-05,-0.0012513287082084816,3.344592052842597
869,3.965311598168387e-05,-0.0012513360412427239,3.3441063231613586
870,3.965311598168387e-05,-0.0012513431533571196,3.343888786682112
871,3.965311598168387e-05,-0.0012513483092077466,3.3435737596611754
872,3.965311598168387e-05,-0.0012513515597800105,3.3435320202711685
873,3.965311598168387e-05,-0.0012513542476939644,3.3432611181838636
874,3.965311598168387e-05,-0.001251357649277479,3.3430413544142366
875,3.965311598168387e-05,-0.001251362512044705,3.3424672809880627
876,3.965311598168387e-05,-0.0012513683796619183,3.3420183448279612
877,3.965311598168387e-05,-0.0012513739668996724,3.3413273358986055
878,3.965311598168387e-05,-0.00125137798623372,3.341353531602826
879,3.965311598168387e-05,-0.0012513807052325695,3.341246358731789
880,3.965311598168387e-05,-0.0012513832652097556,3.3414084422496626
881,3.965311598168387e-05,-0.0012513871332047886,3.341504306945397
882,4.3210954004953094e-05,-0.0012513928165662736,3.341448564704406
883,4.3210954004953094e-05,-0.0012513992528518755,3.3413113995431094
884,3.896815328526294e-05,-0.0012514038461792917,3.340996497872658
885,3.606340332886686e-05,-0.0012514061410118028,3.340957350023046
886,3.606340332886686e-05,-0.0012514076816303524,3.3409128398524017
887,3.965311598168387e-05,-0.0012514098230605513,3.3410332297341006
888,3.965311598168387e-05,-0.0012514132314659582,3.341234089197127
889,3.965311598168387e-05,-0.0012514184205099468,3.341543525785278
890,3.965311598168387e-05,-0.0012514242002512445,3.341943011009668
891,3.965311598168387e-05,-0.0012514285120671003,3.342103180862588
892,4.3210954004953094e-05,-0.0012514317415813858,3.3422550478979542
893,4.3210954004953094e-05,-0.0012514339844892214,3.3422556305218927
894,4.3210954004953094e-05,-0.0012514364353423096,3.3424146655595806
895,4.3210954004953094e-05,-0.0012514397830273285,3.3426682270433767
896,4.3210954004953094e-05,-0.001251444691980974,3.3432547696536665
897,4.3210954004953094e-05,-0.001251450496130932,3.3441298643001063
898,4.3210954004953094e-05,-0.0012514552423545874,3.3449390523118825
899,4.3210954004953094e-05,-0.0012514579139289337,3.345422715612837
900,4.3210954004953094e-05,-0.001251459609758659,3.3455610061317813
901,4.3210954004953094e-05,-0.0012514615929721056,3.3457545661963426
902,4.3210954004953094e-05,-0.0012514646302107437,3.345953963146362
903,4.3210954004953094e-05,-0.0012514688408275928,3.3463537364825706
904,4.3210954004953094e-05,-0.0012514727177780406,3.3466420663676697
905,4.3210954004953094e-05,-0.0012514752296463895,3.3467660011654985
906,4.3210954004953094e-05,-0.0012514766239186022,3.346714459427138
907,4.3210954004953094e-05,-0.0012514777767403931,3.3466222322656063
908,4.3210954004953094e-05,-0.0012514792280541424,3.346595719256007
909,4.3210954004953094e-05,-0.001251481325028081,3.3466688298984137
910,4.3210954004953094e-05,-0.001251484153018724,3.3470914454035925
911,4.3210954004953094e-05,-0.0012514871020065557,3.3477343985692434
912,4.395659363469151e-05,-0.001251489230811159,3.348483796445233
913,4.395659363469151e-05,-0.0012514904767575057,3.3488727389389092
914,4.395659363469151e-05,-0.0012514914765579426,3.3491684311073886
915,4.395659363469151e-05,-0.0012514928140412852,3.3493734963562622
916,4.395659363469151e-05,-0.0012514948070893428,3.3496748636265377
917,4.395659363469151e-05,-0.0012514972792311719,3.349977456438564
918,4.395659363469151e-05,-0.0012514995460446523,3.3502999923786776
919,4.395659363469151e-05,-0.0012515011046728237,3.35051797713815
920,4.395659363469151e-05,-0.0012515021698114833,3.3506991197702605
921,4.395659363469151e-05,-0.001251503218903975,3.3508923004095537
922,4.395659363469151e-05,-0.001251504637735855,3.3511771782439106
923,4.395659363469151e-05,-0.0012515065176811457,3.351578495718456
924,4.395659363469151e-05,-0.0012515083999986513,3.3519680860056518
925,4.395659363469151e-05,-0.0012515096607461794,3.3521872114408082
926,4.395659363469151e-05,-0.0012515103656463259,3.3522340942051363
927,4.395659363469151e-05,-0.0012515109828299005,3.3522507345995805
928,4.395659363469151e-05,-0.0012515119382805373,3.3523344808776736
929,3.961870089638899e-05,-0.0012515134396533208,3.352552213742264
930,3.961870089638899e-05,-0.0012515156662680552,3.3530557113718094
931,3.961870089638899e-05,-0.0012515177991345222,3.3536423983385073
932,3.961870089638899e-05,-0.0012515192340502386,3.3541018110948606
933,3.961870089638899e-05,-0.0012515201418892014,3.35425816624012
934,3.961870089638899e-05,-0.001251520964317667,3.354352593637743
935,3.961870089638899e-05,-0.0012515221162898804,3.354381258677106
936,3.961870089638899e-05,-0.0012515237168401736,3.3545252356106157
937,3.961870089638899e-05,-0.0012515255348400822,3.3547164800521294
938,3.961870089638899e-05,-0.0012515270248584837,3.355030938541807
939,3.961870089638899e-05,-0.0012515279714619331,3.355242327508164
940,3.961870089638899e-05,-0.0012515286378379101,3.3554351282329424
941,3.961870089638899e-05,-0.001251529377396347,3.355575661521478
942,3.961870089638899e-05,-0.0012515304863497602,3.3557842645013403
943,3.961870089638899e-05,-0.001251532173779134,3.3560231708884825
944,3.961870089638899e-05,-0.001251534285063492,3.3563179554041302
945,3.961870089638899e-05,-0.0012515360752235628,3.3565086910324395
946,3.961870089638899e-05,-0.0012515370874757769,3.3565821234825677
947,3.961870089638899e-05,-0.0012515376839697433,3.356590024374634
948,3.961870089638899e-05,-0.001251538368474557,3.3566145936969356
949,3.961870089638899e-05,-0.0012515394458225747,3.3566882693825377
950,3.961870089638899e-05,-0.0012515410745479697,3.3568272318882877
951,3.961870089638899e-05,-0.0012515428034770174,3.357001226869464
952,3.961870089638899e-05,-0.00125154391956265,3.3570633949965822
953,3.961870089638899e-05,-0.001251544584169438,3.3570404483980143
954,3.961870089638899e-05,-0.0012515451343399744,3.356954036017126
955,3.961870089638899e-05,-0.0012515459687437154,3.356812984708945
956,3.961870089638899e-05,-0.0012515472436517541,3.3565936939408023
957,3.961870089638899e-05,-0.0012515488926769854,3.3563584473642756
958,3.961870089638899e-05,-0.00125155039375117,3.3561938882928617
959,3.961870089638899e-05,-0.00125155136208733,3.3561796133242354
960,3.961870089638899e-05,-0.0012515519574931692,3.356212920615066
961,3.961870089638899e-05,-0.001251552541813487,3.3562621732415128
962,3.961870089638899e-05,-0.0012515534231096223,3.35626657132572
963,3.961870089638899e-05,-0.0012515547802956033,3.356240048718763
964,3.961870089638899e-05,-0.0012515565817851672,3.35610656078505
965,3.961870089638899e-05,-0.0012515580211206552,3.3560028139653406
966,3.961870089638899e-05,-0.001251558813492972,3.35591912672109
967,3.961870089638899e-05,-0.001251559260787991,3.355946621339543
968,3.961870089638899e-05,-0.001251559831318079,3.355959999017195
969,3.961870089638899e-05,-0.0012515607619143663,3.3560095412805415
970,3.961870089638899e-05,-0.0012515622570847176,3.3560004846857603
971,3.961870089638899e-05,-0.0012515643554329855,3.3559242737876986
972,3.961870089638899e-05,-0.0012515657168207547,3.3557220294203374
973,3.961870089638899e-05,-0.0012515665963572554,3.3555181564692886
974,3.961870089638899e-05,-0.0012515671418667238,3.3553371711500373
975,3.961870089638899e-05,-0.0012515678919200527,3.355141439858517
976,3.961870089638899e-05,-0.0012515690815726862,3.3548492327512034
977,3.961870089638899e-05,-0.001251570872749441,3.3544812635828083
978,3.961870089638899e-05,-0.0012515726299839602,3.3541350246841257
979,3.961870089638899e-05,-0.0012515736300425812,3.3540524281875985
980,3.961870089638899e-05,-0.0012515741677089109,3.3540745020031433
981,3.961870089638899e-05,-0.0012515746307238146,3.35411598311084
982,3.961870089638899e-05,-0.0012515753730754102,3.3540972279710926
983,3.961870089638899e-05,-0.001251576558474447,3.353965579498553
984,3.961870089638899e-05,-0.0012515782862817834,3.3536090632174846
985,3.961870089638899e-05,-0.0012515797146945575,3.353170299895344
986,3.961870089638899e-05,-0.0012515806460666147,3.3528532440700665
987,3.961870089638899e-05,-0.0012515812235838386,3.352707840768042
988,3.961870089638899e-05,-0.0012515818646100228,3.3526485105235984
989,3.961870089638899e-05,-0.0012515828901574768,3.3525824864229046
990,3.961870089638899e-05,-0.0012515844971499942,3.3525098327422174
991,3.961870089638899e-05,-0.001251586568965276,3.3523495186150103
992,3.961870089638899e-05,-0.0012515879067699093,3.352232440389072
993,3.961870089638899e-05,-0.001251588689355196,3.352117525801805
994,3.961870089638899e-05,-0.0012515891387575343,3.352078225819799
995,3.961870089638899e-05,-0.001251589781078197,3.3520021774127073
996,3.961870089638899e-05,-0.0012515908202107955,3.351909478273329
997,3.961870089638899e-05,-0.0012515924845032003,3.3517259580390304
998,3.961870089638899e-05,-0.0012515948555745057,3.351430700853267
999,3.961870089638899e-05,-0.001251596533663542,3.351157938359773
1000,3.961870089638899e-05,-0.0012515975774191823,3.350996658708344
1001,3.961870089638899e-05,-0.0012515981769593793,3.3508982757690404
1002,3.961870089638899e-05,-0.001251598912915973,3.3507812796158962
1003,3.961870089638899e-05,-0.0012516000927174907,3.3505344147256126
1004,3.961870089638899e-05,-0.0012516019366375182,3.350098880659612
1005,3.961870089638899e-05,-0.0012516042266848251,3.349412052504494
1006,3.961870089638899e-05,-0.0012516056212509793,3.348998983614618
1007,3.961870089638899e-05,-0.0012516063550132848,3.348861853260405
1008,3.961870089638899e-05,-0.0012516067284898307,3.3488905042918695
1009,3.961870089638899e-05,-0.0012516072415761899,3.348940794350186
1010,3.961870089638899e-05,-0.001251608058231813,3.3489580988220866
1011,3.961870089638899e-05,-0.001251609329038361,3.348868874554673
1012,3.961870089638899e-05,-0.001251610919468725,3.348571179935875
1013,3.961870089638899e-05,-0.0012516119848286643,3.348229020715924
1014,3.961870089638899e-05,-0.001251612626073071,3.3479261378147545
1015,3.961870089638899e-05,-0.0012516130187269303,3.3477681532053696
1016,3.961870089638899e-05,-0.0012516135488068244,3.347573878442684
1017,3.961870089638899e-05,-0.0012516143725121408,3.3473589938887813
1018,3.961870089638899e-05,-0.0012516155920921776,3.3470360472635257
1019,3.961870089638899e-05,-0.001251616810126312,3.3468203838409187
1020,3.961870089638899e-05,-0.0012516176818944613,3.346696113072313
1021,3.961870089638899e-05,-0.0012516181521014188,3.3467459980614773
1022,3.961870089638899e-05,-0.0012516184952022212,3.346765416142688
1023,3.961870089638899e-05,-0.001251618930267316,3.346816497974076
1024,3.961870089638899e-05,-0.0012516196136033158,3.346795327676218
1025,3.961870089638899e-05,-0.0012516206696892968,3.346742409383488
1026,3.961870089638899e-05,-0.0012516220139660596,3.346563674784776
1027,3.961870089638899e-05,-0.0012516229823840768,3.346417798111056
1028,3.961870089638899e-05,-0.0012516234990997718,3.346320379055034
1029,3.961870089638899e-05,-0.001251623785324926,3.346317109576813
1030,3.961870089638899e-05,-0.0012516241760566781,3.3463273960590256
1031,3.961870089638899e-05,-0.0012516248104463255,3.3463715534062723
1032,3.961870089638899e-05,-0.0012516258172740504,3.3464400669292105
1033,3.961870089638899e-05,-0.00125162713981452,3.346554875982498
1034,3.961870089638899e-05,-0.0012516278982286453,3.3466133275743775
1035,3.961870089638899e-05,-0.0012516283353124426,3.3466315892511203
1036,3.961870089638899e-05,-0.001251628548036115,3.3466278219416385
1037,3.961870089638899e-05,-0.0012516288339286087,3.3466247120917827
1038,3.961870089638899e-05,-0.0012516292844372992,3.3466451250399634
1039,3.961870089638899e-05,-0.0012516299814322274,3.3467060399441215
1040,3.961870089638899e-05,-0.001251630860642469,3.346840069764267
1041,3.961870089638899e-05,-0.001251631500129367,3.346968824159576
1042,3.961870089638899e-05,-0.0012516318631642152,3.3470601903163124
1043,3.961870089638899e-05,-0.0012516320647994285,3.3470873604847053
1044,3.961870089638899e-05,-0.0012516323234776352,3.347109504570354
1045,3.961870089638899e-05,-0.0012516327474627266,3.3471171762487573
1046,3.961870089638899e-05,-0.0012516334469628194,3.3471266590455566
1047,3.961870089638899e-05,-0.0012516345214665867,3.3471127843216544
1048,3.961870089638899e-05,-0.0012516355928492164,3.347086010011379
1049,3.961870089638899e-05,-0.0012516361642721159,3.3470459660791834
1050,3.961870089638899e-05,-0.001251636524967377,3.347032413650815
1051,3.961870089638899e-05,-0.0012516367970802941,3.347033581420645
1052,3.961870089638899e-05,-0.0012516372416773644,3.34708023234703
1053,3.961870089638899e-05,-0.0012516379668934465,3.347193198685884
1054,3.961870089638899e-05,-0.0012516390465410181,3.347454054608026
1055,3.961870089638899e-05,-0.0012516399548143957,3.347778821883657
1056,3.961870089638899e-05,-0.0012516404300877673,3.3479895535308994
1057,3.961870089638899e-05,-0.001251640678785945,3.3480816608082207
1058,3.961870089638899e-05,-0.001251640879958725,3.3481270486490438
1059,3.961870089638899e-05,-0.001251641209734621,3.348179112631176
1060,3.961870089638899e-05,-0.001251641750307878,3.3482573917486764
1061,3.961870089638899e-05,-0.001251642570407434,3.348371262116323
1062,3.961870089638899e-05,-0.00125164334951026,3.3484721786685956
1063,3.961870089638899e-05,-0.0012516437877973148,3.348484086903038
1064,3.961870089638899e-05,-0.0012516440479529668,3.348449282211693
1065,3.961870089638899e-05,-0.0012516442517011843,3.3484101884984616
1066,3.961870089638899e-05,-0.0012516445851958932,3.3483750991329257
1067,3.961870089638899e-05,-0.0012516451311979865,3.3483633890140276
1068,3.961870089638899e-05,-0.0012516459557365424,3.3484196177516776
1069,3.961870089638899e-05,-0.0012516467066211762,3.348572249512416
1070,3.961870089638899e-05,-0.0012516471004787948,3.3487305109584335
1071,3.961870089638899e-05,-0.001251647307928699,3.348842393665927
1072,3.961870089638899e-05,-0.001251647457422615,3.3489074408882193
1073,3.961870089638899e-05,-0.0012516477013256285,3.3489741821200996
1074,3.961870089638899e-05,-0.0012516481021353182,3.3490494717232187
1075,3.961870089638899e-05,-0.0012516487290257375,3.34912608590037
1076,3.961870089638899e-05,-0.0012516494797543717,3.3491753148129693
1077,3.961870089638899e-05,-0.001251649965340146,3.349143618326069
1078,3.961870089638899e-05,-0.0012516502848747956,3.3490842683040882
1079,3.961870089638899e-05,-0.0012516504663666736,3.3490482097145375
1080,3.961870089638899e-05,-0.0012516507249608253,3.3490371704127218
1081,3.961870089638899e-05,-0.0012516511414502956,3.349063039339015
1082,3.961870089638899e-05,-0.0012516518008142716,3.3491622687257583
1083,3.961870089638899e-05,-0.001251652679501123,3.34936923095756
1084,3.961870089638899e-05,-0.0012516532068668257,3.3495396324827835
1085,3.961870089638899e-05,-0.0012516535063078944,3.3496293915517517
1086,3.961870089638899e-05,-0.0012516536746836537,3.3496556807357534
1087,3.961870089638899e-05,-0.0012516539412704706,3.3496744180642777
1088,3.961870089638899e-05,-0.0012516543769798666,3.349722042049193
1089,3.961870089638899e-05,-0.001251655071872611,3.3498209634055702
1090,3.961870089638899e-05,-0.0012516559878538607,3.3500365368746623
1091,3.961870089638899e-05,-0.0012516564737591821,3.3501829175384903
1092,3.961870089638899e-05,-0.0012516567447285805,3.3502784184790086
1093,3.961870089638899e-05,-0.0012516568877056762,3.3502984301703345
1094,3.961870089638899e-05,-0.0012516571174289504,3.350310749689933
1095,3.961870089638899e-05,-0.0012516574981326868,3.3503012350379486
1096,3.961870089638899e-05,-0.0012516581196456962,3.350265840264887
1097,3.961870089638899e-05,-0.00125165902514512,3.350159060041017
1098,3.961870089638899e-05,-0.0012516597045188127,3.3500229456640445
1099,3.961870089638899e-05,-0.0012516600822464953,3.349907005602955
1100,3.961870089638899e-05,-0.0012516602749904995,3.3498445146672737
1101,3.961870089638899e-05,-0.0012516604517404312,3.3497955875085075
1102,3.961870089638899e-05,-0.0012516607446425374,3.3497317954713353
1103,3.961870089638899e-05,-0.0012516612338402825,3.3496352141631722
1104,3.961870089638899e-05,-0.0012516620032691072,3.3494900037709905
1105,3.961870089638899e-05,-0.001251662868906673,3.3493132040889804
1106,3.961870089638899e-05,-0.0012516633039330247,3.3492672712411418
1107,3.961870089638899e-05,-0.0012516635444917578,3.349290282935519
1108,3.961870089638899e-05,-0.0012516636584472315,3.3493196901879934
1109,3.961870089638899e-05,-0.001251663843155122,3.3493478943981247
1110,3.961870089638899e-05,-0.0012516641497072947,3.3493548608036074
1111,3.961870089638899e-05,-0.0012516646430726472,3.349314952271149
1112,3.961870089638899e-05,-0.0012516653137976217,3.349168207069436
1113,3.961870089638899e-05,-0.0012516656742507027,3.3490256472916102
1114,3.961870089638899e-05,-0.0012516658879130238,3.3489082699912465
1115,3.961870089638899e-05,-0.001251665993667618,3.3488655285763715
1116,3.961870089638899e-05,-0.0012516661627479907,3.348822251876877
1117,3.961870089638899e-05,-0.0012516664413570427,3.348774605061932
1118,3.961870089638899e-05,-0.001251666890121051,3.348710978716197
1119,3.961870089638899e-05,-0.0012516675115406665,3.348628572741373
1120,3.961870089638899e-05,-0.001251667878581127,3.3485959624179933
1121,3.961870089638899e-05,-0.0012516681038806407,3.348604248104722
1122,3.961870089638899e-05,-0.0012516682297808632,3.3486198389411537
1123,3.961870089638899e-05,-0.001251668409401941,3.3486434186954095
1124,3.961870089638899e-05,-0.001251668695305255,3.3486654743919955
1125,3.961870089638899e-05,-0.0012516691332294099,3.3486943305705594
1126,3.961870089638899e-05,-0.0012516696129321317,3.348719360224256
1127,3.961870089638899e-05,-0.0012516698972073513,3.3487423741790137
1128,3.961870089638899e-05,-0.0012516700423775172,3.3487602964463443
1129,3.961870089638899e-05,-0.001251670132732681,3.3487883356845694
1130,3.961870089638899e-05,-0.0012516702741348527,3.3488381837541352
1131,3.961870089638899e-05,-0.0012516705051481866,3.3489292420793877
1132,3.961870089638899e-05,-0.0012516708802646267,3.3490684311418213
1133,3.961870089638899e-05,-0.0012516714228409886,3.3492918639931393
1134,3.961870089638899e-05,-0.0012516717984569089,3.34943475177368
1135,3.961870089638899e-05,-0.0012516719711257963,3.349458738927841
1136,3.961870089638899e-05,-0.0012516720448207546,3.3494237803314437
1137,3.961870089638899e-05,-0.0012516721192450484,3.3493893135209643
1138,3.961870089638899e-05,-0.0012516722463533775,3.3493529827609976
1139,3.961870089638899e-05,-0.0012516724656057654,3.34932944401183
1140,3.961870089638899e-05,-0.0012516728242425305,3.3493289582539907
1141,3.961870089638899e-05,-0.001251673295301741,3.349405395316518
1142,3.961870089638899e-05,-0.0012516735041694232,3.34949766583092
1143,3.961870089638899e-05,-0.001251673646573183,3.3496029720380776
1144,3.961870089638899e-05,-0.001251673714041584,3.3496408508354114
