Iteration,Energy,Loss Function,Bias
0,0.05186504875258771,0.10462741513000265,0.0
1,0.00032647378852103376,0.00551613586058674,0.3275651747960485
2,0.002249544205897164,-0.0046027874572930885,0.7774017345075466
3,0.002249544205897164,-0.005298475733899046,0.7696276660942238
4,0.0017845157738018136,-0.006216650771565114,0.7910986830498529
5,0.0005866003871540992,-0.007371911115444715,0.8358573114929289
6,0.0003671240647720199,-0.00820704971162585,0.8780218094762022
7,0.0003671240647720199,-0.00866627960127935,0.9552606671972708
8,0.0003671240647720199,-0.009059230583079942,0.9508085113404142
9,0.0003671240647720199,-0.009382843873283623,0.9742373546204244
10,0.0003671240647720199,-0.009671406311595267,1.0202378210196796
11,0.0003671240647720199,-0.009757685541252798,1.0478430961597212
12,0.0003671240647720199,-0.009827653344970853,1.0728425923033773
13,0.0003671240647720199,-0.009906023168769295,1.10179191403111
14,0.0003671240647720199,-0.009966084535056834,1.127072767760435
15,0.0003671240647720199,-0.010009574996628584,1.1476607350582801
16,0.0003671240647720199,-0.01005120054982294,1.1693356420555143
17,0.0003671240647720199,-0.010093354531898658,1.1956390893727395
18,0.0003671240647720199,-0.010132120266945105,1.2253021193772218
19,0.0003671240647720199,-0.010166455016667783,1.2545064663074101
20,0.0003671240647720199,-0.010196727560194617,1.2802221014316313
21,0.0003671240647720199,-0.0102214321782191,1.3025976222767166
22,0.0003671240647720199,-0.010240170245972548,1.3233529757537228
23,0.0003671240647720199,-0.01025937694606462,1.3477475388897169
24,0.0003671240647720199,-0.010283444200165253,1.380587477866257
25,0.0003671240647720199,-0.010308878862374037,1.4183050983076213
26,0.0003671240647720199,-0.010332109941990318,1.4541857214099094
27,0.0003671240647720199,-0.010354910490359207,1.484139663688664
28,0.0003671240647720199,-0.010377240708448041,1.5048086722204497
29,0.0003671240647720199,-0.010392170496524977,1.5165404738126522
30,0.0003671240647720199,-0.010400565730589336,1.5296500412197924
31,0.0003671240647720199,-0.010407048782523123,1.5450683568156227
32,0.0003671240647720199,-0.01041199716348105,1.558043473730574
33,0.0003671240647720199,-0.010416936539244168,1.570389593548212
34,0.0003671240647720199,-0.010422644932432444,1.584623665187867
35,0.0003671240647720199,-0.010428286335081211,1.5993315971758946
36,0.0003671240647720199,-0.010433741835256367,1.6139512166631433
37,0.0003671240647720199,-0.01043968468994625,1.6312309059481598
38,0.0003671240647720199,-0.010445066139268823,1.6493278907463096
39,0.0003671240647720199,-0.010450070330928832,1.6665277155040517
40,0.0003671240647720199,-0.01045701662122299,1.6897190152721469
41,0.0003671240647720199,-0.010465105190606588,1.7184625725539509
42,0.0003671240647720199,-0.010471051932958423,1.7415821035953016
43,0.0003671240647720199,-0.010475159935541989,1.7561972843275544
44,0.0003671240647720199,-0.010478769159875126,1.766879199243304
45,0.0003671240647720199,-0.010482077510155313,1.7741735847359084
46,0.0003671240647720199,-0.01048601127671416,1.7824756178198489
47,0.0003671240647720199,-0.010489608862024588,1.7934668780037761
48,0.0003671240647720199,-0.010492340655109823,1.8059748337548658
49,0.0003671240647720199,-0.010494967010917249,1.8193392497027083
50,0.0003671240647720199,-0.010497570502068952,1.831650525757181
51,0.0003671240647720199,-0.010499769587530947,1.8409977817491912
52,0.0003671240647720199,-0.01050171164427832,1.849822931841058
53,0.0003671240647720199,-0.010503733746254391,1.8601951885284576
54,0.0003671240647720199,-0.010506010127008506,1.8725099777179546
55,0.0003671240647720199,-0.010508375773474906,1.8861380423263372
56,0.0003671240647720199,-0.010510300389190418,1.898196307262339
57,0.0003671240647720199,-0.010511835863825645,1.9074692543577492
58,0.0003671240647720199,-0.01051349849113559,1.916109638749118
59,0.0003671240647720199,-0.010515636053297094,1.9265115896407021
60,0.0003671240647720199,-0.010518162217462016,1.9389076642685044
61,0.0003671240647720199,-0.010520412249659454,1.9489717477091473
62,0.0003671240647720199,-0.010522193121335944,1.9546466965723865
63,0.0003671240647720199,-0.010523865131984588,1.9592350212675658
64,0.0003671240647720199,-0.010525897006350347,1.9669888702257323
65,0.0003671240647720199,-0.010528353069709145,1.9805744366387148
66,0.0003671240647720199,-0.010530705908872664,1.9968615117861266
67,0.0003671240647720199,-0.010532616374020106,2.0091410227607445
68,0.0003671240647720199,-0.010534299565097553,2.0164206270057696
69,0.0003671240647720199,-0.010536399619324432,2.0224809489681745
70,0.0003671240647720199,-0.010539447964104774,2.028907678478323
71,0.0003671240647720199,-0.010542475194586605,2.0325583193078636
72,0.0003671240647720199,-0.010544210684688665,2.0323609454001508
73,0.0003671240647720199,-0.01054505832006337,2.0332997746271926
74,0.0003671240647720199,-0.010545643200075028,2.0348299769036915
75,0.0003671240647720199,-0.010546397685055527,2.037947780960245
76,0.0003671240647720199,-0.010547592681580651,2.044039530085543
77,0.0003671240647720199,-0.010549394641650939,2.054794236915635
78,0.0003671240647720199,-0.01055124667117019,2.0670214502292197
79,0.0003671240647720199,-0.010552504555081126,2.0743371371227557
80,0.0003671240647720199,-0.010553288064168324,2.077168145674239
81,0.0003671240647720199,-0.010553940450455561,2.078181501213938
82,0.0003671240647720199,-0.01055486842341618,2.0795179714615277
83,0.0003671240647720199,-0.01055633703461047,2.0821236497108457
84,0.0003671240647720199,-0.01055864334341028,2.086894094117242
85,0.0003671240647720199,-0.010561835046609023,2.0935627452234593
86,0.0003671240647720199,-0.010564207554633559,2.097639369201758
87,0.0003671240647720199,-0.010565365456567674,2.100445002084153
88,0.0003671240647720199,-0.01056595696622884,2.1018399672441874
89,0.0003671240647720199,-0.010566607488896058,2.1037981237301624
90,0.0003671240647720199,-0.010567509442722774,2.105385225188119
91,0.0003671240647720199,-0.01056893677140447,2.1087097715566068
92,0.0003671240647720199,-0.010571151481050573,2.108863956847768
93,0.0003671240647720199,-0.0105739152455716,2.108841331976932
94,0.0003671240647720199,-0.01057589569600811,2.0911083014309275
95,0.0003671240647720199,-0.010577144689041456,2.0920686791741314
96,0.0003671240647720199,-0.010577959934989702,2.0784544527990696
97,0.0003671240647720199,-0.010578706874780033,2.0776454172089647
98,0.0003671240647720199,-0.010579908288096013,2.07611895325698
99,0.0003671240647720199,-0.010581790847318574,2.074004277375079
100,0.0003671240647720199,-0.01058440266688546,2.0690808375794396
101,0.0003671240647720199,-0.010586809713934386,2.061957785533714
102,0.0003671240647720199,-0.010588888668794427,2.0548196608774894
103,0.0003671240647720199,-0.010590275376138193,2.0541165421678715
104,0.0003671240647720199,-0.010591254707025375,2.0594361957531473
105,0.0003671240647720199,-0.010591991481888467,2.066824701444547
106,0.0003671240647720199,-0.010592744355107937,2.074282319621704
107,0.0003671240647720199,-0.010593748363048458,2.081511663473127
108,0.0003671240647720199,-0.010595327834410228,2.0890319165783997
109,0.0003671240647720199,-0.010597704184475193,2.096831300979582
110,0.0003671240647720199,-0.010600066228855048,2.1014393597568417
111,0.0003671240647720199,-0.010601478602238978,2.100460249310559
112,0.0003671240647720199,-0.010602055415000896,2.0970463821827066
113,0.0003671240647720199,-0.010602282995678678,2.0953213629676175
114,0.0003671240647720199,-0.010602567478792752,2.094911181902852
115,0.0003671240647720199,-0.010603017565125243,2.0969458369442577
116,0.0003671240647720199,-0.010603732773198699,2.1025381262292147
117,0.0003671240647720199,-0.01060483543301166,2.113443975278562
118,0.0003671240647720199,-0.010606299099598756,2.129944475830295
119,0.0003671240647720199,-0.010607466417208116,2.140951074622981
120,0.0003671240647720199,-0.010608224447495275,2.1435466803082583
121,0.0003671240647720199,-0.010608538472344038,2.1400712153249697
122,0.0003671240647720199,-0.010608726515426894,2.1371143659717027
123,0.0003671240647720199,-0.01060898949856989,2.1346352503343824
124,0.0003671240647720199,-0.01060940893549603,2.1340723101540156
125,0.0003671240647720199,-0.010610071652296736,2.137058592491826
126,0.0003671240647720199,-0.010611048426484243,2.146397316471185
127,0.0003671240647720199,-0.010611982397798057,2.1590715394084987
128,0.0003671240647720199,-0.010612783939014218,2.171680989710322
129,0.0003671240647720199,-0.010613283691532143,2.1788831155566277
130,0.0003671240647720199,-0.01061354637089875,2.1811515250859945
131,0.0003671240647720199,-0.0106137016257909,2.1816643526613957
132,0.0003671240647720199,-0.01061383801498871,2.182407912331942
133,0.0003671240647720199,-0.01061399182577341,2.1839710399766106
134,0.0003671240647720199,-0.010614234346884566,2.1872392347434393
135,0.0003671240647720199,-0.010614628515918012,2.1928017499712142
136,0.0003671240647720199,-0.010615263065536795,2.201662456905031
137,0.0003671240647720199,-0.010616191877156534,2.2150681561328014
138,0.0003671240647720199,-0.010616985057570078,2.2251873204142303
139,0.0003671240647720199,-0.010617503119179776,2.229199260943291
140,0.0003671240647720199,-0.010617706437865488,2.2282733853054664
141,0.0003671240647720199,-0.010617812963326924,2.226784373871331
142,0.0003671240647720199,-0.01061793501169083,2.2256493776646953
143,0.0003671240647720199,-0.010618112531996977,2.225461146768716
144,0.0003671240647720199,-0.010618397859867006,2.226576190693809
145,0.0003671240647720199,-0.010618856560332395,2.229210708651636
146,0.0003671240647720199,-0.010619540756681927,2.2333249508087882
147,0.0003671240647720199,-0.01062017308678655,2.2360789504932694
148,0.0003671240647720199,-0.010620555478561455,2.235969048917178
149,0.0003671240647720199,-0.010620710968979086,2.235027231087457
150,0.0003671240647720199,-0.010620784861727791,2.2344430698434583
151,0.0003671240647720199,-0.010620904542282289,2.2342862020479455
152,0.0003671240647720199,-0.010621106534653176,2.2344269572674804
153,0.0003671240647720199,-0.010621450389614153,2.2358401830175847
154,0.0003671240647720199,-0.010622013490903647,2.2384816099350733
155,0.0003671240647720199,-0.01062281566199422,2.2451300657651863
156,0.0003671240647720199,-0.010623383450424663,2.2491683604810584
157,0.0003671240647720199,-0.010623748616790118,2.2535609667173593
158,0.0003671240647720199,-0.01062386690217615,2.2515345850289843
159,0.0003671240647720199,-0.010623915570842987,2.2528932668424444
160,0.0003671240647720199,-0.010623968898676507,2.25156908922144
161,0.0003671240647720199,-0.010624058052178833,2.2505967961873434
162,0.0003671240647720199,-0.010624207100149404,2.2492626846842723
163,0.0003671240647720199,-0.010624449633924225,2.2475998095722596
164,0.0003671240647720199,-0.010624815086604669,2.245599378407242
165,0.0003671240647720199,-0.010625183589938084,2.2442104047765743
166,0.0003671240647720199,-0.010625422958344963,2.2440891312834843
167,0.0003671240647720199,-0.010625515539029084,2.2450480493660026
168,0.0003671240647720199,-0.010625543625360405,2.2460602338934006
169,0.0003671240647720199,-0.01062557425014892,2.24716708673692
170,0.0003671240647720199,-0.010625625476628368,2.248494012376566
171,0.0003671240647720199,-0.010625712138857027,2.25000543965246
172,0.0003671240647720199,-0.010625854913398958,2.2516336405638984
173,0.0003671240647720199,-0.010626071623392262,2.253011053525083
174,0.0003671240647720199,-0.010626300595110315,2.252787156774236
175,0.0003671240647720199,-0.010626487359689057,2.2507008675003566
176,0.0003671240647720199,-0.010626604335190762,2.2480741860179405
177,0.0003671240647720199,-0.010626648710512516,2.2469587009772147
178,0.0003671240647720199,-0.010626680131696068,2.246721313946879
179,0.0003671240647720199,-0.010626729943470128,2.2469544294332944
180,0.0003671240647720199,-0.010626811981122388,2.2476170637508193
181,0.0003671240647720199,-0.010626948354987203,2.248620160979717
182,0.0003671240647720199,-0.010627164374719476,2.2498229195965433
183,0.0003671240647720199,-0.010627430410900484,2.2505602175250523
184,0.0003671240647720199,-0.01062757859478653,2.2495690797887375
185,0.0003671240647720199,-0.010627658611390199,2.2473510627188613
186,0.0003671240647720199,-0.0106276833672962,2.2459836116918135
187,0.0003671240647720199,-0.010627710038459906,2.2447407102591224
188,0.0003671240647720199,-0.010627754645283476,2.243438124973995
189,0.0003671240647720199,-0.010627831537383323,2.242154766946015
190,0.0003671240647720199,-0.010627962564990615,2.241001811213707
191,0.0003671240647720199,-0.010628169646431122,2.2404099509809288
192,0.0003671240647720199,-0.010628396598031461,2.2416513147976618
193,0.0003671240647720199,-0.010628505701373359,2.244043755792589
194,0.0003671240647720199,-0.010628566197960633,2.246632791741804
195,0.0003671240647720199,-0.010628586864937317,2.247593268546826
196,0.0003671240647720199,-0.010628612620388476,2.2481761774205626
197,0.0003671240647720199,-0.010628655857494545,2.2484292112463047
198,0.0003671240647720199,-0.010628730211164502,2.2482115365063793
199,0.0003671240647720199,-0.010628855109548514,2.2472000278604516
200,0.0003671240647720199,-0.010629043828951225,2.244617874225759
201,0.0003671240647720199,-0.010629205570554455,2.2410087260297717
202,0.0003671240647720199,-0.010629292482624553,2.238698808951959
203,0.0003671240647720199,-0.010629339465032622,2.2377785170021243
204,0.0003671240647720199,-0.010629357708257086,2.2380378578346627
205,0.0003671240647720199,-0.010629376640587844,2.2386750223901863
206,0.0003671240647720199,-0.010629406100773163,2.2395986132825603
207,0.0003671240647720199,-0.010629453588175158,2.240639060388839
208,0.0003671240647720199,-0.01062953110946047,2.2415589428668663
209,0.0003671240647720199,-0.010629653751326533,2.2420893361986747
210,0.0003671240647720199,-0.010629818356600436,2.241400613267285
211,0.0003671240647720199,-0.010629927755989255,2.239540381240525
212,0.0003671240647720199,-0.010629984026434974,2.2374524183025533
213,0.0003671240647720199,-0.01062999661049041,2.236804550603072
214,0.0003671240647720199,-0.010630003351001664,2.236520231309122
215,0.0003671240647720199,-0.01063001411833255,2.236362266348726
216,0.0003671240647720199,-0.010630032226696035,2.236032330403694
217,0.0003671240647720199,-0.01063006355532221,2.235684435627457
218,0.0003671240647720199,-0.01063011741798216,2.234935335528441
219,0.0003671240647720199,-0.010630204909393419,2.2337690942194586
220,0.0003671240647720199,-0.010630321326330523,2.231466252700031
221,0.0003671240647720199,-0.010630379573496085,2.230601667114128
222,0.0003671240647720199,-0.01063041503105663,2.2302593066663956
223,0.0003671240647720199,-0.010630423221177025,2.230592746487343
224,0.0003671240647720199,-0.010630430389556104,2.2306972707824384
225,0.0003671240647720199,-0.010630442825742634,2.2308697027506237
226,0.0003671240647720199,-0.010630465206537217,2.230922787875824
227,0.0003671240647720199,-0.010630505396874124,2.2309207484637925
228,0.0003671240647720199,-0.010630574708850196,2.2307230251752688
229,0.0003671240647720199,-0.010630680067049814,2.2301496823228315
230,0.0003671240647720199,-0.01063076361400967,2.2292504948975957
231,0.0003671240647720199,-0.010630802853089889,2.228780919025024
232,0.0003671240647720199,-0.010630823373009414,2.228686352806957
233,0.0003671240647720199,-0.010630828953739554,2.228864177147519
234,0.0003671240647720199,-0.01063083596515039,2.2292181147071206
235,0.0003671240647720199,-0.01063084808831291,2.229825295169091
236,0.0003671240647720199,-0.010630869682302082,2.2308200382584884
237,0.0003671240647720199,-0.010630907788537461,2.232509475004078
238,0.0003671240647720199,-0.01063097123780364,2.2354556090335236
239,0.0003671240647720199,-0.01063105805163284,2.2406322389506577
240,0.0003671240647720199,-0.010631102665874284,2.243150837064113
241,0.0003671240647720199,-0.010631130068962897,2.243659718889885
242,0.0003671240647720199,-0.010631139401059761,2.2428930328124888
243,0.0003671240647720199,-0.01063114583171366,2.24218226918303
244,0.0003671240647720199,-0.010631156765507225,2.2415168175787548
245,0.0003671240647720199,-0.01063117607929693,2.2410541378691335
246,0.0003671240647720199,-0.010631210302625278,2.2409937590787607
247,0.0003671240647720199,-0.010631268991455308,2.241823043386367
248,0.0003671240647720199,-0.010631359746060755,2.2447579275289598
249,0.0003671240647720199,-0.010631445137973398,2.2504241854606035
250,0.0003671240647720199,-0.010631489909928184,2.2548272412103265
251,0.0003671240647720199,-0.010631515170877731,2.2579999895938694
252,0.0003671240647720199,-0.01063152124885219,2.2583763658221483
253,0.0003671240647720199,-0.01063152726996316,2.2583621854512654
254,0.0003671240647720199,-0.010631537694742167,2.2583565609229423
255,0.0003671240647720199,-0.0106315563482539,2.258520543563983
256,0.0003671240647720199,-0.010631589746805984,2.259064084471597
257,0.0003671240647720199,-0.010631647772359535,2.2604030487499727
258,0.0003671240647720199,-0.010631740151863717,2.2634327929598097
259,0.0003671240647720199,-0.010631843538393861,2.2689270495441405
260,0.0003671240647720199,-0.010631899465994153,2.2722318902946963
261,0.0003671240647720199,-0.010631939654645494,2.2745888938413157
262,0.0003671240647720199,-0.010631949303967235,2.2746630525201486
263,0.0003671240647720199,-0.01063195702684135,2.2744594669854865
264,0.0003671240647720199,-0.0106319703913007,2.2742693366570115
265,0.0003671240647720199,-0.010631994343408642,2.2742266316661612
266,0.0003671240647720199,-0.010632037274754046,2.2744805646202395
267,0.0003671240647720199,-0.010632111541993573,2.275370525094098
268,0.0003671240647720199,-0.010632226541754924,2.2776487051625542
269,0.0003671240647720199,-0.01063233044857851,2.2812358312411702
270,0.0003671240647720199,-0.0106323821984012,2.2831267857777613
271,0.0003671240647720199,-0.010632412946926137,2.284205918059258
272,0.0003671240647720199,-0.01063241975963714,2.2842737208700066
273,0.0003671240647720199,-0.010632427785492646,2.284320486494
274,0.0003671240647720199,-0.010632441753245478,2.284406743543844
275,0.0003671240647720199,-0.010632466770426459,2.2846679650080413
276,0.0003671240647720199,-0.010632511147099616,2.2851987650747816
277,0.0003671240647720199,-0.010632585357870823,2.2863606942316737
278,0.0003671240647720199,-0.010632686012252536,2.288608925320862
279,0.0003671240647720199,-0.010632733689332098,2.2898235639971105
280,0.0003671240647720199,-0.010632761368161702,2.2901851293970443
281,0.0003671240647720199,-0.010632769695014753,2.2903216950491707
282,0.0003671240647720199,-0.010632773835739247,2.290233063973199
283,0.0003671240647720199,-0.01063278097297711,2.2903214205437266
284,0.0003671240647720199,-0.010632793862428125,2.2905296518162883
285,0.0003671240647720199,-0.010632817109570866,2.290981751352484
286,0.0003671240647720199,-0.010632857376242446,2.2918642875521074
287,0.0003671240647720199,-0.010632918942099126,2.2935722764793804
288,0.0003671240647720199,-0.01063296928124199,2.295428275582992
289,0.0003671240647720199,-0.010632994259894522,2.295885804203853
290,0.0003671240647720199,-0.010633010018199855,2.2956185741073374
291,0.0003671240647720199,-0.010633014458845721,2.295241353356572
292,0.0003671240647720199,-0.010633019578227022,2.2948722176622667
293,0.0003671240647720199,-0.010633028356971623,2.294454757701932
294,0.0003671240647720199,-0.010633043930887537,2.294009454893979
295,0.0003671240647720199,-0.010633071538034477,2.293461265236744
296,0.0003671240647720199,-0.010633118706135211,2.2927887164806084
297,0.0003671240647720199,-0.010633190782621718,2.2919465084573236
298,0.0003671240647720199,-0.010633255038054979,2.291452743082135
299,0.0003671240647720199,-0.010633290754139775,2.291653217986316
300,0.0003671240647720199,-0.010633310439079363,2.292492936872134
301,0.0003671240647720199,-0.010633315444581988,2.292920606530788
302,0.0003671240647720199,-0.01063332063713683,2.293340228169112
303,0.0003671240647720199,-0.010633329655367396,2.293624778872084
304,0.0003671240647720199,-0.010633345810914444,2.294016254184982
305,0.0003671240647720199,-0.01063337470982641,2.294275143084505
306,0.0003671240647720199,-0.01063342470255079,2.294651117586685
307,0.0003671240647720199,-0.01063350323086419,2.2944979602929343
308,0.0003671240647720199,-0.010633584450533081,2.2938861861606448
309,0.0003671240647720199,-0.010633630009125893,2.2919467459435006
310,0.0003671240647720199,-0.010633662279888463,2.291340477807927
311,0.0003671240647720199,-0.010633669786607241,2.2899103372841494
312,0.0003671240647720199,-0.01063367483025405,2.2906337403811117
313,0.0003671240647720199,-0.0106336835203845,2.2911492596388032
314,0.0003671240647720199,-0.010633699029058087,2.29167202858786
315,0.0003671240647720199,-0.010633726575866913,2.2922240400157787
316,0.0003671240647720199,-0.010633773944694395,2.2928089965496277
317,0.0003671240647720199,-0.010633849630624137,2.2932896070974
318,0.0003671240647720199,-0.010633949853699054,2.2932172731976745
319,0.0003671240647720199,-0.010634031254578263,2.292154930792697
320,0.0003671240647720199,-0.010634110849340954,2.2904411918130516
321,0.0003671240647720199,-0.010634131263729822,2.289742337361648
322,0.0003671240647720199,-0.010634136400341096,2.289886469581471
323,0.0003671240647720199,-0.010634141498761475,2.2899266167496526
324,0.0003671240647720199,-0.010634150360349127,2.290236490947836
325,0.0003671240647720199,-0.010634166292712037,2.2906455509633865
326,0.0003671240647720199,-0.010634194892429965,2.291315852485059
327,0.0003671240647720199,-0.010634244713496558,2.2923764022541033
328,0.0003671240647720199,-0.010634324964074154,2.293987294096373
329,0.0003671240647720199,-0.010634424991860757,2.2959979580787118
330,0.0003671240647720199,-0.010634485830307393,2.296123872502195
331,0.0003671240647720199,-0.010634536756267415,2.2955223109527676
332,0.0003671240647720199,-0.010634548192871967,2.2948025985816787
333,0.0003671240647720199,-0.010634552005801106,2.294746008411524
334,0.0003671240647720199,-0.01063455722983353,2.2944294074735927
335,0.0003671240647720199,-0.010634566344974368,2.29447513416211
336,0.0003671240647720199,-0.010634582744762809,2.2943937782360866
337,0.0003671240647720199,-0.010634612117639098,2.2945982230290363
338,0.0003671240647720199,-0.010634662655227944,2.2949416001728413
339,0.0003671240647720199,-0.010634740027583411,2.295970695465726
340,0.0003671240647720199,-0.010634808222147941,2.2973245783963216
341,0.0003671240647720199,-0.010634846034537427,2.2983662908142226
342,0.0003671240647720199,-0.01063486749331698,2.2988512090006736
343,0.0003671240647720199,-0.010634871942511526,2.2988582659404364
344,0.0003671240647720199,-0.01063487523525638,2.298718029423496
345,0.0003671240647720199,-0.010634880847653906,2.2986463554255683
346,0.0003671240647720199,-0.010634890752371255,2.2986001401305165
347,0.0003671240647720199,-0.01063490834823516,2.2986806658144303
348,0.0003671240647720199,-0.010634939134443017,2.298989928534605
349,0.0003671240647720199,-0.010634990774935902,2.299740131112511
350,0.0003671240647720199,-0.010635069598692221,2.3014617864750226
351,0.0003671240647720199,-0.010635153206791184,2.3039061683495046
352,0.0003671240647720199,-0.010635218594723255,2.3059922864581264
353,0.0003671240647720199,-0.010635260353399458,2.307238437015264
354,0.0003671240647720199,-0.010635271715321856,2.306924179179714
355,0.0003671240647720199,-0.01063527609088582,2.3069188749599183
356,0.0003671240647720199,-0.010635283164788253,2.306802164607519
357,0.0003671240647720199,-0.010635295211400815,2.3071345566019064
358,0.0003671240647720199,-0.010635316188355809,2.307565044007226
359,0.0003671240647720199,-0.010635352574399173,2.308684539797886
360,0.0003671240647720199,-0.010635413603345677,2.3103805291514607
361,0.0003671240647720199,-0.010635506812483753,2.31359375241269
362,0.0003671240647720199,-0.010635601296746563,2.3165727908241776
363,0.0003671240647720199,-0.010635666668656212,2.3180284469885586
364,0.0003671240647720199,-0.010635702021953441,2.31705364574906
365,0.0003671240647720199,-0.010635708234808822,2.316539526215781
366,0.0003671240647720199,-0.010635711485586489,2.3157220653781714
367,0.0003671240647720199,-0.010635716795850706,2.315251183431089
368,0.0003671240647720199,-0.010635725849731483,2.3147004469582337
369,0.0003671240647720199,-0.010635741499824656,2.314394065879375
370,0.0003671240647720199,-0.01063576835974649,2.3144378212043737
371,0.0003671240647720199,-0.010635813002027964,2.315179892700255
372,0.0003671240647720199,-0.010635881176467406,2.3175232940980113
373,0.0003671240647720199,-0.010635951203681967,2.3213254020829326
374,0.0003671240647720199,-0.010635996591201789,2.324588160335918
375,0.0003671240647720199,-0.010636016845131492,2.326037335777245
376,0.0003671240647720199,-0.010636020945910296,2.3262257645895104
377,0.0003671240647720199,-0.010636023651544951,2.326046957600602
378,0.0003671240647720199,-0.010636028399952991,2.325979781490166
379,0.0003671240647720199,-0.010636037098644417,2.3259541317841594
380,0.0003671240647720199,-0.010636053174569947,2.326064128909285
381,0.0003671240647720199,-0.010636082559743123,2.3264275179195844
382,0.0003671240647720199,-0.010636134508901478,2.327287971820964
383,0.0003671240647720199,-0.010636219599402023,2.32923355042586
384,0.0003671240647720199,-0.010636335227462141,2.333329543937157
385,0.0003671240647720199,-0.010636413777303878,2.3363958031863135
386,0.0003671240647720199,-0.01063650343915304,2.3401156864135575
387,0.0003671240647720199,-0.010636528767769023,2.3409868386203696
388,0.0003671240647720199,-0.010636533919923844,2.3411769072885398
389,0.0003671240647720199,-0.010636538579493567,2.340662564843454
390,0.0003671240647720199,-0.010636545779995883,2.3402698593549447
391,0.0003671240647720199,-0.010636558260307514,2.3398073912372843
392,0.0003671240647720199,-0.01063658033564533,2.3396580593037863
393,0.0003671240647720199,-0.010636618928453941,2.3396236493114704
394,0.0003671240647720199,-0.01063668302432812,2.3405301282432176
395,0.0003671240647720199,-0.010636774741241204,2.3426687940968765
396,0.0003671240647720199,-0.010636835564523446,2.345937392194289
397,0.0003671240647720199,-0.010636866644162643,2.3470298445739624
398,0.0003671240647720199,-0.01063687725639286,2.3476927088128083
399,0.0003671240647720199,-0.010636880808238616,2.3466048977637954
400,0.0003671240647720199,-0.010636884431944443,2.346461620635772
401,0.0003671240647720199,-0.010636891103023738,2.346122737848348
402,0.0003671240647720199,-0.01063690342975589,2.3456797374298173
403,0.0003671240647720199,-0.010636925832120966,2.345027733237762
404,0.0003671240647720199,-0.010636965001506874,2.3441323520063917
405,0.0003671240647720199,-0.010637028367297506,2.342939715710733
406,0.0003671240647720199,-0.010637115893940072,2.341809969008668
407,0.0003671240647720199,-0.010637186154821043,2.341984259494141
408,0.0003671240647720199,-0.010637261804407881,2.3434262303045856
409,0.0003671240647720199,-0.010637283412114243,2.3444243789496344
410,0.0003671240647720199,-0.010637288490373022,2.3456029339994453
411,0.0003671240647720199,-0.010637291017763527,2.3456326665043186
412,0.0003671240647720199,-0.010637295190452247,2.345640478548387
413,0.0003671240647720199,-0.010637302514767074,2.34575502303183
414,0.0003671240647720199,-0.010637315597883695,2.3459296256114044
415,0.0003671240647720199,-0.010637338706795892,2.3464667369703824
416,0.0003671240647720199,-0.010637377894092597,2.347481931844541
417,0.0003671240647720199,-0.010637438294342886,2.3498104852931623
418,0.0003671240647720199,-0.010637501619540706,2.352939877515475
419,0.0003671240647720199,-0.01063754561404451,2.355220935463135
420,0.0003671240647720199,-0.010637574558054764,2.3559650660642526
421,0.0003671240647720199,-0.01063758228713862,2.3561841328510327
422,0.0003671240647720199,-0.010637584669138857,2.355697031457164
423,0.0003671240647720199,-0.010637587606544385,2.3557565784350865
424,0.0003671240647720199,-0.010637592436272995,2.355495746781093
425,0.0003671240647720199,-0.010637600725035,2.355551488840382
426,0.0003671240647720199,-0.010637615159842915,2.3556110106853847
427,0.0003671240647720199,-0.010637640089566434,2.355886548703194
428,0.0003671240647720199,-0.010637681515198123,2.3564470939103046
429,0.0003671240647720199,-0.010637743475095508,2.3576042276153677
430,0.0003671240647720199,-0.010637799604214251,2.358917287258602
431,0.0003671240647720199,-0.010637835648230438,2.359584311876553
432,0.0003671240647720199,-0.010637849681756295,2.3597400657752767
433,0.0003671240647720199,-0.010637852372796323,2.359731154330672
434,0.0003671240647720199,-0.010637854434741195,2.3597869368674447
435,0.0003671240647720199,-0.010637857986257748,2.3598744771012607
436,0.0003671240647720199,-0.010637864315227704,2.3601286955322336
437,0.0003671240647720199,-0.010637875656286017,2.360528412696389
438,0.0003671240647720199,-0.010637895667471631,2.3613247178293384
439,0.0003671240647720199,-0.010637929569984005,2.362666072185646
440,0.0003671240647720199,-0.010637982172180751,2.3651161854513245
441,0.0003671240647720199,-0.010638041720407668,2.367958536284223
442,0.0003671240647720199,-0.010638087765910456,2.369426864274005
443,0.0003671240647720199,-0.010638119104363027,2.3691082712656213
444,0.0003671240647720199,-0.010638126586957446,2.3689204797529437
445,0.0003671240647720199,-0.010638129005012705,2.3680992431231873
446,0.0003671240647720199,-0.010638132064668737,2.3682638863328775
447,0.0003671240647720199,-0.010638137442182182,2.3684464504043943
448,0.0003671240647720199,-0.010638146968650604,2.3688944034860575
449,0.0003671240647720199,-0.010638163520938453,2.3696906499450936
450,0.0003671240647720199,-0.010638191247045993,2.371086931683923
451,0.0003671240647720199,-0.010638235233129055,2.373313864214632
452,0.0003671240647720199,-0.010638298495176847,2.3765251261392
453,0.0003671240647720199,-0.010638360329178807,2.378675597727166
454,0.0003671240647720199,-0.010638415148689063,2.379863224563942
455,0.0003671240647720199,-0.01063843790051966,2.378833501101948
456,0.0003671240647720199,-0.010638442970490998,2.378246351922786
457,0.0003671240647720199,-0.010638445234064648,2.37735964853713
458,0.0003671240647720199,-0.010638449009153627,2.3766936475463014
459,0.0003671240647720199,-0.010638455635443668,2.3760901504841687
460,0.0003671240647720199,-0.010638467270574723,2.3755181246221753
461,0.0003671240647720199,-0.010638487348794962,2.374969415346772
462,0.0003671240647720199,-0.010638520843659589,2.3745572039802747
463,0.0003671240647720199,-0.010638573539181935,2.3745021120454526
464,0.0003671240647720199,-0.010638644198040888,2.3752492863463495
465,0.0003671240647720199,-0.010638706117254114,2.3764404927098637
466,0.0003671240647720199,-0.010638750057106312,2.378008470799708
467,0.0003671240647720199,-0.010638761413128205,2.378668435059773
468,0.0003671240647720199,-0.01063876381231474,2.378969758322746
469,0.0003671240647720199,-0.010638765843931938,2.3787805789957197
470,0.0003671240647720199,-0.010638769050827241,2.378770430746967
471,0.0003671240647720199,-0.010638774479868177,2.3785132371241207
472,0.0003671240647720199,-0.010638783811163996,2.3782060109257204
473,0.0003671240647720199,-0.010638799776980717,2.3778283478554365
474,0.0003671240647720199,-0.010638826472389585,2.377415579227777
475,0.0003671240647720199,-0.010638868511695885,2.3770751993060735
476,0.0003671240647720199,-0.010638921292746047,2.37705470384485
477,0.0003671240647720199,-0.010638957134571154,2.3775188269119893
478,0.0003671240647720199,-0.010638975425519335,2.3782804774527713
479,0.0003671240647720199,-0.010638978633529323,2.3786054159526175
480,0.0003671240647720199,-0.010638979894023777,2.3787122060235286
481,0.0003671240647720199,-0.010638982009892212,2.3787706073435215
482,0.0003671240647720199,-0.010638985764257113,2.378802913562145
483,0.0003671240647720199,-0.01063899257168819,2.378783374916388
484,0.0003671240647720199,-0.010639004897752146,2.3787089656626996
485,0.0003671240647720199,-0.010639026727362095,2.3785306212813504
486,0.0003671240647720199,-0.01063906333308342,2.378186732296506
487,0.0003671240647720199,-0.010639117118814486,2.37755668338348
488,0.0003671240647720199,-0.010639161956566386,2.3769600193401903
489,0.0003671240647720199,-0.010639197690098414,2.376559176189246
490,0.0003671240647720199,-0.010639215186279177,2.3765273422270314
491,0.0003671240647720199,-0.010639218520150453,2.376874302782386
492,0.0003671240647720199,-0.01063921990932317,2.3769641515782047
493,0.0003671240647720199,-0.010639222120764796,2.3773099888765565
494,0.0003671240647720199,-0.010639226169740069,2.377635379223452
495,0.0003671240647720199,-0.010639233530291347,2.378180615473311
496,0.0003671240647720199,-0.010639246476958993,2.378818463052954
497,0.0003671240647720199,-0.010639267791053347,2.3797287443467914
498,0.0003671240647720199,-0.010639299122220308,2.38034577239371
499,0.0003671240647720199,-0.010639332217603017,2.3800131366450197
500,0.0003671240647720199,-0.010639379103831614,2.3774535635907608
501,0.0003671240647720199,-0.010639414894963575,2.3743600393849786
502,0.0003671240647720199,-0.010639427988078936,2.3716251146584533
503,0.0003671240647720199,-0.010639430796102321,2.371609303426446
504,0.0003671240647720199,-0.010639432388006687,2.3715175671157684
505,0.0003671240647720199,-0.010639435078381323,2.371478205387215
506,0.0003671240647720199,-0.010639439627960965,2.3714441994775872
507,0.0003671240647720199,-0.01063944731596157,2.3714296427989736
508,0.0003671240647720199,-0.010639460337447252,2.371524160841382
509,0.0003671240647720199,-0.010639482310688675,2.3717917758617837
510,0.0003671240647720199,-0.01063951832531887,2.3724325969836735
511,0.0003671240647720199,-0.010639571447238306,2.3736862731694743
512,0.0003671240647720199,-0.010639614262441453,2.375007789618499
513,0.0003671240647720199,-0.01063963736942838,2.375617068664083
514,0.0003671240647720199,-0.010639644764181302,2.3757207256971284
515,0.0003671240647720199,-0.010639646177499256,2.375516289844649
516,0.0003671240647720199,-0.010639647362838399,2.375328843801088
517,0.0003671240647720199,-0.010639649450224112,2.3751164831859253
518,0.0003671240647720199,-0.010639653178223088,2.3748227850179298
519,0.0003671240647720199,-0.010639659772637367,2.3745095990013554
520,0.0003671240647720199,-0.010639671132949932,2.3740573864889942
521,0.0003671240647720199,-0.010639689801503208,2.373618624487258
522,0.0003671240647720199,-0.01063971806163864,2.37310012653493
523,0.0003671240647720199,-0.010639749603717726,2.373250146712224
524,0.0003671240647720199,-0.010639777331892008,2.3737490069233314
525,0.0003671240647720199,-0.010639791184875265,2.3749718858902993
526,0.0003671240647720199,-0.010639793952602677,2.375104867074786
527,0.0003671240647720199,-0.010639794810277485,2.375311458226195
528,0.0003671240647720199,-0.010639795947362468,2.3752486519364453
529,0.0003671240647720199,-0.010639798040361791,2.3751023554426802
530,0.0003671240647720199,-0.010639801885650805,2.374859145455012
531,0.0003671240647720199,-0.010639808799720648,2.3744588609099813
532,0.0003671240647720199,-0.010639820716891983,2.3738340218394134
533,0.0003671240647720199,-0.010639839874823954,2.3728910419012066
534,0.0003671240647720199,-0.010639868032781713,2.371729335721085
535,0.0003671240647720199,-0.01063989988559724,2.3711518277091743
536,0.0003671240647720199,-0.010639942414977762,2.3715034633053804
537,0.0003671240647720199,-0.010639965555276142,2.3727461636177747
538,0.0003671240647720199,-0.010639972187395558,2.373832690431449
539,0.0003671240647720199,-0.010639973573568001,2.3740563772609327
540,0.0003671240647720199,-0.010639975186031792,2.374295524438834
541,0.0003671240647720199,-0.010639977891357942,2.3743966724262435
542,0.0003671240647720199,-0.010639982647296332,2.374513694990064
543,0.0003671240647720199,-0.010639991096328405,2.374621302313773
544,0.0003671240647720199,-0.0106400059119755,2.3747653324302322
545,0.0003671240647720199,-0.010640030895580249,2.375051078932531
546,0.0003671240647720199,-0.010640069497973931,2.3755379433230557
547,0.0003671240647720199,-0.010640112712122502,2.3763167793339695
548,0.0003671240647720199,-0.01064014744571944,2.3767857009406406
549,0.0003671240647720199,-0.010640170333658777,2.3774341458449033
550,0.0003671240647720199,-0.010640174915039812,2.3773353518246028
551,0.0003671240647720199,-0.010640175932254267,2.377809381673703
552,0.0003671240647720199,-0.010640176918359844,2.3777519332388133
553,0.0003671240647720199,-0.010640178691766837,2.377738829452282
554,0.0003671240647720199,-0.0106401818645794,2.377800410312305
555,0.0003671240647720199,-0.010640187422345461,2.377965052867314
556,0.0003671240647720199,-0.010640196823467174,2.3783215043233064
557,0.0003671240647720199,-0.010640211988336265,2.3790150279086086
558,0.0003671240647720199,-0.010640235103732954,2.380215600407765
559,0.0003671240647720199,-0.010640264152730644,2.3817926021139266
560,0.0003671240647720199,-0.010640292083800035,2.3831110544848206
561,0.0003671240647720199,-0.010640305216216167,2.383359362712582
562,0.0003671240647720199,-0.01064030808915655,2.3828626887778546
563,0.0003671240647720199,-0.010640308965335455,2.382702618750831
564,0.0003671240647720199,-0.010640310341215455,2.3824574879952105
565,0.0003671240647720199,-0.010640312775954883,2.3823154482648805
566,0.0003671240647720199,-0.010640317152918986,2.3822353083638936
567,0.0003671240647720199,-0.010640324940777077,2.382286271504725
568,0.0003671240647720199,-0.010640338355909508,2.3826002722040087
569,0.0003671240647720199,-0.010640359982963395,2.383493335117018
570,0.0003671240647720199,-0.010640390330044002,2.385571500268896
571,0.0003671240647720199,-0.010640414010114476,2.387602127955717
572,0.0003671240647720199,-0.010640435605487187,2.3896444713629723
573,0.0003671240647720199,-0.010640441903306765,2.390036129374444
574,0.0003671240647720199,-0.010640442967855763,2.38981436974634
575,0.0003671240647720199,-0.010640443418503072,2.3896832326331907
576,0.0003671240647720199,-0.010640444200744224,2.3895153524474244
577,0.0003671240647720199,-0.010640445605811708,2.3893538272634176
578,0.0003671240647720199,-0.010640448133194064,2.3891758456526424
579,0.0003671240647720199,-0.010640452607711156,2.3889942400738318
580,0.0003671240647720199,-0.010640460286304422,2.388821213719867
581,0.0003671240647720199,-0.010640472842780331,2.388761756462455
582,0.0003671240647720199,-0.010640492023888478,2.388996523636377
583,0.0003671240647720199,-0.010640515535157337,2.389779935445792
584,0.0003671240647720199,-0.010640537960820727,2.390893887346688
585,0.0003671240647720199,-0.010640550126901585,2.391728562461569
586,0.0003671240647720199,-0.01064055306363203,2.3919174963058447
587,0.0003671240647720199,-0.010640553889078442,2.391885751600984
588,0.0003671240647720199,-0.01064055457821672,2.391826299631303
589,0.0003671240647720199,-0.010640555887663643,2.3917362864195533
590,0.0003671240647720199,-0.010640558363735059,2.3915990975102805
591,0.0003671240647720199,-0.01064056295501863,2.391374135659468
592,0.0003671240647720199,-0.010640571137477803,2.39099864858619
593,0.0003671240647720199,-0.010640584629743726,2.390375660884161
594,0.0003671240647720199,-0.01064060378369563,2.389415131125037
595,0.0003671240647720199,-0.010640621038825637,2.38890569661268
596,0.0003671240647720199,-0.01064064636530423,2.388710502054316
597,0.0003671240647720199,-0.01064066379065107,2.3891099794192825
598,0.0003671240647720199,-0.01064066852753847,2.389539970461094
599,0.0003671240647720199,-0.010640669504061557,2.389758211812406
600,0.0003671240647720199,-0.010640670110986138,2.389842831095842
601,0.0003671240647720199,-0.010640671138762344,2.389938389882052
602,0.0003671240647720199,-0.01064067290786414,2.3900113424580023
603,0.0003671240647720199,-0.010640675940762036,2.3900891360671146
604,0.0003671240647720199,-0.010640681076748027,2.390136600709281
605,0.0003671240647720199,-0.010640689667154368,2.3901539632024362
606,0.0003671240647720199,-0.01064070385753192,2.3900731586759902
607,0.0003671240647720199,-0.010640726632706784,2.3898343369644417
608,0.0003671240647720199,-0.010640760011443349,2.38923043162679
609,0.0003671240647720199,-0.010640789226093843,2.3884970026314702
610,0.0003671240647720199,-0.010640806287186227,2.3880229992167537
611,0.0003671240647720199,-0.01064081018209639,2.3880621708314966
612,0.0003671240647720199,-0.010640811001706014,2.388102109274552
613,0.0003671240647720199,-0.010640811849711843,2.3881157513278883
614,0.0003671240647720199,-0.010640813388253833,2.3881193836133967
615,0.0003671240647720199,-0.010640816197690287,2.388050555379917
616,0.0003671240647720199,-0.010640821268746223,2.387953407029099
617,0.0003671240647720199,-0.010640830200776323,2.3877064357239495
618,0.0003671240647720199,-0.010640845385112752,2.3873535307121445
619,0.0003671240647720199,-0.010640870201975064,2.3866428301895333
620,0.0003671240647720199,-0.01064090960201946,2.385693236947963
621,0.0003671240647720199,-0.01064097037595237,2.383971805042355
622,0.0003671240647720199,-0.010641049072702047,2.3820654644419132
623,0.0003671240647720199,-0.01064110553445738,2.3798976182266474
624,0.0003671240647720199,-0.010641128183096534,2.381114886172164
625,0.0003671240647720199,-0.010641137369903688,2.3818441591267083
626,0.0003671240647720199,-0.010641139049530825,2.3821840454167447
627,0.0003671240647720199,-0.010641141265912393,2.3824371292069144
628,0.0003671240647720199,-0.010641144867880467,2.3824648267049784
629,0.0003671240647720199,-0.010641150868929989,2.382391406962155
630,0.0003671240647720199,-0.01064116109370799,2.381889554164652
631,0.0003671240647720199,-0.010641178788624339,2.380971950944991
632,0.0003671240647720199,-0.010641209415194954,2.37904327101523
633,0.0003671240647720199,-0.010641261094601867,2.375485243803889
634,0.0003671240647720199,-0.01064134149310811,2.36878755201679
635,0.0003671240647720199,-0.010641432147261837,2.3590340115668167
636,0.0003671240647720199,-0.010641492185108417,2.3532941863865253
637,0.0003671240647720199,-0.010641527163605813,2.350220138109217
638,0.0003671240647720199,-0.010641534113890192,2.35104365124113
639,0.0003671240647720199,-0.01064153684659951,2.35207129890463
640,0.0003671240647720199,-0.010641538426795227,2.3523541973614095
641,0.0003671240647720199,-0.010641540043815937,2.3523774283134316
642,0.0003671240647720199,-0.010641542729072542,2.352013599868235
643,0.0003671240647720199,-0.01064154701375073,2.3512581055238293
644,0.0003671240647720199,-0.01064155387742596,2.3501277125193774
645,0.0003671240647720199,-0.010641565404965914,2.3487912190998332
646,0.0003671240647720199,-0.010641585331689588,2.3470896893180253
647,0.0003671240647720199,-0.010641619446583279,2.3450712785214907
648,0.0003671240647720199,-0.010641674045453823,2.342509388867162
649,0.0003671240647720199,-0.010641741646048659,2.340359892542767
650,0.0003671240647720199,-0.010641781236161036,2.3410080578686956
651,0.0003671240647720199,-0.010641810820481238,2.3436818134645696
652,0.0003671240647720199,-0.010641818101733471,2.3449615131532937
653,0.0003671240647720199,-0.010641820970724884,2.3451637769336604
654,0.0003671240647720199,-0.010641822858769238,2.3448610175162203
655,0.0003671240647720199,-0.01064182411474263,2.344751026796906
656,0.0003671240647720199,-0.010641825842463449,2.344310306314877
657,0.0003671240647720199,-0.010641828665464611,2.3440154515603395
658,0.0003671240647720199,-0.010641833473574424,2.3436209977613336
659,0.0003671240647720199,-0.01064184177385702,2.3433981063454716
660,0.0003671240647720199,-0.010641855923934043,2.3432204217126036
661,0.0003671240647720199,-0.010641879081705035,2.3433543843830105
662,0.0003671240647720199,-0.010641913809150126,2.343713614897701
663,0.0003671240647720199,-0.010641950578187521,2.3447298114899904
664,0.0003671240647720199,-0.010641982022325863,2.3450892043629437
665,0.0003671240647720199,-0.010641998051485227,2.3457826688489805
666,0.0003671240647720199,-0.01064200241847101,2.344709234385754
667,0.0003671240647720199,-0.010642003619424245,2.3444465617617167
668,0.0003671240647720199,-0.010642004439843542,2.34393377663108
669,0.0003671240647720199,-0.010642005199512928,2.3436112256984165
670,0.0003671240647720199,-0.010642006266675762,2.3432413361371642
671,0.0003671240647720199,-0.010642008028435191,2.343071069674833
672,0.0003671240647720199,-0.010642011050778196,2.3429777087548826
673,0.0003671240647720199,-0.010642016298064197,2.343209061418795
674,0.0003671240647720199,-0.01064202529978651,2.343793539688767
675,0.0003671240647720199,-0.010642040126889794,2.345381758656133
676,0.0003671240647720199,-0.010642062353705453,2.3484611010499212
677,0.0003671240647720199,-0.010642085094196688,2.3530751989233725
678,0.0003671240647720199,-0.010642103098151612,2.356699000502181
679,0.0003671240647720199,-0.010642112243424625,2.358846858123657
680,0.0003671240647720199,-0.010642114542417664,2.358356214536804
