Iteration,Energy,Loss Function,Bias
0,0.20067809587355198,0.19669334709006145,0.0
1,0.10740551232782326,0.10464811733247129,0.3230023266751198
2,0.05514497860689451,0.058888544244182585,0.6804521215922572
3,0.019893865237283103,0.02039920779236794,1.032284218506532
4,0.007840167227191306,0.009392256428455294,1.4548022259217923
5,0.0008442162223507182,0.0005356052017470063,1.6236509423304966
6,0.0005214102763260744,0.00010556492520777072,1.8795297843164163
7,0.00017285322967291062,-0.0005099351286757575,1.8973253047610048
8,8.865375527922257e-05,-0.0008471885558599396,1.923638351554068
9,0.0001617623815533423,-0.0008759968291245521,1.9269595910574646
10,0.00015403333124113782,-0.0009235155240756673,1.932760808292723
11,0.0001480388754763263,-0.0009685074673895777,1.9457683875015452
12,9.223911357407688e-05,-0.0010144653774769787,1.96054009785966
13,6.475683896780853e-05,-0.001041554059380087,1.9735861116165474
14,6.695849982267224e-05,-0.001071795890484755,1.995061363933294
15,7.301690053111865e-05,-0.0010887869820264697,2.000717338525867
16,0.00010025804447434268,-0.0011113508077983622,2.014123980552974
17,9.271909750293727e-05,-0.001124585855264814,2.0247814616739066
18,5.942916491740034e-05,-0.0011380311995698356,2.0336405919519107
19,6.894973120468028e-05,-0.0011458319454201254,2.041508859073316
20,4.400199559393336e-05,-0.0011508470876639796,2.0405449630436068
21,5.20180826785967e-05,-0.001157032468782702,2.0402452684513555
22,7.335849766726127e-05,-0.001162860381460047,2.0434370929518937
23,0.00010056590830033491,-0.0011693350085039992,2.051360061823898
24,0.00012103285995897941,-0.0011735811698284125,2.059186187494221
25,0.0001593983376820297,-0.0011787380543570982,2.0694928984647123
26,0.00018543708902623077,-0.001182388115437117,2.0772812368516873
27,0.00016599976178215502,-0.0011848228217388283,2.0817333124821946
28,0.00012664629350842393,-0.0011871759872495746,2.086330794328697
29,0.0001240568202291812,-0.001189789487452497,2.0927401182543677
30,0.0001475519473483549,-0.00119232525164669,2.101475128930349
31,0.00015385103814002026,-0.001193880199834412,2.1032982066212793
32,0.00013916379672100545,-0.001195733917759992,2.1074441538677093
33,0.00012439361823883723,-0.0011970677640119878,2.111668472592281
34,0.00013114712319401494,-0.0011986741608630324,2.122940620022732
35,0.00011218161843020963,-0.0011997718524944816,2.128494838729487
36,0.00011311410092018395,-0.001200872602959696,2.1366368252587757
37,9.453720594479677e-05,-0.0012020532515418147,2.144479032546535
38,0.00010285623742263192,-0.0012031429986086206,2.1540434070427277
39,9.351698816081234e-05,-0.001204132762461486,2.1625947907666507
40,0.00013062905729416548,-0.001205092480106847,2.1720817767218734
41,0.00014332616340520098,-0.0012061416669744405,2.182297406531366
42,0.00011827412694034066,-0.0012071141581038326,2.1939770252738504
43,0.00012903187762150373,-0.0012079173281733524,2.2030003210343625
44,0.00011737500302209667,-0.001208648087240025,2.2135220391650154
45,8.478191853579236e-05,-0.001209373867686971,2.22261713784265
46,8.478191853579236e-05,-0.001210104372984012,2.2355534981731586
47,7.979154204139938e-05,-0.0012108587844150177,2.2453102315242353
48,6.657257215876453e-05,-0.0012115663369892953,2.257066490161052
49,8.663947940631031e-05,-0.0012122029990919527,2.2651768366499807
50,8.786724482510401e-05,-0.0012128212666659274,2.275587115006671
51,9.278436844026607e-05,-0.0012134434605790714,2.285237842946657
52,8.778321730108661e-05,-0.0012139788856617257,2.2948149366598782
53,6.74714401349443e-05,-0.0012144788960780175,2.3024470779346413
54,7.586346986052377e-05,-0.0012149503254044226,2.310982978428273
55,8.437527465861146e-05,-0.0012154051146961269,2.317846213696089
56,7.740304004043152e-05,-0.0012158332643283816,2.325506946800453
57,7.740304004043152e-05,-0.00121623924850606,2.3304902095709545
58,7.29924236404354e-05,-0.0012166441614339862,2.337417683221944
59,9.329056909795647e-05,-0.0012170553532183791,2.3422353256006208
60,8.630989585976188e-05,-0.0012174531005692143,2.3493798537589337
61,7.409148037961317e-05,-0.001217816410464001,2.35350260095815
62,9.466619631215646e-05,-0.0012181739256362557,2.3605277062505836
63,8.442179710216639e-05,-0.0012185481399945752,2.366334089532589
64,7.702489756212133e-05,-0.001218889602591475,2.3734284878344707
65,8.357207872180842e-05,-0.0012192025944507332,2.3775087540291695
66,7.702489756212133e-05,-0.0012194880109244232,2.381603527083508
67,8.200475077634869e-05,-0.0012197962668043058,2.384397772431998
68,9.07646479066286e-05,-0.0012201193014841083,2.387910931928825
69,8.063071419669018e-05,-0.001220415646942757,2.389922861932097
70,8.063071419669018e-05,-0.0012206748119223414,2.3919039718761974
71,8.063071419669018e-05,-0.001220949715232451,2.393737387188485
72,6.0896685486644296e-05,-0.0012212793601177007,2.396608041261077
73,5.968538120605576e-05,-0.0012216465288105705,2.399160343006033
74,6.979530305148853e-05,-0.0012219919728563228,2.400907974515583
75,6.979530305148853e-05,-0.0012223065113524019,2.401049164828926
76,6.197486143676724e-05,-0.0012226252754527747,2.4017489019860605
77,6.197486143676724e-05,-0.0012229519919309763,2.40245825396951
78,6.197486143676724e-05,-0.001223243566292034,2.4051900803885355
79,6.197486143676724e-05,-0.0012234786719169945,2.4070893471685713
80,5.934846374308307e-05,-0.0012236884289416672,2.411577735737772
81,5.934846374308307e-05,-0.0012239228917012446,2.4132616479265074
82,5.934846374308307e-05,-0.001224192003985947,2.4198865345339735
83,6.106760222869754e-05,-0.0012244711641695263,2.4194448430907385
84,7.247322102439124e-05,-0.0012247190352478023,2.4232045932864894
85,6.857254696961574e-05,-0.0012249416644516376,2.421738122756515
86,8.28586849908098e-05,-0.0012251843174040866,2.4229286717950647
87,7.782013034604462e-05,-0.0012254586722229655,2.424190153858666
88,7.459948161064767e-05,-0.0012257096497532015,2.4272600182989152
89,7.459948161064767e-05,-0.0012259357965835908,2.430012495276813
90,7.94264825029004e-05,-0.001226144924447025,2.4324473254490093
91,7.94264825029004e-05,-0.0012263420503582248,2.433709010683894
92,7.94264825029004e-05,-0.0012265389904617746,2.434678751510668
93,8.28586849908098e-05,-0.0012267451070282825,2.4351581887840488
94,8.28586849908098e-05,-0.0012269575943610902,2.4361271122639896
95,8.888553061192972e-05,-0.001227169183295785,2.437013695278975
96,8.888553061192972e-05,-0.0012273737969160901,2.4389246539665357
97,8.401765293315759e-05,-0.001227582286009159,2.4403865604473114
98,8.401765293315759e-05,-0.0012278149831728715,2.44330540960334
99,9.464482513643029e-05,-0.0012280765583311316,2.444012371256904
100,7.699356588239319e-05,-0.0012283299097597018,2.447289124896893
101,7.699356588239319e-05,-0.001228564964134098,2.4457355776195806
102,8.235831323629321e-05,-0.0012288063554101876,2.4484891453833355
103,8.716255280727358e-05,-0.0012291016399025374,2.4488763034104757
104,6.790890931216045e-05,-0.0012294320829111386,2.45235248004986
105,6.12438068291337e-05,-0.001229774311099002,2.455071185529116
106,5.8664432352053565e-05,-0.001230076677134377,2.459114768942349
107,5.978280151395551e-05,-0.0012303573605909153,2.4609130806796293
108,6.450743711576932e-05,-0.0012306486858120237,2.4648174194743495
109,6.885612841857182e-05,-0.0012309773989080948,2.4661324637091733
110,8.00736786163225e-05,-0.0012313256832167398,2.471018072470637
111,8.00736786163225e-05,-0.0012316564861401987,2.472773044596432
112,7.96425051138324e-05,-0.001231964132313019,2.478174322436302
113,7.260444395782802e-05,-0.0012322701086998672,2.4821168511744394
114,6.949748441397999e-05,-0.0012325849346356086,2.487722094317813
115,7.492940227665468e-05,-0.0012329049586039787,2.495136990508923
116,9.18784044434394e-05,-0.0012332030626643342,2.4979410062079577
117,8.949214213164353e-05,-0.0012334997991360886,2.5034499746239294
118,8.949214213164353e-05,-0.0012338368814450652,2.5060480273282977
119,8.3955180762989e-05,-0.0012340822573840614,2.508373418528464
120,8.632331343758571e-05,-0.0012343596587051943,2.513591137787543
121,7.780949302967062e-05,-0.0012346650359148172,2.5198683077948925
122,7.780949302967062e-05,-0.0012349605041337963,2.528778359506589
123,7.780949302967062e-05,-0.0012352175905954216,2.534791343852276
124,8.291325363006458e-05,-0.0012354824818524854,2.5427629618941223
125,7.451076571794936e-05,-0.0012357781845081654,2.547778697373678
126,9.627295481170525e-05,-0.0012360827754756012,2.5555359971605682
127,7.464750518645409e-05,-0.0012363752374695619,2.558960745009754
128,9.172567371047737e-05,-0.0012366430392050495,2.5651537967462383
129,8.414076161996159e-05,-0.001236886138005885,2.5673633944141336
130,7.578703565452513e-05,-0.0012371135763566748,2.5733372557653427
131,7.578703565452513e-05,-0.001237348179486572,2.577554321180288
132,8.08176597268809e-05,-0.00123755659339367,2.5813985500888785
133,8.08176597268809e-05,-0.0012377620671509511,2.583453924536635
134,8.08176597268809e-05,-0.0012379695043710534,2.5854061053199455
135,7.103650027117422e-05,-0.001238179512354452,2.5863875486724828
136,7.306881143818513e-05,-0.001238361517397809,2.587972885420112
137,7.306881143818513e-05,-0.0012385161344563252,2.588304857254498
138,7.103650027117422e-05,-0.001238657875244722,2.590919775758624
139,6.60873256497038e-05,-0.0012388075495070575,2.591362046280149
140,5.8695437348336026e-05,-0.0012389635326608217,2.5962134695398595
141,5.0922591268246405e-05,-0.0012391265722674835,2.5964373074360183
142,5.3815038852299564e-05,-0.0012392765171501709,2.599866506955571
143,5.528904561873154e-05,-0.0012393995746733557,2.5994335901766843
144,5.528904561873154e-05,-0.0012395052367528611,2.5999818548359683
145,5.9642162608712915e-05,-0.0012396147761598788,2.5997385502717063
146,6.510893875269479e-05,-0.0012397307176946436,2.600686986762452
147,6.510893875269479e-05,-0.0012398567069924456,2.6016205798752954
148,6.510893875269479e-05,-0.0012399826548772325,2.6034869719406415
149,6.510893875269479e-05,-0.001240106432002451,2.6046218065527875
150,5.469547650197632e-05,-0.0012402394648659315,2.606470195873159
151,5.469547650197632e-05,-0.0012403826380458667,2.607033501971052
152,5.469547650197632e-05,-0.0012405148775074717,2.6083727947878566
153,5.469547650197632e-05,-0.0012406269462301596,2.607826303286458
154,5.469547650197632e-05,-0.0012407279878415068,2.6090175672861786
155,5.469547650197632e-05,-0.0012408356282461628,2.609053815283854
156,6.209974428438616e-05,-0.0012409552110084845,2.610990905783989
157,6.209974428438616e-05,-0.0012410745837818668,2.612215552047187
158,5.090189242294516e-05,-0.0012411893692331581,2.614154042540058
159,5.090189242294516e-05,-0.0012413120780720187,2.6154062010318744
160,4.7575547991922894e-05,-0.001241445104498076,2.6172766112235313
161,4.7575547991922894e-05,-0.0012415862869733147,2.6182687711986525
162,4.5926621816928576e-05,-0.001241719508472143,2.6203419247067288
163,4.4822331412760264e-05,-0.0012418383143396855,2.6202209118104274
164,4.4822331412760264e-05,-0.0012419483917548416,2.6227694259360375
165,4.174722014359165e-05,-0.0012420707884143434,2.6225631191929213
166,4.174722014359165e-05,-0.001242207778970869,2.625351845806073
167,4.511423370289532e-05,-0.0012423475545915328,2.6259846646255367
168,4.511423370289532e-05,-0.001242480852500275,2.628266519663738
169,4.5576376535339995e-05,-0.0012426275631309107,2.628909427270135
170,4.089443638257585e-05,-0.001242768192415346,2.631314703689868
171,4.089443638257585e-05,-0.0012429044598020324,2.6306887462821793
172,4.261404947745915e-05,-0.0012430165844366631,2.632023935451748
173,4.261404947745915e-05,-0.0012431115633144104,2.6309771988684307
174,4.59107177001978e-05,-0.001243201949266098,2.63206367429987
175,5.8144570775683205e-05,-0.0012433154500219145,2.632806359027514
176,5.8144570775683205e-05,-0.0012434373749353159,2.63488261996084
177,5.8144570775683205e-05,-0.0012435592378054504,2.6365021526410217
178,6.292127391237071e-05,-0.0012436685661519067,2.6381697336982635
179,6.292127391237071e-05,-0.001243779017880097,2.638971881544161
180,7.662034606251803e-05,-0.001243894551557509,2.6396323684846363
181,7.117955598661359e-05,-0.0012440198278036337,2.639740204656824
182,7.117955598661359e-05,-0.001244142271403565,2.6405288600929118
183,7.117955598661359e-05,-0.0012442546468060007,2.641363278011624
184,7.117955598661359e-05,-0.0012443557600847423,2.642954515288055
185,7.117955598661359e-05,-0.001244461207494104,2.644376539156296
186,7.117955598661359e-05,-0.001244578122003644,2.6460850188383014
187,6.848232630078339e-05,-0.001244696166702264,2.6477684854175756
188,6.539887634486308e-05,-0.001244798298213536,2.6485634543938676
189,6.539887634486308e-05,-0.0012448803443650734,2.6498502592574695
190,6.539887634486308e-05,-0.0012449591517871264,2.6501207168924243
191,5.435182670672621e-05,-0.0012450489761266633,2.651915290244352
192,5.435182670672621e-05,-0.0012451555584649015,2.6529871359699193
193,6.08686820173126e-05,-0.001245262534719685,2.6549201635763207
194,6.08686820173126e-05,-0.0012453669541939232,2.6553896468925258
195,6.08686820173126e-05,-0.001245473415004464,2.6563184527607673
196,6.08686820173126e-05,-0.001245596100362588,2.656419290135357
197,6.974066004180296e-05,-0.0012457163667247543,2.6576342423936654
198,6.044214927811154e-05,-0.0012458197608514643,2.6580460406858313
199,6.044214927811154e-05,-0.0012459064882866142,2.66007635024267
200,6.044214927811154e-05,-0.0012460018828050902,2.6607576185295887
201,6.044214927811154e-05,-0.0012461084186134756,2.6631823261576852
202,6.044214927811154e-05,-0.0012462242292130858,2.664126292847099
203,6.044214927811154e-05,-0.001246323632541433,2.6658739646353418
204,6.044214927811154e-05,-0.0012464102622099006,2.6661006844411044
205,6.044214927811154e-05,-0.0012464902371670252,2.667187998024138
206,6.533780921510287e-05,-0.0012465741489950193,2.6676734611035333
207,6.07606721138718e-05,-0.0012466516911585756,2.668579232066059
208,5.500915105305249e-05,-0.0012467264685368821,2.669050024832897
209,5.500915105305249e-05,-0.0012468000253568045,2.6695402835938657
210,5.500915105305249e-05,-0.0012468775687925298,2.6699190425341435
211,4.984875407825865e-05,-0.0012469599066438947,2.670312415650787
212,5.325403208274161e-05,-0.0012470433303883783,2.670955364222595
213,5.325403208274161e-05,-0.0012471211388444042,2.671639540456527
214,5.325403208274161e-05,-0.0012471958568338244,2.6729070324990634
215,5.325403208274161e-05,-0.0012472708085772117,2.674442682347494
216,4.984875407825865e-05,-0.001247346639106601,2.676617723728311
217,4.984875407825865e-05,-0.0012474242012857502,2.6792114095024515
218,4.984875407825865e-05,-0.0012475073760811574,2.6816477203885865
219,4.510943441011434e-05,-0.001247597017171881,2.685161094016263
220,4.884104000867743e-05,-0.0012476990868620977,2.6874902811712627
221,4.884104000867743e-05,-0.0012477998816822307,2.691560554908964
222,5.4688590467784614e-05,-0.0012478831846304782,2.6930299598936474
223,5.916178939069604e-05,-0.001247947652460759,2.69545519691858
224,6.44970538001957e-05,-0.0012480156828761288,2.6964505911833414
225,5.4150898423508794e-05,-0.0012480934527160001,2.6985617299023548
226,5.4150898423508794e-05,-0.001248177855932015,2.7002652394865136
227,5.4150898423508794e-05,-0.0012482513838619513,2.7022741977817937
228,5.4150898423508794e-05,-0.0012483138829115488,2.7035599579060676
229,4.981088862554539e-05,-0.001248375534182458,2.7048756405955148
230,4.981088862554539e-05,-0.0012484474051630266,2.70614301280186
231,4.981088862554539e-05,-0.0012485231888740922,2.7075478637877164
232,4.981088862554539e-05,-0.0012485890529923022,2.7088276831633893
233,5.7126521633198985e-05,-0.0012486421603980433,2.709809282303796
234,6.198221922506131e-05,-0.0012486936048772533,2.71082216003839
235,6.198221922506131e-05,-0.0012487516956161235,2.7115881893570304
236,6.673096941398033e-05,-0.0012488138097712324,2.7123610884800375
237,8.032569283786344e-05,-0.001248871795247775,2.7125185897513284
238,7.304578436615395e-05,-0.001248926973976125,2.7125015021911407
239,7.304578436615395e-05,-0.0012489880283922696,2.7121413611316108
240,7.304578436615395e-05,-0.0012490575465352771,2.7119837424835396
241,7.304578436615395e-05,-0.0012491281684765712,2.711965656137836
242,7.304578436615395e-05,-0.0012491933180446627,2.712634238165375
243,7.304578436615395e-05,-0.0012492537693222544,2.7131232296855807
244,7.304578436615395e-05,-0.0012493125811301891,2.714466487233924
245,7.304578436615395e-05,-0.0012493702422090103,2.7143129811511093
246,7.304578436615395e-05,-0.001249425146543568,2.7155536031420153
247,7.304578436615395e-05,-0.0012494801866323548,2.714392746948812
248,7.304578436615395e-05,-0.0012495434059872142,2.7133105150486907
249,7.304578436615395e-05,-0.001249607418567718,2.711276161657471
250,7.304578436615395e-05,-0.0012496658764798072,2.7094419765561955
251,7.304578436615395e-05,-0.001249717601700875,2.7079408814548667
252,7.304578436615395e-05,-0.0012497720084818594,2.7066597534387458
253,7.304578436615395e-05,-0.0012498403526507238,2.7053094743829584
254,7.304578436615395e-05,-0.0012499194923188922,2.70373049796927
255,7.304578436615395e-05,-0.0012499917613959387,2.7024259695778907
256,8.15261015927059e-05,-0.001250049575429878,2.7014155340338077
257,8.15261015927059e-05,-0.0012501042229308978,2.7009169257245818
258,8.15261015927059e-05,-0.001250171723835458,2.7003135764389437
259,7.325824825916568e-05,-0.0012502530368607983,2.6998666238670666
260,7.325824825916568e-05,-0.0012503282118422887,2.6993007613320987
261,6.470588007516113e-05,-0.0012503834530428505,2.699020545756154
262,6.470588007516113e-05,-0.0012504298539503958,2.6988640905541565
263,6.470588007516113e-05,-0.001250483714780833,2.698943802850418
264,6.470588007516113e-05,-0.0012505497186108255,2.6991773437186524
265,6.470588007516113e-05,-0.0012506164025774776,2.699844435498507
266,6.470588007516113e-05,-0.0012506779713368154,2.700474498254603
267,6.470588007516113e-05,-0.0012507380403917834,2.701774773067862
268,6.470588007516113e-05,-0.0012508036211233572,2.702536326737681
269,6.470588007516113e-05,-0.0012508675641834846,2.704151480957259
270,6.470588007516113e-05,-0.0012509235498546416,2.704129297815167
271,6.470588007516113e-05,-0.0012509717020740743,2.7052380880362152
272,5.851638829506643e-05,-0.0012510233604104914,2.70559239198746
273,5.851638829506643e-05,-0.001251076462263165,2.7071117743600994
274,5.851638829506643e-05,-0.0012511260846725294,2.7085543460165726
275,5.851638829506643e-05,-0.0012511721394742213,2.710544864626345
276,5.851638829506643e-05,-0.0012512186291311219,2.7125187353310283
277,5.6156851793778966e-05,-0.001251267036478321,2.7145511473889505
278,5.6156851793778966e-05,-0.0012513156225753795,2.7165475940092225
279,5.6156851793778966e-05,-0.0012513609348634093,2.7178238653939384
280,5.6156851793778966e-05,-0.001251401720484408,2.7197743081356704
281,5.6156851793778966e-05,-0.0012514414450062778,2.7206443370945035
282,6.145695199339067e-05,-0.001251483955713256,2.7225472757357223
283,6.145695199339067e-05,-0.0012515281282605491,2.724640028348574
284,6.145695199339067e-05,-0.001251572047870686,2.727347148819324
285,6.145695199339067e-05,-0.001251619334507467,2.7300386843716535
286,6.998823390353826e-05,-0.001251666782684595,2.732367879625349
287,6.998823390353826e-05,-0.0012517146469300116,2.7336774909779225
288,6.998823390353826e-05,-0.0012517623563979747,2.7344556353166523
289,6.998823390353826e-05,-0.0012518080619117191,2.734692022000658
290,6.998823390353826e-05,-0.0012518484646559757,2.735252176662106
291,6.998823390353826e-05,-0.0012518839909071255,2.7359109553589076
292,6.998823390353826e-05,-0.0012519182608673038,2.737152574568138
293,6.998823390353826e-05,-0.0012519524884677922,2.7383491006178104
294,6.998823390353826e-05,-0.0012519843065897038,2.739535084285995
295,6.998823390353826e-05,-0.001252012308882936,2.740143155333716
296,6.998823390353826e-05,-0.0012520396383583733,2.7403549842143575
297,6.998823390353826e-05,-0.0012520719899883944,2.7407465673405165
298,6.998823390353826e-05,-0.0012521119817598938,2.7409787976360316
299,6.998823390353826e-05,-0.001252152184790543,2.7424529783106997
300,6.998823390353826e-05,-0.0012521824850992643,2.7431391311779607
301,6.998823390353826e-05,-0.0012522040116451994,2.74467404402328
302,6.998823390353826e-05,-0.0012522255011338285,2.744931844975907
303,6.0517873505081245e-05,-0.001252252974090834,2.7457693862002523
304,6.0517873505081245e-05,-0.0012522852198285103,2.745737606664915
305,6.0517873505081245e-05,-0.0012523146918138658,2.745961724916853
306,6.0517873505081245e-05,-0.0012523385205274907,2.7459801957383654
307,5.6179181061313476e-05,-0.001252360831701874,2.7464210613054005
308,5.6179181061313476e-05,-0.0012523872059986884,2.747422158116602
309,5.6179181061313476e-05,-0.0012524177227811143,2.748839511779233
310,5.6179181061313476e-05,-0.0012524473772856613,2.7505305974474292
311,5.6179181061313476e-05,-0.0012524733984587452,2.7515123765580536
312,5.6179181061313476e-05,-0.001252498742919468,2.7523617111053253
313,5.6179181061313476e-05,-0.0012525278711238673,2.7526439160997813
314,5.6179181061313476e-05,-0.0012525613275775778,2.7532683660221884
315,5.6179181061313476e-05,-0.0012525944544125147,2.7535316917556205
316,5.6179181061313476e-05,-0.0012526233960506916,2.754423544330831
317,5.6179181061313476e-05,-0.001252650016259954,2.755037388438407
318,5.6179181061313476e-05,-0.0012526784349712135,2.7562012889443883
319,5.6179181061313476e-05,-0.0012527106317116604,2.757059693742903
320,5.6179181061313476e-05,-0.0012527435698460167,2.7578400049436644
321,5.6179181061313476e-05,-0.0012527735571857082,2.7580385015206286
322,5.6179181061313476e-05,-0.0012528003889928714,2.7581063834396775
323,5.6179181061313476e-05,-0.0012528274340999814,2.7579530019069356
324,5.6179181061313476e-05,-0.0012528554678390507,2.7579551957490596
325,5.6179181061313476e-05,-0.0012528835263829296,2.7579771834357283
326,5.6179181061313476e-05,-0.0012529094731919845,2.758274325914141
327,5.6179181061313476e-05,-0.0012529333889130293,2.7584852015732793
328,5.6179181061313476e-05,-0.0012529573247310945,2.758725041399489
329,5.6179181061313476e-05,-0.0012529853301713803,2.7587375994319205
330,5.6179181061313476e-05,-0.001253017680558899,2.7587767978152513
331,5.6179181061313476e-05,-0.0012530500896698398,2.7586807703257503
332,5.6179181061313476e-05,-0.0012530790922665722,2.7589045768132205
333,5.6179181061313476e-05,-0.0012531071621272847,2.759099472505639
334,5.6179181061313476e-05,-0.0012531371792279178,2.7599646903892676
335,5.279500364103514e-05,-0.001253168026271675,2.7606233292949796
336,5.279500364103514e-05,-0.0012531938910041464,2.761999215357919
337,5.6179181061313476e-05,-0.001253214665163352,2.7622509666219583
338,5.6179181061313476e-05,-0.0012532365203536786,2.763468348020975
339,5.279500364103514e-05,-0.0012532675520841392,2.7639279345180214
340,5.887111224868968e-05,-0.0012533060938860509,2.7657872746480145
341,5.887111224868968e-05,-0.001253341165759478,2.7665018262662646
342,5.887111224868968e-05,-0.001253365888439668,2.7678059528382035
343,5.887111224868968e-05,-0.0012533872066577685,2.7679534362368643
344,5.887111224868968e-05,-0.001253411959626518,2.768697825164803
345,6.276053237152583e-05,-0.0012534429565136194,2.7691275216808724
346,6.276053237152583e-05,-0.0012534729695065992,2.7697538632829612
347,6.276053237152583e-05,-0.0012534977568662595,2.7703243345533597
348,5.6087006685351505e-05,-0.0012535184803094696,2.770833003004034
349,5.6087006685351505e-05,-0.0012535391399174844,2.771941210927774
350,5.6087006685351505e-05,-0.0012535619252490222,2.773053250107936
351,5.0828449600941867e-05,-0.0012535858773004738,2.774863293323398
352,5.0828449600941867e-05,-0.0012536085309746872,2.7760373534214122
353,5.0828449600941867e-05,-0.0012536299425148568,2.7773407675106436
354,5.0828449600941867e-05,-0.0012536518928531947,2.777807723463969
355,5.0828449600941867e-05,-0.0012536741201167165,2.778413896799043
356,5.0828449600941867e-05,-0.0012536947310040538,2.7783808293748975
357,5.0828449600941867e-05,-0.0012537126302000128,2.778824866923778
358,5.0828449600941867e-05,-0.0012537308523245844,2.77905200064322
359,5.0828449600941867e-05,-0.0012537535199839374,2.780164885454897
360,5.0828449600941867e-05,-0.0012537835332362955,2.7814533252820537
361,5.0828449600941867e-05,-0.001253812689200586,2.7833799032461486
362,5.0828449600941867e-05,-0.0012538346304880844,2.7842432952731153
363,5.0828449600941867e-05,-0.0012538516103186236,2.7851111782042253
364,5.0828449600941867e-05,-0.0012538725621303894,2.785434600491855
365,5.0828449600941867e-05,-0.0012539020775431153,2.786405731047068
366,5.0828449600941867e-05,-0.0012539350138763231,2.78713835809835
367,5.7408406239161305e-05,-0.001253961115071913,2.7881848590975995
368,5.7408406239161305e-05,-0.0012539810978858049,2.788550254428134
369,5.7408406239161305e-05,-0.0012540026616076395,2.789466234704647
370,5.7408406239161305e-05,-0.0012540321112132844,2.790067774656849
371,5.7408406239161305e-05,-0.0012540677937916836,2.7917871840070188
372,5.7408406239161305e-05,-0.0012541019126984284,2.7921879086438737
373,5.7408406239161305e-05,-0.0012541280523656864,2.793897783700105
374,5.7408406239161305e-05,-0.0012541512147890132,2.7935631190718047
375,5.7408406239161305e-05,-0.001254178162156456,2.7938236815843407
376,5.7408406239161305e-05,-0.0012542171975220933,2.7945891924783117
377,5.7408406239161305e-05,-0.0012542529492672128,2.7951478491035453
378,5.7408406239161305e-05,-0.0012542867035076708,2.79616423493586
379,6.144945968240655e-05,-0.0012543120696822578,2.7962134395662375
380,6.144945968240655e-05,-0.0012543338578938229,2.7965222706467796
381,6.144945968240655e-05,-0.0012543574692723658,2.7965274974076197
382,6.144945968240655e-05,-0.0012543877145418194,2.7966757589075253
383,6.688713436648621e-05,-0.0012544218603912911,2.79728684854533
384,6.688713436648621e-05,-0.0012544528484661267,2.7973354880469716
385,6.688713436648621e-05,-0.0012544774637522583,2.7983390962109542
386,6.688713436648621e-05,-0.0012545006825475968,2.7978766753177267
387,6.688713436648621e-05,-0.0012545271398234795,2.7982488818859808
388,6.688713436648621e-05,-0.0012545596959371923,2.798223594781195
389,6.688713436648621e-05,-0.0012545874739432958,2.7981697164329753
390,6.688713436648621e-05,-0.0012546108006561783,2.7984094741910996
391,6.688713436648621e-05,-0.0012546309059342181,2.7986899714662865
392,6.688713436648621e-05,-0.0012546521805031905,2.7993001844757623
393,6.688713436648621e-05,-0.0012546769866810619,2.8003572625160973
394,6.688713436648621e-05,-0.0012547062749124864,2.8014018282501434
395,6.16799275600212e-05,-0.001254737280841637,2.802963869860342
396,6.16799275600212e-05,-0.0012547660502143614,2.8037217797354073
397,5.498851429152884e-05,-0.0012547908978447792,2.8047810224437986
398,5.498851429152884e-05,-0.0012548153720478086,2.805144364340197
399,5.498851429152884e-05,-0.0012548437027827836,2.8057890402663275
400,5.498851429152884e-05,-0.0012548752097198306,2.8068329740966433
401,5.498851429152884e-05,-0.001254904123688334,2.8071267766596018
402,5.498851429152884e-05,-0.001254927493984849,2.8088138969388363
403,5.498851429152884e-05,-0.0012549484840527834,2.8084898742518933
404,5.498851429152884e-05,-0.0012549711193756855,2.8091165286050774
405,5.498851429152884e-05,-0.0012549993397190991,2.809540276865382
406,5.498851429152884e-05,-0.0012550269253927063,2.809513400052281
407,6.0694092371317645e-05,-0.001255055939756213,2.8096552883193846
408,6.0694092371317645e-05,-0.0012550840325257114,2.8091279897399657
409,6.0694092371317645e-05,-0.0012551119106002724,2.808790983882948
410,6.0694092371317645e-05,-0.0012551424488543347,2.8082073434331205
411,7.399887492794993e-05,-0.001255181184232893,2.8075573653340835
412,6.868549970186581e-05,-0.0012552262656421627,2.806826658123795
413,6.868549970186581e-05,-0.0012552693606249592,2.805912060036493
414,7.53423352505216e-05,-0.0012553047799938085,2.8055931487524433
415,7.53423352505216e-05,-0.0012553389604076032,2.804814634377555
416,8.586941615711383e-05,-0.0012553812413662506,2.804704781918358
417,8.586941615711383e-05,-0.0012554408232344845,2.8034345034811805
418,8.586941615711383e-05,-0.0012555005384657426,2.8030757667105757
419,8.586941615711383e-05,-0.0012555401508024741,2.801868439796634
420,8.586941615711383e-05,-0.0012555672167219663,2.8022167693304234
421,8.586941615711383e-05,-0.0012555970133478686,2.802192069834419
422,8.586941615711383e-05,-0.001255642722360149,2.8017569882001796
423,8.586941615711383e-05,-0.00125570020255609,2.8014882991925028
424,8.586941615711383e-05,-0.0012557381515138416,2.800051791017291
425,8.586941615711383e-05,-0.0012557634269611923,2.8003084259547872
426,8.586941615711383e-05,-0.0012557839605913312,2.798916910018733
427,7.932970183450634e-05,-0.0012558144280396392,2.798325132238315
428,7.932970183450634e-05,-0.0012558623791885,2.7973881690915947
429,7.932970183450634e-05,-0.0012559229659549948,2.7961146592926673
430,7.932970183450634e-05,-0.0012559574618957962,2.7952781761977614
431,7.932970183450634e-05,-0.0012559881348205224,2.794836108772374
432,7.932970183450634e-05,-0.001256016420144322,2.7943942599227896
433,7.314874625319742e-05,-0.0012560589684469253,2.7934799576902067
434,7.314874625319742e-05,-0.0012561109406786718,2.791146806380998
435,7.314874625319742e-05,-0.0012561574248940767,2.7886801233108844
436,7.314874625319742e-05,-0.001256191528451647,2.786431612006677
437,7.932970183450634e-05,-0.0012562173255956188,2.785569789572028
438,7.932970183450634e-05,-0.0012562460650303584,2.785109796049786
439,7.932970183450634e-05,-0.0012562845813447027,2.784846423990323
440,7.932970183450634e-05,-0.0012563309218519565,2.7847485904792526
441,7.932970183450634e-05,-0.001256374203732489,2.7840969225224343
442,7.932970183450634e-05,-0.0012564067261529063,2.7840726135929326
443,7.314874625319742e-05,-0.0012564319159745472,2.7833908050845713
444,6.42591771023036e-05,-0.001256457583910896,2.783299191101504
445,5.9634698783181504e-05,-0.0012564927483746445,2.783640107826129
446,5.9634698783181504e-05,-0.0012565346314605782,2.7843390127316203
447,5.9634698783181504e-05,-0.001256578812079002,2.7857856042442863
448,5.9634698783181504e-05,-0.001256619836735069,2.7868795307805554
449,6.42591771023036e-05,-0.0012566562114499583,2.7877226862408073
450,6.42591771023036e-05,-0.0012566924557689673,2.788029353731798
451,6.42591771023036e-05,-0.0012567310157933012,2.7876988669039715
452,6.42591771023036e-05,-0.0012567716663512128,2.7880540676249814
453,6.731233003554874e-05,-0.0012568023957340115,2.7878283022480774
454,6.731233003554874e-05,-0.0012568258602768888,2.7892115640123207
455,6.731233003554874e-05,-0.0012568462535718443,2.790049588059031
456,6.731233003554874e-05,-0.0012568671055980104,2.7913809934257388
457,6.729358739848126e-05,-0.001256889798893239,2.7923128618307707
458,6.729358739848126e-05,-0.0012569148167574852,2.793454654683252
459,6.729358739848126e-05,-0.001256936445576676,2.7938620188068373
460,6.729358739848126e-05,-0.001256952852578887,2.794320044926288
461,6.729358739848126e-05,-0.00125696698172029,2.794627157630278
462,6.729358739848126e-05,-0.0012569849234660472,2.795390381029493
463,6.729358739848126e-05,-0.0012570094023649945,2.796982343580233
464,6.729358739848126e-05,-0.0012570359691703927,2.798764623498944
465,6.729358739848126e-05,-0.0012570581119189996,2.800525627580753
466,6.729358739848126e-05,-0.0012570754216409234,2.8009893003000332
467,6.729358739848126e-05,-0.0012570924863070472,2.801463384531184
468,6.729358739848126e-05,-0.0012571136134694784,2.801119191967823
469,7.25232567356854e-05,-0.0012571381306614741,2.801112788759228
470,7.25232567356854e-05,-0.001257159228932032,2.8011991425854936
471,7.25232567356854e-05,-0.001257173477703317,2.8016393929639687
472,7.676450959523256e-05,-0.0012571847356578993,2.8022839463467677
473,7.676450959523256e-05,-0.001257197796944039,2.8027924843807246
474,7.676450959523256e-05,-0.0012572155054650478,2.8033637209185476
475,7.676450959523256e-05,-0.0012572364816002721,2.8034692209639696
476,7.676450959523256e-05,-0.001257255244087904,2.8033408389509282
477,7.676450959523256e-05,-0.0012572682845892736,2.8028658721791677
478,7.676450959523256e-05,-0.0012572781872130774,2.802651486139832
479,7.676450959523256e-05,-0.001257290021022489,2.802531860848676
480,7.676450959523256e-05,-0.0012573077920545483,2.802686089950327
481,7.676450959523256e-05,-0.0012573313788143297,2.803285037442074
482,7.676450959523256e-05,-0.0012573535224794665,2.8037190431815704
483,7.676450959523256e-05,-0.0012573693417917361,2.8042580632442977
484,7.127503490191188e-05,-0.0012573815242108044,2.8040430020666625
485,7.127503490191188e-05,-0.001257395764980467,2.8040701640442856
486,7.127503490191188e-05,-0.0012574171614490896,2.803798295243464
487,7.127503490191188e-05,-0.0012574447807235775,2.803731977806737
488,7.127503490191188e-05,-0.0012574706672397798,2.8038994048675447
489,6.465192552234927e-05,-0.0012574896553800322,2.804197499379922
490,6.465192552234927e-05,-0.0012575034211262665,2.8047471054214874
491,6.465192552234927e-05,-0.0012575163088312403,2.804970110898411
492,6.465192552234927e-05,-0.001257532115103898,2.8055525296246557
493,6.465192552234927e-05,-0.0012575524712009785,2.805595707121595
494,6.465192552234927e-05,-0.001257574524580627,2.806120424813339
495,6.465192552234927e-05,-0.0012575931348534398,2.8061274019473803
496,6.465192552234927e-05,-0.001257606834897548,2.806756420416394
497,6.465192552234927e-05,-0.0012576185919062706,2.8071567933279096
498,6.465192552234927e-05,-0.0012576312558496793,2.80798073290311
499,6.465192552234927e-05,-0.0012576469768031562,2.8087303407803175
500,6.465192552234927e-05,-0.0012576650458511493,2.809422617037609
501,7.127503490191188e-05,-0.0012576830455371063,2.8096818301313817
502,7.127503490191188e-05,-0.0012576987912808941,2.8095364429372407
503,7.127503490191188e-05,-0.0012577120562001208,2.8092718369804595
504,7.127503490191188e-05,-0.0012577243985598425,2.8090775116594138
505,7.127503490191188e-05,-0.001257738760177072,2.809243350007079
506,7.127503490191188e-05,-0.0012577567983473807,2.8097910338206606
507,7.127503490191188e-05,-0.0012577767704708258,2.810883492744472
508,7.127503490191188e-05,-0.001257793836381793,2.811983576642084
509,6.479102214605047e-05,-0.0012578059682158565,2.812788116267673
510,6.479102214605047e-05,-0.001257816262256153,2.813169532232462
511,6.479102214605047e-05,-0.0012578295902027023,2.8133907245989014
512,7.036206500250964e-05,-0.0012578491992701838,2.813503424001667
513,7.036206500250964e-05,-0.0012578724755912757,2.813563395451288
514,7.036206500250964e-05,-0.0012578919447142295,2.81362341919425
515,7.036206500250964e-05,-0.0012579052129282446,2.8137945339042942
516,7.036206500250964e-05,-0.0012579168739013755,2.813910418126015
517,7.036206500250964e-05,-0.0012579329395267331,2.81428626578887
518,7.036206500250964e-05,-0.0012579569623556342,2.8145237232852574
519,7.036206500250964e-05,-0.0012579846927332477,2.815024286219463
520,7.036206500250964e-05,-0.0012580061562179178,2.814967492475001
521,7.036206500250964e-05,-0.0012580209682006174,2.8151419402062277
522,7.036206500250964e-05,-0.001258034238075188,2.8149510571046448
523,8.103958329803351e-05,-0.0012580517265070102,2.8150244454851587
524,8.103958329803351e-05,-0.0012580764063892498,2.8149268767144733
525,8.103958329803351e-05,-0.0012581046050656635,2.815069492141433
526,8.103958329803351e-05,-0.00125813108696776,2.8150362859973392
527,8.103958329803351e-05,-0.0012581520236770942,2.815136848699625
528,8.103958329803351e-05,-0.0012581680796735712,2.8149199326215424
529,8.103958329803351e-05,-0.0012581847042946535,2.81495355038428
530,8.103958329803351e-05,-0.0012582063462261415,2.8146442696755334
531,8.103958329803351e-05,-0.00125823556692484,2.8147659213712184
532,8.103958329803351e-05,-0.0012582681152787047,2.8143118918492953
533,8.103958329803351e-05,-0.0012582941728819914,2.8146779061475757
534,8.103958329803351e-05,-0.0012583125726347594,2.8143967998216177
535,8.103958329803351e-05,-0.0012583271640208378,2.8147709599733584
536,8.103958329803351e-05,-0.001258345528207886,2.815053533168995
537,7.488484878743415e-05,-0.001258372347555581,2.8154285107214307
538,7.488484878743415e-05,-0.0012584008165784932,2.815858419179228
539,7.488484878743415e-05,-0.0012584243187325692,2.815947391881132
540,8.407322328501998e-05,-0.001258440876742615,2.8161741749838622
541,8.407322328501998e-05,-0.001258454924920069,2.8162497286441286
542,9.085215616898321e-05,-0.0012584709381126002,2.8165536398655346
543,9.085215616898321e-05,-0.0012584936947461,2.817300430387454
544,8.407322328501998e-05,-0.0012585214627140356,2.818292230309316
545,8.407322328501998e-05,-0.0012585505294427234,2.8198700105717127
546,8.407322328501998e-05,-0.0012585759904155112,2.8209452749709576
547,8.407322328501998e-05,-0.0012585974894007642,2.822159506719728
548,6.4400938602666e-05,-0.0012586188820276323,2.822939980140532
549,6.929128341587135e-05,-0.0012586473368909417,2.824624883367123
550,6.929128341587135e-05,-0.0012586922542988646,2.8274903830113263
551,6.929128341587135e-05,-0.0012587509319923692,2.832880861222082
552,6.929128341587135e-05,-0.0012588063265875041,2.8346041610087465
553,6.929128341587135e-05,-0.0012588715610197716,2.8365543796414157
554,6.929128341587135e-05,-0.0012589084889821453,2.837577385906861
555,6.929128341587135e-05,-0.0012589464873272091,2.839932328091402
556,6.929128341587135e-05,-0.0012590015370993843,2.8411824527729364
557,7.846986212193647e-05,-0.0012590691741600555,2.8452951936761286
558,7.846986212193647e-05,-0.0012591305769224178,2.845517307673645
559,7.846986212193647e-05,-0.0012591771739728034,2.8477634690345357
560,7.846986212193647e-05,-0.0012592127347510857,2.848078119944585
561,7.846986212193647e-05,-0.001259239671005753,2.8480227161309815
562,7.846986212193647e-05,-0.001259269497915653,2.848917925830783
563,7.846986212193647e-05,-0.001259309375561324,2.8501751295269826
564,7.846986212193647e-05,-0.0012593600911910074,2.8527479017879616
565,7.210391718255497e-05,-0.0012594138471133227,2.855400269437119
566,7.210391718255497e-05,-0.0012594608559372202,2.858012536085919
567,7.210391718255497e-05,-0.00125949895280085,2.8590520972157933
568,7.210391718255497e-05,-0.0012595329882855602,2.859836778777192
569,7.210391718255497e-05,-0.0012595686342085598,2.8594114353082967
570,7.210391718255497e-05,-0.001259606837447653,2.8589975138011976
571,7.210391718255497e-05,-0.0012596476339738814,2.8587265650619718
572,7.210391718255497e-05,-0.001259685545486729,2.8582786102093443
573,7.210391718255497e-05,-0.0012597187323285309,2.8583176215138972
574,7.210391718255497e-05,-0.0012597442875921325,2.8582605366731304
575,7.210391718255497e-05,-0.0012597671953285096,2.8580451838897107
576,7.210391718255497e-05,-0.0012597966028768857,2.8581862011151498
577,7.210391718255497e-05,-0.0012598400470229926,2.8576104428939657
578,7.210391718255497e-05,-0.0012598949414690049,2.8582997806392654
579,6.640722128441626e-05,-0.0012599444131779231,2.857461944239553
580,6.640722128441626e-05,-0.0012599770165701717,2.8589476734713863
581,6.640722128441626e-05,-0.001259999925100878,2.8585707732675143
582,6.640722128441626e-05,-0.0012600236190229278,2.858903830153192
583,6.640722128441626e-05,-0.0012600593384322655,2.858743742313486
584,6.640722128441626e-05,-0.0012601089958171265,2.858172805501681
585,6.640722128441626e-05,-0.0012601653347417148,2.85696875757735
586,6.640722128441626e-05,-0.0012602212448576948,2.856033192374077
587,5.9475155945116747e-05,-0.001260265194135379,2.8546927573200875
588,5.9475155945116747e-05,-0.001260298160153189,2.8548231955482684
589,5.9475155945116747e-05,-0.0012603325182570686,2.8546647475157907
590,5.9475155945116747e-05,-0.0012603839735039488,2.854807720919187
591,5.9475155945116747e-05,-0.0012604547334824968,2.8543439141461957
592,6.463827990511918e-05,-0.0012605268840147788,2.853064475418367
593,5.9475155945116747e-05,-0.001260579630178675,2.8519710266529437
594,5.9475155945116747e-05,-0.0012606125869407995,2.851112936492062
595,5.9475155945116747e-05,-0.001260639451659541,2.8511724000766883
596,5.9475155945116747e-05,-0.001260673110307708,2.851388842267716
597,5.9475155945116747e-05,-0.0012607188756803196,2.8520761790914952
598,6.463827990511918e-05,-0.0012607727537407153,2.852509193121119
599,6.463827990511918e-05,-0.0012608262677210587,2.852828714072055
600,6.463827990511918e-05,-0.0012608710624909193,2.8519653922713606
601,6.63206306775536e-05,-0.0012609049319534306,2.851741425593247
602,6.105695877235293e-05,-0.0012609348825295423,2.850575968708076
603,6.105695877235293e-05,-0.0012609715086370704,2.8506565395885697
604,6.105695877235293e-05,-0.0012610238898386847,2.85034415235621
605,6.63206306775536e-05,-0.0012610862472234603,2.8509922010183595
606,6.45370614473647e-05,-0.001261147544104298,2.8508879783701375
607,6.45370614473647e-05,-0.001261192260239478,2.850905775826602
608,6.45370614473647e-05,-0.001261223728131473,2.850122906091112
609,6.45370614473647e-05,-0.0012612514817717678,2.849481913469104
610,6.45370614473647e-05,-0.0012612880901531772,2.8483439178607837
611,6.45370614473647e-05,-0.0012613317025086535,2.8478736481054208
612,6.45370614473647e-05,-0.0012613875001049719,2.847370344751644
613,6.45370614473647e-05,-0.0012614431262188927,2.8481987065320276
614,6.45370614473647e-05,-0.0012614871232393611,2.8487435375502344
615,6.45370614473647e-05,-0.0012615182362401564,2.8492726023560566
616,6.45370614473647e-05,-0.0012615530109106343,2.848841934352089
617,7.371117295468193e-05,-0.0012615966356381086,2.8475826040922523
618,7.371117295468193e-05,-0.0012616507162800813,2.8449650292824282
619,6.786414177285333e-05,-0.001261701191998056,2.8422253373340958
620,6.786414177285333e-05,-0.0012617445055660087,2.840643441298997
621,6.786414177285333e-05,-0.0012617722003784755,2.8405493248522493
622,7.371117295468193e-05,-0.001261793424226962,2.840881137415891
623,7.371117295468193e-05,-0.0012618178527471367,2.841863966619843
624,7.371117295468193e-05,-0.001261853797237598,2.842501632119973
625,7.371117295468193e-05,-0.001261887711665476,2.8424988965385496
626,6.786414177285333e-05,-0.0012619140644098718,2.84169650196404
627,6.786414177285333e-05,-0.0012619353035743307,2.840757107169196
628,6.786414177285333e-05,-0.0012619536141381933,2.8398742752274613
629,6.786414177285333e-05,-0.0012619783247023477,2.8389839618636503
630,6.339652516345164e-05,-0.0012620135975338915,2.8378831252961367
631,6.339652516345164e-05,-0.0012620560086869168,2.836733197125828
632,6.339652516345164e-05,-0.0012620913204176407,2.8356187477416253
633,5.9140116295846996e-05,-0.001262112726926461,2.8351109614030707
634,6.786414177285333e-05,-0.0012621272175099211,2.834749205530097
635,6.786414177285333e-05,-0.0012621441207746427,2.8344310491775158
636,6.786414177285333e-05,-0.0012621687794372673,2.8338862529846782
637,6.786414177285333e-05,-0.0012621996958571053,2.832839273794621
638,6.786414177285333e-05,-0.0012622339653074605,2.831586160537951
639,6.013495302397325e-05,-0.0012622641598807921,2.8301505511251146
640,6.013495302397325e-05,-0.001262286448202832,2.8290827868261257
641,6.013495302397325e-05,-0.0012623040757807206,2.8280020817529135
642,6.013495302397325e-05,-0.0012623212929944432,2.8269749620123665
643,6.013495302397325e-05,-0.0012623416296684712,2.825531825964968
644,6.013495302397325e-05,-0.001262365972074467,2.824018951865941
645,6.902693606578731e-05,-0.0012623954665720051,2.822610581772632
646,6.902693606578731e-05,-0.00126242987125167,2.8210785334287705
647,6.902693606578731e-05,-0.0012624668553749508,2.820614376928106
648,6.902693606578731e-05,-0.0012624980904266427,2.8193729812041095
649,6.902693606578731e-05,-0.0012625234552158411,2.819587152548915
650,6.013495302397325e-05,-0.0012625435579983902,2.8185161003550583
651,8.119941540958509e-05,-0.0012625638528227904,2.8183466422692485
652,7.036271101590165e-05,-0.0012625882681323293,2.817566893858873
653,7.036271101590165e-05,-0.0012626176237308063,2.816985263345166
654,6.473095189284069e-05,-0.0012626452261865811,2.816478093654967
655,5.98781512875325e-05,-0.0012626663013624484,2.8162768017171986
656,5.98781512875325e-05,-0.001262682376718274,2.8160264979694056
657,5.98781512875325e-05,-0.0012626981797689237,2.815693789520915
658,5.98781512875325e-05,-0.0012627174396482057,2.815205989314583
659,6.513621459663416e-05,-0.001262742318638686,2.814514856629059
660,5.7569122597343787e-05,-0.0012627703165850467,2.814385473799968
661,5.7569122597343787e-05,-0.0012627957975788495,2.8140157549554883
662,6.513621459663416e-05,-0.0012628156264439172,2.815058468567792
663,6.513621459663416e-05,-0.00126282881285021,2.8147060123308014
664,6.513621459663416e-05,-0.0012628415242521116,2.8150896066737197
665,6.513621459663416e-05,-0.001262859274454901,2.8148277696168753
666,6.982838446015426e-05,-0.0012628851484898986,2.8147450296501186
667,6.982838446015426e-05,-0.001262921551884577,2.8142519152635828
668,6.982838446015426e-05,-0.0012629612564792798,2.8142923941939038
669,6.982838446015426e-05,-0.0012629933338689286,2.814369659194214
670,6.982838446015426e-05,-0.001263015035226565,2.8149470597463777
671,6.982838446015426e-05,-0.0012630313694578477,2.8154610489638556
672,6.982838446015426e-05,-0.001263047788724713,2.8160113075277495
673,6.982838446015426e-05,-0.0012630700182823665,2.81663881668136
674,6.982838446015426e-05,-0.0012630975465601122,2.817023802944118
675,7.68695539146266e-05,-0.0012631276610418835,2.8173452406204267
676,7.07777342318652e-05,-0.0012631535811437513,2.817190885162179
677,7.07777342318652e-05,-0.0012631716936079601,2.8173115115901304
678,7.07777342318652e-05,-0.0012631844569479368,2.8171763455789605
679,7.07777342318652e-05,-0.0012631974119351919,2.817523311069351
680,7.07777342318652e-05,-0.0012632147404732486,2.8177527077850524
681,7.07777342318652e-05,-0.001263237871259125,2.818176316227031
682,7.07777342318652e-05,-0.001263263903165961,2.8180779953701185
683,7.07777342318652e-05,-0.0012632870782251307,2.8176279529991244
684,7.07777342318652e-05,-0.0012633044019148291,2.8166744362291385
685,7.07777342318652e-05,-0.001263318226154654,2.8158244812080846
686,7.68695539146266e-05,-0.0012633323594369596,2.815016006372372
687,7.68695539146266e-05,-0.0012633507731308693,2.814512956097214
688,7.68695539146266e-05,-0.001263374106204214,2.814282585133645
689,7.68695539146266e-05,-0.0012633983707715304,2.814875915805393
690,7.68695539146266e-05,-0.0012634164752088454,2.8152654675238713
691,7.68695539146266e-05,-0.001263427956136038,2.8160375440612015
692,7.68695539146266e-05,-0.0012634364774418963,2.815836760425019
693,7.68695539146266e-05,-0.0012634476991858603,2.8156475819597535
694,7.68695539146266e-05,-0.0012634648854165137,2.814934986948759
695,7.68695539146266e-05,-0.0012634888847940342,2.814113027866287
696,6.806192061813004e-05,-0.001263514217119326,2.813093153687338
697,6.806192061813004e-05,-0.0012635358683620345,2.8125743783484305
698,6.806192061813004e-05,-0.0012635502863995254,2.812110075271834
699,6.806192061813004e-05,-0.001263560206256178,2.812008689241994
700,6.806192061813004e-05,-0.0012635694588379277,2.8117272329370238
701,6.806192061813004e-05,-0.0012635821148640316,2.811056435932159
702,6.806192061813004e-05,-0.001263598973057428,2.810186206757095
703,6.806192061813004e-05,-0.0012636199242234592,2.8086111460560996
704,6.806192061813004e-05,-0.001263640803192185,2.807501286586301
705,6.806192061813004e-05,-0.0012636590414821635,2.8064614455396306
706,6.806192061813004e-05,-0.0012636748059967008,2.8056938301051293
707,7.679062881436978e-05,-0.0012636965278580647,2.8046239841827125
708,7.62091759374337e-05,-0.001263714451366877,2.8018646096952686
709,8.083479239360985e-05,-0.0012637418001455068,2.8024605099683026
710,7.679062881436978e-05,-0.00126378704921515,2.8023060730431673
711,7.12887858811457e-05,-0.001263850500430986,2.8008879616897513
712,7.297635790338685e-05,-0.0012638870220114938,2.8003364828502644
713,6.709393250295799e-05,-0.001263911570119774,2.7992571519261813
714,6.709393250295799e-05,-0.00126393463957261,2.799467926767557
715,7.070505300546041e-05,-0.001263951931548924,2.7996468290753116
716,6.442970751236009e-05,-0.0012639700420946085,2.799955858382887
717,7.008808085820435e-05,-0.0012639914189192566,2.8002656955272265
718,6.501718581335403e-05,-0.001264016836090667,2.8006230858235748
719,6.501718581335403e-05,-0.0012640402205794134,2.800362358327561
720,6.11721937245123e-05,-0.0012640627156341561,2.8003759415618
721,6.11721937245123e-05,-0.0012640805547247203,2.800055276669628
722,6.11721937245123e-05,-0.0012640942569160615,2.800112688617739
723,6.11721937245123e-05,-0.0012641076904748205,2.8000273326925598
724,6.11721937245123e-05,-0.0012641255864192964,2.799771251772422
725,6.442970751236009e-05,-0.0012641509967402226,2.7994568171548107
726,5.991869309196131e-05,-0.0012641822358591289,2.7985464997311325
727,5.991869309196131e-05,-0.0012642112923943185,2.7981591960415875
728,5.991869309196131e-05,-0.0012642320768299783,2.797643462680446
729,5.991869309196131e-05,-0.001264246535471322,2.7980830160775008
730,5.991869309196131e-05,-0.0012642599009301339,2.798387672460192
731,5.991869309196131e-05,-0.0012642771957161116,2.7988942762520104
732,5.991869309196131e-05,-0.0012643015603293374,2.799291608226525
733,6.466148727592216e-05,-0.0012643330331832212,2.7990995932721687
734,6.466148727592216e-05,-0.0012643674255360807,2.798531380422252
735,7.315254224280137e-05,-0.0012643964442450258,2.797622024834304
736,7.315254224280137e-05,-0.0012644162648842773,2.797171217862963
737,7.315254224280137e-05,-0.0012644306444181404,2.7971389129865276
738,7.315254224280137e-05,-0.001264443601018322,2.797466094038557
739,7.315254224280137e-05,-0.0012644588226239564,2.79812125710512
740,7.315254224280137e-05,-0.00126447866691535,2.798916322942565
741,7.315254224280137e-05,-0.0012645046366244722,2.79983279825456
742,6.010525563594039e-05,-0.0012645341745483774,2.8006416095534648
743,6.010525563594039e-05,-0.001264562581954651,2.8011405909132545
744,6.010525563594039e-05,-0.0012645829524066264,2.801285305637333
745,6.010525563594039e-05,-0.0012645989949846114,2.8018244321346404
746,6.010525563594039e-05,-0.0012646131911385747,2.8022002984747076
747,6.010525563594039e-05,-0.0012646324738405095,2.8033574625914484
748,5.307816175636693e-05,-0.001264654650590446,2.804511927952669
749,5.307816175636693e-05,-0.0012646813148122621,2.8055818390129814
750,5.307816175636693e-05,-0.0012647092249742145,2.806271711189806
751,5.5786203317510774e-05,-0.0012647316547842247,2.806348413920571
752,5.5786203317510774e-05,-0.0012647463333292322,2.806024588476294
753,5.5786203317510774e-05,-0.001264757675068152,2.8061379441994867
754,4.928003792934594e-05,-0.0012647713880436923,2.806232745334492
755,4.928003792934594e-05,-0.0012647905851788917,2.80727930716664
756,5.518838583553057e-05,-0.0012648168518357415,2.808817531196868
757,5.9634905965586295e-05,-0.001264847334558317,2.8108013462818473
758,5.9634905965586295e-05,-0.00126487449261229,2.812929038534854
759,6.45892357076317e-05,-0.0012648932603249866,2.8136512184452074
760,5.9821265114311406e-05,-0.0012649060148436687,2.814492079692779
761,5.534560418958824e-05,-0.0012649159911679963,2.814772659305001
762,5.1157727668491995e-05,-0.0012649279084907346,2.8157078019951727
763,5.512467887490474e-05,-0.0012649438007526713,2.817060643639709
764,6.243224474248198e-05,-0.0012649661494564912,2.819120281812535
765,6.744152782567815e-05,-0.0012649946120625942,2.8213465088178133
766,6.744152782567815e-05,-0.0012650251723765335,2.8229884974886224
767,6.744152782567815e-05,-0.0012650513785088366,2.82354232210147
768,6.744152782567815e-05,-0.0012650707515721935,2.823129478076916
769,6.744152782567815e-05,-0.0012650857424027328,2.822631926809061
770,6.744152782567815e-05,-0.0012651008924469314,2.822634043016307
771,6.021666444338709e-05,-0.0012651192987525397,2.823178714759935
772,6.021666444338709e-05,-0.0012651428919058178,2.8247849590273493
773,6.021666444338709e-05,-0.001265170799123318,2.826607613037365
774,6.021666444338709e-05,-0.001265196747198761,2.8285375547359712
775,6.021666444338709e-05,-0.0012652154551692258,2.8291274543980163
776,6.021666444338709e-05,-0.0012652282823444937,2.829382762224018
777,6.021666444338709e-05,-0.0012652410204304129,2.82932346156445
778,6.021666444338709e-05,-0.0012652583225471982,2.829647452627329
779,6.021666444338709e-05,-0.0012652818630243712,2.830758206208507
780,6.021666444338709e-05,-0.0012653109389457334,2.8325643897960933
781,6.021666444338709e-05,-0.0012653399670159644,2.8347634030233095
782,6.021666444338709e-05,-0.0012653628334070189,2.835846562856815
783,6.021666444338709e-05,-0.0012653783413387736,2.8363406355121947
784,6.021666444338709e-05,-0.0012653912371385014,2.8357614613635858
785,6.52339231555084e-05,-0.0012654056869545614,2.835124108419549
786,6.52339231555084e-05,-0.0012654257314701261,2.8346369338723725
787,6.52339231555084e-05,-0.0012654489692375255,2.83459814689997
788,6.52339231555084e-05,-0.0012654780563737277,2.8355887577703296
789,5.5163940101114285e-05,-0.0012655066032852414,2.8369985631126657
790,5.5163940101114285e-05,-0.001265530570790058,2.838786564170399
791,5.5163940101114285e-05,-0.0012655480220241245,2.839921111923993
792,5.958093350798829e-05,-0.001265561925873084,2.8407690793667784
793,5.958093350798829e-05,-0.00126557602604207,2.841260356317457
794,6.449865269729034e-05,-0.0012655941108208164,2.8418553206625563
795,6.449865269729034e-05,-0.001265618370409452,2.842536629746387
796,6.449865269729034e-05,-0.001265651650823314,2.843919304849859
797,6.449865269729034e-05,-0.001265690945070691,2.8448749520722556
798,6.449865269729034e-05,-0.0012657260663957316,2.846638320775823
799,5.603997939178768e-05,-0.0012657490427429056,2.8464674022161125
800,5.603997939178768e-05,-0.001265763444522718,2.8473103627192318
801,4.633502103133897e-05,-0.0012657797828925386,2.8473992603227916
802,4.876463508993711e-05,-0.001265802970136034,2.8480577435276477
803,4.876463508993711e-05,-0.0012658378603237243,2.848610472712807
804,4.933565264789605e-05,-0.00126588479046622,2.8495166383084203
805,4.933565264789605e-05,-0.0012659393130240104,2.850089542896962
806,4.933565264789605e-05,-0.0012659889171401542,2.851053862799898
807,4.933565264789605e-05,-0.0012660203102410857,2.851796704775757
808,4.933565264789605e-05,-0.0012660359711028784,2.852252812632255
809,4.933565264789605e-05,-0.0012660511682472079,2.8528177863492994
810,5.311340660845931e-05,-0.0012660708099257578,2.8532244236604725
811,5.311340660845931e-05,-0.0012660979081480215,2.853894476413773
812,5.695453782314147e-05,-0.0012661330388193236,2.8548224081130713
813,5.256704238057331e-05,-0.001266168184212577,2.854647839624399
814,5.256704238057331e-05,-0.0012661958987413928,2.856299951185195
815,5.256704238057331e-05,-0.0012662166695753074,2.8552769932028945
816,5.256704238057331e-05,-0.0012662309477709565,2.8560131340071573
817,5.256704238057331e-05,-0.0012662433043134985,2.8561653772085736
818,5.256704238057331e-05,-0.0012662576078062715,2.8564209633247475
819,5.256704238057331e-05,-0.0012662767266671583,2.85660127715309
820,5.256704238057331e-05,-0.0012663027431030973,2.856486604498609
821,5.256704238057331e-05,-0.0012663337862364764,2.8560784955761673
822,5.256704238057331e-05,-0.001266361064109365,2.855715666358521
823,5.317295489547068e-05,-0.0012663802326079612,2.8554439915984107
824,5.317295489547068e-05,-0.001266393511627482,2.8556338915782677
825,5.317295489547068e-05,-0.0012664053688389494,2.8560351699901574
826,5.317295489547068e-05,-0.001266418818885194,2.856480610261881
827,5.317295489547068e-05,-0.0012664363450249293,2.8573524501058043
828,5.735440724387142e-05,-0.0012664592920221922,2.8577328434647065
829,5.735440724387142e-05,-0.0012664875947951764,2.858458106054168
830,5.735440724387142e-05,-0.0012665176227131386,2.858465688747951
831,5.735440724387142e-05,-0.0012665436736217974,2.8583375320390148
832,6.051126432424813e-05,-0.0012665665838644618,2.858232396754755
833,5.613184581067332e-05,-0.001266588965487217,2.8576258132907477
834,5.613184581067332e-05,-0.001266609419160035,2.8574328202233725
835,5.613184581067332e-05,-0.0012666320772672054,2.857996965738146
836,5.613184581067332e-05,-0.0012666572146842294,2.8579685229893164
837,5.613184581067332e-05,-0.001266688718905461,2.859573274315258
838,5.044511293737057e-05,-0.0012667356158391407,2.8607738950549018
839,5.044511293737057e-05,-0.0012667881292618846,2.861741575579596
840,5.044511293737057e-05,-0.0012668218464586757,2.8626289223297685
841,5.044511293737057e-05,-0.0012668464786253612,2.86270757471939
842,5.044511293737057e-05,-0.0012668623067058748,2.8629793513111133
843,5.044511293737057e-05,-0.0012668747777446218,2.862847147397735
844,5.044511293737057e-05,-0.0012668859127904178,2.8627908213263367
845,5.044511293737057e-05,-0.0012668991602836535,2.862530871405081
846,5.044511293737057e-05,-0.0012669176745626752,2.8625500784280558
847,5.044511293737057e-05,-0.001266939631164546,2.8626112877759002
848,4.504903773861746e-05,-0.001266958109343446,2.8632774484243506
849,4.504903773861746e-05,-0.0012669701205808178,2.864011964831803
850,4.504903773861746e-05,-0.001266977773676611,2.864474834024796
851,4.504903773861746e-05,-0.0012669848008367325,2.864898141549832
852,4.504903773861746e-05,-0.0012669944278815442,2.8648309030948953
853,4.504903773861746e-05,-0.0012670073661990152,2.8646526832182957
854,4.504903773861746e-05,-0.0012670246592743485,2.8638076986686665
855,4.504903773861746e-05,-0.0012670454200690209,2.862757668535494
856,4.504903773861746e-05,-0.0012670653278251617,2.8617143480150524
857,4.504903773861746e-05,-0.0012670791872052252,2.8612014490080986
858,4.504903773861746e-05,-0.0012670874403747812,2.8613363365505635
859,4.504903773861746e-05,-0.0012670935345736375,2.861498577099944
860,4.504903773861746e-05,-0.0012671000486156078,2.86179814957561
861,4.504903773861746e-05,-0.0012671087229306382,2.8618017677017416
862,4.504903773861746e-05,-0.0012671208759448573,2.861726008017367
863,4.504903773861746e-05,-0.0012671369940664345,2.8610321250731974
864,4.504903773861746e-05,-0.0012671543757420505,2.8601664508795244
865,4.504903773861746e-05,-0.0012671676954311105,2.8592012211836635
866,4.504903773861746e-05,-0.0012671756340896989,2.858599707631343
867,4.504903773861746e-05,-0.0012671809476284092,2.8583249295511948
868,4.504903773861746e-05,-0.001267185748360155,2.857972535892862
869,4.504903773861746e-05,-0.0012671917085535012,2.8576742704786438
870,4.504903773861746e-05,-0.0012672003295215641,2.857158309892424
871,4.504903773861746e-05,-0.0012672128865259668,2.8566699047539625
872,4.504903773861746e-05,-0.00126722794527824,2.856255738883907
873,5.340161500926388e-05,-0.0012672413300176006,2.85630998878804
874,5.340161500926388e-05,-0.001267250374133765,2.8566172160426992
875,5.340161500926388e-05,-0.0012672572431498671,2.857075061425556
876,5.340161500926388e-05,-0.0012672640177656856,2.857350356761569
877,5.340161500926388e-05,-0.001267272089570222,2.8574527604477
878,5.340161500926388e-05,-0.0012672823286356233,2.8570415104030173
879,5.340161500926388e-05,-0.0012672966951452333,2.8562468679359294
880,5.340161500926388e-05,-0.0012673150365724248,2.85484355686029
881,5.340161500926388e-05,-0.0012673341991065407,2.853865819593814
882,5.340161500926388e-05,-0.00126735205604884,2.853239802345196
883,5.340161500926388e-05,-0.0012673610730885637,2.8530088866232246
884,5.340161500926388e-05,-0.0012673689137510206,2.8529299236937438
885,5.894101122284123e-05,-0.0012673771525707213,2.8527965791361733
886,5.894101122284123e-05,-0.0012673890589375199,2.8526022131022493
887,5.930857110846311e-05,-0.001267404612488282,2.852177178775663
888,5.422792112842007e-05,-0.0012674229853616927,2.851836050998945
889,5.422792112842007e-05,-0.0012674394589615638,2.8512425023506807
890,4.913724373617275e-05,-0.001267451507567667,2.8516099135584816
891,4.913724373617275e-05,-0.0012674592775313073,2.8514922015281443
892,5.371179927846683e-05,-0.0012674646282141014,2.8518812723587637
893,5.371179927846683e-05,-0.001267469432546735,2.852035044917674
894,5.371179927846683e-05,-0.0012674757137330671,2.8522354346347694
895,4.913724373617275e-05,-0.0012674842589940859,2.852128195098243
896,4.913724373617275e-05,-0.0012674963160929555,2.8518868608797234
897,4.913724373617275e-05,-0.0012675100645108445,2.8511975394216473
898,4.913724373617275e-05,-0.0012675211153622282,2.8505898995187438
899,5.422792112842007e-05,-0.0012675280204133626,2.850198760436878
900,5.422792112842007e-05,-0.0012675328193205518,2.850190732984741
901,5.422792112842007e-05,-0.0012675371729375942,2.8503477593442472
902,5.422792112842007e-05,-0.001267542330332404,2.8505980478378117
903,5.422792112842007e-05,-0.0012675494314390036,2.8509029963471284
904,5.422792112842007e-05,-0.0012675593693685522,2.851126095307837
905,4.913724373617275e-05,-0.0012675715922271136,2.8512638410124787
906,4.913724373617275e-05,-0.00126758281589082,2.8509950115004647
907,4.913724373617275e-05,-0.0012675900428162146,2.8507594396522324
908,4.703103016285903e-05,-0.0012675943255519276,2.850354478079632
909,4.703103016285903e-05,-0.0012675983505424692,2.8503252409230724
910,4.913724373617275e-05,-0.0012676040762227747,2.8501697054620467
911,4.913724373617275e-05,-0.001267612865970605,2.850367500005709
912,4.913724373617275e-05,-0.0012676254134833997,2.8507178857019166
913,4.913724373617275e-05,-0.0012676385426885737,2.851391214110258
914,4.913724373617275e-05,-0.0012676486381208024,2.8520755232452095
915,4.913724373617275e-05,-0.0012676541864988602,2.8524557476835453
916,4.913724373617275e-05,-0.0012676577807258667,2.852777516371312
917,4.913724373617275e-05,-0.0012676620363458225,2.8530470757685276
918,4.913724373617275e-05,-0.0012676687340733618,2.853646382786023
919,4.913724373617275e-05,-0.0012676792070242466,2.8545405880185983
920,4.913724373617275e-05,-0.0012676941502215192,2.8560829392749407
921,4.913724373617275e-05,-0.0012677074337066967,2.8573103638946717
922,4.913724373617275e-05,-0.0012677176262965385,2.8581240212941483
923,4.913724373617275e-05,-0.0012677238505907412,2.858280622040372
924,4.913724373617275e-05,-0.0012677293615182099,2.8583537451339978
925,4.913724373617275e-05,-0.0012677359373202545,2.8584532814127934
926,4.913724373617275e-05,-0.001267744522060955,2.858797692596923
927,4.913724373617275e-05,-0.0012677552263556367,2.859443734050869
928,4.913724373617275e-05,-0.0012677670450334038,2.8602486748635525
929,4.913724373617275e-05,-0.0012677780133842514,2.8610095001671416
930,4.913724373617275e-05,-0.0012677860538450635,2.861473397914846
931,4.913724373617275e-05,-0.0012677913995683575,2.861673635951991
932,4.913724373617275e-05,-0.0012677960141982971,2.861843703514345
933,4.913724373617275e-05,-0.001267802289968524,2.861983963513063
934,4.913724373617275e-05,-0.0012678117230285728,2.862281665670938
935,4.913724373617275e-05,-0.0012678251996523036,2.862580509743049
936,4.913724373617275e-05,-0.00126784079852013,2.862894794481035
937,4.913724373617275e-05,-0.001267853602212034,2.8629007843076066
938,4.913724373617275e-05,-0.001267861149601602,2.8627945648876745
939,4.913724373617275e-05,-0.0012678659028498465,2.862661716694713
940,4.913724373617275e-05,-0.0012678712483025598,2.8625812486786097
941,4.913724373617275e-05,-0.0012678797141924918,2.86262101766116
942,4.913724373617275e-05,-0.0012678931004644267,2.862732424607257
943,4.913724373617275e-05,-0.0012679126553962962,2.8632335364214763
944,4.913724373617275e-05,-0.0012679309676673159,2.863524551204636
945,4.913724373617275e-05,-0.0012679447625363292,2.864076702315906
946,4.913724373617275e-05,-0.0012679542996756074,2.86387102660911
947,5.652152486862151e-05,-0.0012679613403372245,2.8640673414361437
948,5.652152486862151e-05,-0.0012679689747971763,2.863955106125413
949,6.222468164155267e-05,-0.0012679777821857088,2.8641220102357408
950,6.222468164155267e-05,-0.0012679900072750563,2.864292136569626
951,6.222468164155267e-05,-0.0012680079983648205,2.8647137995120655
952,6.797504158243766e-05,-0.0012680323350647352,2.8652280447413907
953,6.797504158243766e-05,-0.001268056087764261,2.865600026651273
954,6.797504158243766e-05,-0.0012680723362299335,2.8657479547015137
955,6.797504158243766e-05,-0.0012680817898149683,2.8654431296656377
956,6.797504158243766e-05,-0.0012680895371931437,2.8652711751783104
957,6.71293564914095e-05,-0.0012680994392227113,2.86470145747594
958,6.71293564914095e-05,-0.0012681140863296926,2.864269033765727
959,5.771621045782973e-05,-0.0012681342675568614,2.863626797861216
960,5.771621045782973e-05,-0.0012681587414173415,2.8632557370667633
961,5.771621045782973e-05,-0.0012681827849324112,2.8629729669872956
962,5.771621045782973e-05,-0.0012681999491100666,2.863350322902012
963,5.771621045782973e-05,-0.001268209581350635,2.8632142205673103
964,5.771621045782973e-05,-0.001268215002070221,2.863810616506838
965,5.771621045782973e-05,-0.0012682200793075929,2.86362937454619
966,5.771621045782973e-05,-0.0012682276601498768,2.8637986520583483
967,5.771621045782973e-05,-0.0012682393385726938,2.8639656642998657
968,5.771621045782973e-05,-0.0012682563932747207,2.86438809054806
969,5.771621045782973e-05,-0.0012682737215942684,2.8651282123646085
970,5.771621045782973e-05,-0.0012682875999068136,2.865478027365163
971,5.771621045782973e-05,-0.0012682975548542845,2.865905610200646
972,5.771621045782973e-05,-0.0012683050592539069,2.8659401530673265
973,5.771621045782973e-05,-0.0012683115027864766,2.865848161952328
974,5.771621045782973e-05,-0.0012683174243597508,2.8659296437085042
975,5.771621045782973e-05,-0.0012683244502385072,2.8658290445037307
976,5.771621045782973e-05,-0.0012683348897219388,2.8661178182701947
977,5.771621045782973e-05,-0.0012683500609370008,2.866355788892441
978,5.771621045782973e-05,-0.0012683672597269423,2.8669304070438413
979,5.771621045782973e-05,-0.0012683803322133755,2.8673127669844543
980,5.771621045782973e-05,-0.001268387624408798,2.8674893879480945
981,5.771621045782973e-05,-0.0012683922172621726,2.8677042648612665
982,5.771621045782973e-05,-0.001268397016538305,2.8677987192544174
983,5.771621045782973e-05,-0.0012684039375628743,2.86826667422284
984,5.771621045782973e-05,-0.001268414352519123,2.8690167788141627
985,6.925261179003003e-05,-0.001268429174404055,2.870213727587112
986,6.925261179003003e-05,-0.0012684480325561853,2.8718646771312732
987,6.243567860304297e-05,-0.0012684665970130746,2.87291492399464
988,6.243567860304297e-05,-0.0012684801342232406,2.8734849850153683
989,6.243567860304297e-05,-0.001268490349923275,2.872711452903584
990,6.243567860304297e-05,-0.00126849728002374,2.8725108072646575
991,5.659351859311527e-05,-0.001268506734370237,2.8723191132878956
992,5.659351859311527e-05,-0.0012685213084787997,2.8723385355224895
993,5.659351859311527e-05,-0.0012685419975903608,2.8729561174706153
994,5.1917461862937447e-05,-0.0012685632003600642,2.8740541995666966
995,5.1917461862937447e-05,-0.001268582904376228,2.875569938713748
996,5.1917461862937447e-05,-0.001268594636928208,2.876594474441309
997,5.1917461862937447e-05,-0.0012686017060239468,2.877158991139737
998,5.659351859311527e-05,-0.001268607759139606,2.877153600001766
999,5.659351859311527e-05,-0.001268615402180129,2.877195760955864
1000,5.659351859311527e-05,-0.0012686270080693256,2.87709495350442
1001,5.659351859311527e-05,-0.001268642035573275,2.8774143799728726
1002,5.659351859311527e-05,-0.001268660737713905,2.8780124707103147
1003,5.659351859311527e-05,-0.0012686822138014313,2.879160343022628
1004,5.659351859311527e-05,-0.001268698644211574,2.880192737809466
1005,5.659351859311527e-05,-0.001268709484732138,2.8807553799023102
1006,5.659351859311527e-05,-0.001268717330063641,2.881171577990352
1007,5.659351859311527e-05,-0.0012687245730233082,2.8811663490835517
1008,5.659351859311527e-05,-0.0012687320002545404,2.881422655166251
1009,5.659351859311527e-05,-0.0012687420521802642,2.8814007502634533
1010,5.659351859311527e-05,-0.0012687573363745072,2.881725485204
1011,6.133436161394992e-05,-0.001268778307041961,2.8821018266813647
1012,6.133436161394992e-05,-0.0012687966572202222,2.882710414823095
1013,6.133436161394992e-05,-0.0012688083784114423,2.882873496279263
1014,6.133436161394992e-05,-0.0012688146500360613,2.882972361126805
1015,6.133436161394992e-05,-0.0012688194786027722,2.882609177540231
1016,6.133436161394992e-05,-0.0012688254050691673,2.8824021538354496
1017,6.133436161394992e-05,-0.0012688344908261002,2.8820861277642393
1018,5.671882819586224e-05,-0.0012688485516335927,2.8822674651242375
1019,5.671882819586224e-05,-0.0012688693115508601,2.8830720949249367
1020,5.671882819586224e-05,-0.0012688919884980734,2.8851500705717794
1021,5.671882819586224e-05,-0.0012689104068704642,2.8874333381277935
1022,5.671882819586224e-05,-0.0012689221619641975,2.8895543885965345
1023,5.3863917375655e-05,-0.0012689292789112108,2.890615947564039
1024,5.3863917375655e-05,-0.0012689355914100244,2.891272461861774
1025,5.3863917375655e-05,-0.0012689437103747651,2.8919952768551185
1026,5.3863917375655e-05,-0.001268954882683645,2.89253933268879
1027,5.3863917375655e-05,-0.0012689712661899041,2.893575409537376
1028,5.3863917375655e-05,-0.001268990876564452,2.894387690425252
1029,4.707030268951618e-05,-0.0012690081757922244,2.895633304298007
1030,4.707030268951618e-05,-0.0012690201737200484,2.8964605151163467
1031,4.707030268951618e-05,-0.0012690283337562108,2.897401090090759
1032,4.707030268951618e-05,-0.0012690355564013757,2.898630776373141
1033,4.707030268951618e-05,-0.0012690434933487701,2.8997628154659933
1034,4.707030268951618e-05,-0.0012690523995635683,2.9013938175165213
1035,5.0821579979639984e-05,-0.001269063433624281,2.9029562448165067
1036,5.0821579979639984e-05,-0.001269079002454709,2.904921499677182
1037,5.0821579979639984e-05,-0.0012690993634352364,2.9073165895320057
1038,5.0821579979639984e-05,-0.0012691203945417728,2.9099189757785937
1039,5.48486785362575e-05,-0.0012691356807713187,2.911756283676216
1040,5.48486785362575e-05,-0.0012691445675792113,2.9130140234831154
1041,5.48486785362575e-05,-0.0012691501943017348,2.913431737200158
1042,5.48486785362575e-05,-0.0012691561564883924,2.913907050824447
1043,5.48486785362575e-05,-0.0012691648282799376,2.914867140986872
1044,5.48486785362575e-05,-0.0012691778576026781,2.916035216891595
1045,5.026103136523379e-05,-0.0012691949409680367,2.9182626915104466
1046,5.287846928619075e-05,-0.00126921135735069,2.91929219741466
1047,5.287846928619075e-05,-0.0012692230942852273,2.920809572266056
1048,5.7726907134378996e-05,-0.001269229545405427,2.9201443577882493
1049,5.7726907134378996e-05,-0.0012692334052295336,2.9203913762734652
1050,5.7726907134378996e-05,-0.0012692374903138614,2.9202858387367483
1051,5.7726907134378996e-05,-0.0012692433590081903,2.9206710724132994
1052,5.7726907134378996e-05,-0.001269252522608365,2.921329156999453
1053,5.7726907134378996e-05,-0.0012692660771486915,2.9227002158955844
1054,5.7726907134378996e-05,-0.0012692813845087577,2.9240316254958576
1055,4.836989976801497e-05,-0.0012692961870096188,2.9252675963965427
1056,5.2292171942916536e-05,-0.0012693072245043514,2.9256642046110786
1057,5.2292171942916536e-05,-0.0012693139272260973,2.925654020140324
1058,5.2292171942916536e-05,-0.0012693185608264018,2.925445380066596
1059,5.2292171942916536e-05,-0.0012693233636549572,2.925209649830719
1060,5.2292171942916536e-05,-0.0012693298979432114,2.9250251763698354
1061,5.2292171942916536e-05,-0.0012693399807192224,2.9248530558444505
1062,4.8025013249165025e-05,-0.0012693552131125196,2.9247007512985568
1063,4.40265500526676e-05,-0.0012693736050596023,2.9245618271759812
1064,4.40265500526676e-05,-0.0012693874083218731,2.924650175849582
1065,4.091675091495001e-05,-0.001269395558059152,2.9248135093955563
1066,4.091675091495001e-05,-0.001269400808968624,2.9252621220633315
1067,4.452157383265767e-05,-0.0012694068692433262,2.925708921770662
1068,4.452157383265767e-05,-0.0012694162980401522,2.92636668590377
1069,4.452157383265767e-05,-0.0012694306173629964,2.9270868433162223
1070,4.7485579623015915e-05,-0.0012694500819501163,2.927767862942763
1071,4.7485579623015915e-05,-0.0012694711432085846,2.927652169076894
1072,4.355297022322513e-05,-0.0012694904825722442,2.927300537292302
1073,4.355297022322513e-05,-0.0012695025943458811,2.9260721404415686
1074,4.355297022322513e-05,-0.0012695094761580054,2.9262960379537475
1075,4.6823818993819894e-05,-0.0012695152428709657,2.9261108636234994
1076,4.6823818993819894e-05,-0.0012695222807401888,2.926433602221376
1077,4.6823818993819894e-05,-0.0012695313412165745,2.926756863647001
1078,4.6823818993819894e-05,-0.001269544561392025,2.926724844724674
1079,4.6823818993819894e-05,-0.0012695642093295695,2.926840945268034
1080,4.6823818993819894e-05,-0.0012695892998021991,2.925289257635397
1081,4.6823818993819894e-05,-0.0012696091111818952,2.925293533643087
1082,5.1127980962607524e-05,-0.0012696203008026625,2.9228850226266854
1083,5.1127980962607524e-05,-0.0012696278308737268,2.923283148335121
1084,5.738516666977753e-05,-0.001269633842220851,2.923374156459193
1085,5.738516666977753e-05,-0.0012696407959171593,2.923079385649995
1086,5.738516666977753e-05,-0.0012696501739538244,2.922268842932982
1087,5.738516666977753e-05,-0.0012696615622754088,2.9214091177130017
1088,6.354857841561553e-05,-0.0012696766416886985,2.9206725144511605
1089,6.354857841561553e-05,-0.001269694129878818,2.920284646820609
1090,6.354857841561553e-05,-0.00126971121309766,2.921060569364336
1091,6.354857841561553e-05,-0.0012697248328890729,2.92195894879952
1092,6.354857841561553e-05,-0.0012697334518192293,2.9231660572593405
1093,6.354857841561553e-05,-0.0012697387999434254,2.9236531072284717
1094,6.354857841561553e-05,-0.00126974328960742,2.9237491031947878
1095,6.354857841561553e-05,-0.0012697487530273339,2.9238425759065523
1096,6.354857841561553e-05,-0.001269756037575507,2.92354224041468
1097,6.354857841561553e-05,-0.001269766133252639,2.9235162963964525
1098,6.354857841561553e-05,-0.0012697784345125627,2.9231672705510103
1099,6.354857841561553e-05,-0.0012697911051701139,2.9227132633615893
1100,6.354857841561553e-05,-0.0012698026516152713,2.922033230685385
1101,6.036205372035348e-05,-0.0012698126855039524,2.9207896558086874
1102,6.036205372035348e-05,-0.0012698220444588243,2.919431017743968
1103,5.980650223852617e-05,-0.001269838251207317,2.916315017159803
1104,5.8553816166556316e-05,-0.0012698599411856343,2.9105132706248718
1105,6.162389218520582e-05,-0.0012698768255881465,2.9095168264014037
1106,5.815185265077296e-05,-0.0012699027826910685,2.909771211007148
1107,5.299934043258435e-05,-0.0012699226895064588,2.9068254116073593
1108,5.815185265077296e-05,-0.0012699406170515292,2.9091750942885666
1109,5.815185265077296e-05,-0.0012699602894171772,2.910134050555232
1110,5.299934043258435e-05,-0.0012699913644400283,2.910376763058562
1111,5.478442191599287e-05,-0.001270032110420497,2.910012142773079
1112,5.478442191599287e-05,-0.0012700618291904024,2.9107876541111057
1113,4.664543741693187e-05,-0.0012701023763628777,2.911084949918354
1114,5.1086551855499996e-05,-0.0012701312779045885,2.9130428565635342
1115,5.1086551855499996e-05,-0.0012701460996936897,2.9133936097257345
1116,5.1086551855499996e-05,-0.0012701551698634243,2.914120287102323
1117,5.1086551855499996e-05,-0.0012701638064062408,2.914353798303926
1118,5.1086551855499996e-05,-0.0012701754169356053,2.914582820137836
1119,5.1086551855499996e-05,-0.0012701929369387855,2.9147584289445936
1120,5.1086551855499996e-05,-0.0012702181791280198,2.9153310057879662
1121,5.1086551855499996e-05,-0.0012702489968096837,2.9161810968103197
1122,4.4164594745072594e-05,-0.001270276780043718,2.9177672992895616
1123,4.4164594745072594e-05,-0.0012702934614046806,2.91897189099518
1124,4.4164594745072594e-05,-0.0012703017249744441,2.919795863829135
1125,4.4164594745072594e-05,-0.0012703072102561246,2.920151776828651
1126,4.4164594745072594e-05,-0.0012703128638293661,2.9203007366247853
1127,4.4164594745072594e-05,-0.0012703210677768534,2.9203507066262473
1128,4.4164594745072594e-05,-0.0012703326004736054,2.920267976000782
1129,4.4164594745072594e-05,-0.0012703498122826644,2.9200239032727326
1130,3.949033427416267e-05,-0.001270373280379613,2.9195733826254324
1131,3.949033427416267e-05,-0.0012703980407139245,2.919178041057939
1132,3.949033427416267e-05,-0.001270418309807311,2.918587793207278
1133,3.949033427416267e-05,-0.0012704316231486876,2.9186047066369576
1134,3.949033427416267e-05,-0.0012704399557489495,2.9181449094722995
1135,3.949033427416267e-05,-0.001270446104684581,2.918386703399731
1136,3.949033427416267e-05,-0.0012704529533356856,2.918173008681424
1137,3.949033427416267e-05,-0.0012704623263317817,2.918289951448017
1138,3.949033427416267e-05,-0.001270476768770265,2.9183985170499587
1139,4.238935473216991e-05,-0.0012704984263917807,2.9186750342939884
1140,4.238935473216991e-05,-0.0012705254822734397,2.919355027043456
1141,4.7915828065326965e-05,-0.0012705501568135494,2.920052215762464
1142,4.7915828065326965e-05,-0.0012705688933791037,2.9205212973626304
1143,5.3376866973715765e-05,-0.0012705791614041667,2.9210343688168314
1144,5.3376866973715765e-05,-0.001270585304696991,2.920954685467958
1145,5.3376866973715765e-05,-0.0012705909671604145,2.9213032502890153
1146,5.3376866973715765e-05,-0.0012705979932198686,2.921446534903581
1147,5.3376866973715765e-05,-0.0012706084619422847,2.9221537609923347
1148,5.3376866973715765e-05,-0.001270623688748023,2.92283800921956
1149,5.3376866973715765e-05,-0.0012706428190119479,2.92402303309454
1150,5.3376866973715765e-05,-0.0012706617695318774,2.924536606228103
1151,5.3376866973715765e-05,-0.0012706763204286843,2.924097578902003
1152,5.3376866973715765e-05,-0.0012706840794142664,2.92359983765719
1153,5.3376866973715765e-05,-0.0012706887444017439,2.923124998631772
1154,5.3376866973715765e-05,-0.0012706941860730154,2.922994451155823
1155,5.3376866973715765e-05,-0.0012707003051450193,2.9231327450813773
1156,5.3376866973715765e-05,-0.0012707097731083574,2.9236062128504057
1157,5.3376866973715765e-05,-0.0012707243820596823,2.9242842124629895
1158,5.3376866973715765e-05,-0.0012707445572296217,2.9257957740741047
1159,4.929840818086093e-05,-0.0012707598306033107,2.926408780409855
1160,4.929840818086093e-05,-0.001270770066917211,2.927165557405169
1161,4.929840818086093e-05,-0.001270775868224877,2.9272266642464757
1162,4.929840818086093e-05,-0.0012707806021275071,2.927204000771079
1163,4.929840818086093e-05,-0.0012707856082307162,2.9277538099495124
1164,4.929840818086093e-05,-0.0012707913270168982,2.9280234703005315
1165,4.929840818086093e-05,-0.0012707993856045407,2.929019092479482
1166,4.929840818086093e-05,-0.0012708111501903117,2.9299336513312126
1167,4.929840818086093e-05,-0.0012708257350414168,2.9312182786543652
1168,4.929840818086093e-05,-0.0012708391515451583,2.932154873377943
1169,4.929840818086093e-05,-0.0012708479228054075,2.9325754744205494
1170,4.929840818086093e-05,-0.0012708527710394533,2.9330485364498546
1171,4.929840818086093e-05,-0.0012708558887111498,2.9332297575079807
1172,4.929840818086093e-05,-0.0012708587257091117,2.9338790101261165
1173,4.929840818086093e-05,-0.0012708622211122411,2.934724890935512
1174,4.929840818086093e-05,-0.0012708674803617284,2.9358701091122326
1175,4.929840818086093e-05,-0.0012708753853401345,2.937355779621899
1176,4.929840818086093e-05,-0.0012708855220608846,2.938476125912142
1177,4.929840818086093e-05,-0.0012708945537067125,2.938930439289748
1178,4.929840818086093e-05,-0.0012709007100037736,2.9384059933242983
1179,4.929840818086093e-05,-0.0012709042835706231,2.937969704238679
1180,4.929840818086093e-05,-0.0012709069112189309,2.937620041143475
1181,4.929840818086093e-05,-0.001270909707536939,2.9377540844098897
1182,4.929840818086093e-05,-0.0012709137173660266,2.938143494012515
1183,4.929840818086093e-05,-0.0012709198146178974,2.9390343332147615
1184,4.929840818086093e-05,-0.0012709286544946522,2.9400306697101515
1185,4.3948664992152286e-05,-0.001270938777861809,2.941118050736376
1186,4.3948664992152286e-05,-0.0012709472783749669,2.941462993996993
1187,4.3948664992152286e-05,-0.0012709524895617647,2.941354773837623
1188,4.3948664992152286e-05,-0.001270955404610466,2.9410556132003873
1189,4.3948664992152286e-05,-0.0012709576719614772,2.9406900072847084
1190,4.3948664992152286e-05,-0.001270960430427683,2.940615874719471
1191,4.3948664992152286e-05,-0.0012709637261514096,2.940539949870776
1192,4.3948664992152286e-05,-0.0012709677897972788,2.9406944638911936
1193,4.3948664992152286e-05,-0.0012709732825964839,2.9405952858482003
1194,4.3948664992152286e-05,-0.0012709805343811243,2.940642919378551
1195,4.3948664992152286e-05,-0.001270989489041696,2.9403149800716006
1196,4.3948664992152286e-05,-0.0012709980833586322,2.940487622290198
1197,4.3948664992152286e-05,-0.0012710037771852232,2.940506418722218
1198,4.3948664992152286e-05,-0.0012710066760849275,2.941113029829158
1199,4.3948664992152286e-05,-0.0012710085835585104,2.9415169238676917
1200,4.3948664992152286e-05,-0.0012710108864642542,2.9420215606717157
1201,4.3948664992152286e-05,-0.0012710146779855976,2.942778979803896
1202,3.722121530346887e-05,-0.001271150297238053,2.951969971087087
1203,3.722121530346887e-05,-0.0012711515757102667,2.9522914727812344
1204,3.722121530346887e-05,-0.0012711962316366012,2.9526951141604747
1205,3.722121530346887e-05,-0.0012712662034450742,2.953285693622524
1206,3.974838165696573e-05,-0.0012713224543561398,2.954058760355508
1207,3.974838165696573e-05,-0.0012713402078798014,2.955084806443508
1208,3.974838165696573e-05,-0.0012713656630901368,2.9559617398967712
1209,3.974838165696573e-05,-0.0012714021095363154,2.9580289870064327
1210,3.7213806758095534e-05,-0.0012714372807694787,2.96014628285273
1211,3.7213806758095534e-05,-0.001271478408515751,2.9621869580773903
1212,3.7213806758095534e-05,-0.001271523424651577,2.964456279887808
1213,3.7213806758095534e-05,-0.0012715482122101838,2.965036844161122
1214,3.7213806758095534e-05,-0.001271561256986528,2.9660606214880003
1215,3.7213806758095534e-05,-0.0012715713851775123,2.9668877627207517
1216,3.7213806758095534e-05,-0.001271582464427332,2.968713127247568
1217,3.7213806758095534e-05,-0.001271595945682154,2.9712269169634546
1218,3.7213806758095534e-05,-0.0012716110518984614,2.973824770491261
1219,3.7213806758095534e-05,-0.0012716287032639498,2.9764778765588793
1220,3.7213806758095534e-05,-0.0012716465039883504,2.9786170666495053
1221,3.260324873786994e-05,-0.0012716607481918418,2.980447295574478
1222,3.232953498260449e-05,-0.0012716710574250739,2.9822372552824046
1223,3.232953498260449e-05,-0.0012716792678493243,2.983895038229003
1224,3.260324873786994e-05,-0.0012716892581815073,2.9845802177680905
1225,3.249708830912448e-05,-0.0012717015948755389,2.985788858853425
1226,3.249708830912448e-05,-0.0012717152300011257,2.9870543694696976
1227,3.249708830912448e-05,-0.0012717304517672024,2.988442303888012
1228,3.249708830912448e-05,-0.001271747944092683,2.9895238956104238
1229,3.249708830912448e-05,-0.001271764820267277,2.9894042382118715
1230,3.4001583412586506e-05,-0.0012717747646998157,2.9919189009301492
1231,3.431726421110555e-05,-0.0012717854955715535,2.989742786227099
1232,3.431726421110555e-05,-0.0012717901964905414,2.990246807927645
1233,3.431726421110555e-05,-0.0012717938159827365,2.9909269293452216
1234,3.249708830912448e-05,-0.0012717982917586402,2.992086217679697
1235,3.249708830912448e-05,-0.0012718051488465464,2.9934595287899888
1236,3.249708830912448e-05,-0.0012718154010758626,2.9946943428507
1237,3.249708830912448e-05,-0.0012718278164764003,2.9951157260655417
1238,3.249708830912448e-05,-0.001271839573757256,2.994670267427526
1239,3.249708830912448e-05,-0.0012718474850251591,2.9937441567572725
1240,3.249708830912448e-05,-0.0012718520127537086,2.9934724639140473
1241,3.249708830912448e-05,-0.0012718549300435149,2.9937200330655873
1242,3.249708830912448e-05,-0.0012718574994093602,2.9944395860232653
1243,3.249708830912448e-05,-0.001271860368678994,2.9953784400457137
1244,3.249708830912448e-05,-0.00127186439464043,2.9963967985704105
1245,3.249708830912448e-05,-0.0012718705676815606,2.997468828207579
1246,3.249708830912448e-05,-0.001271879677349871,2.9984853989866385
1247,3.249708830912448e-05,-0.0012718895422081486,2.9990378249740273
1248,3.249708830912448e-05,-0.0012718973230978234,2.999309242272347
1249,3.249708830912448e-05,-0.0012719016282885596,2.999262803053275
1250,3.249708830912448e-05,-0.001271904065856225,2.9995677161881256
1251,3.249708830912448e-05,-0.0012719061097059329,2.9999234168765794
1252,3.249708830912448e-05,-0.001271908701375388,3.000545793567735
1253,3.249708830912448e-05,-0.0012719122367513976,3.0011835738844503
1254,3.249708830912448e-05,-0.0012719176504699461,3.0019830168968027
1255,3.249708830912448e-05,-0.0012719252621949783,3.002641073905326
1256,3.249708830912448e-05,-0.0012719337521290462,3.003363369526395
1257,3.249708830912448e-05,-0.0012719403665593318,3.003599652659034
1258,3.249708830912448e-05,-0.001271943925224392,3.0040564879412717
1259,3.249708830912448e-05,-0.0012719458163143696,3.004238060417749
1260,3.249708830912448e-05,-0.0012719473763841813,3.0046392265772894
1261,3.249708830912448e-05,-0.0012719493624257791,3.005080579286786
1262,3.249708830912448e-05,-0.001271952262315415,3.0055440882634805
1263,3.249708830912448e-05,-0.0012719567383034504,3.005933494254356
1264,3.249708830912448e-05,-0.0012719632299543402,3.006001192347455
1265,3.249708830912448e-05,-0.0012719698997042672,3.005759452092546
1266,3.249708830912448e-05,-0.0012719747582120922,3.0051976179061075
1267,3.249708830912448e-05,-0.0012719772148045109,3.0050938951465946
1268,3.249708830912448e-05,-0.0012719787113087521,3.0050567206443968
1269,3.249708830912448e-05,-0.0012719803400212727,3.005315141609029
1270,3.249708830912448e-05,-0.001271982851436074,3.0055491148168354
1271,3.249708830912448e-05,-0.0012719868040939957,3.005802907505249
1272,3.249708830912448e-05,-0.0012719928943597818,3.0058086290230523
1273,3.249708830912448e-05,-0.0012720006122754711,3.005380638768257
1274,3.249708830912448e-05,-0.0012720064168291266,3.004767647181422
1275,3.249708830912448e-05,-0.0012720096788441508,3.004216237254458
1276,3.249708830912448e-05,-0.0012720110764336287,3.004303717770711
1277,3.249708830912448e-05,-0.00127201212558445,3.004416317432101
1278,3.249708830912448e-05,-0.0012720134101543322,3.0047843437122532
1279,3.249708830912448e-05,-0.001272015195077013,3.0051204317419797
1280,3.249708830912448e-05,-0.0012720178826075962,3.0055024677769016
1281,3.249708830912448e-05,-0.0012720220080435886,3.0057481622430386
1282,3.249708830912448e-05,-0.0012720277050250917,3.0058671794312546
1283,3.249708830912448e-05,-0.0012720329430954268,3.0057423218108297
1284,3.249708830912448e-05,-0.00127203634020459,3.0056279976082623
1285,3.431726421110555e-05,-0.0012720379937761653,3.005667194142138
1286,3.431726421110555e-05,-0.001272038979961003,3.0058239554476893
1287,3.431726421110555e-05,-0.0012720399080825564,3.0060230686173397
1288,3.431726421110555e-05,-0.0012720411029380648,3.0062096438265837
1289,3.431726421110555e-05,-0.001272042933757786,3.006320575242445
1290,3.6479097480598965e-05,-0.0012720457376970556,3.0063174855072585
1291,3.6479097480598965e-05,-0.0012720494190168509,3.0061284721957353
1292,3.6479097480598965e-05,-0.001272052563427312,3.00598898024816
1293,3.6479097480598965e-05,-0.0012720544017074465,3.00600895944282
1294,3.6479097480598965e-05,-0.001272055306900723,3.006289631457217
1295,3.6479097480598965e-05,-0.001272055996806355,3.0066386871614332
1296,3.431726421110555e-05,-0.0012720568759612288,3.0071718950870165
1297,3.431726421110555e-05,-0.0012720582108747235,3.007853653460312
1298,3.431726421110555e-05,-0.0012720602729559304,3.0086765443377375
1299,3.431726421110555e-05,-0.0012720633505385178,3.009509330822698
1300,3.6479097480598965e-05,-0.0012720667943583747,3.010035975008646
1301,3.6479097480598965e-05,-0.0012720694631996358,3.009930096038841
1302,3.4344231529911496e-05,-0.0012720708061996914,3.0096774928964516
1303,3.4344231529911496e-05,-0.0012720714878765688,3.009407736328608
1304,3.4344231529911496e-05,-0.00127207209553746,3.009436151998652
1305,3.4344231529911496e-05,-0.0012720730397693153,3.009542210460225
1306,3.4344231529911496e-05,-0.0012720745452910512,3.0099040917701054
1307,3.4344231529911496e-05,-0.0012720769605674555,3.010347937677311
1308,3.4344231529911496e-05,-0.0012720806414134478,3.0110393801879063
1309,3.4344231529911496e-05,-0.001272084667356898,3.0115162901364054
1310,3.4344231529911496e-05,-0.0012720872794293532,3.0116751926815524
1311,3.4344231529911496e-05,-0.001272088560986302,3.0114471553648614
1312,3.4344231529911496e-05,-0.0012720891063581151,3.0114137229400804
1313,3.4344231529911496e-05,-0.0012720896507157763,3.0113673802376453
1314,3.249708830912448e-05,-0.001272090504328336,3.011479331904486
1315,3.249708830912448e-05,-0.0012720918738076583,3.0117184390748686
1316,3.249708830912448e-05,-0.0012720940303864367,3.012097931914278
1317,3.249708830912448e-05,-0.001272097027125174,3.012671710725205
1318,3.570788109742131e-05,-0.001272099342080096,3.0129187848086634
1319,3.249708830912448e-05,-0.0012721008964855793,3.0129805582000517
1320,3.249708830912448e-05,-0.0012721015895080965,3.012800966535576
1321,3.249708830912448e-05,-0.0012721021086031965,3.0127451216901577
1322,3.249708830912448e-05,-0.001272102777634844,3.0126530696711336
1323,3.249708830912448e-05,-0.0012721037897083431,3.0127152210385066
1324,3.249708830912448e-05,-0.001272105263930663,3.0128079617796746
1325,3.4344231529911496e-05,-0.0012721073775412558,3.0130370257921792
1326,3.8040487278234095e-05,-0.0012721101010485418,3.013178534401824
1327,3.8040487278234095e-05,-0.0012721127470956223,3.0132892751143996
1328,3.8040487278234095e-05,-0.0012721144123889704,3.0130962438051645
1329,3.8040487278234095e-05,-0.00127211519856485,3.013057001527779
1330,3.8040487278234095e-05,-0.0012721156586438765,3.012910099207126
1331,3.8040487278234095e-05,-0.0012721160833970226,3.0129281075561947
1332,3.8040487278234095e-05,-0.001272116690473375,3.0129355199222214
1333,3.8040487278234095e-05,-0.0012721176427394334,3.0130044177263815
1334,3.8040487278234095e-05,-0.001272119141950748,3.0130446822239443
1335,3.8040487278234095e-05,-0.0012721213235947413,3.0130999980410103
1336,3.8040487278234095e-05,-0.0012721231531058197,3.01306902205214
1337,3.8040487278234095e-05,-0.0012721241730620605,3.013095083542432
1338,3.8040487278234095e-05,-0.0012721245908588836,3.0131276422279445
1339,3.8040487278234095e-05,-0.0012721248734685318,3.013205617001289
1340,3.8040487278234095e-05,-0.0012721252725886208,3.013327490235709
1341,3.8040487278234095e-05,-0.0012721259064224883,3.0134633074526045
1342,3.8040487278234095e-05,-0.0012721269086335015,3.0136100537470303
1343,3.8040487278234095e-05,-0.0012721284226912136,3.013651124715992
1344,3.8040487278234095e-05,-0.0012721301589325334,3.01351163191338
1345,3.8040487278234095e-05,-0.0012721315868733198,3.0131553120779895
1346,3.8040487278234095e-05,-0.001272132343506098,3.012873366755358
1347,3.8040487278234095e-05,-0.0012721326744055917,3.0127483304898046
1348,3.8040487278234095e-05,-0.0012721329283936847,3.012727277486779
1349,3.8040487278234095e-05,-0.0012721332715751738,3.012750352798431
1350,3.8040487278234095e-05,-0.0012721338086118445,3.0127925845653194
1351,3.8040487278234095e-05,-0.001272134652636512,3.0128417600791617
1352,3.8040487278234095e-05,-0.0012721359336531112,3.012835361948832
1353,3.8040487278234095e-05,-0.0012721374329981397,3.0127689284753565
1354,3.8040487278234095e-05,-0.0012721386226869846,3.012644317313308
1355,3.570788109742131e-05,-0.001272139227232686,3.0126177152386817
1356,3.570788109742131e-05,-0.0012721394741279238,3.0126649027909305
1357,3.8040487278234095e-05,-0.0012721396568618267,3.0127775460467427
1358,3.8040487278234095e-05,-0.0012721398887675897,3.0129414337048344
1359,3.8040487278234095e-05,-0.0012721402508244731,3.013170757669463
1360,3.8040487278234095e-05,-0.0012721408277810205,3.013443795147861
1361,3.570788109742131e-05,-0.0012721417314720583,3.013717717615541
1362,3.570788109742131e-05,-0.001272142944307689,3.013928490298684
1363,3.570788109742131e-05,-0.0012721438345938978,3.0138491263646814
1364,3.570788109742131e-05,-0.0012721443727737288,3.0136576369813928
1365,3.570788109742131e-05,-0.0012721446030279416,3.0135155198011474
1366,3.570788109742131e-05,-0.0012721448149823652,3.0134730234118945
1367,3.570788109742131e-05,-0.0012721451474478973,3.0134906213478336
1368,3.570788109742131e-05,-0.0012721456822510587,3.0136377420880684
1369,3.570788109742131e-05,-0.0012721465335500674,3.0139383020676958
1370,3.570788109742131e-05,-0.0012721477641312604,3.0144415531596707
1371,3.570788109742131e-05,-0.0012721487577436442,3.0148643406960667
1372,3.570788109742131e-05,-0.0012721493515377748,3.01496652911775
1373,3.570788109742131e-05,-0.0012721495614501593,3.0149250553391624
1374,3.570788109742131e-05,-0.0012721496664271446,3.014804792206932
1375,3.570788109742131e-05,-0.0012721498118022762,3.01474507674257
1376,3.570788109742131e-05,-0.0012721500525026772,3.014700933862773
1377,3.570788109742131e-05,-0.0012721504562246927,3.0147501351155985
1378,3.570788109742131e-05,-0.0012721511148516657,3.014909127120043
1379,3.570788109742131e-05,-0.0012721520927584243,3.0152977705560073
1380,3.570788109742131e-05,-0.0012721530039770188,3.0157621657164877
1381,3.570788109742131e-05,-0.0012721536639288533,3.0161279532478846
1382,3.570788109742131e-05,-0.001272153972007772,3.016234653561587
1383,3.570788109742131e-05,-0.0012721541100961659,3.0162253521875035
1384,3.570788109742131e-05,-0.0012721542758224887,3.016188949510141
1385,3.570788109742131e-05,-0.0012721545457470413,3.016177503467876
1386,3.570788109742131e-05,-0.0012721549890097673,3.016201421741813
1387,3.570788109742131e-05,-0.0012721556796026952,3.0163132515685085
1388,3.570788109742131e-05,-0.0012721564817694943,3.016514203845042
1389,3.570788109742131e-05,-0.001272156970218652,3.0166631055921993
1390,3.570788109742131e-05,-0.001272157246523325,3.016716272846746
1391,3.570788109742131e-05,-0.0012721573613603836,3.0167017788515746
