Iteration,Energy,Loss Function,Bias
0,0.31715481742193236,0.31199811528351146,0.0
1,0.042231270354171214,0.02259701514735156,0.29375397880185145
2,0.03621541784707755,0.00791117090508066,0.5090003902591484
3,0.001434453809267165,-0.00719429010658815,0.5166962642050295
4,0.001434453809267165,-0.009639685137896578,0.5592068693608726
5,0.001434453809267165,-0.011688285942933502,0.5755675608313178
6,0.001434453809267165,-0.012468418975867795,0.5925383379534752
7,0.001434453809267165,-0.013020775045870653,0.6200045058035475
8,0.001434453809267165,-0.013576125911824617,0.6717146371712371
9,0.001434453809267165,-0.013857147728847346,0.7220273664561375
10,0.001434453809267165,-0.01400393755298117,0.763387474747663
11,0.001434453809267165,-0.014140043630548072,0.8090512952149449
12,0.001434453809267165,-0.014325624641216677,0.8825127928539398
13,0.001434453809267165,-0.014503966637017885,0.9704680597470906
14,0.001434453809267165,-0.01465470515945442,1.0623269593725648
15,0.001434453809267165,-0.014750215329656686,1.1291203690802103
16,0.001434453809267165,-0.014804253903354849,1.1632156955986892
17,0.001434453809267165,-0.014843057891544071,1.1830358995844155
18,0.001434453809267165,-0.014880545832631275,1.201010641229716
19,0.001434453809267165,-0.014928202811733104,1.2259440714479364
20,0.001434453809267165,-0.014969048333147663,1.2501709964822463
21,0.001434453809267165,-0.0149857590114932,1.257115281977849
22,0.001434453809267165,-0.01499440331032598,1.2596884971884283
23,0.001434453809267165,-0.015002443355154486,1.2648509729179536
24,0.001434453809267165,-0.015010387665548248,1.2722412049470282
25,0.001434453809267165,-0.015019427073045308,1.2812574569831543
26,0.001434453809267165,-0.015027762798154843,1.2883055756848651
27,0.001434453809267165,-0.015033789527361723,1.2910731424376385
28,0.001434453809267165,-0.015038601632893823,1.2907570262668382
29,0.001434453809267165,-0.015044436872437653,1.2881027581794806
30,0.001434453809267165,-0.015051143874624947,1.2835575645071617
31,0.001434453809267165,-0.015057887571679657,1.279006100830716
32,0.001434453809267165,-0.015064104816659542,1.276806021725004
33,0.001434453809267165,-0.015069715882259789,1.2770733423927842
34,0.001434453809267165,-0.01507442617347625,1.278239491070811
35,0.001434453809267165,-0.01507791730187032,1.2793649741967557
36,0.001434453809267165,-0.015080742210854639,1.2803666908786826
37,0.001434453809267165,-0.015084256481162524,1.2809338258663545
38,0.001434453809267165,-0.015088988448435214,1.2800379679341252
39,0.001434453809267165,-0.015093591690829402,1.2765085495499158
40,0.001434453809267165,-0.01509650771396823,1.2723137463598886
41,0.001434453809267165,-0.015098111794232599,1.2699831992137895
42,0.001434453809267165,-0.01509918716381347,1.2686815474951572
43,0.001434453809267165,-0.015100142975091919,1.2679967058002033
44,0.001434453809267165,-0.015101011838166402,1.267273030124944
45,0.001434453809267165,-0.015101839600714645,1.2669333454983236
46,0.001434453809267165,-0.015102685632618944,1.2659549095983684
47,0.001434453809267165,-0.01510345778624139,1.265270033341733
48,0.001434453809267165,-0.015103995302959241,1.2635022378602876
49,0.001434453809267165,-0.015104316823224096,1.2631539317702574
50,0.001434453809267165,-0.015104557063500806,1.2621993565567626
51,0.001434453809267165,-0.015104770632762034,1.261996856988581
52,0.001434453809267165,-0.015104915189287617,1.2619515813546178
53,0.001434453809267165,-0.015105001613983324,1.2621157337497733
54,0.001434453809267165,-0.015105092929079834,1.2623196757049566
55,0.001434453809267165,-0.01510523324034251,1.262470498033671
56,0.001434453809267165,-0.015105443925082994,1.2623468427087212
57,0.001434453809267165,-0.015105680912351857,1.2617275134268666
58,0.001434453809267165,-0.01510586542934761,1.2608172090539802
59,0.001434453809267165,-0.015105989311917572,1.2600804989602314
60,0.001434453809267165,-0.015106105349346645,1.259648286013149
61,0.001434453809267165,-0.015106250714779052,1.2596444883672437
62,0.001434453809267165,-0.015106422795286538,1.2603341973667364
63,0.001434453809267165,-0.015106610870475235,1.2617732285911745
64,0.001434453809267165,-0.015106823242041736,1.263824024367107
65,0.001434453809267165,-0.015107080534462122,1.2663438277830084
66,0.001434453809267165,-0.01510735861014208,1.2687467331442628
67,0.001434453809267165,-0.015107586794211241,1.2701220518543883
68,0.001434453809267165,-0.015107741982972989,1.270417781194309
69,0.001434453809267165,-0.015107863691465648,1.2703151676249271
70,0.001434453809267165,-0.015107984151005189,1.2702628709399915
71,0.001434453809267165,-0.0151081044533546,1.2704674773749225
72,0.001434453809267165,-0.015108211215344664,1.2708626998503127
73,0.001434453809267165,-0.015108302062327257,1.2712321541314657
74,0.001434453809267165,-0.01510838370258425,1.2715053438632398
75,0.001434453809267165,-0.015108477200081892,1.2717484630314646
76,0.001434453809267165,-0.015108610090475098,1.2719734138718515
77,0.001434453809267165,-0.015108787533368114,1.2720130155866352
78,0.001434453809267165,-0.01510898268596176,1.2716828718032176
79,0.001434453809267165,-0.015109135814775191,1.2710750159543183
80,0.001434453809267165,-0.015109223158046366,1.2705530716704876
81,0.001434453809267165,-0.01510928013191437,1.270148370949899
82,0.001434453809267165,-0.015109352717814559,1.2695461151662129
83,0.001434453809267165,-0.015109465341152274,1.2684483377836324
84,0.001434453809267165,-0.015109614473405652,1.2667772838894669
85,0.001434453809267165,-0.015109722410317475,1.265519881944651
86,0.001434453809267165,-0.01510977462000818,1.2652145922492573
87,0.001434453809267165,-0.015109797276331252,1.2652992291236318
88,0.001434453809267165,-0.015109818980239298,1.2655904664639426
89,0.001434453809267165,-0.015109842245659437,1.2656283260850496
90,0.001434453809267165,-0.015109863992866969,1.2654220919492365
91,0.001434453809267165,-0.015109881794764945,1.2648419909178854
92,0.001434453809267165,-0.01510989763106293,1.2640772008318837
93,0.001434453809267165,-0.015109910410110373,1.2633251954431997
94,0.001434453809267165,-0.015109916114722528,1.2630191319600073
95,0.001434453809267165,-0.015109917929485394,1.2630354414426224
96,0.001434453809267165,-0.0151099191400346,1.2631013803228406
97,0.001434453809267165,-0.01510992108099809,1.263172294654718
98,0.001434453809267165,-0.015109924169803763,1.26320110108503
99,0.001434453809267165,-0.015109928666683554,1.2631162512064613
100,0.001434453809267165,-0.015109932459134485,1.2629087876369374
101,0.001434453809267165,-0.01510993522026752,1.26267330688681
102,0.001434453809267165,-0.015109937149368882,1.26252466446585
103,0.001434453809267165,-0.015109939508101782,1.2624355756956283
104,0.001434453809267165,-0.015109943197955975,1.2624174815862692
105,0.001434453809267165,-0.015109948507143053,1.2625282552225485
106,0.001434453809267165,-0.015109952943507214,1.2627426490200282
107,0.001434453809267165,-0.01510995575524841,1.2629374333900543
108,0.001434453809267165,-0.015109957717438671,1.2630450626941248
109,0.001434453809267165,-0.015109960652524377,1.2631318461381909
110,0.001434453809267165,-0.015109965345625375,1.2631939738314735
111,0.001434453809267165,-0.015109972212319488,1.2632147686317783
112,0.001434453809267165,-0.015109977183377307,1.2631643684926235
113,0.001434453809267165,-0.015109978925179556,1.263108587555321
114,0.001434453809267165,-0.015109979424965276,1.263092057738283
115,0.001434453809267165,-0.015109979862147831,1.2630985783402633
116,0.001434453809267165,-0.015109980612646347,1.2631312973896305
117,0.001434453809267165,-0.01510998189274545,1.2632077248640037
118,0.001434453809267165,-0.015109983877364879,1.2633673013982756
119,0.001434453809267165,-0.015109985612294595,1.2635874417830306
120,0.001434453809267165,-0.015109986212496792,1.2636645950809795
