Iteration,Energy,Loss Function,Bias
0,0.3246518017687675,0.22776068714590345,0.0
1,0.026018725943848728,0.014453233123839691,0.18256719411044084
2,0.005437966554856613,0.0011714611040607148,0.41403124602943897
3,0.005437966554856613,-0.008364115989470115,0.41706983654567065
4,0.005437966554856613,-0.010751902407196355,0.41920252630071986
5,0.005437966554856613,-0.012134709187521926,0.4210274013531214
6,0.005437966554856613,-0.012865224613863802,0.42379846811292354
7,0.005437966554856613,-0.013014321067078227,0.42515962754395537
8,0.005437966554856613,-0.013066979478503169,0.4252793131121292
9,0.005437966554856613,-0.0131483944428471,0.424518134655685
10,0.005437966554856613,-0.01323295945869573,0.42268060202466584
11,0.005437966554856613,-0.01327642908508527,0.4207797320538838
12,0.005437966554856613,-0.013292088424566981,0.4194173032438742
13,0.005437966554856613,-0.013300428967655256,0.41846053111616105
14,0.005437966554856613,-0.013310766908429967,0.4172951152459907
15,0.005437966554856613,-0.013321188429222459,0.416111572709103
16,0.005437966554856613,-0.013328416826151426,0.41531955350299316
17,0.005437966554856613,-0.013334997602370436,0.4147507281092892
18,0.005437966554856613,-0.01334117027884946,0.41423508384369706
19,0.005437966554856613,-0.013343721349151154,0.4138664583682481
20,0.005437966554856613,-0.013345594925967546,0.4134897638548467
21,0.005437966554856613,-0.01334837939710112,0.4129407296109845
22,0.005437966554856613,-0.013351246963367938,0.4125747652443793
23,0.005437966554856613,-0.013354363891084705,0.4125631520478967
24,0.005437966554856613,-0.013356813190075667,0.4129740314754922
25,0.005437966554856613,-0.013357907292902486,0.4134029558052955
26,0.005437966554856613,-0.013358426876237414,0.41361237808109413
27,0.005437966554856613,-0.013359197716339347,0.41378122327983186
28,0.005437966554856613,-0.01336051040874807,0.4138855973310303
29,0.005437966554856613,-0.013362694108157805,0.4138667747345515
30,0.005437966554856613,-0.013365843184078593,0.41354391289241027
31,0.005437966554856613,-0.013367914739412602,0.41297662126418533
32,0.005437966554856613,-0.013369101831562159,0.412353765314855
33,0.005437966554856613,-0.013369418205316503,0.4120126451888623
34,0.005437966554856613,-0.01336949150971913,0.4119508634195901
35,0.005437966554856613,-0.013369618824917915,0.41191722754978116
36,0.005437966554856613,-0.013369845363877019,0.41191898041772007
37,0.005437966554856613,-0.013370246306825002,0.4119859184402271
38,0.005437966554856613,-0.013370927725580996,0.4121916700599716
39,0.005437966554856613,-0.013371957258808055,0.41270537763644133
40,0.005437966554856613,-0.01337281631110151,0.41343530486864255
41,0.005437966554856613,-0.013373255544001438,0.4139505711404532
42,0.005437966554856613,-0.01337343184268623,0.4142081382498675
43,0.005437966554856613,-0.013373466216317218,0.41424101597592144
44,0.005437966554856613,-0.013373487537717315,0.41425515291112824
45,0.005437966554856613,-0.013373524690762013,0.41429694700193986
46,0.005437966554856613,-0.01337359160474993,0.41439234637177347
47,0.005437966554856613,-0.013373712271568385,0.41458862924367074
48,0.005437966554856613,-0.013373923811999294,0.41498217702712203
49,0.005437966554856613,-0.013374265863319974,0.4157706405462064
50,0.005437966554856613,-0.013374675279375737,0.41720422221521536
51,0.005437966554856613,-0.013374865117865726,0.41794804856279166
52,0.005437966554856613,-0.013374979029665873,0.4183305494088442
53,0.005437966554856613,-0.013375005241654778,0.4182710273930682
54,0.005437966554856613,-0.013375023709315115,0.41820579026184046
55,0.005437966554856613,-0.013375054738779589,0.4182176929371787
56,0.005437966554856613,-0.013375109051813487,0.4183907932361542
57,0.005437966554856613,-0.013375203654122857,0.41886115044032385
58,0.005437966554856613,-0.013375358001845737,0.41992338191386636
59,0.005437966554856613,-0.013375551137608223,0.42215788222618617
60,0.005437966554856613,-0.013375633229555664,0.42326380076659986
61,0.005437966554856613,-0.013375694800206965,0.4240826065740022
62,0.005437966554856613,-0.013375715070714816,0.4242287607424597
63,0.005437966554856613,-0.013375742620781048,0.4243946908600431
64,0.005437966554856613,-0.013375788826227052,0.4247499988339632
65,0.005437966554856613,-0.013375868213860179,0.4254751733815184
66,0.005437966554856613,-0.013376001265291638,0.4269022505426615
67,0.005437966554856613,-0.013376197758091285,0.42970227338558153
68,0.005437966554856613,-0.01337633412471763,0.43236538686808557
69,0.005437966554856613,-0.013376414375718937,0.4333561153366208
70,0.005437966554856613,-0.013376476237863566,0.43328400096416597
71,0.005437966554856613,-0.01337649112886449,0.4328466495318989
72,0.005437966554856613,-0.013376505958694862,0.43252487109995824
73,0.005437966554856613,-0.01337653207743379,0.4323378691926145
74,0.005437966554856613,-0.013376579054352104,0.43237507580809215
75,0.005437966554856613,-0.01337666236094524,0.43283644816519823
76,0.005437966554856613,-0.013376801221643959,0.4341991209101042
77,0.005437966554856613,-0.01337699115329055,0.43758637082343693
78,0.005437966554856613,-0.013377097311973216,0.44032152983297657
79,0.005437966554856613,-0.01337718186776162,0.4428812852407351
80,0.005437966554856613,-0.013377208826289129,0.4438045569022211
81,0.005437966554856613,-0.013377217126085738,0.4441324601996532
82,0.005437966554856613,-0.013377228031613482,0.44457945082304845
83,0.005437966554856613,-0.013377245914483563,0.44537760623184647
84,0.005437966554856613,-0.013377275416068164,0.4466043319776255
85,0.005437966554856613,-0.013377323385070573,0.4486421365269635
86,0.005437966554856613,-0.01337739948573764,0.45152999223798085
87,0.005437966554856613,-0.013377510769466052,0.4562467334659108
88,0.005437966554856613,-0.013377631747703154,0.45963431532964377
89,0.005437966554856613,-0.013377712932129937,0.46540482903354763
90,0.005437966554856613,-0.013377833359059923,0.4630428819266117
91,0.005437966554856613,-0.013377912093230866,0.4618708313004465
92,0.005437966554856613,-0.013377922414815783,0.4614786119519389
93,0.005437966554856613,-0.013377935414897619,0.4609388549763932
94,0.005437966554856613,-0.013377946883392111,0.4606864557445981
95,0.005437966554856613,-0.013377966261409585,0.46053674348146395
96,0.005437966554856613,-0.013377998561870188,0.4605294671533104
97,0.005437966554856613,-0.01337804891763415,0.46086332374345945
98,0.005437966554856613,-0.01337811011410659,0.4618772687511058
99,0.005437966554856613,-0.013378161835141154,0.46327084584990896
100,0.005437966554856613,-0.013378214823684297,0.4653057666645079
101,0.005437966554856613,-0.01337825947773153,0.46773270874865364
102,0.005437966554856613,-0.013378296225701924,0.4701601886267905
103,0.005437966554856613,-0.01337831742433526,0.47118804107212603
104,0.005437966554856613,-0.013378323677232637,0.47253057813118954
105,0.005437966554856613,-0.013378327131475269,0.4726277387685805
106,0.005437966554856613,-0.01337833130192245,0.4731498965900606
107,0.005437966554856613,-0.013378338969155405,0.47384422788529407
108,0.005437966554856613,-0.013378352656440728,0.4749342239968976
109,0.005437966554856613,-0.01337837544496894,0.4767130955900862
110,0.005437966554856613,-0.01337840786274338,0.47948301894536144
111,0.005437966554856613,-0.013378433425494968,0.48101537566688046
112,0.005437966554856613,-0.013378469495741932,0.4823974780424963
113,0.005437966554856613,-0.013378509224942381,0.4815565091275334
114,0.005437966554856613,-0.01337853617038695,0.47998862387805413
115,0.005437966554856613,-0.013378544100846471,0.4787115120425014
116,0.005437966554856613,-0.0133785480011512,0.47846982126211235
117,0.005437966554856613,-0.013378549874291755,0.47847981679711826
118,0.005437966554856613,-0.013378553110241229,0.47883399606404387
119,0.005437966554856613,-0.013378558773386132,0.4794270556982389
120,0.005437966554856613,-0.013378568722446934,0.48034160925513675
121,0.005437966554856613,-0.013378586132610759,0.4816959967992592
122,0.005437966554856613,-0.013378616122513308,0.4837084961203976
123,0.005437966554856613,-0.013378665879537274,0.4866923255643735
124,0.005437966554856613,-0.013378741666608636,0.49097939071184066
125,0.005437966554856613,-0.013378823363513615,0.49485314096975075
126,0.005437966554856613,-0.01337888792240648,0.4961543406524697
127,0.005437966554856613,-0.013378916515150021,0.4951130941151593
128,0.005437966554856613,-0.013378920396217487,0.49425035707749093
129,0.005437966554856613,-0.013378922617264567,0.49376187546370826
130,0.005437966554856613,-0.013378926432559954,0.49334919033391494
131,0.005437966554856613,-0.01337893325215881,0.49306904260327905
132,0.005437966554856613,-0.013378945598765842,0.4930113960420346
133,0.005437966554856613,-0.013378967794359665,0.49340096081095136
134,0.005437966554856613,-0.013379006545485659,0.4947549071374787
135,0.005437966554856613,-0.013379069546114463,0.4982327943408432
136,0.005437966554856613,-0.013379152790324889,0.5063603912772365
137,0.005437966554856613,-0.013379199260475752,0.5126418977340281
138,0.005437966554856613,-0.013379236100774843,0.5186821993768438
139,0.005437966554856613,-0.013379245099347332,0.5196828066836247
140,0.005437966554856613,-0.013379246955748986,0.5196645647095706
141,0.005437966554856613,-0.013379248085915812,0.5196099074999664
142,0.005437966554856613,-0.01337924993527126,0.5198428173494202
143,0.005437966554856613,-0.013379253046849024,0.5203075481626233
144,0.005437966554856613,-0.013379258440680676,0.5213310627768319
145,0.005437966554856613,-0.013379267969633655,0.523099706501944
146,0.005437966554856613,-0.01337928484219265,0.5263301165948989
147,0.005437966554856613,-0.01337931412109551,0.5321098454717308
148,0.005437966554856613,-0.013379361341224293,0.542728332129558
149,0.005437966554856613,-0.013379414814371356,0.5589453741775489
150,0.005437966554856613,-0.013379436366278464,0.5638027261217838
151,0.005437966554856613,-0.013379454764381625,0.5656870161149121
152,0.005437966554856613,-0.013379459769330398,0.5611353931569737
153,0.005437966554856613,-0.013379462995444617,0.5600218526911112
154,0.005437966554856613,-0.013379464623597187,0.5598548241201444
155,0.005437966554856613,-0.013379466183417548,0.559010364551896
156,0.005437966554856613,-0.013379467882375599,0.5582920805334564
157,0.005437966554856613,-0.013379470520368069,0.5578169333358706
158,0.005437966554856613,-0.013379474910736884,0.5579746844717942
159,0.005437966554856613,-0.013379482610468328,0.559009078336736
160,0.005437966554856613,-0.013379496383806703,0.5613454324864771
161,0.005437966554856613,-0.013379520761794716,0.5659282926126126
162,0.005437966554856613,-0.013379561543718195,0.5746380104445574
163,0.005437966554856613,-0.013379616709817762,0.5911823894153313
164,0.005437966554856613,-0.013379637458147589,0.5989667334864011
165,0.005437966554856613,-0.013379646293622429,0.6005736739892602
166,0.005437966554856613,-0.013379650370170621,0.599458018103581
167,0.005437966554856613,-0.013379652805240698,0.5982009078544346
168,0.005437966554856613,-0.013379655923659767,0.597419110785126
169,0.005437966554856613,-0.013379661348816985,0.5972899463409522
170,0.005437966554856613,-0.013379671123552685,0.59817254819762
171,0.005437966554856613,-0.013379688780430199,0.6007373996067379
172,0.005437966554856613,-0.013379719716823666,0.6065819985489118
173,0.005437966554856613,-0.013379768614447984,0.6189456405597528
174,0.005437966554856613,-0.013379817879651127,0.637950422056619
175,0.005437966554856613,-0.013379849843820266,0.6450897473052464
176,0.005437966554856613,-0.013379868550022248,0.6465543257737513
177,0.005437966554856613,-0.013379874704300722,0.6465042483578319
178,0.005437966554856613,-0.01337987645563713,0.6482586830852394
179,0.005437966554856613,-0.013379876928860933,0.6487184405862907
180,0.005437966554856613,-0.013379877443930101,0.6493649673931171
181,0.005437966554856613,-0.013379878255656551,0.6497546330745672
182,0.005437966554856613,-0.013379879659289733,0.6504313442737537
183,0.005437966554856613,-0.013379882160290842,0.6513159678202911
184,0.005437966554856613,-0.013379886627161278,0.6528916351044127
185,0.005437966554856613,-0.013379894520728351,0.6557699721764654
186,0.005437966554856613,-0.013379908176802454,0.6612095816936575
187,0.005437966554856613,-0.013379931073297819,0.6712520392537329
188,0.005437966554856613,-0.013379967561384919,0.689534446765773
189,0.005437966554856613,-0.013380017826282006,0.7196838506812738
190,0.005437966554856613,-0.01338002928659252,0.7289409507727012
191,0.005437966554856613,-0.013380050042981914,0.7385961358301995
192,0.005437966554856613,-0.01338008557848455,0.7511678777521942
193,0.005437966554856613,-0.013380134655090786,0.7741839784222376
194,0.005437966554856613,-0.013380158784195068,0.784080856611038
195,0.005437966554856613,-0.0133801867122985,0.7920270382123274
196,0.005437966554856613,-0.013380229909215561,0.7925377959675548
197,0.005437966554856613,-0.013380256700353718,0.7879251009787132
198,0.005437966554856613,-0.013380269341301043,0.7893878401826115
199,0.005437966554856613,-0.01338027329087927,0.7912785623545948
200,0.005437966554856613,-0.013380275353909761,0.7887470050967967
201,0.005437966554856613,-0.013380278763765237,0.7864347049527465
202,0.005437966554856613,-0.013380284318909358,0.7841979652950426
203,0.005437966554856613,-0.013380293396147984,0.7828239500998454
204,0.005437966554856613,-0.013380308277641398,0.7834109329069877
205,0.005437966554856613,-0.013380331811904634,0.787778323240552
206,0.005437966554856613,-0.013380363514348945,0.7988784926631978
207,0.005437966554856613,-0.013380389581318416,0.8119406849129086
208,0.005437966554856613,-0.013380407736197458,0.8294604037052291
209,0.005437966554856613,-0.013380410922841294,0.8318149825039773
210,0.005437966554856613,-0.013380412431330552,0.8319706301864939
211,0.005437966554856613,-0.013380413167542243,0.8324322297880201
212,0.005437966554856613,-0.01338041444795121,0.8333984091716309
213,0.005437966554856613,-0.013380416675475477,0.8346118321630522
214,0.005437966554856613,-0.013380420530770957,0.8369031189278908
215,0.005437966554856613,-0.013380427144598472,0.8399509492200697
216,0.005437966554856613,-0.013380438298682087,0.8456400264127953
217,0.005437966554856613,-0.013380456399782796,0.8532046092947247
218,0.005437966554856613,-0.01338048297055105,0.8668795941777652
219,0.005437966554856613,-0.013380506900171608,0.8740756507216978
220,0.005437966554856613,-0.013380520609824751,0.8775635864518145
221,0.005437966554856613,-0.0133805243779007,0.8727464329588955
