Iteration,Energy,Loss Function,Bias
0,0.3246518017687675,0.22776068714590345,0.0
1,0.026018725943848728,0.015070168397845866,0.16765896260578633
2,0.005437966554856613,0.004841917921056483,0.6215066660121793
3,0.005437966554856613,-0.0051776763403125975,0.6859128588280706
4,0.005437966554856613,-0.009372212394356656,0.8222534691736223
5,0.005437966554856613,-0.012123931659720215,0.9536221523420367
6,0.005437966554856613,-0.012489985321930698,0.9961743932896859
7,0.005437966554856613,-0.012725805398125472,1.0456754086496431
8,0.005437966554856613,-0.012954016493040907,1.1097706631344564
9,0.005437966554856613,-0.013121129394173986,1.188623137213039
10,0.005437966554856613,-0.013188199644569727,1.270702276300473
11,0.005437966554856613,-0.013203678544735283,1.354072739904642
12,0.005437966554856613,-0.013208985492069775,1.3892585970385354
13,0.005437966554856613,-0.013223931357241626,1.441909029206246
14,0.005437966554856613,-0.013236765932107345,1.4705045716008056
15,0.005437966554856613,-0.013250111657353241,1.492729005323166
16,0.005437966554856613,-0.013264583629128985,1.5148644280032355
17,0.005437966554856613,-0.013278224133824736,1.5405719532729982
18,0.005437966554856613,-0.013283502139160698,1.5669028097813358
19,0.005437966554856613,-0.01328704476513699,1.5685237603278122
20,0.005437966554856613,-0.01329367744667518,1.5685359914462789
21,0.005437966554856613,-0.01330539957651122,1.5695768577426816
22,0.005437966554856613,-0.013322805463955931,1.5780793091152054
23,0.005437966554856613,-0.013336593732760652,1.613004715640966
24,0.005437966554856613,-0.013336643545840554,1.6256751112516454
