Iteration,Energy,Loss Function,Bias
0,0.026687478964294492,0.09561344393715292,0.0
1,0.07140820766208711,0.01719794342924204,0.24480316468917265
2,0.0003051745244928186,-0.0038961671883833474,0.4398311257348423
3,0.0015409991496440835,-0.007064982559558783,0.4130181248921305
4,0.0015409991496440835,-0.00800644431851614,0.4225935023572636
5,0.00033931415025300064,-0.008946589195460502,0.4259392200627623
6,0.00036261341875613303,-0.00943943140499877,0.4387571844295475
7,0.00036261341875613303,-0.009741003785477648,0.44490161809815176
8,0.00036261341875613303,-0.010017889701402344,0.45696966322379823
9,0.00036261341875613303,-0.010112283606562338,0.46666913752306755
10,0.00036261341875613303,-0.01017362782208801,0.478322472254604
11,0.00036261341875613303,-0.01022935694713172,0.49317715006664403
12,0.00036261341875613303,-0.010286212487996044,0.5140895106285995
13,0.00036261341875613303,-0.010323807083185773,0.5324736511368303
14,0.00036261341875613303,-0.010351370290854532,0.5474898210161171
15,0.00036261341875613303,-0.010367884080925836,0.55685570888288
16,0.00036261341875613303,-0.010380741708437238,0.5640367919429177
17,0.00036261341875613303,-0.01039690684923412,0.5759446252819873
18,0.00036261341875613303,-0.010411022527629364,0.5922011876771512
19,0.00036261341875613303,-0.010422180900313873,0.6104297412096914
20,0.00036261341875613303,-0.010431485627890948,0.6270657829880797
21,0.00036261341875613303,-0.01044145397091262,0.6416522220059078
22,0.00036261341875613303,-0.010452777130496105,0.6528467761024335
23,0.00036261341875613303,-0.010461892866698285,0.6589647469761882
24,0.00036261341875613303,-0.010467245110464691,0.6638931842893758
25,0.00036261341875613303,-0.010473752583104684,0.6732917445556467
26,0.00036261341875613303,-0.010483174054341234,0.6912937687603559
27,0.00036261341875613303,-0.010492788150720099,0.7130017113068581
28,0.00036261341875613303,-0.010501855159332094,0.7353264730157455
29,0.00036261341875613303,-0.010508838694221201,0.7532411395941834
30,0.00036261341875613303,-0.010513967427729275,0.7645963388496891
31,0.00036261341875613303,-0.010519230660478718,0.7737156386590167
32,0.00036261341875613303,-0.010525644434174178,0.7842265431023985
33,0.00036261341875613303,-0.01053210010348895,0.7956224750163411
34,0.00036261341875613303,-0.01053692897698388,0.8033133177727072
35,0.00036261341875613303,-0.010540359073922126,0.8074714832622005
36,0.00036261341875613303,-0.010543021604822149,0.8117776482935524
37,0.00036261341875613303,-0.01054629134515285,0.8193408367904234
38,0.00036261341875613303,-0.010551285974853462,0.8332454172730512
39,0.00036261341875613303,-0.010557314514032995,0.8523428760607092
40,0.00036261341875613303,-0.01056244440562341,0.8704110955294275
41,0.00036261341875613303,-0.01056544773248218,0.8820982611643663
42,0.00036261341875613303,-0.010567438101184226,0.888767585568084
43,0.00036261341875613303,-0.010570281100402562,0.8972457140103739
44,0.00036261341875613303,-0.010573429455858006,0.907212106490192
45,0.00036261341875613303,-0.010575602357945428,0.9145993118713125
46,0.00036261341875613303,-0.010576986064525718,0.9187360165349798
47,0.00036261341875613303,-0.01057824156008472,0.922636936858439
48,0.00036261341875613303,-0.01057986971729922,0.9289443196733812
49,0.00036261341875613303,-0.010582368743990172,0.940498172821711
50,0.00036261341875613303,-0.010585509094626666,0.9572126167199961
51,0.00036261341875613303,-0.010588043380794403,0.971759498694024
52,0.00036261341875613303,-0.01058929237451123,0.9783913850820514
53,0.00036261341875613303,-0.01058995297287888,0.9805053747137097
54,0.00036261341875613303,-0.010590846654817514,0.9827859014923978
55,0.00036261341875613303,-0.010592241913762856,0.9870864032325907
56,0.00036261341875613303,-0.010594362616920145,0.9956197062320297
57,0.00036261341875613303,-0.010596712682005693,1.0073526765952534
58,0.00036261341875613303,-0.010598410787105723,1.015125292378568
59,0.00036261341875613303,-0.010599478162556956,1.017753584146799
60,0.00036261341875613303,-0.01060016439222494,1.019250564117879
61,0.00036261341875613303,-0.010600873277100702,1.022054319802808
62,0.00036261341875613303,-0.01060190778992004,1.0278924092433979
63,0.00036261341875613303,-0.0106031879765246,1.0368448642316093
64,0.00036261341875613303,-0.010604308063515009,1.0451691534510419
65,0.00036261341875613303,-0.010605005155975782,1.0485809682516785
66,0.00036261341875613303,-0.01060549106479866,1.0486952331092685
67,0.00036261341875613303,-0.010605982164393344,1.0477529682169051
68,0.00036261341875613303,-0.010606498147937392,1.0469448957081684
69,0.00036261341875613303,-0.010606999859178862,1.0471893120814835
70,0.00036261341875613303,-0.010607478718136089,1.048582339466986
71,0.00036261341875613303,-0.010607947488502573,1.0505353682980236
72,0.00036261341875613303,-0.010608393246251943,1.0522757386480237
73,0.00036261341875613303,-0.010608820768261952,1.0534451845351813
74,0.00036261341875613303,-0.010609239374061044,1.0539724503689507
75,0.00036261341875613303,-0.010609674523242019,1.0539477728312998
76,0.00036261341875613303,-0.010610183736725736,1.0536963741360847
77,0.00036261341875613303,-0.01061071537475634,1.0538226535719193
78,0.00036261341875613303,-0.010611142012258152,1.0548025549854876
79,0.00036261341875613303,-0.010611490523474479,1.0562930174955856
80,0.00036261341875613303,-0.010611954266579052,1.058258055968766
81,0.00036261341875613303,-0.010612683148355319,1.0606558121827694
82,0.00036261341875613303,-0.010613759558032768,1.0629928816395326
83,0.00036261341875613303,-0.010614713821551013,1.063148207314453
84,0.00036261341875613303,-0.010615242803570969,1.0611849396536526
85,0.00036261341875613303,-0.01061547378559413,1.0595069559504948
86,0.00036261341875613303,-0.010615649724859257,1.0585850422600458
87,0.00036261341875613303,-0.01061586317126037,1.058433698446564
88,0.00036261341875613303,-0.010616159824727429,1.0593389611573432
89,0.00036261341875613303,-0.010616583863022848,1.0614663054571825
90,0.00036261341875613303,-0.010617136515178559,1.0644346215065517
91,0.00036261341875613303,-0.010617754266835647,1.067084315200237
92,0.00036261341875613303,-0.01061833591986533,1.068032567042324
93,0.00036261341875613303,-0.01061877576171432,1.0667547415023693
94,0.00036261341875613303,-0.01061910948591645,1.0644791587580733
95,0.00036261341875613303,-0.010619487063011548,1.0618359119525114
96,0.00036261341875613303,-0.010619947736805205,1.0594881703171766
97,0.00036261341875613303,-0.010620427428139921,1.0584063868736633
98,0.00036261341875613303,-0.010620848790634048,1.0587797045453622
99,0.00036261341875613303,-0.010621175361037858,1.0601860769358735
100,0.00036261341875613303,-0.01062141671790258,1.0618727126675802
101,0.00036261341875613303,-0.010621647616652243,1.063252229981048
102,0.00036261341875613303,-0.01062197923500778,1.064129917146509
103,0.00036261341875613303,-0.01062249196519793,1.0637723894570423
104,0.00036261341875613303,-0.010623178167079429,1.0610389466855492
105,0.00036261341875613303,-0.010623744074789563,1.0564831287481637
106,0.00036261341875613303,-0.010624053495769684,1.0528024138897656
107,0.00036261341875613303,-0.01062422751903803,1.0511389672967477
108,0.00036261341875613303,-0.010624406653435637,1.050539680214017
109,0.00036261341875613303,-0.01062469095587538,1.0506269135016373
110,0.00036261341875613303,-0.010625140702821808,1.0514260209164936
111,0.00036261341875613303,-0.010625764576489087,1.0529309416539292
112,0.00036261341875613303,-0.010626144469101472,1.0535399254717361
113,0.00036261341875613303,-0.010626327247239024,1.053537505350497
114,0.00036261341875613303,-0.010626424733850776,1.0534663309734986
115,0.00036261341875613303,-0.010626560658780973,1.0531731979697592
116,0.00036261341875613303,-0.010626785974042277,1.0529196692127907
117,0.00036261341875613303,-0.010627162573772938,1.0527611296819552
118,0.00036261341875613303,-0.010627748861564831,1.0532087068205396
119,0.00036261341875613303,-0.0106283329836661,1.054613817894742
120,0.00036261341875613303,-0.010628575671350211,1.0560207654003977
121,0.00036261341875613303,-0.010628688375515056,1.056766197466628
122,0.00036261341875613303,-0.010628751606366822,1.0572175868419693
123,0.00036261341875613303,-0.01062885881715236,1.0576441246427404
124,0.00036261341875613303,-0.010629046181555678,1.0584712482597947
125,0.00036261341875613303,-0.010629372029850778,1.059712679608217
126,0.00036261341875613303,-0.01062990879494121,1.0621063587794433
127,0.00036261341875613303,-0.010630641515681593,1.065833746488421
128,0.00036261341875613303,-0.010631040706895861,1.067513489456668
129,0.00036261341875613303,-0.010631319655324904,1.0669284755492463
130,0.00036261341875613303,-0.010631419470636842,1.0666279232903135
131,0.00036261341875613303,-0.010631505200499833,1.065316621240665
132,0.00036261341875613303,-0.01063165094486835,1.0652538115605559
133,0.00036261341875613303,-0.010631909483218507,1.0649906054603735
134,0.00036261341875613303,-0.010632362037342158,1.0660183567412125
135,0.00036261341875613303,-0.010633087890457076,1.0687800830746992
136,0.00036261341875613303,-0.01063382936663676,1.0749998971485584
137,0.00036261341875613303,-0.010634086778723099,1.078292638783574
138,0.00036261341875613303,-0.010634257505253365,1.0815582290572512
139,0.00036261341875613303,-0.01063432910401681,1.0824716184948722
140,0.00036261341875613303,-0.01063444612604288,1.0837033805591014
141,0.00036261341875613303,-0.010634645822473612,1.0851324504269622
142,0.00036261341875613303,-0.010634986501889236,1.087354106976797
143,0.00036261341875613303,-0.010635528550840663,1.0906535528226282
144,0.00036261341875613303,-0.010636119638960474,1.094491743256551
145,0.00036261341875613303,-0.010636352043281089,1.094700559000446
146,0.00036261341875613303,-0.010636474045015193,1.093686356076692
147,0.00036261341875613303,-0.010636525709681552,1.0928233597632522
148,0.00036261341875613303,-0.010636607903820702,1.0917343030072433
149,0.00036261341875613303,-0.010636745967895432,1.0906869321298007
150,0.00036261341875613303,-0.010636982994715051,1.0895797792193398
151,0.00036261341875613303,-0.010637381231258207,1.0888976247287694
152,0.00036261341875613303,-0.0106379921811976,1.0885636412886297
153,0.00036261341875613303,-0.010638595287343176,1.090664235291183
154,0.00036261341875613303,-0.010638977222730947,1.092920656654955
155,0.00036261341875613303,-0.010639212849184615,1.097830321625372
156,0.00036261341875613303,-0.010639294904275377,1.097799779221967
157,0.00036261341875613303,-0.010639367366052567,1.1000883252907072
158,0.00036261341875613303,-0.010639484568810306,1.0997308594058939
159,0.00036261341875613303,-0.010639686125283472,1.099968822816982
160,0.00036261341875613303,-0.010640033733945833,1.1002236181051064
161,0.00036261341875613303,-0.010640604558209544,1.1010356416051614
162,0.00036261341875613303,-0.0106414017378867,1.1031858484718795
163,0.00036261341875613303,-0.010641936178589785,1.1044729209728985
164,0.00036261341875613303,-0.010642385237180583,1.1056921600423784
165,0.00036261341875613303,-0.010642547378773504,1.1070707022364827
166,0.00036261341875613303,-0.010642602808602143,1.1071442011513482
167,0.00036261341875613303,-0.010642658760574242,1.107527228476079
168,0.00036261341875613303,-0.010642751860519913,1.1075052874947977
169,0.00036261341875613303,-0.010642906315191715,1.107440095525797
170,0.00036261341875613303,-0.010643156818155418,1.1069391143592533
171,0.00036261341875613303,-0.010643543655034069,1.106219596000284
172,0.00036261341875613303,-0.010644037115549948,1.105144297785652
173,0.00036261341875613303,-0.010644501821278558,1.1051595736931557
174,0.00036261341875613303,-0.010644833601322519,1.106108020938686
175,0.00036261341875613303,-0.010644983782058883,1.1076431290224873
176,0.00036261341875613303,-0.010645082250539081,1.1083992371403237
177,0.00036261341875613303,-0.010645172074331579,1.1100482375493426
178,0.00036261341875613303,-0.010645265547028208,1.1104911633102175
179,0.00036261341875613303,-0.010645384034927666,1.1120296024921548
180,0.00036261341875613303,-0.010645573429996252,1.1126352799238537
181,0.00036261341875613303,-0.010645887991924296,1.1145529705460278
182,0.00036261341875613303,-0.010646394768683726,1.1170522152431848
183,0.00036261341875613303,-0.010647068842225512,1.1224712727712165
184,0.00036261341875613303,-0.010647399878711477,1.1247648361432512
185,0.00036261341875613303,-0.010647568308651581,1.1267742680186097
186,0.00036261341875613303,-0.01064761493004616,1.125745291276814
187,0.00036261341875613303,-0.010647661331572997,1.1257841234585524
188,0.00036261341875613303,-0.010647741755041615,1.1256476615970683
189,0.00036261341875613303,-0.010647883496195401,1.1256406613324605
190,0.00036261341875613303,-0.010648127731887847,1.125701455780142
191,0.00036261341875613303,-0.010648518351327376,1.1257027570520994
192,0.00036261341875613303,-0.010649003490192044,1.125265198684681
193,0.00036261341875613303,-0.010649321663814708,1.1244547425354954
194,0.00036261341875613303,-0.010649585637531659,1.1238322765391604
195,0.00036261341875613303,-0.010649660327113892,1.1237279992083105
196,0.00036261341875613303,-0.010649711125763017,1.123710784959481
197,0.00036261341875613303,-0.010649794924031048,1.123582848500942
198,0.00036261341875613303,-0.010649937974432996,1.1233265872061409
199,0.00036261341875613303,-0.010650182272962312,1.1228505378449374
200,0.00036261341875613303,-0.010650581461928458,1.1220534903491544
201,0.00036261341875613303,-0.010651144678336999,1.1207039086513926
202,0.00036261341875613303,-0.010651538050148578,1.119593037644665
203,0.00036261341875613303,-0.010651875633584825,1.118537622710148
204,0.00036261341875613303,-0.010652046259546414,1.1180900753680016
205,0.00036261341875613303,-0.010652115584394781,1.1177608907838414
206,0.00036261341875613303,-0.010652180225755066,1.1172985378832192
207,0.00036261341875613303,-0.010652282988013828,1.11646550066294
208,0.00036261341875613303,-0.010652449017302178,1.115430449694875
209,0.00036261341875613303,-0.010652718045231232,1.1138885491930723
210,0.00036261341875613303,-0.010653132607985361,1.1124737273730683
211,0.00036261341875613303,-0.010653604622030036,1.1111158599344702
212,0.00036261341875613303,-0.01065389399471164,1.1123804033995448
213,0.00036261341875613303,-0.010654024888758239,1.1129036898294977
214,0.00036261341875613303,-0.010654062019230432,1.1139943296689854
215,0.00036261341875613303,-0.010654089145161243,1.1139449197249398
216,0.00036261341875613303,-0.010654137831195655,1.114055626309798
217,0.00036261341875613303,-0.01065422448742409,1.114197151656275
218,0.00036261341875613303,-0.010654374040874624,1.1145803340395772
219,0.00036261341875613303,-0.010654616888166095,1.1150967375782177
220,0.00036261341875613303,-0.010654968948383317,1.1159383018148918
221,0.00036261341875613303,-0.010655296973103589,1.1161659301812559
222,0.00036261341875613303,-0.010655629068162415,1.1158594981924712
223,0.00036261341875613303,-0.010655780830856075,1.114891694733819
224,0.00036261341875613303,-0.010655827098982166,1.1143574219202632
225,0.00036261341875613303,-0.010655853942622593,1.1138034795575962
226,0.00036261341875613303,-0.01065589655141079,1.1132304195838063
227,0.00036261341875613303,-0.010655965020722778,1.1124683837382674
228,0.00036261341875613303,-0.010656072839595103,1.1115955745724515
229,0.00036261341875613303,-0.010656237511167389,1.1106208284183636
230,0.00036261341875613303,-0.010656463990223837,1.1096348233481543
231,0.00036261341875613303,-0.010656760747018778,1.1085841211012473
232,0.00036261341875613303,-0.010657021783039991,1.1073982257583417
233,0.00036261341875613303,-0.010657172912597827,1.1064432457281017
234,0.00036261341875613303,-0.01065723800148963,1.1057436425413971
235,0.00036261341875613303,-0.010657278650643623,1.1053291777125
236,0.00036261341875613303,-0.010657316768424338,1.1047869428454442
237,0.00036261341875613303,-0.010657360968471145,1.1043815432295485
238,0.00036261341875613303,-0.010657430834499234,1.103702633405315
239,0.00036261341875613303,-0.010657545683471513,1.1031234392276685
240,0.00036261341875613303,-0.01065773617232506,1.102156002914754
241,0.00036261341875613303,-0.010658034343974861,1.1011610459616132
242,0.00036261341875613303,-0.01065836798689916,1.0995879564728983
243,0.00036261341875613303,-0.010658544331578767,1.099475972153217
244,0.00036261341875613303,-0.010658636393780997,1.0992516080887886
245,0.00036261341875613303,-0.010658662882455984,1.0995779982025016
246,0.00036261341875613303,-0.010658689002120834,1.099208582586078
247,0.00036261341875613303,-0.010658730914173173,1.0991514848203576
248,0.00036261341875613303,-0.010658801090338706,1.098583636864762
249,0.00036261341875613303,-0.010658919447084626,1.098220504950644
250,0.00036261341875613303,-0.010659109958112695,1.0976880358729495
251,0.00036261341875613303,-0.010659362444528177,1.0978652469591623
252,0.00036261341875613303,-0.0106595070713999,1.0986995163106568
253,0.00036261341875613303,-0.010659607663832657,1.1001982762923512
254,0.00036261341875613303,-0.010659631276711674,1.100752088165051
255,0.00036261341875613303,-0.010659645477977117,1.100947894506047
256,0.00036261341875613303,-0.010659668277495574,1.1012415818840415
257,0.00036261341875613303,-0.010659706434706286,1.101450303979836
258,0.00036261341875613303,-0.0106597710759794,1.1019436102392737
259,0.00036261341875613303,-0.010659878954742618,1.102698841902224
260,0.00036261341875613303,-0.010660050543976072,1.1043047509593118
261,0.00036261341875613303,-0.010660289662970284,1.1071608213278878
262,0.00036261341875613303,-0.010660490649228199,1.109941643980131
263,0.00036261341875613303,-0.010660663060041863,1.1121844859209076
264,0.00036261341875613303,-0.01066072731405955,1.1126662876160267
265,0.00036261341875613303,-0.01066074910557152,1.112586336443358
266,0.00036261341875613303,-0.010660766776742407,1.1127782627911391
267,0.00036261341875613303,-0.010660794921795507,1.1133336899010866
268,0.00036261341875613303,-0.010660841521256306,1.1145837168927812
269,0.00036261341875613303,-0.01066092082234178,1.1166812260669754
270,0.00036261341875613303,-0.010661055271004199,1.120326311510699
271,0.00036261341875613303,-0.010661270687189521,1.126503428065762
272,0.00036261341875613303,-0.010661543316021004,1.1363399348245737
273,0.00036261341875613303,-0.010661697486490412,1.1409557141926836
274,0.00036261341875613303,-0.010661796683440581,1.142276347603774
275,0.00036261341875613303,-0.01066182262495627,1.141402740841577
276,0.00036261341875613303,-0.010661844664108371,1.1407763627175498
277,0.00036261341875613303,-0.010661881853445892,1.1405086632422412
278,0.00036261341875613303,-0.010661947478631648,1.1412620288865205
279,0.00036261341875613303,-0.010662064107453306,1.1434720056926637
280,0.00036261341875613303,-0.010662266707478564,1.1486662910872285
281,0.00036261341875613303,-0.010662595845864677,1.159294438574382
282,0.00036261341875613303,-0.010663038236272106,1.1803532666491237
283,0.00036261341875613303,-0.010663307363600267,1.1919556567651184
284,0.00036261341875613303,-0.010663549688767713,1.200197808196528
285,0.00036261341875613303,-0.010663610670778539,1.1985811380453724
286,0.00036261341875613303,-0.010663628929033742,1.1971541529030303
287,0.00036261341875613303,-0.010663646265249273,1.1955932760761474
288,0.00036261341875613303,-0.010663676149671895,1.194487030716711
289,0.00036261341875613303,-0.010663728899337036,1.194234841795961
290,0.00036261341875613303,-0.010663821366014467,1.1946929119853633
291,0.00036261341875613303,-0.010663978656971397,1.197238313825418
292,0.00036261341875613303,-0.010664228772401153,1.2028502257081548
293,0.00036261341875613303,-0.010664558363251241,1.2150606831828548
294,0.00036261341875613303,-0.010664814435671409,1.2239710261320726
295,0.00036261341875613303,-0.01066502141095868,1.2351466150107158
296,0.00036261341875613303,-0.010665071357877656,1.2342953111580317
297,0.00036261341875613303,-0.010665087540780238,1.2352489968776148
298,0.00036261341875613303,-0.01066509767909069,1.2347063878799431
299,0.00036261341875613303,-0.010665115847189854,1.2342378474886628
300,0.00036261341875613303,-0.01066514823036277,1.233871061329264
301,0.00036261341875613303,-0.010665204415370326,1.2339028842022572
302,0.00036261341875613303,-0.010665297251933888,1.2347699205567693
303,0.00036261341875613303,-0.010665439561910583,1.2375785004561302
304,0.00036261341875613303,-0.010665615290054624,1.2425660109691221
305,0.00036261341875613303,-0.010665803278636182,1.2483789897120525
306,0.00036261341875613303,-0.010665948975020885,1.2521992215156847
307,0.00036261341875613303,-0.010666005512853934,1.2531877588648725
308,0.00036261341875613303,-0.010666022464570967,1.252919463418155
309,0.00036261341875613303,-0.010666037314491289,1.2529348995915361
310,0.00036261341875613303,-0.010666061055753096,1.2527550809267218
311,0.00036261341875613303,-0.010666099821814268,1.2533061877159832
312,0.00036261341875613303,-0.010666164063380942,1.2539797645650987
313,0.00036261341875613303,-0.010666270779946628,1.255942977144225
314,0.00036261341875613303,-0.01066644268299782,1.2583782426497954
315,0.00036261341875613303,-0.010666687265865714,1.2629875002475308
316,0.00036261341875613303,-0.010666867347054031,1.2633718176311737
317,0.00036261341875613303,-0.010666968035155449,1.264860488551478
318,0.00036261341875613303,-0.010666991468143237,1.2624504404893848
319,0.00036261341875613303,-0.0106669989324119,1.2634128336130208
320,0.00036261341875613303,-0.010667007559258286,1.263818597704994
321,0.00036261341875613303,-0.010667022786873204,1.2642730476367996
322,0.00036261341875613303,-0.010667049657608788,1.264903950630685
323,0.00036261341875613303,-0.010667095956542517,1.2658917052268879
324,0.00036261341875613303,-0.010667171794246231,1.2675376956736535
325,0.00036261341875613303,-0.010667284858949664,1.2700865367838623
326,0.00036261341875613303,-0.010667403957107056,1.2723762687712286
327,0.00036261341875613303,-0.010667523677566177,1.2734132867254109
328,0.00036261341875613303,-0.010667591448291026,1.2730160026235071
329,0.00036261341875613303,-0.0106676095833963,1.2724111914773941
330,0.00036261341875613303,-0.010667616796682879,1.272284287048174
331,0.00036261341875613303,-0.01066762793689496,1.2722367959919332
332,0.00036261341875613303,-0.010667646683811621,1.2725055696186116
333,0.00036261341875613303,-0.010667678960449923,1.2732286699379163
334,0.00036261341875613303,-0.010667734604913088,1.274752722244495
335,0.00036261341875613303,-0.010667828755509442,1.2777089401536383
336,0.00036261341875613303,-0.010667980003191913,1.283216860918184
337,0.00036261341875613303,-0.010668192678538147,1.2928684456965054
338,0.00036261341875613303,-0.01066835064720158,1.2993808792877284
339,0.00036261341875613303,-0.010668463456935319,1.3030602349382563
340,0.00036261341875613303,-0.010668490388581364,1.3031827312458837
341,0.00036261341875613303,-0.010668498239184724,1.3028596670480306
342,0.00036261341875613303,-0.010668507033845621,1.302870289559085
343,0.00036261341875613303,-0.010668521162466046,1.3032492097605175
344,0.00036261341875613303,-0.010668544357443235,1.3044290371329685
345,0.00036261341875613303,-0.01066858295351776,1.3061577119782382
346,0.00036261341875613303,-0.01066864696587239,1.309071690164566
347,0.00036261341875613303,-0.010668749164347024,1.312453977971425
348,0.00036261341875613303,-0.010668893511784638,1.317149688928287
349,0.00036261341875613303,-0.01066900270345083,1.3166216088027802
350,0.00036261341875613303,-0.010669067274099006,1.3166752209107013
351,0.00036261341875613303,-0.010669080751271766,1.3127938667550816
352,0.00036261341875613303,-0.010669087146378516,1.3132668744926288
353,0.00036261341875613303,-0.01066909507456504,1.3135863311834122
354,0.00036261341875613303,-0.010669108642035113,1.3138465957356447
355,0.00036261341875613303,-0.01066913215164113,1.3143220228679215
356,0.00036261341875613303,-0.010669172359449811,1.3150106469525753
357,0.00036261341875613303,-0.010669238379336905,1.3163668226150653
358,0.00036261341875613303,-0.010669337728007983,1.318618386920042
359,0.00036261341875613303,-0.010669444331938196,1.321525278324271
360,0.00036261341875613303,-0.01066954264407991,1.3241695342761939
361,0.00036261341875613303,-0.01066960098247422,1.3265541200844002
362,0.00036261341875613303,-0.010669618561666531,1.3274502124780114
363,0.00036261341875613303,-0.010669626607011871,1.3280705529578518
364,0.00036261341875613303,-0.010669635675439933,1.3284983079346466
365,0.00036261341875613303,-0.010669649489961264,1.329238345911955
366,0.00036261341875613303,-0.0106696724136414,1.3301431768219962
367,0.00036261341875613303,-0.01066971190761563,1.3313024084790401
368,0.00036261341875613303,-0.010669780197292339,1.3327549120649917
369,0.00036261341875613303,-0.010669893507720324,1.3344160760035348
370,0.00036261341875613303,-0.010670056015666984,1.3358198100916319
371,0.00036261341875613303,-0.01067016746797912,1.334674142188454
372,0.00036261341875613303,-0.010670234382525024,1.333044203214242
373,0.00036261341875613303,-0.010670258121862349,1.3310361887797564
374,0.00036261341875613303,-0.010670266788838284,1.3312492062108636
375,0.00036261341875613303,-0.010670276459120087,1.3303138109066657
376,0.00036261341875613303,-0.010670290473093964,1.3307605470671973
377,0.00036261341875613303,-0.010670312077161532,1.3308530352838681
378,0.00036261341875613303,-0.010670346032844223,1.3319322436085403
379,0.00036261341875613303,-0.010670401791576781,1.3328110830545208
380,0.00036261341875613303,-0.010670494635582383,1.3346376672624811
381,0.00036261341875613303,-0.010670641128185707,1.3359974660866973
382,0.00036261341875613303,-0.010670813325917489,1.33844983589007
383,0.00036261341875613303,-0.010670905835372061,1.335990221376654
384,0.00036261341875613303,-0.010670960894694296,1.3359984539629433
385,0.00036261341875613303,-0.010670975316193019,1.3334197914096209
386,0.00036261341875613303,-0.01067098291642948,1.3331160909210567
387,0.00036261341875613303,-0.010670995058445746,1.3328789645496022
388,0.00036261341875613303,-0.01067101430010734,1.3327196775881782
389,0.00036261341875613303,-0.010671045668803702,1.332648123468279
390,0.00036261341875613303,-0.010671098533726251,1.3327381802682432
391,0.00036261341875613303,-0.01067118786733519,1.3330232829397841
392,0.00036261341875613303,-0.010671331433465945,1.3337029613381306
393,0.00036261341875613303,-0.01067152137939707,1.3350140447243641
394,0.00036261341875613303,-0.010671640680796133,1.3359923364117494
395,0.00036261341875613303,-0.010671736024389812,1.3365937283226632
396,0.00036261341875613303,-0.010671763780325477,1.3362890879552511
397,0.00036261341875613303,-0.010671777549560892,1.3360002739446757
398,0.00036261341875613303,-0.010671788310019734,1.3356608898607993
399,0.00036261341875613303,-0.010671798917839084,1.3353995209761929
400,0.00036261341875613303,-0.010671811030455593,1.335115972008607
401,0.00036261341875613303,-0.010671830202486235,1.334847415072812
402,0.00036261341875613303,-0.010671861958316514,1.3345048213204989
403,0.00036261341875613303,-0.010671915839521326,1.3341737020294544
404,0.00036261341875613303,-0.010672006734145464,1.3337280376295961
405,0.00036261341875613303,-0.010672153271115111,1.3333133999286464
406,0.00036261341875613303,-0.010672360774736657,1.3327398585151173
407,0.00036261341875613303,-0.010672518512872143,1.3329190103949808
408,0.00036261341875613303,-0.010672636324575937,1.3330134416142434
409,0.00036261341875613303,-0.010672668896076588,1.333965616501913
410,0.00036261341875613303,-0.010672677714198607,1.3336342646952632
411,0.00036261341875613303,-0.010672683053498989,1.3337301017017817
412,0.00036261341875613303,-0.010672690606586512,1.3337122015675886
413,0.00036261341875613303,-0.010672700529077131,1.3335548924521516
414,0.00036261341875613303,-0.010672716921138208,1.333738633012414
415,0.00036261341875613303,-0.010672745291174044,1.3341038586203362
416,0.00036261341875613303,-0.010672794991167824,1.335283695641686
417,0.00036261341875613303,-0.01067288055664748,1.337537608258778
418,0.00036261341875613303,-0.010673019702952802,1.3423643887479715
419,0.00036261341875613303,-0.010673216185867026,1.351096540932421
420,0.00036261341875613303,-0.010673373368440769,1.3585802241875546
421,0.00036261341875613303,-0.010673526126193593,1.3638833850811516
422,0.00036261341875613303,-0.010673581559559737,1.3654025912480812
423,0.00036261341875613303,-0.01067359659926709,1.3631617277335994
424,0.00036261341875613303,-0.010673605018392039,1.3628269288983557
425,0.00036261341875613303,-0.010673612245751429,1.3626659535112746
426,0.00036261341875613303,-0.010673619689347404,1.362868303111074
427,0.00036261341875613303,-0.010673631592145015,1.3634019675203917
428,0.00036261341875613303,-0.010673651654874645,1.3643275979448517
429,0.00036261341875613303,-0.010673686409967985,1.3657911180325162
430,0.00036261341875613303,-0.010673746511501617,1.3681415847612912
431,0.00036261341875613303,-0.010673847116545964,1.37223403906583
432,0.00036261341875613303,-0.010674001531652037,1.3790045547761591
433,0.00036261341875613303,-0.010674167658744389,1.3878741705810058
434,0.00036261341875613303,-0.010674282096569652,1.392493783936771
435,0.00036261341875613303,-0.01067434354617423,1.394806587376061
436,0.00036261341875613303,-0.010674362743812138,1.393242357723091
437,0.00036261341875613303,-0.010674367731042678,1.3925960498957761
438,0.00036261341875613303,-0.010674372568360065,1.392417005575721
439,0.00036261341875613303,-0.010674379207456003,1.3926893164076803
440,0.00036261341875613303,-0.010674390365498644,1.393321135093608
441,0.00036261341875613303,-0.010674409788797077,1.3942368569332166
442,0.00036261341875613303,-0.010674443826669475,1.39557769653865
443,0.00036261341875613303,-0.010674502206024717,1.3973530810847694
444,0.00036261341875613303,-0.010674595944486167,1.3999749679351785
445,0.00036261341875613303,-0.010674719137210747,1.4024769569435205
446,0.00036261341875613303,-0.010674801422266471,1.4029759163782343
447,0.00036261341875613303,-0.010674868906275472,1.4006217312638265
448,0.00036261341875613303,-0.010674886986675697,1.400843124578875
449,0.00036261341875613303,-0.010674893737499209,1.3993411093085617
450,0.00036261341875613303,-0.010674898445044875,1.3999112749388096
451,0.00036261341875613303,-0.010674904960184122,1.400787813231446
452,0.00036261341875613303,-0.010674909982251835,1.4013387020015553
453,0.00036261341875613303,-0.010674918435279637,1.4017834860525724
454,0.00036261341875613303,-0.010674932996276728,1.4021926117607417
455,0.00036261341875613303,-0.010674958017097946,1.4025417523511174
456,0.00036261341875613303,-0.010674999668998288,1.4029165934776926
457,0.00036261341875613303,-0.010675063554825656,1.4033313443280189
458,0.00036261341875613303,-0.010675134016995345,1.4038134411096392
459,0.00036261341875613303,-0.010675187553993305,1.4043360013751862
460,0.00036261341875613303,-0.010675216563061751,1.4050504279096314
461,0.00036261341875613303,-0.010675223347463772,1.4057801350226733
462,0.00036261341875613303,-0.010675226368654414,1.406221171306342
463,0.00036261341875613303,-0.010675229842875658,1.4068342852098095
464,0.00036261341875613303,-0.010675235611529226,1.4076054766176516
465,0.00036261341875613303,-0.010675245148607905,1.4085978016914693
466,0.00036261341875613303,-0.010675260827530536,1.4097218019877766
467,0.00036261341875613303,-0.010675286458642306,1.410915388280396
468,0.00036261341875613303,-0.010675327463801246,1.4118956608262154
469,0.00036261341875613303,-0.010675388548847442,1.4122977447868623
470,0.00036261341875613303,-0.01067544968950297,1.411250401440174
471,0.00036261341875613303,-0.010675492827967733,1.409657126348965
472,0.00036261341875613303,-0.010675508755515673,1.4087904557858062
473,0.00036261341875613303,-0.010675513493815054,1.4091353984063684
474,0.00036261341875613303,-0.010675516092873294,1.409629220510157
475,0.00036261341875613303,-0.010675518602560415,1.4103119963632746
476,0.00036261341875613303,-0.010675522653583125,1.4110714997541105
477,0.00036261341875613303,-0.010675529615547913,1.4119075893006008
478,0.00036261341875613303,-0.010675541924476659,1.412883252861376
479,0.00036261341875613303,-0.010675563573081935,1.4141084608493797
480,0.00036261341875613303,-0.010675599952765253,1.4157511651980093
481,0.00036261341875613303,-0.010675653249418536,1.417771769440338
482,0.00036261341875613303,-0.010675693967664686,1.4185373565171269
483,0.00036261341875613303,-0.010675719901186436,1.417798377873424
484,0.00036261341875613303,-0.010675729737712546,1.4168274267617367
485,0.00036261341875613303,-0.010675732342395753,1.4162959777459925
486,0.00036261341875613303,-0.0106757352645776,1.4162575596065
487,0.00036261341875613303,-0.010675740182131388,1.4162377961226977
488,0.00036261341875613303,-0.010675748874854014,1.416645510546003
489,0.00036261341875613303,-0.010675764389916215,1.4173232591002198
490,0.00036261341875613303,-0.010675791573243314,1.4185985486793342
491,0.00036261341875613303,-0.010675836642699183,1.4206519283296275
492,0.00036261341875613303,-0.010675901932839044,1.4238501728205002
493,0.00036261341875613303,-0.010675956135924413,1.4256033034412219
494,0.00036261341875613303,-0.010676002230176125,1.4258283807104737
495,0.00036261341875613303,-0.01067601917170512,1.42445707657328
496,0.00036261341875613303,-0.010676022574335529,1.4236094129037185
497,0.00036261341875613303,-0.010676024443682973,1.4227372305442545
498,0.00036261341875613303,-0.010676026881327105,1.4220521088591218
499,0.00036261341875613303,-0.010676030425207768,1.4212112169557578
500,0.00036261341875613303,-0.010676036113894673,1.4206239465213644
501,0.00036261341875613303,-0.010676045628553005,1.4200411649311935
502,0.00036261341875613303,-0.010676061862530417,1.4194529183990552
503,0.00036261341875613303,-0.010676089193660884,1.418674684505514
504,0.00036261341875613303,-0.010676132164084993,1.417580688687293
505,0.00036261341875613303,-0.01067618226373339,1.416281524882278
506,0.00036261341875613303,-0.010676212368106371,1.415839212107353
507,0.00036261341875613303,-0.01067622876782596,1.4160662843557195
508,0.00036261341875613303,-0.010676232085393537,1.416435491474007
509,0.00036261341875613303,-0.010676233512217267,1.4167038839458004
510,0.00036261341875613303,-0.01067623491117329,1.4169142145614506
511,0.00036261341875613303,-0.010676236933735506,1.4170900597402483
512,0.00036261341875613303,-0.010676240277597955,1.4172278884442013
513,0.00036261341875613303,-0.010676246070148528,1.4173020133068244
514,0.00036261341875613303,-0.010676256280682488,1.417310317096871
515,0.00036261341875613303,-0.010676274081021094,1.4171110094094461
516,0.00036261341875613303,-0.010676303633380384,1.4165193710475104
517,0.00036261341875613303,-0.01067634643221103,1.4148435676925348
518,0.00036261341875613303,-0.010676378901497497,1.4128777587250085
519,0.00036261341875613303,-0.010676401467379654,1.4106831998651477
520,0.00036261341875613303,-0.010676409758285857,1.4096484358948616
521,0.00036261341875613303,-0.010676411572058484,1.4091373773365898
522,0.00036261341875613303,-0.01067641267921119,1.4090564936909311
523,0.00036261341875613303,-0.010676414476944139,1.4086838918077036
524,0.00036261341875613303,-0.010676417526106109,1.408205913635061
525,0.00036261341875613303,-0.010676422798579588,1.407418124151533
526,0.00036261341875613303,-0.010676431920915674,1.4062480518939677
527,0.00036261341875613303,-0.010676447370284304,1.4044052015443478
528,0.00036261341875613303,-0.010676471961277004,1.4015572313108227
529,0.00036261341875613303,-0.010676503586139146,1.3976260290547402
530,0.00036261341875613303,-0.010676524207148735,1.3959928019875323
531,0.00036261341875613303,-0.010676536508239133,1.3961908692121596
532,0.00036261341875613303,-0.010676538670834538,1.397093651600494
533,0.00036261341875613303,-0.010676539374358205,1.3974952866271888
534,0.00036261341875613303,-0.010676540519247324,1.3978919449065035
535,0.00036261341875613303,-0.010676542507388184,1.398125552151153
536,0.00036261341875613303,-0.01067654606447533,1.3982576209693816
537,0.00036261341875613303,-0.010676552457672576,1.3981982965834174
538,0.00036261341875613303,-0.01067656379088634,1.3978815925913477
539,0.00036261341875613303,-0.010676583199867376,1.3970612784974368
540,0.00036261341875613303,-0.010676614244721095,1.3953621180308673
541,0.00036261341875613303,-0.010676657037565356,1.3922581675047416
542,0.00036261341875613303,-0.01067669311826562,1.3897780115287852
543,0.00036261341875613303,-0.010676724851047155,1.3879071538216923
544,0.00036261341875613303,-0.010676732658982913,1.3881069281524563
545,0.00036261341875613303,-0.01067673419459697,1.388709208834425
546,0.00036261341875613303,-0.010676735104198842,1.3890772565230012
547,0.00036261341875613303,-0.010676736587938267,1.3895762326505225
548,0.00036261341875613303,-0.01067673909178941,1.3899146606252875
549,0.00036261341875613303,-0.010676743329673293,1.3901919446376014
550,0.00036261341875613303,-0.01067675044355115,1.3901361570225605
551,0.00036261341875613303,-0.0106767621531347,1.3897400373225381
552,0.00036261341875613303,-0.010676780510092194,1.3883863879370189
553,0.00036261341875613303,-0.01067680453585235,1.3861260197653351
554,0.00036261341875613303,-0.010676821879289268,1.38374075395252
555,0.00036261341875613303,-0.010676829989299173,1.3828828013182457
556,0.00036261341875613303,-0.010676831289495998,1.3826260124625578
557,0.00036261341875613303,-0.010676831771193582,1.3829442318112308
558,0.00036261341875613303,-0.010676832585318192,1.3833383158169266
559,0.00036261341875613303,-0.010676834041238894,1.3837820671318433
560,0.00036261341875613303,-0.01067683668913801,1.384317224720717
561,0.00036261341875613303,-0.010676841489740678,1.3849932263586873
562,0.00036261341875613303,-0.01067685003330699,1.3858537360520256
563,0.00036261341875613303,-0.01067686467780301,1.3868896393398131
564,0.00036261341875613303,-0.010676888130548446,1.3879028127774176
565,0.00036261341875613303,-0.010676921391528543,1.3880720518142995
566,0.00036261341875613303,-0.010676952373467104,1.3863426835475188
567,0.00036261341875613303,-0.010676984409543394,1.382203697570899
568,0.00036261341875613303,-0.010676993704269461,1.3794823255448068
569,0.00036261341875613303,-0.010676995062925842,1.3786723263314564
570,0.00036261341875613303,-0.010676995602092539,1.3784837694554573
571,0.00036261341875613303,-0.010676996544748548,1.378289924476654
572,0.00036261341875613303,-0.010676998265874427,1.3780884730949015
573,0.00036261341875613303,-0.010677001445131777,1.3778300967684871
574,0.00036261341875613303,-0.01067700728900078,1.377491895693291
575,0.00036261341875613303,-0.010677017832195268,1.377030329150029
576,0.00036261341875613303,-0.010677036180588725,1.3764132303655638
577,0.00036261341875613303,-0.010677066180083834,1.3756420814942245
578,0.00036261341875613303,-0.010677110479733874,1.3749387828940587
579,0.00036261341875613303,-0.010677155617691234,1.3751591443009346
580,0.00036261341875613303,-0.01067720021094645,1.376797031431776
581,0.00036261341875613303,-0.010677220807632132,1.3786863488169436
582,0.00036261341875613303,-0.010677225789850461,1.3792993772217834
583,0.00036261341875613303,-0.010677226901398572,1.3794186131628674
584,0.00036261341875613303,-0.010677228658772287,1.3793189866668427
585,0.00036261341875613303,-0.01067723176237827,1.3791639883633071
586,0.00036261341875613303,-0.010677237417786922,1.3789143421078451
587,0.00036261341875613303,-0.010677247704192597,1.378476410069232
588,0.00036261341875613303,-0.010677265958226335,1.3778197744144867
589,0.00036261341875613303,-0.010677296522571851,1.3767032437413134
590,0.00036261341875613303,-0.010677341316319653,1.3751936688970323
591,0.00036261341875613303,-0.01067738060751021,1.3741822298823338
592,0.00036261341875613303,-0.010677419717859661,1.3743199566162119
593,0.00036261341875613303,-0.010677442815618074,1.3744586229929288
594,0.00036261341875613303,-0.010677446982521703,1.3755716934023439
595,0.00036261341875613303,-0.01067744883417118,1.375254854744723
596,0.00036261341875613303,-0.010677449736750626,1.3751656604771298
597,0.00036261341875613303,-0.010677451338031002,1.375194374999417
598,0.00036261341875613303,-0.010677454059173171,1.3750302557962708
599,0.00036261341875613303,-0.010677458407229855,1.375022678591279
600,0.00036261341875613303,-0.010677465199543148,1.374461295454146
601,0.00036261341875613303,-0.010677476493284125,1.374101038050956
602,0.00036261341875613303,-0.010677496261270637,1.372826550058909
603,0.00036261341875613303,-0.010677530980773483,1.3710929390272784
604,0.00036261341875613303,-0.010677588535590343,1.3673468757593352
605,0.00036261341875613303,-0.010677663249872394,1.3612266699082203
606,0.00036261341875613303,-0.010677694887101286,1.358294298607754
607,0.00036261341875613303,-0.010677715738725968,1.3580249986035655
608,0.00036261341875613303,-0.01067771997957374,1.3577362185058601
609,0.00036261341875613303,-0.01067772152015097,1.3583580938114461
610,0.00036261341875613303,-0.010677723359375321,1.3584467377110476
611,0.00036261341875613303,-0.01067772642471065,1.3584623116779286
612,0.00036261341875613303,-0.01067773150956331,1.3580775523953634
613,0.00036261341875613303,-0.010677739964024626,1.3577875016195358
614,0.00036261341875613303,-0.01067775422590607,1.3570182292293493
615,0.00036261341875613303,-0.01067777858952429,1.3565337480856923
616,0.00036261341875613303,-0.01067781971029327,1.3556944836190579
617,0.00036261341875613303,-0.010677884942848683,1.355813493871919
618,0.00036261341875613303,-0.010677963265191166,1.356080000202163
619,0.00036261341875613303,-0.010678003972987534,1.3594008974499712
620,0.00036261341875613303,-0.010678050145621029,1.3589829619403915
621,0.00036261341875613303,-0.010678072346813278,1.3584500011526348
622,0.00036261341875613303,-0.01067807665493925,1.3584440608495874
623,0.00036261341875613303,-0.010678079536751438,1.3588955285214064
624,0.00036261341875613303,-0.010678082165453616,1.3587516146378622
625,0.00036261341875613303,-0.010678083478365725,1.3591205740952395
626,0.00036261341875613303,-0.010678085803313907,1.3595393881221032
627,0.00036261341875613303,-0.010678089965305173,1.3601272581323514
628,0.00036261341875613303,-0.01067809733221217,1.3610746577794002
629,0.00036261341875613303,-0.01067811002066579,1.36259665584213
630,0.00036261341875613303,-0.010678130986020919,1.36492781481647
631,0.00036261341875613303,-0.010678164018748493,1.3683389357506819
632,0.00036261341875613303,-0.010678213897108312,1.3723699496206558
633,0.00036261341875613303,-0.01067827676781909,1.375484786016734
634,0.00036261341875613303,-0.010678337474144293,1.3754512398924579
635,0.00036261341875613303,-0.01067836600316208,1.3729735087591362
636,0.00036261341875613303,-0.010678372984750838,1.3705078668733244
637,0.00036261341875613303,-0.010678374959144902,1.3698928785297346
638,0.00036261341875613303,-0.010678376166948724,1.3698890177468068
639,0.00036261341875613303,-0.010678377256537093,1.3699833229788838
640,0.00036261341875613303,-0.010678378161468534,1.3702722952806743
641,0.00036261341875613303,-0.010678379766844059,1.370515973228913
642,0.00036261341875613303,-0.010678382706160406,1.3708599917257513
643,0.00036261341875613303,-0.01067838809071705,1.3713231596990858
644,0.00036261341875613303,-0.010678397766024451,1.3720629660420283
645,0.00036261341875613303,-0.010678414393259438,1.3732581067572678
646,0.00036261341875613303,-0.010678440431007154,1.3753130204232442
647,0.00036261341875613303,-0.010678470948748195,1.3779609851376748
648,0.00036261341875613303,-0.010678497321712988,1.379788761664769
649,0.00036261341875613303,-0.01067852238195497,1.3808746801875211
650,0.00036261341875613303,-0.010678530636848737,1.3805104464163978
651,0.00036261341875613303,-0.010678533707701443,1.3800021716605044
652,0.00036261341875613303,-0.01067853460217126,1.379873899481597
653,0.00036261341875613303,-0.01067853583552296,1.3799887392019163
654,0.00036261341875613303,-0.010678537185981525,1.380324487431143
655,0.00036261341875613303,-0.010678539042438885,1.3807595774279118
656,0.00036261341875613303,-0.010678542028034553,1.381185044083953
657,0.00036261341875613303,-0.01067854703682645,1.381475786011633
658,0.00036261341875613303,-0.01067855556735655,1.3816630516449624
659,0.00036261341875613303,-0.010678569893884465,1.3816980741429097
660,0.00036261341875613303,-0.010678592812035533,1.3817700642772426
661,0.00036261341875613303,-0.010678625565427327,1.382014408326639
662,0.00036261341875613303,-0.010678653813703655,1.383043909249757
663,0.00036261341875613303,-0.01067867903050816,1.3845650959492375
664,0.00036261341875613303,-0.010678688653943051,1.3860819035550236
665,0.00036261341875613303,-0.01067869173106261,1.3864980778887765
666,0.00036261341875613303,-0.010678693113099696,1.3866877575537349
667,0.00036261341875613303,-0.010678694356077687,1.3869472993661638
668,0.00036261341875613303,-0.010678695255911134,1.3869625630749614
669,0.00036261341875613303,-0.010678696705145143,1.3870611957071728
670,0.00036261341875613303,-0.010678699189924146,1.3870245972648698
671,0.00036261341875613303,-0.010678703567059935,1.3870100168337751
672,0.00036261341875613303,-0.010678711303238485,1.3868867269961855
673,0.00036261341875613303,-0.010678724756519074,1.38684096234143
674,0.00036261341875613303,-0.010678747202716563,1.3866423533930547
675,0.00036261341875613303,-0.010678781440934149,1.3867257319008728
676,0.00036261341875613303,-0.010678819200805979,1.3863029783362335
677,0.00036261341875613303,-0.010678851224591203,1.3868393184461199
678,0.00036261341875613303,-0.010678871486528891,1.3865133943214358
679,0.00036261341875613303,-0.010678876942082693,1.3872866460873052
680,0.00036261341875613303,-0.010678878378252198,1.3875477258291413
681,0.00036261341875613303,-0.01067887924423798,1.3872513072348809
682,0.00036261341875613303,-0.010678880027991012,1.3872124409341715
683,0.00036261341875613303,-0.010678881278122073,1.387126087180774
684,0.00036261341875613303,-0.010678883229936199,1.3868434605932096
685,0.00036261341875613303,-0.010678886484139068,1.3865525406996542
686,0.00036261341875613303,-0.010678892243139346,1.3860221779329374
687,0.00036261341875613303,-0.010678902666536157,1.3853273803094281
688,0.00036261341875613303,-0.010678921479306613,1.3841164426949766
689,0.00036261341875613303,-0.010678954550747277,1.3821642235290164
690,0.00036261341875613303,-0.010679008969772698,1.378663799476778
691,0.00036261341875613303,-0.01067908431997448,1.3728157507011727
692,0.00036261341875613303,-0.010679136653204708,1.3691268346472238
693,0.00036261341875613303,-0.010679185264312527,1.367321689236739
694,0.00036261341875613303,-0.010679200695920765,1.3679240399418287
695,0.00036261341875613303,-0.01067920416285073,1.3690265586032075
696,0.00036261341875613303,-0.010679205535468332,1.369266222161692
697,0.00036261341875613303,-0.010679206662844455,1.3691549455257024
698,0.00036261341875613303,-0.010679208002716677,1.3691012327077512
699,0.00036261341875613303,-0.010679210352278342,1.3688066005734763
700,0.00036261341875613303,-0.010679214599102833,1.3682515985144608
701,0.00036261341875613303,-0.010679222282180649,1.3674809652197402
702,0.00036261341875613303,-0.010679235984043127,1.3660753643336039
703,0.00036261341875613303,-0.010679259688037757,1.364020490718426
704,0.00036261341875613303,-0.010679298623834026,1.360245261224306
705,0.00036261341875613303,-0.010679356716532022,1.355058823052224
706,0.00036261341875613303,-0.010679428062223538,1.3480595949280403
707,0.00036261341875613303,-0.010679497678901691,1.3450736328348305
708,0.00036261341875613303,-0.010679559050297846,1.3454988930281706
709,0.00036261341875613303,-0.010679581225748134,1.3467162768184926
710,0.00036261341875613303,-0.010679588786480785,1.3480088068945335
711,0.00036261341875613303,-0.01067959131273631,1.3479402618591234
712,0.00036261341875613303,-0.010679593081738712,1.3473201108372344
713,0.00036261341875613303,-0.010679594290126623,1.346909228941142
714,0.00036261341875613303,-0.01067959621030727,1.3466402284431005
715,0.00036261341875613303,-0.010679599502395795,1.3459387926434019
716,0.00036261341875613303,-0.010679605272962158,1.345446116379484
717,0.00036261341875613303,-0.010679615393944306,1.3442514467776883
718,0.00036261341875613303,-0.010679632930614616,1.3430577742512217
719,0.00036261341875613303,-0.010679662501139288,1.3405380615685398
720,0.00036261341875613303,-0.010679709731670864,1.3375089899390131
721,0.00036261341875613303,-0.010679776337608889,1.3322487817412445
722,0.00036261341875613303,-0.010679841935950705,1.3288686969732775
723,0.00036261341875613303,-0.010679897042621348,1.3272169425685287
724,0.00036261341875613303,-0.01067992945413561,1.3283100982309728
725,0.00036261341875613303,-0.01067993736469097,1.3302895170160562
726,0.00036261341875613303,-0.010679941045383846,1.330715897250148
727,0.00036261341875613303,-0.010679944091357304,1.3310853083645353
728,0.00036261341875613303,-0.01067994621807074,1.3306777142346788
729,0.00036261341875613303,-0.010679947937353763,1.3304475574539179
730,0.00036261341875613303,-0.010679950646621823,1.3299495925253453
731,0.00036261341875613303,-0.010679954962306408,1.3292766970945407
732,0.00036261341875613303,-0.010679962059104015,1.3284524612491273
733,0.00036261341875613303,-0.010679973977156886,1.32708257273304
734,0.00036261341875613303,-0.01067999397269574,1.325681691402468
735,0.00036261341875613303,-0.010680026716996392,1.3227845194149828
736,0.00036261341875613303,-0.010680077412291268,1.3201542463001537
737,0.00036261341875613303,-0.010680146261469807,1.315285760284237
738,0.00036261341875613303,-0.010680207702101388,1.315272397204932
739,0.00036261341875613303,-0.010680263687301487,1.3145534146590223
740,0.00036261341875613303,-0.0106802804079744,1.3190020077447373
741,0.00036261341875613303,-0.010680289179003679,1.3181920819953825
742,0.00036261341875613303,-0.010680297291591262,1.3182871355235453
743,0.00036261341875613303,-0.010680301372368993,1.3182298846554783
744,0.00036261341875613303,-0.010680304960923776,1.318652076328517
745,0.00036261341875613303,-0.01068030675213438,1.3185489709259726
746,0.00036261341875613303,-0.010680308586044593,1.3183403958583642
747,0.00036261341875613303,-0.010680311249560032,1.3179285553686226
748,0.00036261341875613303,-0.010680314808852306,1.3174976171094046
749,0.00036261341875613303,-0.010680320298050406,1.3169317156551854
750,0.00036261341875613303,-0.010680329098055023,1.316646541984315
751,0.00036261341875613303,-0.01068034362210346,1.3161789126567338
752,0.00036261341875613303,-0.01068036771425514,1.316267482859324
753,0.00036261341875613303,-0.010680406714088264,1.3161123741101641
754,0.00036261341875613303,-0.010680465274043748,1.3171994597230738
755,0.00036261341875613303,-0.010680529231785436,1.3181300965963816
756,0.00036261341875613303,-0.010680585546634145,1.3206193667539758
757,0.00036261341875613303,-0.010680621397703002,1.3206638877733912
758,0.00036261341875613303,-0.010680635528389864,1.3202402424549493
759,0.00036261341875613303,-0.010680643724417087,1.3202004768549136
760,0.00036261341875613303,-0.010680649589838238,1.3194507770945725
761,0.00036261341875613303,-0.010680652733530171,1.3200924424060756
762,0.00036261341875613303,-0.010680654984356703,1.3202946548390768
763,0.00036261341875613303,-0.01068065719665914,1.3207786741822896
764,0.00036261341875613303,-0.010680660032344793,1.3210776010198284
765,0.00036261341875613303,-0.010680664056524016,1.321555769773022
766,0.00036261341875613303,-0.010680670498152295,1.3216288666956872
767,0.00036261341875613303,-0.010680681404955332,1.3218667848749284
768,0.00036261341875613303,-0.01068070038844913,1.3219421354539997
769,0.00036261341875613303,-0.010680733310019026,1.32201116464045
770,0.00036261341875613303,-0.010680787875313388,1.3219104435417302
771,0.00036261341875613303,-0.010680866794124878,1.3214410416581812
772,0.00036261341875613303,-0.010680929977579981,1.320867963266225
773,0.00036261341875613303,-0.010680984048891236,1.3200548301843507
774,0.00036261341875613303,-0.010681008600261905,1.3178175263521947
775,0.00036261341875613303,-0.010681017440681726,1.3181621939712995
776,0.00036261341875613303,-0.010681022531647134,1.3171734307226959
777,0.00036261341875613303,-0.010681026203972559,1.3166102304553766
778,0.00036261341875613303,-0.010681028458482116,1.3164763327071864
779,0.00036261341875613303,-0.010681030388372481,1.3161103121714728
780,0.00036261341875613303,-0.010681032464351299,1.3161468747537628
781,0.00036261341875613303,-0.01068103571417058,1.3162765390377413
782,0.00036261341875613303,-0.010681040347765904,1.3161881954022878
783,0.00036261341875613303,-0.010681045276530915,1.3161283392396645
784,0.00036261341875613303,-0.010681052889676386,1.315644040573444
785,0.00036261341875613303,-0.010681065463023512,1.3148030782932119
786,0.00036261341875613303,-0.010681086791832255,1.3135678133867859
787,0.00036261341875613303,-0.010681122738596418,1.3117327651894373
788,0.00036261341875613303,-0.010681180392683258,1.3096239345857579
789,0.00036261341875613303,-0.010681261141082254,1.3076546576376997
790,0.00036261341875613303,-0.01068132713070797,1.309153692903298
791,0.00036261341875613303,-0.010681390265531051,1.3125234493086482
792,0.00036261341875613303,-0.010681413188353564,1.3173735537887072
793,0.00036261341875613303,-0.010681422097527963,1.318294376656226
794,0.00036261341875613303,-0.010681426331260242,1.3187764229311132
795,0.00036261341875613303,-0.010681429899155192,1.3194866085426766
796,0.00036261341875613303,-0.010681431346995212,1.3196801470543955
797,0.00036261341875613303,-0.010681432883260311,1.3201305942917452
798,0.00036261341875613303,-0.010681434627335867,1.3202870735094743
799,0.00036261341875613303,-0.010681437393396668,1.3208519494637312
800,0.00036261341875613303,-0.010681442015171754,1.3214963332953813
801,0.00036261341875613303,-0.010681449405249966,1.322578934410622
802,0.00036261341875613303,-0.010681460459771858,1.3238962500316942
803,0.00036261341875613303,-0.010681477214341324,1.3256687590876655
804,0.00036261341875613303,-0.01068150489819159,1.3269282240072986
805,0.00036261341875613303,-0.01068155174875335,1.3277845152454126
806,0.00036261341875613303,-0.010681627324086503,1.3275197026573868
807,0.00036261341875613303,-0.010681731300052424,1.3248441678320901
808,0.00036261341875613303,-0.010681812882792284,1.3212234758673775
809,0.00036261341875613303,-0.010681904505975538,1.3131138163067544
810,0.00036261341875613303,-0.010681951021322196,1.3104642985035269
811,0.00036261341875613303,-0.010681981283745109,1.3089180955661373
812,0.00036261341875613303,-0.010681990620732246,1.3102884250576663
813,0.00036261341875613303,-0.010681996667369686,1.3115475820968399
814,0.00036261341875613303,-0.010682000739767897,1.3122524078185944
815,0.00036261341875613303,-0.010682003888151213,1.3131070111731284
816,0.00036261341875613303,-0.010682007617562522,1.3134864364476915
817,0.00036261341875613303,-0.010682012010929795,1.3141260326040467
818,0.00036261341875613303,-0.010682015840847936,1.3146781344740197
819,0.00036261341875613303,-0.010682021602553953,1.3156698082753155
820,0.00036261341875613303,-0.010682030524846297,1.3170050547464667
821,0.00036261341875613303,-0.010682045356592357,1.3183484718802598
822,0.00036261341875613303,-0.010682071225487066,1.320194636500784
823,0.00036261341875613303,-0.010682117055153775,1.322265036979101
824,0.00036261341875613303,-0.01068219744251494,1.3254009914998484
825,0.00036261341875613303,-0.010682332555335322,1.3296772694535373
826,0.00036261341875613303,-0.010682530081743236,1.3364933590777937
827,0.00036261341875613303,-0.010682732603567661,1.3428691604161889
828,0.00036261341875613303,-0.010682925427925373,1.3468158685540392
829,0.00036261341875613303,-0.010683114045376425,1.3473975192702357
830,0.00036261341875613303,-0.01068316883635591,1.3439275867949192
831,0.00036261341875613303,-0.0106832031590156,1.3425452213304867
832,0.00036261341875613303,-0.010683219129891472,1.3417379654131696
833,0.00036261341875613303,-0.010683231755277047,1.3416851239267338
834,0.00036261341875613303,-0.010683239387005007,1.341781310371126
835,0.00036261341875613303,-0.010683245265897319,1.341503963155283
836,0.00036261341875613303,-0.010683249062309951,1.3421371745261315
837,0.00036261341875613303,-0.010683252972395871,1.342862998685143
838,0.00036261341875613303,-0.010683258103695817,1.3447351757612098
839,0.00036261341875613303,-0.010683263660530951,1.3453229739604464
840,0.00036261341875613303,-0.010683271158187358,1.3464990380744044
841,0.00036261341875613303,-0.010683283187067185,1.3469400907760494
842,0.00036261341875613303,-0.010683301701140445,1.3478527458135812
843,0.00036261341875613303,-0.010683329289188016,1.3478552097314933
844,0.00036261341875613303,-0.010683371541769467,1.3487672823546781
845,0.00036261341875613303,-0.010683438322262569,1.3487215579403786
846,0.00036261341875613303,-0.01068354169522866,1.3498585007546557
847,0.00036261341875613303,-0.010683688933538455,1.3510830726359824
848,0.00036261341875613303,-0.010683866792692958,1.352781265722429
849,0.00036261341875613303,-0.010684062219418321,1.3575478360815012
850,0.00036261341875613303,-0.010684196513879193,1.3579411641530228
851,0.00036261341875613303,-0.010684239546164024,1.3618638808864099
852,0.00036261341875613303,-0.010684303215326563,1.3613737994237487
853,0.00036261341875613303,-0.010684365639474655,1.3629477238758567
854,0.00036261341875613303,-0.010684397329124542,1.3598903882550806
855,0.00036261341875613303,-0.010684413526052795,1.358921221852487
856,0.00036261341875613303,-0.01068443036122147,1.3572634525007397
857,0.00036261341875613303,-0.010684438992541146,1.3558327086192268
858,0.00036261341875613303,-0.010684447534637152,1.3546901243611005
859,0.00036261341875613303,-0.010684458848841174,1.3534806735881948
860,0.00036261341875613303,-0.010684468302050124,1.3533599490194532
861,0.00036261341875613303,-0.010684477115668589,1.353539554870723
862,0.00036261341875613303,-0.010684489327320917,1.355069556035047
863,0.00036261341875613303,-0.010684501833725902,1.357336820797063
864,0.00036261341875613303,-0.010684513651135905,1.359832078394382
865,0.00036261341875613303,-0.010684527315773082,1.3614638255157538
866,0.00036261341875613303,-0.010684544007602746,1.3638132915322383
867,0.00036261341875613303,-0.010684567209855727,1.3650242852904404
868,0.00036261341875613303,-0.010684601759916543,1.3670321211326508
869,0.00036261341875613303,-0.010684654891705517,1.3694133055996636
870,0.00036261341875613303,-0.010684738554000412,1.373887150248329
871,0.00036261341875613303,-0.010684868195979167,1.380515705161356
872,0.00036261341875613303,-0.010685051188941908,1.3923104660351884
873,0.00036261341875613303,-0.01068522391553226,1.399668688460029
874,0.00036261341875613303,-0.010685322918298296,1.4114503804351393
875,0.00036261341875613303,-0.01068541455381305,1.4098136201291458
876,0.00036261341875613303,-0.010685467496047306,1.4063198835160133
877,0.00036261341875613303,-0.01068550338106846,1.4084727904318073
878,0.00036261341875613303,-0.010685532592837253,1.4094015370092894
879,0.00036261341875613303,-0.01068555350050348,1.4131237530684075
880,0.00036261341875613303,-0.01068557385093095,1.4164610051867237
881,0.00036261341875613303,-0.010685590614533991,1.4187976529546873
882,0.00036261341875613303,-0.010685599788255892,1.418821231093793
883,0.00036261341875613303,-0.010685609637401386,1.4194614553634883
884,0.00036261341875613303,-0.010685619940360255,1.418141128092083
885,0.00036261341875613303,-0.010685633847500806,1.4165070090993346
886,0.00036261341875613303,-0.010685649489606996,1.4159253989334006
887,0.00036261341875613303,-0.010685674027461642,1.415869915642387
888,0.00036261341875613303,-0.010685712738793905,1.417857455621002
889,0.00036261341875613303,-0.01068576707242185,1.422000166541754
890,0.00036261341875613303,-0.010685819057676118,1.4269130689506897
891,0.00036261341875613303,-0.010685894074026953,1.4323340778053903
892,0.00036261341875613303,-0.01068601103985687,1.439088124396742
893,0.00036261341875613303,-0.010686182970168176,1.4445016964889057
894,0.00036261341875613303,-0.010686400915446977,1.4530981629658715
895,0.00036261341875613303,-0.010686611073897807,1.4510282100687493
896,0.00036261341875613303,-0.010686770238002944,1.4579363018568345
897,0.00036261341875613303,-0.010687035473359426,1.4560597241900872
898,0.00036261341875613303,-0.010687434210341334,1.4547084205216083
899,0.00036261341875613303,-0.010687796168295913,1.4600930222336423
900,0.00036261341875613303,-0.010687994879024033,1.4684461730229734
901,0.00036261341875613303,-0.010688238065595239,1.4811710751765783
902,0.00036261341875613303,-0.010688496703793012,1.4960668887801303
903,0.00036261341875613303,-0.010688576228033347,1.518698377003222
904,0.00036261341875613303,-0.010688713525469152,1.5189554456812482
905,0.00036261341875613303,-0.010688929178603956,1.5187184462228596
906,0.00036261341875613303,-0.010689139713068499,1.5163036798947724
907,0.00036261341875613303,-0.010689224526491403,1.5193595527215558
908,0.00036261341875613303,-0.010689327020871968,1.5195177833826323
909,0.00036261341875613303,-0.010689450931955202,1.5215631456987126
910,0.00036261341875613303,-0.01068951439202663,1.5272126153130594
911,0.00036261341875613303,-0.010689574772517474,1.5312174756537846
912,0.00036261341875613303,-0.010689631211406835,1.535986012949352
913,0.00036261341875613303,-0.010689664593801525,1.539452547925308
914,0.00036261341875613303,-0.01068969025260461,1.5404990888034071
915,0.00036261341875613303,-0.010689715947527243,1.5431774932552644
916,0.00036261341875613303,-0.010689742742331218,1.5450327779201227
917,0.00036261341875613303,-0.01068976894159666,1.5479749909267235
918,0.00036261341875613303,-0.010689795246942992,1.5508842021522788
919,0.00036261341875613303,-0.010689826436759343,1.5550553077662546
920,0.00036261341875613303,-0.010689849176444827,1.5574636826166581
921,0.00036261341875613303,-0.010689882106032576,1.5601343483818313
922,0.00036261341875613303,-0.010689914087733074,1.5613029418151059
923,0.00036261341875613303,-0.01068995061285666,1.561865482149707
924,0.00036261341875613303,-0.010689991410470454,1.5616225044425758
925,0.00036261341875613303,-0.010690037283536525,1.5626521417803496
926,0.00036261341875613303,-0.010690089093594696,1.5640720501514191
927,0.00036261341875613303,-0.010690144973885573,1.5684376846542567
928,0.00036261341875613303,-0.0106902002576124,1.5722411401623662
929,0.00036261341875613303,-0.010690262033446382,1.5762882177533064
930,0.00036261341875613303,-0.010690325969532278,1.5781081380196706
931,0.00036261341875613303,-0.010690383311995882,1.5789996380072489
932,0.00036261341875613303,-0.010690455131644865,1.5776060460390806
933,0.00036261341875613303,-0.010690555357373096,1.577469346017663
934,0.00036261341875613303,-0.01069069048454215,1.5770116488119212
935,0.00036261341875613303,-0.010690832407035557,1.5771109749711625
936,0.00036261341875613303,-0.010690964752497862,1.5777019314246885
937,0.00036261341875613303,-0.01069108134600891,1.5739071187652192
938,0.00036261341875613303,-0.010691185907240887,1.5715139721692084
939,0.00036261341875613303,-0.010691276920997844,1.5633211740922934
940,0.00036261341875613303,-0.010691338974136416,1.5592528317325725
941,0.00036261341875613303,-0.010691375164877748,1.5587109396718872
942,0.00036261341875613303,-0.01069140371226289,1.5589130763345396
943,0.00036261341875613303,-0.010691428206289018,1.5620888157519535
944,0.00036261341875613303,-0.01069144965505784,1.5636149939892947
945,0.00036261341875613303,-0.010691464256471626,1.565684448463679
946,0.00036261341875613303,-0.01069147433772504,1.566569654485515
947,0.00036261341875613303,-0.01069148318282716,1.5661409984383254
948,0.00036261341875613303,-0.010691493298711469,1.5662909329254864
949,0.00036261341875613303,-0.010691506251637287,1.5647152968903526
950,0.00036261341875613303,-0.010691521078191631,1.5644925090604465
951,0.00036261341875613303,-0.010691536262349593,1.5630556484436284
952,0.00036261341875613303,-0.010691554838436436,1.5631424707623136
953,0.00036261341875613303,-0.010691581358725999,1.562602289259988
954,0.00036261341875613303,-0.010691621778385936,1.5625648414305682
955,0.00036261341875613303,-0.010691680923050817,1.562370991551283
956,0.00036261341875613303,-0.010691762914883857,1.5603809542766094
957,0.00036261341875613303,-0.010691871459011425,1.5584162254778708
958,0.00036261341875613303,-0.010692005993589845,1.5523102455117541
959,0.00036261341875613303,-0.010692157919283731,1.549353954218135
960,0.00036261341875613303,-0.010692311059095055,1.5434457723845676
961,0.00036261341875613303,-0.010692449342410522,1.543464732329794
962,0.00036261341875613303,-0.0106925548158034,1.544946544526325
963,0.00036261341875613303,-0.010692646429338776,1.5489023507079205
964,0.00036261341875613303,-0.010692726385841783,1.5533007017400924
965,0.00036261341875613303,-0.01069279963522872,1.55918977763973
966,0.00036261341875613303,-0.010692855456018432,1.5635221119896554
967,0.00036261341875613303,-0.01069290434225699,1.5654335802733002
968,0.00036261341875613303,-0.010692943925856563,1.5648981721898507
969,0.00036261341875613303,-0.010692969292951906,1.5637045294858107
970,0.00036261341875613303,-0.010692981616817917,1.5616164436195443
971,0.00036261341875613303,-0.010692991127914225,1.5606890954384711
972,0.00036261341875613303,-0.010692998615569844,1.5582753861263507
973,0.00036261341875613303,-0.010693004185651922,1.5572511318738886
974,0.00036261341875613303,-0.01069300838906427,1.5563269450043222
975,0.00036261341875613303,-0.010693012094659117,1.5563966274653611
976,0.00036261341875613303,-0.010693016402956852,1.5561566516603782
977,0.00036261341875613303,-0.010693021536390873,1.5563143866743951
978,0.00036261341875613303,-0.010693028063346915,1.5553359273779002
979,0.00036261341875613303,-0.010693036255429117,1.5543928557895665
980,0.00036261341875613303,-0.010693046389985136,1.5528896486342139
981,0.00036261341875613303,-0.010693059184745179,1.5512607593621632
982,0.00036261341875613303,-0.010693076716731672,1.5501573942439515
983,0.00036261341875613303,-0.010693102327170727,1.5492031355723228
984,0.00036261341875613303,-0.010693139441582315,1.5495667435881841
985,0.00036261341875613303,-0.010693189735759178,1.5506913579459793
986,0.00036261341875613303,-0.010693254826238268,1.5531297578496808
987,0.00036261341875613303,-0.01069333615598087,1.5560516721014033
988,0.00036261341875613303,-0.01069343026666974,1.5598903524511563
989,0.00036261341875613303,-0.010693522840102766,1.5645410862071167
990,0.00036261341875613303,-0.01069359838911164,1.5655164253113754
991,0.00036261341875613303,-0.01069364301704406,1.5681765283179359
992,0.00036261341875613303,-0.010693663917547832,1.566995251564287
993,0.00036261341875613303,-0.010693677918847719,1.5678535837451004
994,0.00036261341875613303,-0.010693691022460811,1.5696217532303893
995,0.00036261341875613303,-0.010693701018644837,1.5708517508110629
996,0.00036261341875613303,-0.010693708808440342,1.572429398309679
997,0.00036261341875613303,-0.010693714560193598,1.5729237601455746
998,0.00036261341875613303,-0.010693719094883012,1.5740208871425416
999,0.00036261341875613303,-0.01069372294146814,1.5749793788453388
1000,0.00036261341875613303,-0.010693726387130653,1.575917006457133
1001,0.00036261341875613303,-0.010693729463816807,1.5767698539598756
1002,0.00036261341875613303,-0.010693732550923011,1.5768162131349137
1003,0.00036261341875613303,-0.010693736321916815,1.576286002940497
1004,0.00036261341875613303,-0.010693741121701055,1.5748686679522668
1005,0.00036261341875613303,-0.010693746444249558,1.5728513564186521
1006,0.00036261341875613303,-0.010693751841224773,1.5711830937864855
1007,0.00036261341875613303,-0.010693757799138245,1.5700065017300222
1008,0.00036261341875613303,-0.010693766154447167,1.5699297178845053
1009,0.00036261341875613303,-0.010693779347380186,1.5707042318506041
1010,0.00036261341875613303,-0.010693800572265393,1.5728306802616119
1011,0.00036261341875613303,-0.010693834184299615,1.5760564820820795
1012,0.00036261341875613303,-0.010693884210591548,1.5804228490075567
1013,0.00036261341875613303,-0.010693940246311538,1.5832488734494983
1014,0.00036261341875613303,-0.01069400538897493,1.5829174719713976
1015,0.00036261341875613303,-0.010694068601347119,1.5780738984318192
1016,0.00036261341875613303,-0.010694122514209725,1.5698768270463517
1017,0.00036261341875613303,-0.01069415863419477,1.561567545779849
1018,0.00036261341875613303,-0.010694180674452497,1.558907177960324
1019,0.00036261341875613303,-0.010694194811725698,1.55793570011831
1020,0.00036261341875613303,-0.010694202927239393,1.559386738876799
1021,0.00036261341875613303,-0.010694209302359467,1.559513921070606
1022,0.00036261341875613303,-0.01069421391379993,1.558722921905981
1023,0.00036261341875613303,-0.010694216266655879,1.5577811233402075
1024,0.00036261341875613303,-0.010694218114299655,1.5568555934917006
1025,0.00036261341875613303,-0.010694219914538393,1.556145918137478
1026,0.00036261341875613303,-0.010694221948966468,1.5560601082183938
1027,0.00036261341875613303,-0.010694224274722199,1.5558910490564801
1028,0.00036261341875613303,-0.01069422773480484,1.5558933510325994
1029,0.00036261341875613303,-0.01069423285477385,1.5553974348323865
1030,0.00036261341875613303,-0.010694240707248455,1.5547427443221402
1031,0.00036261341875613303,-0.010694252779315624,1.5534251298712847
1032,0.00036261341875613303,-0.01069427106169668,1.5519502418902964
1033,0.00036261341875613303,-0.010694295801289264,1.550365629329421
1034,0.00036261341875613303,-0.010694326754935238,1.5493889813063733
1035,0.00036261341875613303,-0.010694361902776306,1.5492467747465384
1036,0.00036261341875613303,-0.01069439953797871,1.5496309444311538
1037,0.00036261341875613303,-0.010694440921508086,1.550458235103757
1038,0.00036261341875613303,-0.010694491300784648,1.5496095032176365
1039,0.00036261341875613303,-0.010694550556837802,1.5474207920755314
1040,0.00036261341875613303,-0.010694608145457135,1.5425260877305058
1041,0.00036261341875613303,-0.010694648308949872,1.5373597953263602
1042,0.00036261341875613303,-0.010694670387283818,1.5359633542029867
1043,0.00036261341875613303,-0.010694682127100787,1.5346858385813609
1044,0.00036261341875613303,-0.010694688932657962,1.5366724795671387
1045,0.00036261341875613303,-0.010694693829347741,1.5374872656784753
1046,0.00036261341875613303,-0.010694697888056746,1.5386888913013295
1047,0.00036261341875613303,-0.010694701296385355,1.5392070495123809
1048,0.00036261341875613303,-0.010694703668716004,1.5395475137747032
1049,0.00036261341875613303,-0.010694705495544935,1.5400295930099102
1050,0.00036261341875613303,-0.010694707139944006,1.5404050514854284
1051,0.00036261341875613303,-0.01069470924866013,1.5412187857084072
1052,0.00036261341875613303,-0.010694712399165503,1.5421635073264013
1053,0.00036261341875613303,-0.010694716887291915,1.5426687049060903
1054,0.00036261341875613303,-0.010694723072498616,1.5433703256956077
1055,0.00036261341875613303,-0.010694732008309591,1.5431244865621843
1056,0.00036261341875613303,-0.010694744672924632,1.5432612597323268
1057,0.00036261341875613303,-0.010694763694736046,1.5434687609099866
1058,0.00036261341875613303,-0.010694793147848535,1.5440245193516535
1059,0.00036261341875613303,-0.010694839398819909,1.5464249434890203
1060,0.00036261341875613303,-0.010694908309240187,1.549047031959807
1061,0.00036261341875613303,-0.010694991917834547,1.5534617692718495
1062,0.00036261341875613303,-0.01069506730071974,1.553922604840477
1063,0.00036261341875613303,-0.01069513650592132,1.550060078275906
1064,0.00036261341875613303,-0.01069517435228279,1.544022204977435
1065,0.00036261341875613303,-0.010695205460329706,1.5414649796010698
1066,0.00036261341875613303,-0.010695235579610473,1.5395915006410468
1067,0.00036261341875613303,-0.010695257571291214,1.537584299882383
1068,0.00036261341875613303,-0.010695270511758835,1.5365198901080546
1069,0.00036261341875613303,-0.010695278278810533,1.5355077009187652
1070,0.00036261341875613303,-0.01069528307850469,1.535681662121089
1071,0.00036261341875613303,-0.010695285284264893,1.5349804553927195
1072,0.00036261341875613303,-0.010695286858498847,1.534765961762712
1073,0.00036261341875613303,-0.010695288210122958,1.534504415762612
1074,0.00036261341875613303,-0.010695289532217328,1.5345447910202414
1075,0.00036261341875613303,-0.010695291376085415,1.5344998769252953
1076,0.00036261341875613303,-0.010695293152505312,1.5346777459426373
1077,0.00036261341875613303,-0.010695295914804821,1.5344278511584601
1078,0.00036261341875613303,-0.010695300411075581,1.5343334095830627
1079,0.00036261341875613303,-0.010695307879081723,1.5334250559028344
1080,0.00036261341875613303,-0.010695320154545803,1.532197764022721
1081,0.00036261341875613303,-0.010695339460510546,1.5290843744578233
1082,0.00036261341875613303,-0.010695367163440925,1.524677504150631
1083,0.00036261341875613303,-0.01069539725206846,1.5184173178866593
1084,0.00036261341875613303,-0.010695430232204263,1.5135780874633573
1085,0.00036261341875613303,-0.010695458417780287,1.5092936739955556
1086,0.00036261341875613303,-0.010695481446220529,1.5091210882373607
1087,0.00036261341875613303,-0.010695503250398948,1.5096812984254344
1088,0.00036261341875613303,-0.010695522999213797,1.5123271432594596
1089,0.00036261341875613303,-0.010695536279748282,1.5135147228842607
1090,0.00036261341875613303,-0.010695546760943508,1.5137788095199944
