Iteration,Energy,Loss Function,Bias
0,0.005202309696027981,0.004030662781959215,0.0
1,0.028353893048101417,-0.0015309147170346944,0.05796941976147987
2,0.010719660125820499,-0.01058871685019154,0.06272433460890797
3,0.007227617852262659,-0.016956165293367506,0.050789395980487845
4,0.00782444878355182,-0.019327822041273195,0.056283587727365546
5,0.00782444878355182,-0.023122626880816344,0.061986768832981334
6,0.007227617852262659,-0.0262186911511781,0.06944427655656593
7,0.010719660125820499,-0.027818913158145456,0.07289463340512158
8,0.005027364697139242,-0.030231853343626745,0.07749057415013454
9,0.004768085414315351,-0.03195526319371659,0.08713359036344548
10,0.004768085414315351,-0.0336405910276219,0.09556235606943424
11,0.004768085414315351,-0.03611192336600393,0.10237169659800102
12,0.004768085414315351,-0.037861132059206194,0.10081802564965786
13,0.004768085414315351,-0.038845192251237635,0.09352172055072128
14,0.004768085414315351,-0.039840761002708704,0.08218080290851512
15,0.006968684027166101,-0.04071251472812467,0.0720668560951801
16,0.006968684027166101,-0.04184487766443871,0.058824755262450526
17,0.006968684027166101,-0.042856495103381555,0.04678789870375882
18,0.006968684027166101,-0.04366293764051537,0.04365284441969863
19,0.006968684027166101,-0.04441368019753703,0.048762572300412144
20,0.006968684027166101,-0.04504272971198634,0.05672008380729004
21,0.006968684027166101,-0.04574345512187324,0.06621873665397744
22,0.006968684027166101,-0.04641570693106513,0.07369107480250875
23,0.004963897592945036,-0.04694001100413667,0.07590010006911367
24,0.004963897592945036,-0.0473958576351217,0.07335642775236574
25,0.004963897592945036,-0.04793396621449181,0.06796275368315664
26,0.004963897592945036,-0.04842366310808725,0.06274027798505553
27,0.004963897592945036,-0.048781463346707736,0.06021326728671931
28,0.004963897592945036,-0.04903796929661126,0.06076535460072329
29,0.004963897592945036,-0.04929115706039373,0.06363666936839812
30,0.004963897592945036,-0.04958673984556827,0.06902287751576996
31,0.004963897592945036,-0.0498088946583133,0.07474482312296361
32,0.004963897592945036,-0.04994299817139365,0.07874201031655222
33,0.004963897592945036,-0.050039296564154304,0.08156996771179557
34,0.004963897592945036,-0.050158630889470895,0.08498764726089234
35,0.004963897592945036,-0.05031235007707704,0.09016071782068662
36,0.004963897592945036,-0.05045160899033631,0.09492444614287757
37,0.004963897592945036,-0.05055364576625464,0.09784861103418122
38,0.004963897592945036,-0.05064162863627268,0.09888305810931411
39,0.004963897592945036,-0.05075534584206738,0.09926978855976205
40,0.004963897592945036,-0.05088494838286957,0.09913950449907745
41,0.004963897592945036,-0.050989626726476237,0.09858732146486968
42,0.004963897592945036,-0.05106231132866481,0.09806132958762964
43,0.004963897592945036,-0.05113379677766739,0.09797515398218577
44,0.004963897592945036,-0.05121993424302985,0.09872979448879704
45,0.004963897592945036,-0.05130745172321693,0.1002187770869836
46,0.004963897592945036,-0.05138257231958092,0.10173855750543626
47,0.004963897592945036,-0.05145078072689095,0.10258760463668844
48,0.004963897592945036,-0.051520995630829014,0.10226666465247469
49,0.004963897592945036,-0.051594174644072434,0.1002607527207321
50,0.004963897592945036,-0.05166154186366828,0.09691347964933275
51,0.004963897592945036,-0.051716654069661284,0.09364268570889123
52,0.004963897592945036,-0.0517678264032669,0.0915103912704502
53,0.004963897592945036,-0.051826949794246575,0.09085865399458617
54,0.004963897592945036,-0.0518886371388839,0.09234838813963238
55,0.004963897592945036,-0.05194402414304561,0.09543398288345183
56,0.004963897592945036,-0.05199688276414491,0.09909566373658754
57,0.004963897592945036,-0.05205874046866217,0.10287973613749382
58,0.004963897592945036,-0.05212724493032996,0.10594920753154867
59,0.004963897592945036,-0.052180404112191485,0.10654735162497671
60,0.004963897592945036,-0.05221334716749259,0.10530072898794515
61,0.004963897592945036,-0.05224095211902525,0.1034069334098158
62,0.004963897592945036,-0.05227948852962663,0.10149150851961364
63,0.004963897592945036,-0.052331973690310105,0.0998392057161444
64,0.004963897592945036,-0.0523805829601445,0.10058060384080822
65,0.004963897592945036,-0.05241233619134903,0.10189156617442921
66,0.004963897592945036,-0.052434829244729086,0.10465462783918461
67,0.004963897592945036,-0.05245898052912916,0.10639187424342254
68,0.004963897592945036,-0.05249516054423715,0.10869431199318115
69,0.004963897592945036,-0.052532819156397854,0.10988621659730302
70,0.004963897592945036,-0.052560491716399135,0.10983870373317506
71,0.004963897592945036,-0.05258233329063115,0.10917592534292071
72,0.004963897592945036,-0.05260290487234696,0.10855427965111358
73,0.004963897592945036,-0.05262724129026639,0.10800368658955734
74,0.004963897592945036,-0.05265534860531785,0.1075558257529486
75,0.004963897592945036,-0.0526837254141539,0.10696428359747527
76,0.004963897592945036,-0.05270869564881465,0.10615201282404298
77,0.004963897592945036,-0.052730606183543645,0.10491831189372208
78,0.004963897592945036,-0.052751966884141126,0.10341209764920019
79,0.004963897592945036,-0.0527758976775435,0.10145153976124668
80,0.004963897592945036,-0.05280230566557915,0.0995977270800182
81,0.004963897592945036,-0.052825196156620395,0.09825305192646884
82,0.004963897592945036,-0.05284218873644408,0.09825279863552797
83,0.004963897592945036,-0.052857545167945955,0.0986571204845514
84,0.004963897592945036,-0.05287901002461592,0.09954518027672295
85,0.004963897592945036,-0.052911487086710195,0.10049243718672694
86,0.004963897592945036,-0.05294804116078844,0.10133463640952141
87,0.004963897592945036,-0.0529753503598858,0.10170119831033135
88,0.004963897592945036,-0.05299384002524898,0.10223187452139829
89,0.004963897592945036,-0.05300964390618016,0.10338904341918138
90,0.004963897592945036,-0.053029135880398426,0.10604128824093118
91,0.004963897592945036,-0.05305001172551945,0.10974171641271119
92,0.004963897592945036,-0.0530710671589165,0.11359845773978806
93,0.004963897592945036,-0.053094774352744165,0.11671385434232552
94,0.004963897592945036,-0.05312354082037954,0.118623822971522
95,0.004963897592945036,-0.05315279200211252,0.11804339296648296
96,0.004963897592945036,-0.053173084417632854,0.11571560390662519
97,0.004963897592945036,-0.05318520870898511,0.11306992687479407
98,0.004963897592945036,-0.05319725943459148,0.11110781822231178
99,0.004963897592945036,-0.05321661925238509,0.10893951719791366
100,0.004963897592945036,-0.05324585395598129,0.10677353172279702
101,0.004963897592945036,-0.05327216230073138,0.1057512618633131
102,0.004963897592945036,-0.05328488751668785,0.10639262570508191
103,0.004963897592945036,-0.05329349513161686,0.10782100297390491
104,0.004963897592945036,-0.0533018234594218,0.1090179167868273
105,0.004963897592945036,-0.05331520822383371,0.11057485486307807
106,0.004963897592945036,-0.05333488790468775,0.11208485215903459
107,0.004963897592945036,-0.05334953267873289,0.11268505282676904
108,0.004963897592945036,-0.05335648632465067,0.1122382251090069
109,0.004963897592945036,-0.05336227210365624,0.11175451542441332
110,0.004963897592945036,-0.05337015707111246,0.11142217929076256
111,0.004963897592945036,-0.05338259001993302,0.11167134819426176
112,0.004963897592945036,-0.053399530884830654,0.11296654054902366
113,0.004963897592945036,-0.053410489371065226,0.11470814551144862
114,0.004963897592945036,-0.053417357193302574,0.11611880617982032
115,0.004963897592945036,-0.05342291002305409,0.1171270315427337
116,0.004963897592945036,-0.05343169369728643,0.11800876541612161
117,0.004963897592945036,-0.05344502653052017,0.11899347601228366
118,0.004963897592945036,-0.05346047579744085,0.11903284561751427
119,0.004963897592945036,-0.05347047198499237,0.11852020136859027
120,0.004963897592945036,-0.053477835087799304,0.11711846979918657
121,0.004963897592945036,-0.05348487959715501,0.11600501422516048
122,0.004963897592945036,-0.05349590235229011,0.11477837721686303
123,0.004963897592945036,-0.05351022596145866,0.11390862087751218
124,0.004963897592945036,-0.05351925205093204,0.11428193397765207
125,0.004963897592945036,-0.05352461573016615,0.11524865501995313
126,0.004963897592945036,-0.05352867898499534,0.11619634327814837
127,0.004963897592945036,-0.053534586817978895,0.11714872144156652
128,0.004963897592945036,-0.05354312356010333,0.11776023856579527
129,0.004963897592945036,-0.053552995289138344,0.11737195783365086
130,0.004963897592945036,-0.05356071595733509,0.11610874396037683
131,0.004963897592945036,-0.05356547279602272,0.11490926721814368
132,0.004963897592945036,-0.053569575971587645,0.11425716145961108
133,0.004963897592945036,-0.053575289393597264,0.11421426658844494
134,0.004963897592945036,-0.05358284106875778,0.1151856849824295
135,0.004963897592945036,-0.05359009534736892,0.1171122179975781
136,0.004963897592945036,-0.05359463214007924,0.11861529645566024
137,0.004963897592945036,-0.05359723532909272,0.11926135175651043
138,0.004963897592945036,-0.053599820678224566,0.11913830912445464
139,0.004963897592945036,-0.053603868268516645,0.11854654906120986
140,0.004963897592945036,-0.05360988626912849,0.11702430337006643
141,0.004963897592945036,-0.053615538485974945,0.1154757390673963
142,0.004963897592945036,-0.053618825766296896,0.11457418293573277
143,0.004963897592945036,-0.053620841528768795,0.11468451837583224
144,0.004963897592945036,-0.053623153229960384,0.11513636222004274
145,0.004963897592945036,-0.053626713210292526,0.1163479657214367
146,0.004963897592945036,-0.05363128646522931,0.11813445193810002
147,0.004963897592945036,-0.05363454881822222,0.11971377578040053
148,0.004963897592945036,-0.05363633206938888,0.12047346217494705
149,0.004963897592945036,-0.05363761862869856,0.12103452120187666
150,0.004963897592945036,-0.053639622496241136,0.12195872036671515
151,0.004963897592945036,-0.05364269361498202,0.12377195221130165
152,0.004963897592945036,-0.053646368574835304,0.1263215565403292
153,0.004963897592945036,-0.05364885623276189,0.12814078012898578
154,0.004963897592945036,-0.05365027979090541,0.12868575423738124
155,0.004963897592945036,-0.05365143098961776,0.1286401070147649
156,0.004963897592945036,-0.053653236015246845,0.12821832898125887
157,0.004963897592945036,-0.05365600108750776,0.1276119388447401
158,0.004963897592945036,-0.05365926337451759,0.12695184884863442
159,0.004963897592945036,-0.05366141543110751,0.12687075904703918
160,0.004963897592945036,-0.05366258104775129,0.1270680835757956
161,0.004963897592945036,-0.053663340384762594,0.12738008930411704
162,0.004963897592945036,-0.053664465577096365,0.12760297525453448
163,0.004963897592945036,-0.053666242694115,0.12762937683022224
164,0.004963897592945036,-0.05366885866783585,0.1270417892120785
165,0.004963897592945036,-0.053671135038172994,0.12591840363554624
166,0.004963897592945036,-0.053672515353956916,0.12480153519064092
167,0.004963897592945036,-0.05367329882136569,0.12416573421937219
168,0.004963897592945036,-0.05367402416546614,0.12375617957415719
169,0.004963897592945036,-0.053675142036670606,0.12338587352943084
170,0.004963897592945036,-0.05367670670853396,0.1229905280743177
171,0.004963897592945036,-0.053678293659959755,0.12271708866322648
172,0.004963897592945036,-0.0536793735501549,0.12254092155497882
173,0.004963897592945036,-0.05368000042317893,0.12250680499928537
174,0.004963897592945036,-0.05368055902175061,0.12244239871092673
175,0.004963897592945036,-0.05368136808211588,0.12242584750361953
176,0.004963897592945036,-0.05368252369552608,0.12240840023534695
177,0.004963897592945036,-0.053683771192343875,0.12263185461011906
178,0.004963897592945036,-0.05368465833274737,0.12296146506949754
179,0.004963897592945036,-0.053685168272912115,0.12342167161531034
180,0.004963897592945036,-0.05368561390008141,0.12386630301396444
181,0.004963897592945036,-0.053686280338549226,0.1246336950385112
182,0.004963897592945036,-0.0536871836805578,0.12561393807023685
183,0.004963897592945036,-0.053688034680559146,0.12651129972516598
184,0.004963897592945036,-0.05368855564581934,0.1268272320437541
185,0.004963897592945036,-0.053688884420747734,0.12685149389338204
186,0.004963897592945036,-0.05368927359721034,0.12681953435093563
187,0.004963897592945036,-0.05368988613745451,0.12695155862319277
188,0.004963897592945036,-0.05369079407378393,0.12741155177865898
189,0.004963897592945036,-0.05369164300717716,0.12819667235913257
190,0.004963897592945036,-0.053692192041483816,0.1288533254756069
191,0.004963897592945036,-0.053692541233049146,0.12923362259593676
192,0.004963897592945036,-0.05369293802597737,0.12942730491444515
193,0.004963897592945036,-0.053693560710595556,0.12952194535547684
194,0.004963897592945036,-0.05369447751846112,0.1293789995253187
195,0.004963897592945036,-0.05369530187094223,0.12902225506405587
196,0.004963897592945036,-0.05369581526032634,0.1285929339367484
197,0.004963897592945036,-0.05369613742258706,0.1283037232710938
198,0.004963897592945036,-0.05369651628883893,0.12795715445470685
199,0.004963897592945036,-0.053697107629702576,0.12746336258918192
200,0.004963897592945036,-0.05369793354950225,0.12666141432949266
201,0.004963897592945036,-0.053698533407974584,0.12607059230958467
202,0.004963897592945036,-0.05369886894682098,0.1257858765354252
203,0.004963897592945036,-0.053699091593476446,0.12571494536893038
204,0.004963897592945036,-0.05369944341490302,0.1256022030259097
205,0.004963897592945036,-0.053700005358183804,0.12539413477565003
206,0.004963897592945036,-0.05370082284748392,0.12497250519577971
207,0.004963897592945036,-0.05370143607518923,0.1245971865321531
208,0.004963897592945036,-0.053701766297594905,0.12445047633298091
209,0.004963897592945036,-0.05370201390524309,0.12447529058383511
210,0.004963897592945036,-0.05370239415130073,0.12460992332867744
211,0.004963897592945036,-0.05370300818610451,0.12488817226668233
212,0.004963897592945036,-0.05370392288083322,0.1253556170761102
213,0.004963897592945036,-0.05370465219816414,0.12580024372105983
214,0.004963897592945036,-0.053704957106039765,0.12590897081516259
215,0.004963897592945036,-0.05370512557241997,0.12588513422830738
216,0.004963897592945036,-0.05370532653970811,0.12578785700103406
217,0.004963897592945036,-0.05370566743103974,0.1256741872659381
218,0.004963897592945036,-0.05370624475702706,0.1254793071896838
219,0.004963897592945036,-0.05370714005677501,0.12522761812697214
220,0.004963897592945036,-0.053707982327230466,0.12490180958144213
221,0.004963897592945036,-0.05370836539824278,0.12488800758065456
222,0.004963897592945036,-0.053708648844860235,0.12487113161510709
223,0.004963897592945036,-0.05370884136311891,0.12497031693320797
224,0.004963897592945036,-0.053709156298479666,0.12501700871351376
225,0.004963897592945036,-0.05370967437376264,0.125126390596377
226,0.004963897592945036,-0.05371044205949579,0.12528618064736632
227,0.004963897592945036,-0.05371104135324684,0.1255009662780106
228,0.004963897592945036,-0.05371137863600094,0.12567510822496814
229,0.004963897592945036,-0.05371164258745985,0.12585468295866287
230,0.004963897592945036,-0.05371191597059264,0.12603152739372997
231,0.004963897592945036,-0.05371235447425655,0.1262563014190672
232,0.004963897592945036,-0.05371303412019532,0.12652726250578325
233,0.004963897592945036,-0.05371382833555753,0.12672491491432888
234,0.004963897592945036,-0.053714303412038734,0.1266816369475664
235,0.004963897592945036,-0.05371457815349935,0.12649944990098888
236,0.004963897592945036,-0.05371476359148311,0.1263491524895262
237,0.004963897592945036,-0.05371505787733523,0.1261830408761389
238,0.004963897592945036,-0.05371553962070648,0.12606409936896926
239,0.004963897592945036,-0.053716296422517365,0.12606211321685173
240,0.004963897592945036,-0.05371717759117753,0.1263019204516052
241,0.004963897592945036,-0.053717609737895286,0.12661068221981786
242,0.004963897592945036,-0.05371789354615483,0.12684744387868585
243,0.004963897592945036,-0.05371810749487861,0.126959664628644
244,0.004963897592945036,-0.05371846073165424,0.12702874216317744
245,0.004963897592945036,-0.05371903724319514,0.1270907385161867
246,0.004963897592945036,-0.05371986026149048,0.12715089134550273
247,0.004963897592945036,-0.05372039032016553,0.12720389940199137
248,0.004963897592945036,-0.05372068683153113,0.12726286110577895
249,0.004963897592945036,-0.0537208789227421,0.12734864031706628
250,0.004963897592945036,-0.053721110991599166,0.12746565705152754
251,0.004963897592945036,-0.05372148721836056,0.12761687276864297
252,0.004963897592945036,-0.053722079555795096,0.12775659169188158
253,0.004963897592945036,-0.053722824722570645,0.12775812452063093
254,0.004963897592945036,-0.0537232818813982,0.12751266364260244
255,0.004963897592945036,-0.053723575729173585,0.12712183628258542
256,0.004963897592945036,-0.053723750202716,0.1268198641574452
257,0.004963897592945036,-0.05372400205171549,0.12644910285158323
258,0.004963897592945036,-0.05372440815673171,0.12605409773361778
259,0.004963897592945036,-0.053725058247637895,0.12562359187015398
260,0.004963897592945036,-0.05372594039684145,0.12518924119532962
261,0.004963897592945036,-0.053726400485246385,0.12516576279911928
262,0.004963897592945036,-0.05372667994667012,0.125281677936485
263,0.004963897592945036,-0.053726841698148134,0.12532912851989342
264,0.004963897592945036,-0.05372709204410057,0.12524141769658548
265,0.004963897592945036,-0.053727495169400244,0.12492560282943264
266,0.004963897592945036,-0.05372812840072978,0.12423875257465118
267,0.004963897592945036,-0.05372891733982193,0.12312592415222967
268,0.004963897592945036,-0.053729339513365226,0.12252920542717967
269,0.004963897592945036,-0.053729557904379464,0.12246872597174874
270,0.004963897592945036,-0.053729676462182505,0.1226650397431521
271,0.004963897592945036,-0.05372987059504761,0.12306169636775305
272,0.004963897592945036,-0.053730202042523496,0.12360893774969504
273,0.004963897592945036,-0.053730756263559554,0.12434543080364228
274,0.004963897592945036,-0.05373157324597725,0.12533113723442219
275,0.004963897592945036,-0.05373216701632922,0.12577141884653892
276,0.004963897592945036,-0.05373247048313602,0.1255678900955534
277,0.004963897592945036,-0.05373264898253394,0.12504485794265677
278,0.004963897592945036,-0.05373280188904192,0.12469043308883088
279,0.004963897592945036,-0.05373306547901662,0.12439298440282076
280,0.004963897592945036,-0.05373352134064334,0.12426814164110975
281,0.004963897592945036,-0.05373423625790339,0.12449090243923905
282,0.004963897592945036,-0.05373485628524781,0.12535266870726192
283,0.004963897592945036,-0.053735064358241345,0.12598260965586816
284,0.004963897592945036,-0.05373524556611269,0.12661556316015937
285,0.004963897592945036,-0.0537354020233984,0.12691325593562108
286,0.004963897592945036,-0.05373567129260956,0.12710715270388206
287,0.004963897592945036,-0.05373613199551719,0.12713860453092896
288,0.004963897592945036,-0.05373685754858237,0.12684689906117577
289,0.004963897592945036,-0.053737597776980346,0.1259219335261794
290,0.004963897592945036,-0.053737935277643804,0.1251654802497065
291,0.004963897592945036,-0.05373819202385932,0.12436887647541535
292,0.004963897592945036,-0.05373836105601605,0.12399258722917261
293,0.004963897592945036,-0.053738642634227986,0.12351546053249474
294,0.004963897592945036,-0.05373911337437287,0.12294118402959275
295,0.004963897592945036,-0.05373983192754848,0.12209537636800293
296,0.004963897592945036,-0.05374045060173252,0.12143954477863642
297,0.004963897592945036,-0.0537407041738782,0.12142831874367535
298,0.004963897592945036,-0.053740861448643096,0.12171353584077682
299,0.004963897592945036,-0.05374099058248588,0.1219613909224391
300,0.004963897592945036,-0.053741212364750386,0.12223467407990615
301,0.004963897592945036,-0.053741597286763976,0.12250341818683676
302,0.004963897592945036,-0.05374220829727012,0.12273093590960771
303,0.004963897592945036,-0.05374277405115359,0.12274567930019605
304,0.004963897592945036,-0.053742951531913545,0.12249897031890934
305,0.004963897592945036,-0.05374309586276535,0.1221838197182654
306,0.004963897592945036,-0.053743204286242435,0.12199535848927134
307,0.004963897592945036,-0.0537433912219363,0.12188105142578737
308,0.004963897592945036,-0.05374370986982125,0.1218395075537902
309,0.004963897592945036,-0.05374420069624928,0.1220438300991835
310,0.004963897592945036,-0.05374462456379674,0.12256519536889592
311,0.004963897592945036,-0.05374479903388632,0.12301674312606743
312,0.004963897592945036,-0.05374490757329844,0.12333219466389558
313,0.004963897592945036,-0.0537449739200769,0.12344360292622493
314,0.004963897592945036,-0.053745087837024426,0.12348152912053316
315,0.004963897592945036,-0.05374528678190622,0.12344309033097307
316,0.004963897592945036,-0.053745618976722496,0.1232704873717552
317,0.004963897592945036,-0.053746078770139726,0.1227852507815578
318,0.004963897592945036,-0.053746316557278295,0.12236571868348707
319,0.004963897592945036,-0.053746464764844966,0.12202813362374912
320,0.004963897592945036,-0.05374655659276926,0.12187955658243038
321,0.004963897592945036,-0.05374667045538984,0.12171283663580117
322,0.004963897592945036,-0.05374685905098483,0.12158681042340787
323,0.004963897592945036,-0.05374717679702789,0.12134197488115898
324,0.004963897592945036,-0.05374767645204908,0.12105053983296166
325,0.004963897592945036,-0.053748173983444426,0.12063228722042384
326,0.004963897592945036,-0.05374834313330147,0.12064103188518328
327,0.004963897592945036,-0.05374844007002733,0.12061938153096866
328,0.004963897592945036,-0.05374850118933164,0.12064893156155647
329,0.004963897592945036,-0.053748606008045194,0.12058640428183291
330,0.004963897592945036,-0.053748787359563975,0.12037098142837879
331,0.004963897592945036,-0.05374908238657694,0.11986577022663457
332,0.004963897592945036,-0.053749444067745886,0.11878587147267182
333,0.004963897592945036,-0.05374959080508623,0.11828585537493076
334,0.004963897592945036,-0.05374971421388944,0.11790670611663297
335,0.004963897592945036,-0.05374978311896036,0.11784486642486078
336,0.004963897592945036,-0.053749894337597574,0.11780705278683316
337,0.004963897592945036,-0.053750074758063385,0.11778836711290884
338,0.004963897592945036,-0.0537503388853595,0.11772849058823283
339,0.004963897592945036,-0.053750533398460545,0.11766776494839332
340,0.004963897592945036,-0.053750623515367836,0.11761918385771332
341,0.004963897592945036,-0.05375067009221741,0.11759446378978895
342,0.004963897592945036,-0.05375071910660386,0.11756289337917118
343,0.004963897592945036,-0.05375080137104072,0.11749985737218985
344,0.004963897592945036,-0.05375093694141778,0.11739606242892853
345,0.004963897592945036,-0.05375113104036639,0.11719045083000125
346,0.004963897592945036,-0.053751254725639235,0.1170558534791196
347,0.004963897592945036,-0.0537513233295788,0.11696666857392554
348,0.004963897592945036,-0.053751370251230356,0.11694545119081243
349,0.004963897592945036,-0.053751429188328814,0.11684995661074889
350,0.004963897592945036,-0.05375152696903763,0.11672053316642925
351,0.004963897592945036,-0.05375168712607668,0.11639574141264743
352,0.004963897592945036,-0.053751914899477136,0.1158484639030397
353,0.004963897592945036,-0.0537520549619763,0.11534699465607155
354,0.004963897592945036,-0.0537521251530685,0.11518907890108886
355,0.004963897592945036,-0.053752171324414885,0.11512324334775814
356,0.004963897592945036,-0.0537522349614797,0.1151272845908866
357,0.004963897592945036,-0.05375234258336011,0.11508575727813976
358,0.004963897592945036,-0.05375252274591366,0.11499607150154102
359,0.004963897592945036,-0.0537527898696204,0.11477400380918612
360,0.004963897592945036,-0.05375297857114105,0.11453153536840449
361,0.004963897592945036,-0.05375306113644486,0.11440172146782715
362,0.004963897592945036,-0.05375311506102257,0.114371027544509
363,0.004963897592945036,-0.053753170123108145,0.1143397241551537
364,0.004963897592945036,-0.05375326212265006,0.11436826492641473
365,0.004963897592945036,-0.053753416867363533,0.11433286694088422
366,0.004963897592945036,-0.053753659025998254,0.1143462851588943
367,0.004963897592945036,-0.05375390908367821,0.11423350804199074
368,0.004963897592945036,-0.05375401538900972,0.11426555594850964
369,0.004963897592945036,-0.0537540860402786,0.11417873809978112
370,0.004963897592945036,-0.053754133044562495,0.11418984200637217
371,0.004963897592945036,-0.05375421353141485,0.11416591934855738
372,0.004963897592945036,-0.053754353461792144,0.11416767782135433
373,0.004963897592945036,-0.05375458575838892,0.11419725096429624
374,0.004963897592945036,-0.05375490318816829,0.11432011802629898
375,0.004963897592945036,-0.0537550599446899,0.11447590547635796
376,0.004963897592945036,-0.053755150882877814,0.11460865624406606
377,0.004963897592945036,-0.0537551879697618,0.11467761104684862
378,0.004963897592945036,-0.05375522482228492,0.11470498694373675
379,0.004963897592945036,-0.053755287902218875,0.11475230759549825
380,0.004963897592945036,-0.053755398650575416,0.11480332232602831
381,0.004963897592945036,-0.053755588047219624,0.11489519938569613
382,0.004963897592945036,-0.05375587614235513,0.11504199979960388
383,0.004963897592945036,-0.05375610908744187,0.11521203484683487
384,0.004963897592945036,-0.05375622432029605,0.11527870092658989
385,0.004963897592945036,-0.05375631758874594,0.11529491456940379
386,0.004963897592945036,-0.053756385872292395,0.11528147755770823
387,0.004963897592945036,-0.05375649963148087,0.11525379923813432
388,0.004963897592945036,-0.05375668990215086,0.11524929407854226
389,0.004963897592945036,-0.05375698616779226,0.11523416924384804
390,0.004963897592945036,-0.053757293482358914,0.11535528971074585
391,0.004963897592945036,-0.05375743859908288,0.1152882455190733
392,0.004963897592945036,-0.05375752533560904,0.1154575275318815
393,0.004963897592945036,-0.05375758206034379,0.11532717376759714
394,0.004963897592945036,-0.05375767665052965,0.11521956023853877
395,0.004963897592945036,-0.053757837528663505,0.1150609337683472
396,0.004963897592945036,-0.053758095244653005,0.1148507226054372
397,0.004963897592945036,-0.05375839397673713,0.11458153377727869
398,0.004963897592945036,-0.05375852042841053,0.11456845747304571
399,0.004963897592945036,-0.0537586052751253,0.11463436270880975
400,0.004963897592945036,-0.05375864226195574,0.1146956180400918
401,0.004963897592945036,-0.05375869999126002,0.11474032072348814
402,0.004963897592945036,-0.0537587943979333,0.11476352613229131
403,0.004963897592945036,-0.0537589509056058,0.11473925970251424
404,0.004963897592945036,-0.05375919745784819,0.11467220076473082
405,0.004963897592945036,-0.053759491754326295,0.11455118955087142
406,0.004963897592945036,-0.053759663878556505,0.11450095996900089
407,0.004963897592945036,-0.053759768871670076,0.11448788930891657
408,0.004963897592945036,-0.0537598122210825,0.11454219600266415
409,0.004963897592945036,-0.05375986870602174,0.11458991770981357
410,0.004963897592945036,-0.05375996196947467,0.11465910072844449
411,0.004963897592945036,-0.053760117369099365,0.11466441686276156
412,0.004963897592945036,-0.053760358620776924,0.11457862720463054
413,0.004963897592945036,-0.05376060590775182,0.11425448049963699
414,0.004963897592945036,-0.05376073077068299,0.11398085132582537
415,0.004963897592945036,-0.05376081027173542,0.11369925867597572
416,0.004963897592945036,-0.05376085861677147,0.1136200783145291
417,0.004963897592945036,-0.05376093607341997,0.11351460211656142
418,0.004963897592945036,-0.05376106607922585,0.113496723065986
419,0.004963897592945036,-0.053761279314550714,0.11351780356184983
420,0.004963897592945036,-0.05376158156569783,0.1137031296786203
421,0.004963897592945036,-0.053761776975335754,0.11392172172988294
422,0.004963897592945036,-0.05376188408719256,0.11411297466640886
423,0.004963897592945036,-0.053761945531845795,0.11417447479852619
424,0.004963897592945036,-0.053762003543652064,0.11418366172417524
425,0.004963897592945036,-0.053762102341511915,0.11414879213900513
426,0.004963897592945036,-0.05376227379715002,0.11408420442212511
427,0.004963897592945036,-0.05376256352743311,0.11395545658907853
428,0.004963897592945036,-0.053763001055275296,0.11375517351641463
429,0.004963897592945036,-0.053763359107701414,0.11354551155977154
430,0.004963897592945036,-0.05376353155912548,0.11354834341645649
431,0.004963897592945036,-0.053763612884126066,0.11350651621021149
432,0.004963897592945036,-0.05376364343658989,0.11359580741327989
433,0.004963897592945036,-0.053763675083531845,0.11360735212085678
434,0.004963897592945036,-0.053763733603499245,0.11360850919788212
435,0.004963897592945036,-0.05376384091027969,0.11358605404873741
436,0.004963897592945036,-0.05376402963103512,0.11351382626745139
437,0.004963897592945036,-0.05376432509460589,0.11332907850525317
438,0.004963897592945036,-0.05376459707117579,0.11300809500371799
439,0.004963897592945036,-0.05376473776252152,0.11283236221353875
440,0.004963897592945036,-0.053764868206659204,0.11267282917116207
441,0.004963897592945036,-0.05376491234187715,0.1126711155109037
442,0.004963897592945036,-0.05376495504149057,0.11269298530060762
443,0.004963897592945036,-0.05376502764233238,0.1127276736999528
444,0.004963897592945036,-0.05376515562883308,0.11277316792063678
445,0.004963897592945036,-0.05376537615623998,0.11282078498029291
446,0.004963897592945036,-0.05376571612420425,0.11288400153125121
447,0.004963897592945036,-0.05376600658039262,0.11288876800013674
448,0.004963897592945036,-0.053766138998503785,0.11287225712690173
449,0.004963897592945036,-0.05376623308284348,0.11279422753166388
450,0.004963897592945036,-0.05376628532466691,0.11279068075263322
451,0.004963897592945036,-0.05376637227378669,0.1128062058208186
452,0.004963897592945036,-0.05376652214609091,0.11285936975601016
453,0.004963897592945036,-0.05376676787779142,0.11304013292993377
454,0.004963897592945036,-0.05376708366940863,0.11337625198389842
455,0.004963897592945036,-0.05376720845726836,0.11366776328091374
456,0.004963897592945036,-0.05376728446533168,0.11373086420997765
457,0.004963897592945036,-0.05376731646931833,0.11380387069952959
458,0.004963897592945036,-0.053767353171982744,0.11375709424395883
459,0.004963897592945036,-0.05376741793357176,0.11369928555372186
460,0.004963897592945036,-0.05376752906079259,0.11359582941143012
461,0.004963897592945036,-0.05376769976797612,0.11345176112211973
462,0.004963897592945036,-0.053767850346409456,0.11327298031452329
463,0.004963897592945036,-0.053767925752528645,0.11325286258144593
464,0.004963897592945036,-0.053767970736053536,0.11323458789410804
465,0.004963897592945036,-0.05376798530895458,0.11328136996295857
466,0.004963897592945036,-0.05376800301567698,0.11328469875689842
467,0.004963897592945036,-0.053768033670954424,0.11327983392650284
468,0.004963897592945036,-0.053768086798440924,0.1132369384333263
469,0.004963897592945036,-0.053768172168170175,0.11312629805008853
470,0.004963897592945036,-0.05376826541724021,0.11289263850841937
471,0.004963897592945036,-0.0537682999258809,0.11277247862828546
472,0.004963897592945036,-0.053768321678380665,0.11267799756105179
473,0.004963897592945036,-0.05376833037048811,0.11266258811078463
474,0.004963897592945036,-0.0537683444991082,0.1126354586472912
475,0.004963897592945036,-0.053768368505231263,0.11260125706174041
476,0.004963897592945036,-0.053768408732785294,0.11253098362415585
477,0.004963897592945036,-0.05376846902704226,0.11241425206215426
478,0.004963897592945036,-0.053768516459573486,0.11229852200317868
479,0.004963897592945036,-0.05376853856225023,0.11227653593419472
480,0.004963897592945036,-0.05376854984511551,0.11229807242777635
481,0.004963897592945036,-0.05376855653916854,0.11233364324140618
482,0.004963897592945036,-0.05376856758265258,0.1123791353884068
483,0.004963897592945036,-0.05376858601813379,0.11243558324696754
484,0.004963897592945036,-0.05376861512930079,0.11249428699293677
485,0.004963897592945036,-0.053768648553222706,0.11252452880641803
486,0.004963897592945036,-0.053768664433197236,0.11248377583445669
487,0.004963897592945036,-0.053768672477733565,0.11241835951915219
488,0.004963897592945036,-0.05376867560475925,0.11238751047863459
