Iteration,Energy,Loss Function,Bias
0,0.09214782464915071,0.08857862645201398,0.0
1,0.05133593513086431,0.04223585558536672,0.06385669955964504
2,0.02630164867324327,0.020160350555567984,0.08610421061577002
3,0.009201331348829824,0.004344411243079181,0.1045513982614909
4,0.007121080609030969,0.0021991467466897087,0.12891857749334046
5,0.0038414976156146176,-0.0010497439070038818,0.13508368519035557
6,0.0028187749861204483,-0.002833130728094073,0.14582886906980688
7,0.0020447997317117124,-0.004379859501784239,0.15713614386683078
8,0.0012134668647979204,-0.004837309043254379,0.1705095965640112
9,0.0007901074586779402,-0.0052813654591051876,0.17606502486045097
10,0.0007654375380577481,-0.005431951159176451,0.1832132190352823
11,0.0007524153051129478,-0.005560703959308629,0.18639418065865604
12,0.0007535799006178043,-0.005647684730763878,0.18849294276943981
13,0.0007535799006178043,-0.00569730984327359,0.18919591731568056
14,0.0007535799006178043,-0.005725771198048022,0.19004882747846852
15,0.0007535799006178043,-0.0057392971853805754,0.19037746146140266
16,0.0007535799006178043,-0.005749634780836737,0.19087866267104914
17,0.0007535799006178043,-0.00575778224241121,0.19155860903201893
18,0.0007535799006178043,-0.005762307425792581,0.19229464170705796
19,0.0007535799006178043,-0.005765157650762133,0.1930689145958987
20,0.0007535799006178043,-0.005767216622271696,0.19376334160015052
21,0.0007535799006178043,-0.005769304346413136,0.19449464883358691
22,0.0007535799006178043,-0.005770790056196817,0.1951296752202707
23,0.0007535799006178043,-0.005771653814787695,0.19565470005280533
24,0.0007535799006178043,-0.005772522982057605,0.19631860901454914
25,0.0007535799006178043,-0.005773449214584213,0.1971594729275764
26,0.0007535799006178043,-0.005774231778206837,0.1979969827853056
27,0.0007535799006178043,-0.005774775747505101,0.19871472257681866
28,0.0007535799006178043,-0.005775200224609405,0.19937985096518504
29,0.0007535799006178043,-0.005775665814673697,0.20016379727072428
30,0.0007535799006178043,-0.0057762100324455674,0.20110296694073942
31,0.0007535799006178043,-0.0057767426631095365,0.20205031158294162
32,0.0007535799006178043,-0.005777121345062732,0.20272369571981302
33,0.0007535799006178043,-0.005777393098731365,0.2031895132987533
34,0.0007535799006178043,-0.005777663371644025,0.20370157699269495
35,0.0007535799006178043,-0.005777983993522378,0.20444302038144405
36,0.0007535799006178043,-0.00577832227513134,0.20541629599549602
37,0.0007535799006178043,-0.005778632232547903,0.20644188586644696
38,0.0007535799006178043,-0.005778929099961655,0.20744891793595122
39,0.0007535799006178043,-0.005779186710849901,0.20835612759767022
40,0.0007535799006178043,-0.005779385086240256,0.2091088055421819
41,0.0007535799006178043,-0.005779587121772638,0.20991771833051376
42,0.0007535799006178043,-0.005779795320909774,0.2108049811273587
43,0.0007535799006178043,-0.005779975134088612,0.2115879387003007
44,0.0007535799006178043,-0.005780148521093248,0.21235781876862314
45,0.0007535799006178043,-0.005780325348715512,0.21328518265494226
46,0.0007535799006178043,-0.005780478306306603,0.21434775339702758
47,0.0007535799006178043,-0.005780599973772789,0.21535929245073063
48,0.0007535799006178043,-0.005780709078099044,0.21620749063675898
49,0.0007535799006178043,-0.005780813212919538,0.21685907045273667
50,0.0007535799006178043,-0.005780913901222612,0.21740069052254396
51,0.0007535799006178043,-0.005781028442411653,0.21807020021936036
52,0.0007535799006178043,-0.00578115534699856,0.21895208330884616
53,0.0007535799006178043,-0.0057812763106779965,0.21989053853781834
54,0.0007535799006178043,-0.0057813835831350986,0.22078555678472753
55,0.0007535799006178043,-0.005781471426626072,0.2216257837001636
56,0.0007535799006178043,-0.005781556381069073,0.22256154090164237
57,0.0007535799006178043,-0.005781656693591294,0.22377911155994076
58,0.0007535799006178043,-0.005781774101295285,0.22528758273400928
59,0.0007535799006178043,-0.005781900173690204,0.22689398483865944
60,0.0007535799006178043,-0.005782007916317436,0.22814970863664574
61,0.0007535799006178043,-0.005782074865861619,0.22882163464265098
62,0.0007535799006178043,-0.005782125917933602,0.22932075164742297
63,0.0007535799006178043,-0.005782197102049838,0.23015485621941362
64,0.0007535799006178043,-0.005782294973528251,0.23159782346649094
65,0.0007535799006178043,-0.005782399619430256,0.23352953444579047
66,0.0007535799006178043,-0.005782473655024831,0.23514841315256815
67,0.0007535799006178043,-0.005782520518078304,0.23613721364437162
68,0.0007535799006178043,-0.005782563638743396,0.23690305488177427
69,0.0007535799006178043,-0.0057826176702251274,0.23782364703728823
70,0.0007535799006178043,-0.0057826890368367564,0.23918139302172162
71,0.0007535799006178043,-0.0057827809771032,0.2411662221743233
72,0.0007037776558957074,-0.005820238988492961,0.26505092650137274
73,0.0007037776558957074,-0.005820240833901652,0.26517843195706137
74,0.0007037776558957074,-0.005821279084157036,0.2636200798991145
75,0.0007037776558957074,-0.0058231045895795865,0.26272210820486674
76,0.0007037776558957074,-0.005826067050928915,0.26044062034877485
77,0.0007037776558957074,-0.005829614048907799,0.2588728206324048
78,0.0007037776558957074,-0.005831210459493684,0.2537898445269311
79,0.0007037776558957074,-0.005831643235871887,0.25269739375012756
80,0.0007037776558957074,-0.0058319378913743196,0.25161016132206687
81,0.0007037776558957074,-0.005832106478782111,0.2508892335099953
82,0.0007037776558957074,-0.005832282405794937,0.2501282171433587
83,0.0007037776558957074,-0.005832462551236875,0.24940268273261249
84,0.0007037776558957074,-0.0058326434651472785,0.24880647955778623
85,0.0007037776558957074,-0.005832767709970179,0.24865300256709388
86,0.0007037776558957074,-0.005832844434174386,0.24885355934388811
87,0.0007037776558957074,-0.005832898538330478,0.2491764921428567
88,0.0007037776558957074,-0.0058329496397333605,0.24950807162079036
89,0.0007037776558957074,-0.005833018940705909,0.24990998873497544
90,0.0007037776558957074,-0.005833105977795166,0.25037363886512115
91,0.0007037776558957074,-0.005833191645323894,0.2507966991831728
92,0.0007037776558957074,-0.005833254835286936,0.25103253161320915
93,0.0007037776558957074,-0.005833291651825318,0.2510304563177576
94,0.0007037776558957074,-0.00583332015039216,0.2508936976565594
95,0.0007037776558957074,-0.005833356045775264,0.2506642112005626
96,0.0007037776558957074,-0.005833397852247087,0.2504499127664013
97,0.0007037776558957074,-0.005833441001951199,0.25039280620464066
98,0.0007037776558957074,-0.005833479113881627,0.25058667119291317
99,0.0007037776558957074,-0.005833510397499964,0.2510237750187734
100,0.0007037776558957074,-0.005833534123608029,0.2516099421587935
101,0.0007037776558957074,-0.005833553993380144,0.25225114946768673
102,0.0007037776558957074,-0.005833575353274694,0.2529570918825358
103,0.0007037776558957074,-0.005833599367036369,0.2536219341380199
104,0.0007037776558957074,-0.005833626352430023,0.2540779620407135
105,0.0007037776558957074,-0.005833656774771189,0.2541701403070445
106,0.0007037776558957074,-0.005833690601204502,0.2538417571086305
107,0.0007037776558957074,-0.005833725653692,0.2532089996806145
108,0.0007037776558957074,-0.005833759164503235,0.2525150563771502
109,0.0007037776558957074,-0.0058337850443939505,0.2520536363598719
110,0.0007037776558957074,-0.005833800811346013,0.25193135447609694
111,0.0007037776558957074,-0.0058338128012550925,0.25196583980639364
112,0.0007037776558957074,-0.005833827756928243,0.25202629860328496
113,0.0007037776558957074,-0.005833848620878249,0.25201838984894304
114,0.0007037776558957074,-0.005833873754200466,0.25184367904767413
115,0.0007037776558957074,-0.005833897283824872,0.251500541273759
116,0.0007037776558957074,-0.005833916084724407,0.25112234128663247
117,0.0007037776558957074,-0.005833931908869583,0.2508346585385477
118,0.0007037776558957074,-0.005833947362156834,0.2506819618099808
119,0.0007037776558957074,-0.005833963357313657,0.2506544021754991
120,0.0007037776558957074,-0.005833980715316375,0.2506625339733356
121,0.0007037776558957074,-0.005834001540340708,0.2505549347239963
122,0.0007037776558957074,-0.005834025178357801,0.25015683186114895
123,0.0007037776558957074,-0.005834046029217803,0.24945194193757708
124,0.0007037776558957074,-0.005834059909055387,0.24871521174494796
125,0.0007037776558957074,-0.005834069781319584,0.24813234960081815
126,0.0007037776558957074,-0.005834082198952827,0.24751041289200212
127,0.0007037776558957074,-0.0058341017918271555,0.2467243942109357
128,0.0007037776558957074,-0.0058341311908744805,0.2457313960561463
129,0.0007037776558957074,-0.005834160665016225,0.24494331985322434
130,0.0007037776558957074,-0.005834180570188095,0.24469334624967784
131,0.0007037776558957074,-0.005834191967568083,0.24476275740018816
132,0.0007037776558957074,-0.00583420116707069,0.24480218440515716
133,0.0007037776558957074,-0.005834214368384899,0.24459706357276875
134,0.0007037776558957074,-0.005834233832257404,0.24387587167994898
135,0.0007037776558957074,-0.005834259756836091,0.24246258372715976
136,0.0007037776558957074,-0.005834286371047524,0.24069634919609126
137,0.0007037776558957074,-0.005834305742425373,0.23938622011989924
138,0.0007037776558957074,-0.005834317829966713,0.23881573279089727
139,0.0007037776558957074,-0.005834328755631369,0.23856434529966394
140,0.0007037776558957074,-0.005834344355559117,0.23826396968810498
141,0.0007037776558957074,-0.0058343673963828484,0.2376092420255613
142,0.0007037776558957074,-0.005834395985614973,0.23635456266572458
143,0.0007037776558957074,-0.005834422401743116,0.23472625952920148
144,0.0007037776558957074,-0.005834439640865482,0.23339216252582437
145,0.0007037776558957074,-0.0058344487906388945,0.2326662553490069
146,0.0007037776558957074,-0.005834458064476863,0.23201381868626092
147,0.0007037776558957074,-0.0058344724727153515,0.23104987960685375
148,0.0007037776558957074,-0.005834494244343921,0.22957328939677926
149,0.0007037776558957074,-0.005834520487816254,0.22778691241796137
150,0.0007037776558957074,-0.005834541827250668,0.2264244390814632
151,0.0007037776558957074,-0.005834552582944919,0.2259583823343436
152,0.0007037776558957074,-0.005834558669959991,0.2258105137452595
153,0.0007037776558957074,-0.005834565427457802,0.22555167802509263
154,0.0007037776558957074,-0.005834576075663686,0.22486685879557616
155,0.0007037776558957074,-0.005834592681084737,0.22341932510066523
156,0.0007037776558957074,-0.005834615575086576,0.2208745309796827
157,0.0007037776558957074,-0.0058346364302331866,0.218298688127046
158,0.0007037776558957074,-0.005834653659390102,0.21631825302311455
159,0.0007037776558957074,-0.005834664895922794,0.21542728845310813
160,0.0007037776558957074,-0.005834672323525308,0.2151423459564081
161,0.0007037776558957074,-0.005834678593836985,0.21494099976931427
162,0.0007037776558957074,-0.005834686672488237,0.21446062861662812
163,0.0007037776558957074,-0.005834699183071435,0.21334909503338967
164,0.0007037776558957074,-0.005834718572557871,0.2112341607356024
165,0.0007037776558957074,-0.005834744959234577,0.20789562839197187
166,0.0007037776558957074,-0.005834768050497073,0.20480895729077678
167,0.0007037776558957074,-0.00583478252756372,0.2031490546545323
168,0.0007037776558957074,-0.005834789484410279,0.20281845892590727
169,0.0007037776558957074,-0.005834794960482358,0.20275196419989885
170,0.0007037776558957074,-0.0058348032483781,0.20239853068557262
171,0.0007037776558957074,-0.005834816413730409,0.20129079002454503
172,0.0007037776558957074,-0.0058348371156841244,0.19889046203484334
173,0.0007037776558957074,-0.005834865974384619,0.19456089977794727
174,0.0007037776558957074,-0.0058348874491949455,0.19089420478609495
175,0.0007037776558957074,-0.005834899188357941,0.18911725839726662
176,0.0007037776558957074,-0.00583490516679358,0.18881893048666937
177,0.0007037776558957074,-0.005834911375585192,0.18874897735568505
178,0.0007037776558957074,-0.005834920466885635,0.18831451879437822
179,0.0007037776558957074,-0.0058349347194266675,0.1869120133280186
180,0.0007037776558957074,-0.005834955444753209,0.1838492604796304
181,0.0007037776558957074,-0.005834973496995074,0.18050212031768784
182,0.0007037776558957074,-0.005834984986849694,0.17831023032438165
183,0.0007037776558957074,-0.005834990995877267,0.17747837752811788
184,0.0007037776558957074,-0.0058349963631125915,0.1770607795717133
185,0.0007037776558957074,-0.0058350037439709864,0.17648960738162586
186,0.0007037776558957074,-0.005835015087508973,0.17539276450371635
187,0.0007037776558957074,-0.005835030426234563,0.1733277319142039
188,0.0007037776558957074,-0.005835045848925769,0.1706835006877947
189,0.0007037776558957074,-0.005835056633622651,0.16842858079405196
190,0.0007037776558957074,-0.005835063201098561,0.1672143922634092
191,0.0007037776558957074,-0.005835067547024262,0.16643198255323263
192,0.0007037776558957074,-0.005835070949289888,0.1660327338022184
193,0.0007037776558957074,-0.005835074858594539,0.16536023547807605
194,0.0007037776558957074,-0.00583508051650545,0.16471402050997525
195,0.0007037776558957074,-0.005835089285215438,0.16318973117741567
196,0.0007037776558957074,-0.005835102286409761,0.16137308741176382
197,0.0007037776558957074,-0.0058351155566707955,0.15851771081159322
198,0.0007037776558957074,-0.005835124204287752,0.1572791354830794
199,0.0007037776558957074,-0.005835127993200581,0.15625026137074005
200,0.0007037776558957074,-0.0058351301633711,0.15631715221340836
201,0.0007037776558957074,-0.005835133167816505,0.15584232770486034
202,0.0007037776558957074,-0.00583513816681493,0.15498305434759174
203,0.0007037776558957074,-0.005835146536573503,0.15319525404456394
204,0.0007037776558957074,-0.005835159775290918,0.14996308572226422
205,0.0007037776558957074,-0.005835175400998019,0.14506941245814292
206,0.0007037776558957074,-0.005835183843477924,0.14269806101831373
207,0.0007037776558957074,-0.005835188638103884,0.14194806517330244
208,0.0007037776558957074,-0.0058351904474178255,0.142107146486486
209,0.0007037776558957074,-0.005835192812018336,0.14223612400927527
210,0.0007037776558957074,-0.005835196778852295,0.1419313145209005
211,0.0007037776558957074,-0.0058352035495435346,0.14079514516487854
212,0.0007037776558957074,-0.0058352146140953475,0.13811925915512732
213,0.0007037776558957074,-0.005835229655554282,0.132457059555428
214,0.0007037776558957074,-0.0058352374395197,0.12889258583670865
215,0.0007037776558957074,-0.005835242176801011,0.1271033723816359
216,0.0007037776558957074,-0.005835244015132218,0.12711807860892596
217,0.0007037776558957074,-0.005835245827542764,0.1273844798323445
218,0.0007037776558957074,-0.005835248783408715,0.1274493452499847
219,0.0007037776558957074,-0.005835253713736459,0.126864910834608
220,0.0007037776558957074,-0.005835261738486327,0.12497608308452723
221,0.0007037776558957074,-0.005835273391784937,0.12048601474728295
222,0.0007037776558957074,-0.005835282411453896,0.11540814838771504
223,0.0007037776558957074,-0.005835287996090714,0.11157935528103233
224,0.0007037776558957074,-0.005835290555576413,0.10999398836109149
225,0.0007037776558957074,-0.005835292325242642,0.10935323857729824
226,0.0007037776558957074,-0.0058352951517430555,0.10852380584308247
227,0.0007037776558957074,-0.005835299898722464,0.10703739295181042
228,0.0007037776558957074,-0.0058353079706534566,0.10427352413513676
229,0.0007037776558957074,-0.00583532110890513,0.09912550689827365
230,0.0007037776558957074,-0.005835339095390458,0.08956357371410625
231,0.0007037776558957074,-0.005835348940333874,0.08386077761933296
232,0.0007037776558957074,-0.00583535507297696,0.0811246193835321
233,0.0007037776558957074,-0.005835357436319366,0.08115762524221257
234,0.0007037776558957074,-0.005835359676816945,0.0814579791609916
235,0.0007037776558957074,-0.0058353633827717055,0.08119249377374142
236,0.0007037776558957074,-0.005835369729569738,0.07970505403659081
237,0.0007037776558957074,-0.005835380534128773,0.07597768241858281
238,0.0007037776558957074,-0.005835397793257314,0.06807368945565635
239,0.0007037776558957074,-0.005835418912170854,0.05379400785219422
240,0.0007037776558957074,-0.005835430728722126,0.044783170894691304
241,0.0007037776558957074,-0.005835439200003222,0.0376442211655101
242,0.0007037776558957074,-0.005835444485842736,0.03252353962013043
243,0.000666300414260233,-0.0058604384090990376,-0.11960012084584323
244,0.000666300414260233,-0.005860438449286786,-0.11968767430620667
245,0.000666300414260233,-0.005860842325277452,-0.11918999945328722
246,0.000666300414260233,-0.0058615930077703365,-0.11565660839802858
247,0.000666300414260233,-0.005862942269086137,-0.11730274077014904
248,0.000666300414260233,-0.0058651330639806175,-0.12015368930251975
249,0.000666300414260233,-0.005867968328907305,-0.10601619971195034
250,0.000666300414260233,-0.005869769932687634,-0.11026977733719409
251,0.000666300414260233,-0.005870444028825392,-0.09721327444456646
252,0.000666300414260233,-0.005870659147931853,-0.09876408279746261
253,0.000666300414260233,-0.005870816975551686,-0.09416983095848447
254,0.000666300414260233,-0.005871068765550223,-0.08545088491172062
255,0.000666300414260233,-0.005871436543367286,-0.07338509042842711
256,0.000666300414260233,-0.005871765029567061,-0.06098069133635186
257,0.000666300414260233,-0.005872028453352511,-0.05471979728354718
258,0.000666300414260233,-0.005872192327477025,-0.05418016462492393
259,0.000666300414260233,-0.005872266931717806,-0.05888920417925621
260,0.000666300414260233,-0.005872289879428993,-0.06228207998301855
261,0.000666300414260233,-0.005872312695004853,-0.06603238161626
262,0.000666300414260233,-0.005872340464765714,-0.06942427346005106
263,0.000666300414260233,-0.005872378749641571,-0.071798290416462
264,0.000666300414260233,-0.005872426799081611,-0.07172184116136442
265,0.000666300414260233,-0.0058724762169238415,-0.06860383652228404
266,0.000666300414260233,-0.0058725134901214116,-0.06431674182443792
267,0.000666300414260233,-0.00587253700858519,-0.06136958373718734
268,0.000666300414260233,-0.005872552105028393,-0.06026798966238785
269,0.000666300414260233,-0.005872562331433253,-0.06031752802378821
270,0.000666300414260233,-0.005872571625026154,-0.06052155113777619
271,0.000666300414260233,-0.00587258382533501,-0.060130821608915475
272,0.000666300414260233,-0.005872599978498037,-0.05830149781756694
273,0.000666300414260233,-0.005872618476895513,-0.05462380273672853
274,0.000666300414260233,-0.005872634286344898,-0.05024270516089637
275,0.000666300414260233,-0.005872644126820861,-0.047404957118687585
276,0.000666300414260233,-0.005872651077668925,-0.046418444712274395
277,0.000666300414260233,-0.0058726579917418005,-0.04674395104305811
278,0.000666300414260233,-0.005872665234469305,-0.04805524124104474
279,0.000666300414260233,-0.005872673887306932,-0.04997436319651144
280,0.000666300414260233,-0.005872684765421595,-0.052094118276033566
281,0.000666300414260233,-0.005872697660687449,-0.053840478175778646
282,0.000666300414260233,-0.005872710229866041,-0.05455502801007511
283,0.000666300414260233,-0.005872719067073125,-0.054100242862193934
284,0.000666300414260233,-0.005872723624866346,-0.0532360657249542
285,0.000666300414260233,-0.005872726356131799,-0.0526212489133887
286,0.000666300414260233,-0.005872729409390256,-0.05221570135766462
287,0.000666300414260233,-0.005872734117482251,-0.0519489054815303
288,0.000666300414260233,-0.005872741468046021,-0.051743578049176134
289,0.000666300414260233,-0.005872752493484708,-0.05136536581071178
290,0.000666300414260233,-0.005872764360625318,-0.05057778693502736
291,0.000666300414260233,-0.005872773415041169,-0.04941701771762739
292,0.000666300414260233,-0.005872778436298342,-0.04837830156248177
293,0.000666300414260233,-0.005872781605215388,-0.04773567635198163
294,0.000666300414260233,-0.005872784351598236,-0.04756988634944354
295,0.000666300414260233,-0.0058727868119021025,-0.048023539694567914
296,0.000666300414260233,-0.005872789095101747,-0.049005200681269366
297,0.000666300414260233,-0.005872791879951684,-0.05046970688755667
298,0.000666300414260233,-0.005872796259043963,-0.05263191231367764
299,0.000666300414260233,-0.005872803181100533,-0.055523084973055054
300,0.000666300414260233,-0.005872813448779782,-0.059178892969479244
301,0.000666300414260233,-0.005872822787023342,-0.061600314254063225
302,0.000666300414260233,-0.005872827924979343,-0.061763001812557713
303,0.000666300414260233,-0.005872829822778853,-0.06094298401813691
304,0.000666300414260233,-0.005872830933177675,-0.06032155593845436
305,0.000666300414260233,-0.005872832519781646,-0.05992352681755411
306,0.000666300414260233,-0.005872835122473863,-0.06002991974537914
307,0.000666300414260233,-0.005872839490461356,-0.06093032097320142
308,0.000666300414260233,-0.00587284665702505,-0.06313209670512848
309,0.000666300414260233,-0.0058728571711243755,-0.06764618042825019
310,0.000666300414260233,-0.00587286538739654,-0.0722453295503739
311,0.000666300414260233,-0.005872869827841159,-0.07468556267007931
312,0.000666300414260233,-0.0058728715069710806,-0.07500738869996143
313,0.000666300414260233,-0.005872872525606905,-0.07480451699202136
314,0.000666300414260233,-0.0058728742324912885,-0.07461018352851133
315,0.000666300414260233,-0.00587287719733369,-0.07466245106979688
316,0.000666300414260233,-0.005872882350000412,-0.07521307863776833
317,0.000666300414260233,-0.005872890906817465,-0.07675637242750902
318,0.000666300414260233,-0.00587290308710435,-0.08035349303601942
319,0.000666300414260233,-0.005872911099914349,-0.08376329531446744
320,0.000666300414260233,-0.0058729161278283865,-0.08606617254782344
321,0.000666300414260233,-0.005872918073446166,-0.08657548769704235
322,0.000666300414260233,-0.005872919290694753,-0.08653736144266798
323,0.000666300414260233,-0.00587292136937311,-0.08650976879878285
324,0.000666300414260233,-0.005872925017335198,-0.08668573039193662
325,0.000666300414260233,-0.005872931350492353,-0.08731405656863056
326,0.000666300414260233,-0.005872941653387227,-0.0889089062981223
327,0.000666300414260233,-0.005872954827443126,-0.09249588147285148
328,0.000666300414260233,-0.005872961020160799,-0.09466429443258419
329,0.000666300414260233,-0.005872965162074306,-0.09624502921220372
330,0.000666300414260233,-0.005872966350003224,-0.09643621387583205
331,0.000666300414260233,-0.0058729677215092575,-0.09655579321159909
332,0.000666300414260233,-0.005872970060264697,-0.09689615182074307
333,0.000666300414260233,-0.005872974181385706,-0.09768852054638663
334,0.000666300414260233,-0.005872981365512228,-0.09934082077005521
335,0.000666300414260233,-0.0058729930341660805,-0.10268470629179177
336,0.000666300414260233,-0.005873007087490644,-0.1089142031626417
337,0.000666300414260233,-0.005873012861437589,-0.11152252410217489
338,0.000666300414260233,-0.005873016579427598,-0.11284803267293116
339,0.000666300414260233,-0.0058730176023717665,-0.11285034180021336
340,0.000666300414260233,-0.005873018749684488,-0.11280990348217453
341,0.000666300414260233,-0.005873020688597783,-0.11297058853671142
342,0.000666300414260233,-0.005873024074213695,-0.11351813283146765
343,0.000666300414260233,-0.005873029949395255,-0.11473692256859193
344,0.000666300414260233,-0.005873039614367687,-0.11716060844562523
345,0.000666300414260233,-0.005873053048530311,-0.12167368502012033
346,0.000666300414260233,-0.005873061223687196,-0.12432727014216768
347,0.000666300414260233,-0.005873066716611568,-0.12535785814633063
348,0.000666300414260233,-0.005873068635455094,-0.12502285135453423
349,0.000666300414260233,-0.005873069628907699,-0.12456199228264139
350,0.000666300414260233,-0.005873070919768248,-0.12417895342034856
351,0.000666300414260233,-0.005873073063474058,-0.12411376363335254
352,0.000666300414260233,-0.005873076714661823,-0.12469642211750141
353,0.000666300414260233,-0.005873082902046491,-0.1264942686855676
354,0.000666300414260233,-0.005873092894914589,-0.13061513862395327
355,0.000666300414260233,-0.0058731066656726155,-0.13910054127029153
356,0.000666300414260233,-0.005873115161538593,-0.14502699337482353
357,0.000666300414260233,-0.005873120651471104,-0.14850525684398694
358,0.000666300414260233,-0.005873122160484613,-0.148649813843814
359,0.000666300414260233,-0.005873123108410996,-0.14836230091857772
360,0.000666300414260233,-0.005873124717564061,-0.14820575183722226
361,0.000666300414260233,-0.005873127541539201,-0.14844579091972598
362,0.000666300414260233,-0.005873132476570575,-0.14944942279542067
363,0.000666300414260233,-0.005873140687139921,-0.15198331506362228
364,0.000666300414260233,-0.005873152346835281,-0.157695610305352
365,0.000666300414260233,-0.005873159653078808,-0.1628143239311523
366,0.000666300414260233,-0.005873164142700293,-0.1661429860427304
367,0.000666300414260233,-0.0058731660545842945,-0.16691149587725893
368,0.000666300414260233,-0.005873167029716862,-0.1666653616502974
369,0.000666300414260233,-0.005873168433009733,-0.16625667136622818
370,0.000666300414260233,-0.0058731707670271,-0.16604035400103936
371,0.000666300414260233,-0.005873174720238732,-0.16631230055461044
372,0.000666300414260233,-0.005873181267138454,-0.16753746718012288
373,0.000666300414260233,-0.005873191208675682,-0.17058846167174468
374,0.000666300414260233,-0.005873201017868551,-0.1749431985494889
375,0.000666300414260233,-0.005873207379151434,-0.17799917161886203
376,0.000666300414260233,-0.005873210408618254,-0.17924893304127487
377,0.000666300414260233,-0.005873211392079189,-0.17932997421762983
378,0.000666300414260233,-0.005873212337382618,-0.17931694035880177
379,0.000666300414260233,-0.005873213914901661,-0.17942402466908233
380,0.000666300414260233,-0.005873216648397675,-0.17982452091575554
381,0.000666300414260233,-0.005873221404981571,-0.18073600737165718
382,0.000666300414260233,-0.005873229410661647,-0.18259278301246604
383,0.000666300414260233,-0.005873241517195281,-0.1861415157338292
384,0.000666300414260233,-0.0058732522274173825,-0.18999261136318554
385,0.000666300414260233,-0.005873258419561817,-0.1916778206834109
386,0.000666300414260233,-0.005873261453833409,-0.1919418637965612
387,0.000666300414260233,-0.005873262424075955,-0.19165672509950019
388,0.000666300414260233,-0.005873263496541704,-0.19141926450039498
389,0.000666300414260233,-0.005873265317085787,-0.19131766898404073
390,0.000666300414260233,-0.005873268506493261,-0.1915612956881827
391,0.000666300414260233,-0.00587327408202426,-0.19237004554241643
392,0.000666300414260233,-0.005873283461426904,-0.19433664020205108
393,0.000666300414260233,-0.005873297588175268,-0.1984534203470901
394,0.000666300414260233,-0.0058733102954581775,-0.20336257722275375
395,0.000666300414260233,-0.0058733189181711274,-0.20619586932943365
396,0.000666300414260233,-0.005873323757484194,-0.2073680258711905
397,0.000666300414260233,-0.005873325192849548,-0.20718608166556388
398,0.000666300414260233,-0.005873326388889423,-0.2071817556921953
399,0.000666300414260233,-0.0058733283477610376,-0.20702739420370989
400,0.000666300414260233,-0.0058733316233264094,-0.20763513622949623
401,0.000666300414260233,-0.00587333706005255,-0.20843420576631158
402,0.000666300414260233,-0.005873345659495016,-0.21123386139822287
403,0.000666300414260233,-0.005873357101174988,-0.21460052412945282
404,0.000666300414260233,-0.005873365677459185,-0.2190230965460129
405,0.000666300414260233,-0.0058733718037173414,-0.2194161085831002
406,0.000666300414260233,-0.005873373681608002,-0.22137483767396604
407,0.000666300414260233,-0.005873374446455035,-0.219831288663971
408,0.000666300414260233,-0.0058733753624998705,-0.21963492927044775
409,0.000666300414260233,-0.0058733769395398336,-0.21956701622769362
410,0.000666300414260233,-0.005873379662997599,-0.22003802775128056
411,0.000666300414260233,-0.005873384263924678,-0.22142442339381033
412,0.000666300414260233,-0.005873391636246303,-0.22452211716003015
413,0.000666300414260233,-0.005873402170568979,-0.23060890381435928
414,0.000666300414260233,-0.005873411040113105,-0.2359762940424857
415,0.000666300414260233,-0.005873418621000117,-0.240106842908095
416,0.000666300414260233,-0.00587342132276313,-0.24059781809115102
417,0.000666300414260233,-0.005873422329498956,-0.24015825421998813
418,0.000666300414260233,-0.00587342334183091,-0.2396638302497421
419,0.000666300414260233,-0.005873425019621965,-0.2393610556747433
420,0.000666300414260233,-0.005873427856250675,-0.23954980719854588
421,0.000666300414260233,-0.005873432618186402,-0.24067237139246056
422,0.000666300414260233,-0.0058734402564753025,-0.24351683887422804
423,0.000666300414260233,-0.0058734509205294935,-0.24938763114363682
424,0.000666300414260233,-0.005873458402396025,-0.25374249273596894
425,0.000666300414260233,-0.005873463813169207,-0.2563204566452109
426,0.000666300414260233,-0.005873465256255288,-0.25626878471367465
427,0.000666300414260233,-0.005873465833434212,-0.2559093999469349
428,0.000666300414260233,-0.005873466764736235,-0.2554695269195519
429,0.000666300414260233,-0.005873468352427183,-0.2552040722767453
430,0.000666300414260233,-0.00587347112868728,-0.2552760605896651
431,0.000666300414260233,-0.005873475950277427,-0.2560184178613291
432,0.000666300414260233,-0.005873483942781875,-0.25812609374157874
433,0.000666300414260233,-0.005873495490898446,-0.2630224442394844
434,0.000666300414260233,-0.005873504002867534,-0.2678866924707739
435,0.000666300414260233,-0.005873509855743534,-0.27109679656306396
436,0.000666300414260233,-0.005873512225467447,-0.2720478302194684
437,0.000666300414260233,-0.005873513024025027,-0.27207569402078463
438,0.000666300414260233,-0.005873513934912293,-0.27195814120711087
439,0.000666300414260233,-0.005873515434237617,-0.2719716732030771
440,0.000666300414260233,-0.0058735179483779985,-0.27223594001704654
441,0.000666300414260233,-0.0058735221167249005,-0.2730525293739804
442,0.000666300414260233,-0.00587352870792441,-0.2748181486274321
443,0.000666300414260233,-0.005873537817878472,-0.2780495225281074
444,0.000666300414260233,-0.005873546077227609,-0.28090445970839767
445,0.000666300414260233,-0.00587355338974967,-0.28345588575091907
446,0.000666300414260233,-0.0058735559026065545,-0.2844146475536397
447,0.000666300414260233,-0.005873556651236767,-0.28466277275497703
448,0.000666300414260233,-0.0058735572458001725,-0.2848212327995105
449,0.000666300414260233,-0.005873558140168587,-0.28519824288247214
450,0.000666300414260233,-0.005873559580999068,-0.2858615537948781
