Iteration,Energy,Loss Function,Bias
0,0.15186085520252576,0.1514444609698665,0.0
1,0.05172067867966873,0.04833550714480542,0.338089887231668
2,0.019849317362031375,0.021655389761958275,0.7898331069465825
3,0.0059762622961466475,0.007389135962620339,0.9962638465437941
4,0.0013596630682929734,-0.0005564966748905871,1.1961099662430528
5,0.0014925311881071944,-0.0016618482716713866,1.437580730253611
6,0.0004348789147463962,-0.0016875357991882499,1.4366028192361797
7,0.00041281087772132195,-0.001903730795481533,1.4422707590736181
8,0.000406208846619493,-0.0021694997346382926,1.4597680109172062
9,0.0005339905599819999,-0.002269856273638948,1.4792448556788091
10,0.0004930876326322283,-0.0023620287346494528,1.4905936456443871
11,0.00026220267608464574,-0.0024716098528548974,1.519439563129778
12,0.0002969932383551139,-0.002521549494390142,1.5462730348837885
13,0.0003063847545427113,-0.002569440362864933,1.5547344644699468
14,0.00019348317777255887,-0.0026168010465048605,1.573954127342812
15,0.0002199278064701738,-0.0026562641146257266,1.5781348812442066
16,0.0002475532143851512,-0.002691931180760907,1.5904601956132542
17,0.00022713416150343715,-0.002713711228961266,1.6012564780562575
18,0.00018115652260650324,-0.002743228443706017,1.6216963646019371
19,0.00017243605527651927,-0.0027587397233717545,1.6405016660174474
20,0.00019701914189850525,-0.002772705320687208,1.6584099575885423
21,0.0001754237419518739,-0.002786136580853928,1.665696759172338
22,0.00017618958451653144,-0.0028023227568527336,1.6658215321563958
23,0.00018735272760351927,-0.002812093702887416,1.6770377949822008
24,0.00016286081116734745,-0.0028215455146167194,1.6837132629808185
25,0.00017436895933318838,-0.0028305849757116405,1.6940981489337985
26,0.00018862182348184498,-0.0028392939228962808,1.70307142653068
27,0.00016776731826269873,-0.002847395178061238,1.7140844430246014
28,0.00016686407453087523,-0.0028526525783811605,1.718996794009006
29,0.0001618478038751583,-0.002858789522121667,1.7308077714587704
30,0.0001580286782733529,-0.0028623239933145213,1.7374551238954485
31,0.00015738868329833285,-0.0028665087806046597,1.7517881930346009
32,0.00015904897590415874,-0.0028709644805051666,1.7679840236335942
33,0.00015950354556484438,-0.002874858866068496,1.7856479266971073
34,0.0001631367220408931,-0.0028790691288320433,1.8005329925420728
35,0.00015504248826248303,-0.002882609748520793,1.81385938762365
36,0.00015030269872787623,-0.00288619020517181,1.8266425576795904
37,0.00014882927513941584,-0.0028893833334930705,1.8404840423341868
38,0.00014655219024741002,-0.0028922304673182427,1.8528590584128748
39,0.00015192187770611364,-0.002894809803449413,1.8667712294169538
40,0.00015812510725230072,-0.002897231683200039,1.879947551659344
41,0.00017005790156439228,-0.0028994884925549577,1.8957629395113738
42,0.00016991976146064162,-0.0029019144995729488,1.9106863949673385
43,0.00014457570415054354,-0.002904245697425204,1.931635936407669
44,0.00015530411248821806,-0.002906643604761337,1.9450393582947483
45,0.00016244951022261145,-0.0029086308022748053,1.9638617819706694
46,0.00016407171768623917,-0.0029108781704878755,1.9670856764457347
47,0.00016407171768623917,-0.0029123625691133167,1.9768165828621718
48,0.00015100818628706363,-0.0029140395812151058,1.9822293477360247
49,0.00014815503543085873,-0.002915062525066888,1.989525512022962
50,0.0001521816768554842,-0.002916204041743779,1.99395163125247
51,0.00016328095714119537,-0.0029170737212806746,1.9987248219159606
52,0.00016011170138843957,-0.0029180173817645945,2.0023670808994143
53,0.00016847011038422023,-0.002918827820891204,2.0078892248974807
54,0.00014089120088576617,-0.00291960776412472,2.013248743899956
55,0.0001385966140336908,-0.0029203904446161813,2.0194953010889267
56,0.00014024412309414797,-0.0029212101142244164,2.024771941374763
57,0.00013585106532418225,-0.0029219580001742925,2.0289657638526415
58,0.00013585106532418225,-0.0029226352672510167,2.0315702417454706
59,0.00013585106532418225,-0.0029232530263632655,2.033571389214955
60,0.00013722158276672453,-0.002923853123874114,2.0349101121965014
61,0.00013951399367292573,-0.0029244471390585565,2.036824289296568
62,0.00013314439179043633,-0.002925047818645749,2.0391526276289778
63,0.00013314439179043633,-0.002925651702616617,2.0423757884329574
64,0.00013293373155085284,-0.0029262721432457162,2.0451813274544146
65,0.00013338684475553507,-0.0029268946004902302,2.0478500538702216
66,0.0001333491670003807,-0.002927504370523625,2.0494746421298613
67,0.00013343913824041804,-0.002928106531347459,2.0519466078555
68,0.00013554059763715251,-0.0029287542467525286,2.054379353989475
69,0.00013512432854965802,-0.00292940627270369,2.0591955492336944
70,0.0001366241274816767,-0.0029299697086329923,2.061795890741544
71,0.00014991602361086277,-0.0029304333618250964,2.067442988157027
72,0.0001517552686089462,-0.002930902747176523,2.0677400468733866
73,0.00015233061558056615,-0.0029313818937067434,2.073547608674215
74,0.0001567229173413744,-0.0029318674122811605,2.0729449337944486
75,0.0001567229173413744,-0.002932248176861111,2.074391535898173
76,0.0001567229173413744,-0.0029325927424048194,2.073935846539842
77,0.00014677354898017057,-0.002932952893871782,2.075387477469925
78,0.00014677354898017057,-0.0029333633152323056,2.0769529601114227
79,0.00014677354898017057,-0.002933720390045199,2.0797108197681458
80,0.00014677354898017057,-0.002934070250941715,2.0815973290384777
81,0.00014783772497580492,-0.0029344494086701828,2.0840963673788515
82,0.00016265947964729188,-0.002934885237019375,2.0851107916757003
83,0.00016284540317141867,-0.0029352927447705663,2.0866387152324495
84,0.00016284540317141867,-0.00293564050509583,2.086135607769891
85,0.00015623544923755778,-0.0029359472439634536,2.0878948755763687
86,0.00017141258153693888,-0.0029362766702645975,2.0889228608568557
87,0.00017786103496307955,-0.00293659205044309,2.0929545708005115
88,0.00017988495743949019,-0.0029369221746418676,2.0960092532432326
89,0.00017842195619262216,-0.0029372551229463572,2.1005917522149904
90,0.0001816780410575517,-0.002937630943995154,2.103375634418074
91,0.00018886688148821873,-0.0029380210360725172,2.106504450179452
92,0.00018235055827930352,-0.0029384390487387137,2.1071175688930572
93,0.0001739393760285723,-0.0029388390055775948,2.1081694348491076
94,0.0001764402334024435,-0.002939251963299781,2.107729208836903
95,0.00018462395980348343,-0.0029396536895805432,2.109263851261757
96,0.0001530229558720219,-0.00294006070267917,2.110257436727374
97,0.00016746518904278305,-0.0029404681263147867,2.113652626742383
98,0.00016068711948239245,-0.0029409292892501847,2.1159861263957636
99,0.0001645816579715176,-0.0029414030452795436,2.120510109889417
100,0.0001739625863766695,-0.0029418821617775144,2.1224431862612874
101,0.0001739625863766695,-0.0029423157431232453,2.1262906358192515
102,0.00016265532025042,-0.0029427482687981567,2.127315204632493
103,0.00016055388969083518,-0.0029431304493576504,2.130245362065229
104,0.00015345008365419052,-0.00294348936188204,2.1307234979929333
105,0.00015345008365419052,-0.0029437966410997833,2.1324119765478824
106,0.00014816904153863313,-0.0029441159331051393,2.132033138620845
107,0.0001502424335985348,-0.002944421412042822,2.132732295798634
108,0.00014761665085287308,-0.0029447397132994994,2.131375888675825
109,0.00015044351845553948,-0.002945036079840995,2.1316995707849156
110,0.00015751257819676193,-0.0029453217880055812,2.1305023377333017
111,0.00015751257819676193,-0.0029455810235222263,2.131292205538216
112,0.00015751257819676193,-0.002945828712563845,2.1309596538141027
113,0.00015751257819676193,-0.0029460648051999115,2.1317545649856813
114,0.00017188247685808632,-0.002946313022977271,2.1316752565465626
115,0.00017188247685808632,-0.0029465671921360746,2.1321301934858394
116,0.00017016226715003345,-0.002946821287922976,2.1320164569588793
117,0.0001691024239905356,-0.002947051441826042,2.13230485431214
118,0.0001691024239905356,-0.00294726328032573,2.1324337851603707
119,0.0001691024239905356,-0.002947473533189468,2.1331457193819525
120,0.0001691024239905356,-0.002947706777695551,2.1339992750025574
121,0.0001691024239905356,-0.002947967063674297,2.1352267575358055
122,0.0001648771216870653,-0.002948242496061074,2.1361138182259896
123,0.00018074788910078205,-0.002948493862774197,2.1366788960465204
124,0.00016877228035775148,-0.0029487172579289777,2.1367792381420214
125,0.00016877228035775148,-0.0029489527268201886,2.1369489999062616
126,0.00016317389819256792,-0.002949247497063651,2.137192240625494
127,0.00016317389819256792,-0.0029495975745938057,2.1375285991268838
128,0.000158996917409511,-0.002949957706575539,2.1382056311407296
129,0.000158996917409511,-0.0029502808956109856,2.138313087615294
130,0.00016196340071272428,-0.0029505652866488223,2.1401394954265576
131,0.0001554911972903101,-0.0029508351102249778,2.138610604987037
132,0.00016303303239698468,-0.002951120120113143,2.1410011402497147
133,0.00016303303239698468,-0.0029514581432086955,2.141458266887547
134,0.00016589407019631044,-0.0029517659533748334,2.142035195873191
135,0.00016589407019631044,-0.002952058140221296,2.1425269663264124
136,0.00016227519889714363,-0.002952391618855788,2.1433356563473875
137,0.00017642580347185753,-0.002952664882443021,2.143749732684995
138,0.0001687800112338836,-0.002952909289368833,2.1441566457803622
139,0.0001656302893529104,-0.002953181398787364,2.144438423749918
140,0.00017046841027401824,-0.002953507529928236,2.14476237345446
141,0.0001659910189729409,-0.0029538708302126685,2.1447023506176963
142,0.0001444266121799501,-0.00295423551297422,2.1447688317242553
143,0.00013981142603696305,-0.0029546082478874446,2.144348315638054
144,0.00013854519736675066,-0.002955015501060785,2.1452242227570957
145,0.0001414426571500368,-0.002955521153903945,2.144639238320393
146,0.0001317649101933931,-0.002956043613102244,2.1454092678735437
147,0.00012981527419364956,-0.0029566743178792896,2.1445664789896863
148,0.00012981527419364956,-0.0029571028862859293,2.1445439832575954
149,0.00012981527419364956,-0.002957603355287902,2.142352228910579
150,0.00012981527419364956,-0.002957939187955361,2.1412195682311337
151,0.00012917238967142123,-0.002958237760120885,2.139233817455226
152,0.00012923333397394027,-0.0029584733609440347,2.1386861518401856
153,0.00012940799460822193,-0.002958724726536675,2.138845689583434
154,0.0001293460371028046,-0.002958997043453016,2.1386957263491704
155,0.0001293460371028046,-0.002959251643679876,2.1384372106762863
156,0.00012986700342744486,-0.0029595109283890625,2.137335910846826
157,0.00013025449713653826,-0.00295973008427312,2.136326728463472
158,0.00013025449713653826,-0.0029599206766791047,2.1353021399773633
159,0.00013203942974690324,-0.0029601141818168942,2.1348169523203833
160,0.00013203942974690324,-0.002960336917798978,2.1343718108270107
161,0.00013203942974690324,-0.0029605828423479967,2.134471792798209
162,0.00014263105706154388,-0.0029608198616871335,2.134236437887312
163,0.00013296848324385882,-0.002961037835933337,2.134148691346866
164,0.00013502260820975865,-0.002961242730068184,2.1334091007241365
165,0.00013502260820975865,-0.0029614540148062726,2.1326745478203266
166,0.00012682705717316988,-0.00296166403502823,2.131745260558181
167,0.0001291598649303844,-0.002961879226711574,2.1313790255983243
168,0.00013334380795240793,-0.002962086279549904,2.1313244807658878
169,0.00012785607313591652,-0.002962285365995145,2.1320321029190525
170,0.00012785607313591652,-0.0029624665459346416,2.1327247718725273
171,0.0001294869805501675,-0.0029626331038616316,2.133548021169545
172,0.00013434051668320007,-0.0029627926730200894,2.1339864390827645
173,0.00013434051668320007,-0.0029629578540881336,2.133953766771265
174,0.00013272710143911966,-0.00296311475626424,2.13384684351219
175,0.0001345188435566217,-0.002963262248322674,2.133236723495658
176,0.0001345188435566217,-0.002963400434817803,2.133211521710754
177,0.00012982309304204558,-0.002963535251748082,2.132885163095984
178,0.00012982309304204558,-0.002963661605637413,2.1332161401438063
179,0.00012982309304204558,-0.0029637921408547352,2.133346945604662
180,0.00012982309304204558,-0.0029639275617719223,2.1339067276657695
181,0.00012704335972646384,-0.0029640720172873928,2.134406805976738
182,0.0001331545408498243,-0.002964207728821993,2.135130117683691
183,0.0001331545408498243,-0.0029643294812746485,2.1356848973023275
184,0.0001331545408498243,-0.002964444228789745,2.136236314601679
185,0.0001331545408498243,-0.0029645667371645656,2.1365960053410764
186,0.000127957668004231,-0.002964686910740422,2.136843795499879
187,0.00012526316628420586,-0.0029647955596296587,2.136840489385034
188,0.00012526316628420586,-0.002964890600589501,2.136865160289137
189,0.0001219472623644569,-0.002964990425965737,2.1369420375546264
190,0.0001219472623644569,-0.0029650996483024097,2.137372869817464
191,0.00012236630905236784,-0.002965212060795478,2.13802243737473
192,0.00012305925730511045,-0.002965316204555061,2.1389063188505824
193,0.00012740699345892943,-0.002965419520137106,2.1395940850132265
194,0.00012740699345892943,-0.0029655249378558687,2.140171736432627
195,0.00012744332020883986,-0.0029656367982157073,2.1401894927827523
196,0.00012744332020883986,-0.00296575045524637,2.1400128673512566
197,0.00012204127721146835,-0.0029658729339960715,2.1393761110121017
198,0.0001258855640422869,-0.0029660064457499944,2.13888589767013
199,0.00012619245293393806,-0.0029661415207458065,2.138404792542776
200,0.0001244386393359767,-0.002966253656178673,2.138516557196796
201,0.00012389130660662173,-0.002966349289718685,2.1387911690958603
202,0.00012410738738677154,-0.002966449765402847,2.13919142698355
203,0.00012410738738677154,-0.0029665700105595103,2.139388913740553
204,0.0001238929391132519,-0.002966694500240319,2.139004017329993
205,0.00012176170379021105,-0.0029668037697751144,2.1382914398200787
206,0.00012197628914386818,-0.002966893909837588,2.137160390379201
207,0.00012389130660662173,-0.0029669809743267223,2.1363484173484415
208,0.00012389130660662173,-0.002967075165085149,2.1352910767558675
209,0.00012949359601854512,-0.0029671724188633725,2.134860674922956
210,0.00012907325740834543,-0.0029672667037743345,2.1341798476099596
211,0.00012907325740834543,-0.0029673603898514762,2.1338913066540273
212,0.0001311087630340373,-0.0029674565034031233,2.1330422291293436
213,0.0001311087630340373,-0.0029675487324027907,2.1321846513855585
214,0.00013512147535961488,-0.0029676329715589973,2.1310523251795126
215,0.00013512147535961488,-0.0029677115633205764,2.1298982529446064
216,0.00013512147535961488,-0.0029677917891039332,2.1291727496712483
217,0.00013512147535961488,-0.0029678698286356013,2.1285547625450993
218,0.00013512147535961488,-0.0029679402865427098,2.1286815748516825
219,0.00013512147535961488,-0.0029680048554946996,2.128844999697113
220,0.00013512147535961488,-0.002968077346904281,2.1293367037899102
221,0.00013512147535961488,-0.0029681561380818892,2.1297412088314447
222,0.00013512147535961488,-0.0029682340637607273,2.130170683980387
223,0.00013512147535961488,-0.0029683055457262407,2.1303897870745887
224,0.00013512147535961488,-0.0029683762279849243,2.1305962896470825
225,0.00013512147535961488,-0.002968453676005562,2.1308304915203116
226,0.00013512147535961488,-0.002968537273295847,2.1312142384264776
227,0.00013512147535961488,-0.0029686148919276616,2.131718922679617
228,0.00013512147535961488,-0.0029686793196262483,2.1321778295536746
229,0.00013512147535961488,-0.0029687403935490476,2.132647190985801
230,0.00013512147535961488,-0.0029688097478762455,2.133061453019563
231,0.00013880779356539475,-0.0029688898855877895,2.133546526406062
232,0.0001416850854062762,-0.002968971154196145,2.1338780484020985
233,0.00014239782531350455,-0.002969043831391618,2.1341515616551425
234,0.00014239782531350455,-0.0029691083044551553,2.13422952614377
235,0.00013947456846194543,-0.0029691717712071243,2.134344243338931
236,0.00013947456846194543,-0.002969234247596898,2.1343262429560825
237,0.00013266703705061024,-0.002969290485338187,2.1344004919173734
238,0.00013266703705061024,-0.0029693407309154996,2.13425589593482
239,0.00013266703705061024,-0.0029693897438926318,2.1342333960171853
240,0.000136626721124635,-0.0029694416589115336,2.1339496417597537
241,0.000136626721124635,-0.002969492944322942,2.1338321286509982
242,0.000136626721124635,-0.0029695386831281056,2.133653724852661
243,0.00013943824368248706,-0.0029695800838208906,2.13373010535003
244,0.00013943824368248706,-0.0029696263061854385,2.1339146559179243
245,0.00013168186458124427,-0.002969678171662865,2.1343576042831716
246,0.00013168186458124427,-0.002969730440334782,2.1348583886215695
247,0.0001379329147954491,-0.0029697761035862684,2.1353538052044745
248,0.0001379329147954491,-0.0029698163095048516,2.135640410067236
249,0.00014196213540592736,-0.00296985483798268,2.1357971507249065
250,0.00014196213540592736,-0.0029698939237287453,2.1357281550561895
251,0.00014196213540592736,-0.002969933755762438,2.1355621237144575
252,0.00014196213540592736,-0.0029699755881125132,2.1352529052654914
253,0.00014196213540592736,-0.002970020175397524,2.134969849659896
254,0.00014196213540592736,-0.0029700662460324626,2.134671869896325
255,0.00014196213540592736,-0.0029701102309013126,2.1345275535946797
256,0.00014196213540592736,-0.0029701510108441002,2.1344165743058294
257,0.00014196213540592736,-0.0029701918461211845,2.1343978788645486
258,0.00015016142519169677,-0.00297023644530443,2.134312590397583
259,0.00015016142519169677,-0.0029702839063716134,2.1342359107044127
260,0.00015016142519169677,-0.00297033157590487,2.1341145305655704
261,0.00015016142519169677,-0.0029703776336594567,2.134091618553503
262,0.00015016142519169677,-0.0029704222640372707,2.134203626723885
263,0.00015016142519169677,-0.0029704666455194584,2.1345070435519347
264,0.00015016142519169677,-0.002970511936758647,2.1350480371620897
265,0.00015016142519169677,-0.002970557477366697,2.1356948763986807
266,0.0001382228868376839,-0.0029706016814050563,2.13653445460314
267,0.0001382228868376839,-0.0029706434156939903,2.137213278607554
268,0.00014446358309005457,-0.002970682931469822,2.138017125730001
269,0.0001577988896512631,-0.002970724407892351,2.1385801019677917
270,0.00015872260855114752,-0.002970769129501221,2.1393121050761734
271,0.00015872260855114752,-0.0029708162325500598,2.1400012342096137
272,0.0001694550517315404,-0.002970859523659346,2.1407564752739985
273,0.00014645366846335054,-0.0029709019749964262,2.1414368132122767
274,0.00015414348324990914,-0.0029709443138016462,2.142064536371245
275,0.00014645366846335054,-0.002970988542242521,2.1425575980930103
276,0.00014645366846335054,-0.0029710319872553437,2.1428624330215618
277,0.00014569937430354324,-0.00297107581252654,2.1430556211372758
278,0.00014446358309005457,-0.0029711223452190596,2.1431395454831588
279,0.00014446358309005457,-0.002971173919599348,2.143429882646162
280,0.00014446358309005457,-0.0029712300104805917,2.143700931881223
281,0.00014569937430354324,-0.002971288697109718,2.144455907481766
282,0.00014569937430354324,-0.0029713480180947414,2.144930055115458
283,0.00014569937430354324,-0.0029714066333765684,2.1459225545975884
284,0.00014569937430354324,-0.002971464581105362,2.1462839649498906
285,0.00014569937430354324,-0.002971520981071725,2.1472229191430565
286,0.00014569937430354324,-0.002971581109632649,2.1474818751649933
287,0.00014569937430354324,-0.0029716478511364634,2.148498959908892
288,0.00014569937430354324,-0.0029717256849057854,2.1493612216548255
289,0.00015370695174742746,-0.0029718050395716555,2.1504625124790198
290,0.00016898458400290748,-0.0029718744829478334,2.151755455277522
291,0.00016898458400290748,-0.0029719481543592024,2.1530200423669505
292,0.00016898458400290748,-0.002972034077537408,2.1545670806347292
293,0.00016816386987882138,-0.002972122111128592,2.1557267892714163
294,0.00017348713060706257,-0.0029722012714311578,2.1565237030822306
295,0.00017348713060706257,-0.002972269213062326,2.156916768628757
296,0.00016304159025268798,-0.002972332325036692,2.157004038797414
297,0.00016815604853138018,-0.0029723953958708375,2.1575951921629475
298,0.0001689898665040992,-0.0029724619132543216,2.1576037811631195
299,0.0001689898665040992,-0.0029725302814144735,2.1587811766176985
300,0.0001689898665040992,-0.0029726040631530485,2.158779311906073
301,0.00016781866347862558,-0.002972685646599773,2.1594371886399513
302,0.00016781866347862558,-0.0029727735839934137,2.1593666085919945
303,0.0001835185354826556,-0.002972851638322096,2.1591482729257083
304,0.0001835185354826556,-0.002972928685433732,2.158859989069791
305,0.00017494100812637638,-0.0029730009743688885,2.158540187854673
306,0.0001892325783666889,-0.002973074160678016,2.1584834793226206
307,0.0001892325783666889,-0.0029731466765745397,2.1584772829869645
308,0.0001892325783666889,-0.0029732220109557343,2.158367178982464
309,0.00020224515554473978,-0.0029732950531945095,2.158083157570967
310,0.00020224515554473978,-0.0029733610575538305,2.157464715088959
311,0.00019179474160549093,-0.0029734219665548314,2.1567885607901376
312,0.0001932065926719481,-0.002973483277414985,2.1560092548388887
313,0.000201999834428862,-0.002973544816967926,2.155416991684274
314,0.0002115539240781999,-0.0029736023322571945,2.1550021076686883
315,0.000201999834428862,-0.002973653670162587,2.154907766206829
316,0.000201999834428862,-0.0029737023771687775,2.1546721645850897
317,0.00020051503005920533,-0.0029737528505507254,2.154502995987083
318,0.00018858165386174773,-0.002973805244447347,2.1535980228817944
319,0.0001785247086934448,-0.0029738550832844424,2.1529749433552845
320,0.0001798247531140198,-0.002973902069140493,2.1516434130853117
321,0.0001798247531140198,-0.0029739465628808265,2.151101829348819
322,0.0001798247531140198,-0.002973989015885094,2.1504207773189985
323,0.0001879403450686354,-0.0029740288290881103,2.150330987127992
324,0.0001865657836153695,-0.0029740673090056743,2.1502878973454806
325,0.0001865657836153695,-0.0029741073606838007,2.1503266819432536
326,0.0001865657836153695,-0.0029741505085184314,2.1502719820557985
327,0.0001735211024307829,-0.00297419327463336,2.15000875760885
328,0.0001629104261685721,-0.002974231770079523,2.1496872270237346
329,0.0001696319188260242,-0.002974266279737173,2.1492176382646937
330,0.00018711676836805479,-0.0029743012647028186,2.1488473261050633
331,0.00018711676836805479,-0.0029743398439297185,2.1484228232151144
332,0.0001858931642286052,-0.0029743800083806087,2.148190416834357
333,0.0001858931642286052,-0.002974417283835402,2.1480078588071314
334,0.00017741765007446916,-0.0029744519124905483,2.147957006881622
335,0.00017865216224128154,-0.0029744874520105024,2.1478830997795963
336,0.00017865216224128154,-0.002974527268253442,2.147830296705561
337,0.00017865216224128154,-0.0029745687248638117,2.147792310183449
338,0.0001721597921352821,-0.0029746065579401232,2.147825555133003
339,0.0001721597921352821,-0.00297463982135025,2.147947658505419
340,0.0001721597921352821,-0.002974673467797667,2.1481642457650243
341,0.0001721597921352821,-0.0029747117737413966,2.148433783485339
342,0.0001721597921352821,-0.0029747550754526692,2.1487134445216047
343,0.0001721597921352821,-0.002974797951279158,2.148885019671584
344,0.0001721597921352821,-0.0029748400897568637,2.1489617902809073
345,0.00016123812961608822,-0.0029748881441956886,2.149083772306387
346,0.00016123812961608822,-0.002974948304393114,2.1493506257061123
347,0.00016761849617235192,-0.0029750145247829547,2.1499804653846697
348,0.00016761849617235192,-0.0029750741787161836,2.150709799525566
349,0.00016761849617235192,-0.0029751227375456753,2.1515102480850827
350,0.00016761849617235192,-0.002975170998342177,2.152106225249004
351,0.00016761849617235192,-0.002975229239780315,2.1528471463082317
352,0.00016183562226737306,-0.0029752939795201824,2.153362433922581
353,0.00016869554812378454,-0.0029753479158709673,2.1537910744290696
354,0.00016869554812378454,-0.002975390861623482,2.1539381874726846
355,0.00016869554812378454,-0.0029754307059974626,2.1542196777383693
356,0.00016869554812378454,-0.002975471304150078,2.154645717453028
357,0.0001561786397519698,-0.0029755073167358533,2.1552840406841436
358,0.0001561786397519698,-0.002975539098164744,2.155995781295724
359,0.0001561786397519698,-0.002975572821617145,2.1567179467001307
360,0.0001561786397519698,-0.0029756127763912272,2.1575433020659602
361,0.00016247761867944078,-0.002975651843030941,2.158135506074522
362,0.00016247761867944078,-0.002975682813843736,2.1585160886795944
363,0.00016247761867944078,-0.002975708699944628,2.158631959464032
364,0.00016247761867944078,-0.0029757390365274866,2.158878367583275
365,0.0001567750930263656,-0.0029757784462213074,2.1593100280394206
366,0.0001567750930263656,-0.0029758197700634433,2.160049732615606
367,0.0001567750930263656,-0.00297585220838585,2.1607680208038396
368,0.0001433178732282003,-0.0029758787526494917,2.1613505260362262
369,0.00013472045280969462,-0.002975907937976162,2.1619022642550916
370,0.00013472045280969462,-0.002975943479556005,2.1623967301554354
371,0.00013472045280969462,-0.002975980691597859,2.162854709758671
372,0.00013472045280969462,-0.0029760165787578695,2.1631255429182357
373,0.0001372049249317552,-0.0029760531377387486,2.163530616428044
374,0.0001372049249317552,-0.002976093846988368,2.1639497117211164
375,0.0001372049249317552,-0.0029761336199621664,2.164723480543484
376,0.00013068571972272276,-0.0029761665230309394,2.16525553114521
377,0.00013068571972272276,-0.0029761938855034672,2.165880065019095
378,0.00013068571972272276,-0.002976224519384592,2.166247901985039
379,0.00013068571972272276,-0.0029762604603686426,2.1666234425456508
380,0.00013068571972272276,-0.002976295024043695,2.1668650839130668
381,0.00013068571972272276,-0.0029763222616216167,2.166901089706086
382,0.00013068571972272276,-0.002976347685571205,2.1670870438582295
383,0.00013068571972272276,-0.002976377415727876,2.167036912527424
384,0.00013068571972272276,-0.0029764125468286534,2.1674676097632246
385,0.00013068571972272276,-0.0029764469019041865,2.1673421882014208
386,0.00013068571972272276,-0.0029764761323613333,2.167680112950578
387,0.00013068571972272276,-0.0029765034219197692,2.1674038028154556
388,0.00013068571972272276,-0.002976533698761768,2.1672681061143186
389,0.00013068571972272276,-0.002976566504902621,2.1666963121611067
390,0.00013316797225294282,-0.002976597272388426,2.1662724393962036
391,0.00013316797225294282,-0.0029766260979474622,2.1657400487465615
392,0.00013316797225294282,-0.002976655780272103,2.1653599590301136
393,0.0001310256293810149,-0.0029766881397911868,2.1649251310661244
394,0.0001310256293810149,-0.002976720312211861,2.16448410224443
395,0.0001310256293810149,-0.0029767510833905732,2.163965213160773
396,0.0001310256293810149,-0.0029767812750251896,2.1633557661827054
397,0.0001310256293810149,-0.0029768119748156724,2.1626030275894195
398,0.0001310256293810149,-0.002976839347138348,2.161930381870099
399,0.0001310256293810149,-0.0029768618410641167,2.1613307175486103
400,0.0001310256293810149,-0.002976882032921374,2.1609981741188538
401,0.0001310256293810149,-0.0029769049390877835,2.16051468923147
402,0.0001310256293810149,-0.0029769303893145333,2.160325984452782
403,0.0001310256293810149,-0.002976954725795947,2.1598571487208806
404,0.0001310256293810149,-0.002976975344983439,2.160004241877172
405,0.0001310256293810149,-0.0029769946281503895,2.1597564263313727
406,0.0001310256293810149,-0.0029770155823844314,2.15990115292779
407,0.0001310256293810149,-0.0029770394818993515,2.1597725238919137
408,0.0001310256293810149,-0.0029770617348361442,2.1595991382120028
409,0.0001310256293810149,-0.0029770825131796587,2.159257107975794
410,0.00013387654223900845,-0.0029771036355635333,2.158779260104685
411,0.00013387654223900845,-0.0029771260983529595,2.158358803467425
412,0.00013387654223900845,-0.002977147659896512,2.158000453050242
413,0.00013387654223900845,-0.0029771670955270413,2.1579793579695834
414,0.00013387654223900845,-0.0029771854030710377,2.158067650508536
415,0.00013387654223900845,-0.00297720541051843,2.1583543379863737
416,0.00013843574388472946,-0.0029772280897538373,2.1586269284456754
417,0.00013843574388472946,-0.002977251941401351,2.1588607083269404
418,0.0001456734307791253,-0.002977274840896114,2.158938242634206
419,0.0001456734307791253,-0.0029772971592086006,2.1589061852478753
420,0.0001456734307791253,-0.002977320260564437,2.158877371744981
421,0.0001456734307791253,-0.0029773454979802193,2.1588769772689793
422,0.0001456734307791253,-0.0029773729188400677,2.1591231386846608
423,0.0001456734307791253,-0.0029774024955507104,2.1594531593643427
424,0.0001456734307791253,-0.002977432291458723,2.1600489793884994
425,0.00013880557084419378,-0.0029774624032156555,2.160573376641721
426,0.00013880557084419378,-0.0029774902586646567,2.16103032787185
427,0.00013880557084419378,-0.002977519944427205,2.1613296532441
428,0.00013880557084419378,-0.0029775542095997454,2.161592923514137
429,0.00013267822695585204,-0.002977592655599001,2.1617916343146235
430,0.00013063148401073406,-0.0029776298204103437,2.162023269004143
431,0.00013063148401073406,-0.002977663153044764,2.1622420802006928
432,0.00013063148401073406,-0.0029776938340176106,2.1625976648278264
433,0.00013242470100935497,-0.0029777250247561907,2.1629919376068223
434,0.00013242470100935497,-0.0029777559838707244,2.1635369330180487
435,0.00014140243308288943,-0.0029777855592913066,2.1639571653616065
436,0.00014140243308288943,-0.0029778149793765756,2.1643534137742844
437,0.00014140243308288943,-0.0029778490548654237,2.1646351475526004
438,0.00014140243308288943,-0.0029778872101751245,2.164802704222248
439,0.00013769393708309028,-0.0029779217776855858,2.1648831517625946
440,0.00014476268028727434,-0.0029779496831302504,2.164747895039034
441,0.00014476268028727434,-0.0029779765000871646,2.1645749845721487
442,0.00014001648168482904,-0.0029780072724224006,2.1641879295496955
443,0.0001528347083063681,-0.0029780403726961794,2.1637863321359676
444,0.0001440054272058267,-0.00297806779054478,2.1633849386555704
445,0.0001440054272058267,-0.0029780893695372165,2.1632397442196694
446,0.0001440054272058267,-0.0029781116901341663,2.1630907163693602
447,0.0001440054272058267,-0.002978140437616816,2.1630586330249737
448,0.0001440054272058267,-0.002978172985433906,2.1627793028299624
449,0.0001475896794457492,-0.002978202667090078,2.162578105961919
450,0.0001475896794457492,-0.002978228908352945,2.162001005053894
451,0.00014891197145932222,-0.0029782574795363366,2.161464826144973
452,0.00014891197145932222,-0.002978295063913524,2.1605484887358757
453,0.00014260098755094735,-0.002978338201068594,2.1595841422134767
454,0.00014260098755094735,-0.002978381343846214,2.158708517158968
455,0.00013980664313764828,-0.002978423867069479,2.1580371227216157
456,0.00014642365819617068,-0.0029784714060369826,2.157479777390426
457,0.00014642365819617068,-0.0029785277163421916,2.156767636320288
458,0.00014465220229323365,-0.0029785900102806896,2.1559692554855188
459,0.00014465220229323365,-0.0029786490121170408,2.154876684110361
460,0.00013770127742639585,-0.0029787041196302883,2.153901318473843
461,0.00013901816153371913,-0.0029787622422364924,2.1525882381852655
462,0.00013901816153371913,-0.002978835602330831,2.151349220953989
463,0.00016052745353308272,-0.0029789213550414175,2.1496886289732595
464,0.00016052745353308272,-0.002979014773224944,2.1487402777677094
465,0.00016052745353308272,-0.0029790921717549974,2.148271489367253
466,0.00016081600192658664,-0.0029791610683722867,2.1479906302425875
467,0.0001583382279164651,-0.0029792427501914766,2.1476951027603994
468,0.00014774713931572635,-0.0029793463110048555,2.1466397348921555
469,0.00014697033608468448,-0.0029794464822186437,2.1460672602302737
470,0.00014697033608468448,-0.002979526086955378,2.144876289001733
471,0.00014697033608468448,-0.002979591510909074,2.1451043895875834
472,0.00014697033608468448,-0.002979660467153849,2.1445640731287208
473,0.0001488113576337918,-0.0029797457883603017,2.1450925476561955
474,0.0001488113576337918,-0.002979848150999332,2.146062698481619
475,0.0001488113576337918,-0.002979954981381344,2.1461012314887156
476,0.0001413448908051888,-0.002980030901408486,2.14655410230427
477,0.0001413448908051888,-0.002980102407787412,2.146485088785736
478,0.0001413448908051888,-0.002980187460886844,2.1462248325800792
479,0.0001413448908051888,-0.002980281231993823,2.1469541317822873
480,0.0001488113576337918,-0.002980376474072499,2.147456989998804
481,0.0001488113576337918,-0.0029804638260404804,2.14922882007999
482,0.0001488113576337918,-0.0029805449858053552,2.1502217077704073
483,0.0001488113576337918,-0.002980632030693019,2.151540294525249
484,0.00014470842045523767,-0.0029807269416320917,2.1523154290949114
485,0.00014470842045523767,-0.002980821830086066,2.152997372887278
486,0.00014470842045523767,-0.0029809023817552725,2.1527282753013863
487,0.00014470842045523767,-0.002980973307186548,2.1533539963974513
488,0.00013811457788550968,-0.00298104527487514,2.1529515407206894
489,0.00013700200034363164,-0.002981132658769727,2.153788462357389
490,0.00013700200034363164,-0.0029812366553088306,2.154107555608837
491,0.00013700200034363164,-0.0029813360314194567,2.1547846471138317
492,0.00013346305984480612,-0.0029814163512115487,2.1549363076232964
493,0.00013346305984480612,-0.0029814894236063604,2.154925386929678
494,0.00013223267415092953,-0.002981570846002917,2.1547598800173495
495,0.00013434073148167435,-0.0029816752267280474,2.1548101682616525
496,0.00013434073148167435,-0.00298178191933806,2.154962559415188
497,0.00014336048218650563,-0.002981875381090944,2.1557432413403967
498,0.00014336048218650563,-0.002981952738345882,2.15631712510827
499,0.00014897272532893662,-0.0029820295534866803,2.1572084631590305
500,0.0001487697369677714,-0.0029821109830383804,2.157672890015267
501,0.0001385493322543741,-0.0029821869002264172,2.157958771689817
502,0.0001385493322543741,-0.0029822478533867644,2.1579513304071036
503,0.0001385493322543741,-0.002982302502685869,2.1575784459347047
504,0.0001385493322543741,-0.002982362366916683,2.1575901147206022
505,0.00014576369182898663,-0.002982429494932461,2.15732983069785
506,0.00014064255361577588,-0.002982490420694378,2.1575596528095735
507,0.00014398737777623235,-0.002982538844393206,2.1579285264262578
508,0.00014398737777623235,-0.0029825767162026044,2.1580329390233364
509,0.00013646248046601472,-0.0029826175061943958,2.1583939009252546
510,0.00013646248046601472,-0.00298266657360421,2.158411321657481
511,0.00013646248046601472,-0.0029827218312817832,2.1585440733969086
512,0.00013646248046601472,-0.002982776020727177,2.1585855032762447
513,0.00013385936408826763,-0.0029828245371785766,2.1585460436343826
514,0.00014122750043965107,-0.002982868935843843,2.1589136863244156
515,0.00014122750043965107,-0.0029829151558085024,2.159204690025354
516,0.00014470181458747127,-0.002982963613147155,2.160183318358069
517,0.00013646248046601472,-0.0029830093469030952,2.160916344687235
518,0.00013646248046601472,-0.0029830493745488297,2.1619122422185515
519,0.00014118763596238066,-0.002983086553690382,2.162476738552385
520,0.00014118763596238066,-0.002983127708999159,2.163130323987239
521,0.00014118763596238066,-0.002983178583584741,2.1635263706198895
522,0.0001547524331356593,-0.0029832367252981724,2.1641879290281905
523,0.0001547524331356593,-0.002983291731886211,2.164291936629597
524,0.0001547524331356593,-0.002983338063269944,2.1645480025700614
525,0.00015694871588185286,-0.0029833837185791927,2.164502018313943
526,0.00014878962169858958,-0.0029834422236857333,2.1645576945625185
527,0.00014878962169858958,-0.0029835153933911764,2.1647557792322827
528,0.00014513234575098537,-0.0029835856806466007,2.1648374404063393
529,0.0001528289530283724,-0.0029836414567187847,2.165104104445928
530,0.00015667420961193055,-0.0029836903673602705,2.1651289506961984
531,0.00015667420961193055,-0.0029837466496920326,2.1653399730374305
532,0.00015205551342181698,-0.0029838127597490837,2.1654598115890438
533,0.00015205551342181698,-0.0029838771228226377,2.165712099382427
534,0.00015205551342181698,-0.0029839338723798296,2.1659121665552656
535,0.0001519395681160185,-0.0029839902528236246,2.1661174850178972
536,0.0001519395681160185,-0.002984055753225488,2.166571657722196
537,0.0001519395681160185,-0.002984128952750228,2.1667375334492505
538,0.0001476841064445978,-0.0029841968862880843,2.167321163750467
539,0.0001476841064445978,-0.002984255021243783,2.16711777920068
540,0.0001476841064445978,-0.0029843082142827523,2.167472647602472
541,0.0001476841064445978,-0.0029843674569878537,2.1674155123455727
542,0.0001476841064445978,-0.0029844402002153253,2.1675646428375273
543,0.0001476841064445978,-0.0029845239347863852,2.1678299870875724
544,0.0001745124993717623,-0.002984611851178412,2.1681710845668323
545,0.00015375981171174754,-0.00298469104322391,2.1684689451747325
546,0.00015375981171174754,-0.002984755425607321,2.168676597914003
547,0.0001650208217336227,-0.0029848166963486115,2.1686261541983676
548,0.0001650208217336227,-0.002984890828956515,2.1685850941663323
549,0.00015488768491573533,-0.0029849782356781616,2.1682357241321646
550,0.00015488768491573533,-0.0029850556362041427,2.168077923346675
551,0.00015488768491573533,-0.0029851128502030476,2.1678156492734146
552,0.00015488768491573533,-0.0029851646916999996,2.168003726163601
553,0.00014641825229991492,-0.002985230137092353,2.168024502892464
554,0.0001401005987485285,-0.0029853094505052935,2.168632317721265
555,0.0001401005987485285,-0.002985389596503934,2.16898582829628
556,0.0001401005987485285,-0.0029854503167042338,2.1694348543070063
557,0.00014730118306898062,-0.002985497941547166,2.1697852971825533
558,0.00014730118306898062,-0.0029855496014628237,2.170211273757203
559,0.00014730118306898062,-0.0029856136433557673,2.1710028917700535
560,0.00014127426925662282,-0.002985681229672197,2.171804159979885
561,0.000145267058673692,-0.002985741540371835,2.172831151703082
562,0.0001466447523504926,-0.002985789785887553,2.1732623544653267
563,0.0001466447523504926,-0.002985830319710673,2.173723563215159
564,0.0001466447523504926,-0.0029858721380648942,2.1740011972464033
565,0.0001466447523504926,-0.0029859209083847767,2.1744149797955488
566,0.0001466447523504926,-0.002985976374263522,2.1751560474700473
567,0.00015247686041394798,-0.0029860233816513494,2.1758712714503705
568,0.0001466447523504926,-0.0029860562366277204,2.176627243574449
569,0.0001466447523504926,-0.00298608454515966,2.177125739323408
570,0.0001466447523504926,-0.0029861188788191137,2.1779034583103005
571,0.00015059690550692245,-0.002986160279431306,2.178829486716816
572,0.0001462210734869438,-0.002986196881661314,2.1797459506166694
573,0.0001462210734869438,-0.002986223016238146,2.1804717839853
574,0.0001462210734869438,-0.0029862469660023104,2.1809031896396607
575,0.0001462210734869438,-0.0029862776141071834,2.1816052858418393
576,0.00013990365474888055,-0.0029863187693359413,2.1821339886823075
577,0.00013990365474888055,-0.002986361833015757,2.182869683652665
578,0.00013990365474888055,-0.0029863941158485164,2.182991704227545
579,0.00013380202943448879,-0.002986417309409738,2.183084614581526
580,0.00013990365474888055,-0.002986442423664478,2.183078056865528
581,0.0001462210734869438,-0.002986476278508664,2.183247650688905
582,0.00015337566976884046,-0.00298651247551662,2.1836704281544423
583,0.00015337566976884046,-0.0029865410658711103,2.1841660682867077
584,0.00015808283724483567,-0.0029865620160988986,2.184585442908465
585,0.00015808283724483567,-0.0029865823363479523,2.1848348345566038
586,0.00016581078519536298,-0.002986606816751693,2.185055657250831
587,0.00016581078519536298,-0.0029866334302652855,2.1849345309243198
588,0.0001605023231825146,-0.0029866566714763128,2.184833890720152
589,0.00017300434419669476,-0.002986676827961299,2.1844690645169726
590,0.00017300434419669476,-0.0029866990422066295,2.184277998785306
591,0.00017300434419669476,-0.0029867262720489874,2.1839668031417823
592,0.00017300434419669476,-0.002986754207449595,2.1837369550095675
593,0.00017300434419669476,-0.00298677629192825,2.1835394362099714
594,0.00017300434419669476,-0.002986793368823622,2.183224915066186
595,0.00017300434419669476,-0.002986810699761732,2.182936668164285
596,0.00017300434419669476,-0.0029868326366464326,2.1822902070828123
597,0.00017300434419669476,-0.0029868568326820327,2.1816110193186407
598,0.00018751911350020235,-0.002986876046810536,2.181048838589391
599,0.00018751911350020235,-0.0029868888805531417,2.1808228701284333
600,0.00018751911350020235,-0.002986899178772945,2.1808638222671055
601,0.00018751911350020235,-0.0029869110931265157,2.180796437061348
602,0.00018751911350020235,-0.0029869255830207836,2.180756579981169
603,0.00018751911350020235,-0.0029869399959730936,2.180323253474633
604,0.00018751911350020235,-0.002986951497777416,2.179838060902028
605,0.00019196071701073247,-0.002986961290606536,2.1793115299689028
606,0.00017713115568410837,-0.00298697201977417,2.178746592424586
607,0.00017713115568410837,-0.0029869853660754314,2.1784010114453
608,0.00017713115568410837,-0.0029870004887431376,2.1780267344504014
609,0.00017713115568410837,-0.0029870146725679107,2.178225526628865
610,0.0001732414559646436,-0.0029870260951875578,2.1782647890884097
611,0.0001732414559646436,-0.0029870357050145627,2.1785987972524166
612,0.0001732414559646436,-0.0029870462687971557,2.178706811898922
613,0.0001732414559646436,-0.0029870600622708137,2.178791022207545
614,0.0001732414559646436,-0.0029870770118647486,2.1788091307429744
615,0.0001732414559646436,-0.0029870938363072974,2.1787925022334194
616,0.0001732414559646436,-0.0029871071939132124,2.178924671541139
617,0.00017713115568410837,-0.002987117936469266,2.1790920315838957
618,0.00017713115568410837,-0.002987129378389443,2.17939167717896
619,0.00017713115568410837,-0.0029871435149155783,2.1797147345259322
620,0.00017713115568410837,-0.002987158797741889,2.1800059469981994
621,0.00017059599629527596,-0.0029871722545290066,2.1801306655329897
622,0.00018519884830143317,-0.0029871834427556815,2.1801267357683383
623,0.0001678926999274413,-0.0029871941687110684,2.1801209891286866
624,0.0001678926999274413,-0.0029872062792252263,2.1801739939092215
625,0.00016403174059225948,-0.0029872200996306,2.180393056847452
626,0.00016403174059225948,-0.00298723462869041,2.180710954935089
627,0.00016403174059225948,-0.0029872484926731406,2.1810918924605605
628,0.0001581227786373508,-0.00298726084297885,2.1813531214557624
629,0.0001581227786373508,-0.002987271879924912,2.18155638012195
630,0.00014998726333298804,-0.0029872829069388447,2.181618474875933
631,0.00014998726333298804,-0.002987295069353044,2.1817649767365004
632,0.00014998726333298804,-0.0029873083190544917,2.1818857957556164
633,0.0001581227786373508,-0.0029873210157187707,2.1822004865184854
634,0.0001581227786373508,-0.0029873322634221293,2.1824634104368634
635,0.0001581227786373508,-0.002987343285089158,2.182777483852728
636,0.0001521862866068763,-0.0029873559875343053,2.1829666794789566
637,0.0001521862866068763,-0.002987370174448414,2.1830478778070974
638,0.00014567955794013776,-0.002987383239167213,2.182897652000106
639,0.00014567955794013776,-0.0029873934517387875,2.1826741237250586
640,0.00014567955794013776,-0.002987401931270228,2.1824497598981916
641,0.00015083207199525516,-0.00298741063294554,2.182299054783802
642,0.00015083207199525516,-0.0029874202113049564,2.182208894226545
643,0.0001764463046535383,-0.0029874297630903754,2.1821827859606806
644,0.0001764463046535383,-0.0029874383423057734,2.182141651319958
645,0.000165957358785997,-0.0029874462346101355,2.1820344852552274
646,0.0001764463046535383,-0.0029874544546023393,2.181801415454857
647,0.0001764463046535383,-0.0029874635437793988,2.1814557548615827
648,0.0001764463046535383,-0.0029874726311471013,2.181036737651581
649,0.0001764463046535383,-0.0029874802044672975,2.180741228606553
650,0.0001764463046535383,-0.0029874861093770414,2.1805690886856803
651,0.0001764463046535383,-0.0029874916839765044,2.1805556501362253
652,0.0001764463046535383,-0.0029874986509060707,2.1805296733248136
653,0.0001764463046535383,-0.0029875080497051435,2.18054844407352
654,0.0001764463046535383,-0.002987518971918252,2.180441843663415
655,0.0001764463046535383,-0.0029875284868509044,2.1803031518531153
656,0.0001764463046535383,-0.00298753582113347,2.1801278708579863
657,0.0001764463046535383,-0.002987542793953656,2.179962146838991
658,0.0001764463046535383,-0.0029875517737830005,2.1798008782751777
659,0.0001764463046535383,-0.0029875637784634165,2.1795573251411815
660,0.00015452708564883723,-0.002987577562287987,2.1793512423615513
661,0.00015452708564883723,-0.002987590167988193,2.1790446276307347
662,0.00015452708564883723,-0.0029876005284058837,2.178902432928566
663,0.00015452708564883723,-0.0029876102699475586,2.178625716643581
664,0.00015452708564883723,-0.002987621774357327,2.178499010019108
665,0.00015884501261748517,-0.002987636225959807,2.1782439447955557
666,0.0001786410764466624,-0.002987651563718899,2.1782715407617537
667,0.0001786410764466624,-0.0029876645048052017,2.1783442065677874
668,0.0001786410764466624,-0.002987674280673613,2.1786207119642653
669,0.0001786410764466624,-0.00298768335956807,2.178794699973824
670,0.0001786410764466624,-0.0029876943532276337,2.1789338408980763
671,0.00016393890700262546,-0.0029877081193704154,2.1788614999268465
672,0.00016393890700262546,-0.0029877219913328422,2.1786190639066954
673,0.0001689416389027729,-0.0029877332096665946,2.178242083444864
674,0.0001689416389027729,-0.0029877420430840748,2.178003978425854
675,0.0001786410764466624,-0.0029877511354893496,2.177812452760499
676,0.0001786410764466624,-0.002987762368053702,2.1778781723256775
677,0.0001689416389027729,-0.002987775131293272,2.1780474659420235
678,0.0001689416389027729,-0.002987786363228184,2.178463155728267
679,0.00017207050781289064,-0.002987794778302358,2.1787207605515007
680,0.00018375540079963073,-0.0029878024136978923,2.178922865570015
681,0.00018375540079963073,-0.0029878124226263227,2.179062615102435
682,0.00018375540079963073,-0.0029878265809552933,2.179117312946137
683,0.00018375540079963073,-0.002987842485377888,2.179267327466405
684,0.0001900223180556142,-0.0029878556777900717,2.1792810072434383
685,0.00019287052840978242,-0.002987865080200372,2.179528221704134
686,0.00019287052840978242,-0.002987873452880245,2.1795664069763165
687,0.00019671200570482497,-0.0029878839245678374,2.1798722542616584
688,0.00019671200570482497,-0.002987897754849287,2.17999694246134
689,0.00019671200570482497,-0.0029879125928614345,2.1802371370261513
690,0.0002036108739538948,-0.0029879247805376873,2.18023231339175
691,0.0002036108739538948,-0.002987933923180374,2.180216105975167
692,0.0002036108739538948,-0.002987942680422465,2.1802590481728505
693,0.00021077250805798565,-0.0029879538263561387,2.1803016445421526
694,0.00021077250805798565,-0.0029879677132455856,2.1806954865950288
695,0.00021077250805798565,-0.0029879815803448783,2.1810756599368917
696,0.00021077250805798565,-0.002987991600887053,2.1815607820460126
697,0.0002036108739538948,-0.002987998743124855,2.1818166515959785
698,0.0002036108739538948,-0.0029880061220185403,2.1819873979848983
699,0.0002036108739538948,-0.0029880164890779648,2.182185085288876
700,0.0002036108739538948,-0.0029880297890082824,2.182322458782703
701,0.0002036108739538948,-0.00298804359422726,2.1825325593943
702,0.0001965363446224284,-0.0029880544045367105,2.182619033209907
703,0.0001965363446224284,-0.002988062164407918,2.1828022643802405
704,0.0001965363446224284,-0.0029880693771882367,2.1829098450807676
705,0.0001965363446224284,-0.002988078230684407,2.183201504736621
706,0.0001965363446224284,-0.0029880892891354415,2.183488388527329
707,0.0001965363446224284,-0.002988100207289684,2.1838882823550594
708,0.0001965363446224284,-0.0029881086872225802,2.184056547737592
709,0.0001965363446224284,-0.0029881152473259028,2.1842310853981575
710,0.0001843483121205781,-0.0029881222933181083,2.1842644549534707
711,0.0001843483121205781,-0.002988131814766172,2.1844336854172375
712,0.0001843483121205781,-0.0029881439894856453,2.1846941849962853
713,0.0001843483121205781,-0.0029881558689271092,2.1850779659821273
714,0.0001843483121205781,-0.002988164915575456,2.18558930326502
715,0.00019587081815215725,-0.002988172657450562,2.1859740438329336
716,0.00019587081815215725,-0.002988181982539393,2.1866452413126245
717,0.00018539652025342175,-0.002988196414964406,2.187464392272473
718,0.00015481400837934946,-0.0029882182309925996,2.1889616676800943
719,0.0001491358368281719,-0.0029882418062485002,2.190472663476174
720,0.0001491358368281719,-0.0029882641176798897,2.1903992363198093
721,0.0001491358368281719,-0.002988294541553956,2.190501659752411
722,0.0001491358368281719,-0.002988315548088258,2.189768662648235
723,0.0001454453405175144,-0.0029883386418659737,2.1905145800669557
724,0.0001454453405175144,-0.002988373196638132,2.190918160803241
725,0.0001491358368281719,-0.0029884087348396216,2.191851089248028
726,0.0001491358368281719,-0.0029884288605979917,2.192047862034711
727,0.0001491358368281719,-0.0029884485666195216,2.1933733179950146
728,0.0001491358368281719,-0.0029884659645400837,2.1936254804389024
729,0.0001491358368281719,-0.002988484775212034,2.1942009318251805
730,0.0001491358368281719,-0.002988506750251243,2.194904261951675
731,0.0001491358368281719,-0.0029885256471510573,2.1957725177944027
732,0.0001491358368281719,-0.0029885408971643003,2.1962582903617496
733,0.0001491358368281719,-0.0029885526469085135,2.1968605160913346
734,0.0001491358368281719,-0.0029885649673867766,2.197203602903598
735,0.0001491358368281719,-0.002988579669998923,2.197811371607317
736,0.00014241986915475454,-0.002988596350779004,2.1983411844808973
737,0.00014241986915475454,-0.0029886120649423764,2.198906462264142
738,0.00014241986915475454,-0.0029886243702172497,2.1991733703056133
739,0.00013519683152966893,-0.0029886340181772713,2.1992002813753144
740,0.0001407015030002501,-0.0029886436778368223,2.1992023557329716
741,0.0001407015030002501,-0.0029886558496976913,2.1990141594808543
742,0.0001407015030002501,-0.002988670584557216,2.1990369159073264
743,0.0001407015030002501,-0.0029886859333900194,2.1988745784639554
744,0.00013519683152966893,-0.002988699328310133,2.1990003915664444
745,0.00013519683152966893,-0.0029887111536883743,2.1989382374068085
746,0.00013519683152966893,-0.002988724093945868,2.199004983726362
747,0.00013809694024988364,-0.0029887409171428176,2.1989744552938655
748,0.00013809694024988364,-0.0029887608168085037,2.19896635021018
749,0.00013809694024988364,-0.002988779211934869,2.1988282979771285
750,0.00013519683152966893,-0.0029887927932026707,2.1987457885589
751,0.00013519683152966893,-0.0029888035408384937,2.1984907350157634
752,0.00013519683152966893,-0.002988815892824008,2.198377898913201
753,0.00013809694024988364,-0.0029888339152649287,2.1977982239256426
754,0.00013809694024988364,-0.0029888561754100205,2.1974341405907367
755,0.00013809694024988364,-0.002988876407921013,2.196510982536111
756,0.00015159102622953086,-0.002988891110526247,2.1963977466742155
757,0.00014760820138576822,-0.0029889028128210204,2.1963479949265707
758,0.00014760820138576822,-0.0029889154322039753,2.196463988406575
759,0.000136763643996886,-0.0029889334559380053,2.1966058860614126
760,0.00013345121684867655,-0.0029889557660517456,2.196717166973401
761,0.00013345121684867655,-0.002988978870011096,2.1967135097556185
762,0.00013411122266082193,-0.002988999128849266,2.196574712332356
763,0.00013411122266082193,-0.0029890173379389963,2.1963446870285885
764,0.00013411122266082193,-0.002989037367675317,2.1960882816571377
765,0.00013411122266082193,-0.002989064208508568,2.1956784934583196
766,0.00013956906789187176,-0.002989093804542832,2.195567801265549
767,0.00013956906789187176,-0.002989118231573552,2.1952550280517653
768,0.00013956906789187176,-0.002989134457593848,2.195723713120366
769,0.00014979725175494167,-0.002989147842981658,2.195934173010381
770,0.00014979725175494167,-0.0029891642623260327,2.1963607389369626
771,0.00014979725175494167,-0.0029891873607006247,2.1967868727168804
772,0.00014290436502641837,-0.0029892122301045077,2.197146380713863
773,0.00013747962058578724,-0.0029892335543962117,2.1971600420611055
774,0.00013747962058578724,-0.0029892494171714244,2.196995221909735
775,0.00013747962058578724,-0.002989263624181881,2.1967094122445348
776,0.00013747962058578724,-0.0029892804324349077,2.196666076295479
777,0.00013747962058578724,-0.0029893023323613165,2.196635860338877
778,0.00013747962058578724,-0.0029893280248028398,2.1971409161304076
779,0.00013747962058578724,-0.0029893539348066927,2.1977878013051404
780,0.00013747962058578724,-0.002989375086976872,2.1984976363195967
781,0.00013747962058578724,-0.0029893930403580653,2.198997936386292
782,0.00013747962058578724,-0.002989412462170196,2.1995388809247958
783,0.00013747962058578724,-0.002989434380285163,2.199974352955963
784,0.00013747962058578724,-0.0029894560781112247,2.2004666239442785
785,0.00013747962058578724,-0.0029894759752890337,2.2007571566643644
786,0.00013747962058578724,-0.0029894914568440395,2.2008181440423855
787,0.00013747962058578724,-0.00298950191957341,2.2010427735052565
788,0.00013747962058578724,-0.002989515819841979,2.201374420999686
789,0.00013747962058578724,-0.002989533066153428,2.2018590731843597
790,0.00013747962058578724,-0.002989553186876973,2.2023871163273845
791,0.00013747962058578724,-0.0029895717803773945,2.2027884722528843
792,0.00013747962058578724,-0.0029895849442738943,2.202882286358287
793,0.000134719336309619,-0.002989594274025525,2.2028757164152504
794,0.000134719336309619,-0.0029896046218831837,2.202690201051804
795,0.000134719336309619,-0.0029896203094878625,2.202556288785155
796,0.00013214716892987881,-0.002989642915145086,2.2022992046051884
797,0.00013214716892987881,-0.0029896655533078265,2.2021223042390696
798,0.00013214716892987881,-0.0029896821985800166,2.202031433457374
799,0.0001372347669761465,-0.002989694136111724,2.202012389430456
800,0.0001372347669761465,-0.0029897059708804915,2.2019779953730154
801,0.0001372347669761465,-0.0029897220479569173,2.2019898986442112
802,0.0001372347669761465,-0.002989743665590046,2.2016985112068723
803,0.0001372347669761465,-0.0029897687787375834,2.2014518841355675
804,0.0001372347669761465,-0.0029897920746341194,2.2008191505769843
805,0.0001372347669761465,-0.002989809851112846,2.2004242829747516
806,0.00014016026624132335,-0.002989823037028182,2.199841068426029
807,0.00014016026624132335,-0.002989836169918073,2.199333010801594
808,0.00014016026624132335,-0.0029898543352277268,2.198563960196784
809,0.00014016026624132335,-0.0029898779175383168,2.1973827355315607
810,0.00014869459608931777,-0.0029899008702118923,2.19640957365506
811,0.00015097205105616082,-0.0029899183823395912,2.1956376712919408
812,0.00015097205105616082,-0.0029899318928768865,2.1955021997954587
813,0.00015097205105616082,-0.0029899457286787106,2.1954493742101753
814,0.00015450460467619502,-0.0029899633076437638,2.195401030855193
815,0.00015450460467619502,-0.002989984267972594,2.1952225402601133
816,0.00015097205105616082,-0.0029900050628331636,2.1945674457210487
817,0.00015484216554039344,-0.002990022609303989,2.1939692192868723
818,0.00015021762831605447,-0.0029900367311746457,2.193277894926008
819,0.00015021762831605447,-0.0029900496253546203,2.192868552495691
820,0.00015021762831605447,-0.002990064666502599,2.192662665262964
821,0.00015021762831605447,-0.0029900834418158007,2.192567947998118
822,0.00015021762831605447,-0.0029901054028377548,2.1926153439190306
823,0.00015021762831605447,-0.002990124708183399,2.1927970940211057
824,0.00015021762831605447,-0.0029901390085607447,2.192836319564584
825,0.0001592986453660276,-0.0029901510216073417,2.19291478877002
826,0.0001592986453660276,-0.0029901648782343815,2.1929141077042518
827,0.0001592986453660276,-0.0029901828047954222,2.192884522141454
828,0.0001592986453660276,-0.0029902023134371174,2.192987288385418
829,0.0001592986453660276,-0.002990218842973169,2.1930343232544307
830,0.0001592986453660276,-0.0029902313145744514,2.193184942470559
831,0.00016889328865124845,-0.0029902423441477985,2.1933146766284
832,0.00016889328865124845,-0.0029902562440056154,2.1934274213441434
833,0.00016889328865124845,-0.0029902736932362,2.1937269030656865
834,0.00016141878953031006,-0.0029902912890192486,2.193934546634556
835,0.00017640506116395137,-0.0029903048870744686,2.1942123008783554
836,0.00017640506116395137,-0.002990314552374801,2.1944062449864874
837,0.00017640506116395137,-0.0029903230593360634,2.1945184834014473
838,0.00017996643270972338,-0.0029903328340116385,2.194768401044321
839,0.00017996643270972338,-0.0029903445697045785,2.195088846406556
840,0.00017996643270972338,-0.002990357702413573,2.1955538675881137
841,0.00017996643270972338,-0.0029903706389829885,2.1960963376034623
842,0.00017996643270972338,-0.002990381120860185,2.196556172617828
843,0.00017996643270972338,-0.002990388668417143,2.1968948655821765
844,0.00017996643270972338,-0.0029903949562557846,2.1971121622166767
845,0.00017996643270972338,-0.002990401844169709,2.1973324123985822
846,0.00017996643270972338,-0.002990410078609299,2.1974842933535785
847,0.00017996643270972338,-0.002990419522887601,2.197713054488309
848,0.00017996643270972338,-0.0029904290679714303,2.1978474110069257
849,0.00017996643270972338,-0.002990437463024779,2.1981459279709665
850,0.00017996643270972338,-0.0029904440187116387,2.1983243225477875
851,0.00017996643270972338,-0.0029904493347387984,2.1986933093534025
852,0.00017996643270972338,-0.0029904547006284177,2.198984867243758
853,0.00017996643270972338,-0.002990461488405978,2.199441351180207
854,0.00017996643270972338,-0.002990469657047832,2.199910090243944
855,0.00017996643270972338,-0.0029904772344459406,2.2002512125642237
856,0.00017996643270972338,-0.002990482978426255,2.2004133425181105
857,0.00017996643270972338,-0.0029904872403571764,2.200406096740928
858,0.00017996643270972338,-0.002990491179219349,2.2004449174940275
859,0.0001894911343916181,-0.002990495779031036,2.2005886536514696
860,0.0001894911343916181,-0.002990501438378532,2.200945525592537
861,0.0001894911343916181,-0.002990507793518013,2.20158450993693
862,0.0001894911343916181,-0.0029905136475604516,2.2022220437243187
863,0.0001894911343916181,-0.002990518090152912,2.2027979517915277
864,0.0001894911343916181,-0.002990521517578874,2.2030217008893977
865,0.0001894911343916181,-0.0029905251353771907,2.203210966054049
866,0.0001894911343916181,-0.0029905301698976215,2.2034160551685797
867,0.00017996643270972338,-0.0029905365531804587,2.203753119141259
868,0.0001894911343916181,-0.0029905427158084313,2.2041846135197534
869,0.0001894911343916181,-0.0029905472379292194,2.2044646079176853
870,0.00019889361287475437,-0.002990550622368719,2.204696449246132
871,0.00019889361287475437,-0.0029905543738767276,2.2047389934582635
872,0.00019889361287475437,-0.002990559928774507,2.2048334622160772
873,0.00019889361287475437,-0.0029905670647833804,2.204886974971239
874,0.00019889361287475437,-0.002990573174561643,2.2050280569062384
875,0.00019889361287475437,-0.0029905775677371393,2.2052118170202095
876,0.00019889361287475437,-0.0029905812510027,2.2054252000127335
877,0.00019889361287475437,-0.002990585894535513,2.2057939780077103
878,0.0002007730808017835,-0.0029905928684532414,2.20626103218831
879,0.0002007730808017835,-0.0029906022059957645,2.206916672297997
880,0.00019067768631331279,-0.0029906121507760793,2.207335074483636
881,0.00019067768631331279,-0.0029906202209105726,2.2075446009241233
882,0.00019067768631331279,-0.002990625929634615,2.2073665945767145
883,0.00019067768631331279,-0.0029906306703288265,2.207236091883493
884,0.00019067768631331279,-0.0029906363350539543,2.2070834292392703
885,0.00019067768631331279,-0.0029906438292313714,2.2072196054861877
886,0.00019067768631331279,-0.0029906520432373307,2.2074000582208173
887,0.0002007730808017835,-0.0029906589957851325,2.207997068580827
888,0.0002007730808017835,-0.0029906639953358647,2.2082051139982335
889,0.0002007730808017835,-0.0029906677982072024,2.2085044361602626
890,0.0002007730808017835,-0.0029906725103669555,2.2086594980535104
891,0.0002007730808017835,-0.0029906790141292334,2.2088906090092193
892,0.0002007730808017835,-0.002990686835070088,2.2090738376739076
893,0.0002007730808017835,-0.0029906943712281254,2.209175215244408
894,0.0002007730808017835,-0.002990700407319992,2.209239028964493
895,0.0002007730808017835,-0.002990705384450463,2.2091465683785536
896,0.0002007730808017835,-0.002990710842050168,2.2092354490701402
897,0.0002007730808017835,-0.0029907187305401603,2.209172608334709
898,0.0002007730808017835,-0.0029907296415438776,2.2095723337158732
899,0.00018357863803838116,-0.002990741729754136,2.209727494461935
900,0.0001873664611364055,-0.0029907511822080636,2.2105676186070067
901,0.00019627467170077947,-0.0029907575913816083,2.210769634402173
902,0.00019627467170077947,-0.0029907627437519473,2.2113105536211037
903,0.0002086515548085716,-0.002990770419839641,2.2119778270538224
904,0.00017457174622305375,-0.002990781700030134,2.2128027767400225
905,0.00017457174622305375,-0.002990795901956685,2.213749816469542
906,0.00017457174622305375,-0.002990810160210939,2.214376495204558
907,0.00017457174622305375,-0.0029908214319273414,2.214629300205125
908,0.00017457174622305375,-0.0029908303835665135,2.214641878541889
909,0.00017457174622305375,-0.0029908399617792326,2.21474555345121
910,0.00017457174622305375,-0.0029908547700151266,2.215201824780038
911,0.00017457174622305375,-0.0029908777675331792,2.216326230060105
912,0.00017457174622305375,-0.0029909107164078096,2.218442875705428
913,0.00017457174622305375,-0.0029909407111483825,2.220470491956899
914,0.00019524784496532146,-0.0029909649480255865,2.22171689749395
915,0.00018878681249655347,-0.0029909699019910812,2.2242266479050987
916,0.00018356063397545767,-0.002990978768026365,2.2238471126318284
917,0.00018356063397545767,-0.002990994064793353,2.223374167532584
918,0.00018356063397545767,-0.0029910175994850765,2.2226152941517383
919,0.00018356063397545767,-0.0029910414937831583,2.222199897273558
920,0.00018356063397545767,-0.0029910625378971626,2.2222343174148027
921,0.00017190413444028991,-0.0029910961809114715,2.223252713239869
922,0.00017664756738380773,-0.0029911394404854956,2.2255859627560364
923,0.00017664756738380773,-0.0029911587790194933,2.226580261131148
924,0.00018780282863168284,-0.002991181533200086,2.227404544058543
925,0.00018780282863168284,-0.0029912038510905314,2.2278693458183283
926,0.00020053629070409994,-0.0029912310928488124,2.2284256705040755
927,0.00020053629070409994,-0.0029912709266536478,2.2292968691043167
928,0.00017901565786358962,-0.0029913204308122036,2.230924916775734
929,0.0001505204720298031,-0.0029913681267043617,2.232063293539379
930,0.0001505204720298031,-0.002991413371887735,2.2347709013027797
931,0.0001505204720298031,-0.002991474570387658,2.2357095540216316
932,0.0001505204720298031,-0.0029915489022172316,2.2390157159508046
933,0.0001505204720298031,-0.002991622296126828,2.2405756255407443
934,0.0001505204720298031,-0.002991720610197076,2.2424530170972488
935,0.0001505204720298031,-0.0029918397981637587,2.242085080897153
936,0.0001505204720298031,-0.0029919094586224808,2.2443757611233957
937,0.0001536872417563481,-0.002992002235950848,2.242090280583988
938,0.0001536872417563481,-0.002992073996432851,2.2416679269454143
939,0.0001536872417563481,-0.0029921291976435097,2.241200299967236
940,0.0001536872417563481,-0.002992181864989257,2.2420168906125006
941,0.0001536872417563481,-0.0029922397518539305,2.242717442978747
942,0.00015877647156646278,-0.0029922879691341993,2.2434356559919175
943,0.00016479992846163833,-0.0029923348028917237,2.243504568125681
944,0.00015877647156646278,-0.0029923836855509185,2.243480502166409
945,0.00015126894725514607,-0.0029924371961414314,2.2433349092761703
946,0.00015126894725514607,-0.002992482292186484,2.2433809119318155
947,0.00014667345735975765,-0.002992517433861538,2.2434722776669807
948,0.00015126894725514607,-0.002992547848991784,2.2437235866180663
949,0.00015126894725514607,-0.002992583138836926,2.2437974477770526
950,0.00015126894725514607,-0.0029926231211397447,2.2439449776806506
951,0.00015126894725514607,-0.00299266553635024,2.2438499686346556
952,0.00015126894725514607,-0.0029927068775263774,2.2438131360507745
953,0.0001558156891855035,-0.002992745138617903,2.2435727765989717
954,0.00015674983379365223,-0.002992778618705738,2.243480434705321
955,0.0001641978116893611,-0.002992810238041159,2.2431957463561027
956,0.0001768911698851446,-0.0029928427368179594,2.2430837941814925
957,0.00015820688031175308,-0.0029928744406605107,2.2430115415947784
958,0.000171245677107671,-0.002992901475287392,2.2430210510217523
959,0.00015820688031175308,-0.0029929291153076945,2.243161475333065
960,0.00015820688031175308,-0.0029929590393530468,2.243199091453875
961,0.00015820688031175308,-0.0029929922360088872,2.2431648343544417
962,0.00015820688031175308,-0.002993023014030785,2.242827848928168
963,0.00015917482406591554,-0.0029930515835915722,2.2423479793342596
964,0.00015917482406591554,-0.002993078279855489,2.241810619013814
965,0.00015917482406591554,-0.002993108745659798,2.241291080851001
966,0.00015917482406591554,-0.0029931488401452417,2.240579618946441
967,0.00015917482406591554,-0.00299319643290334,2.2401515698084467
968,0.00017237478017539232,-0.002993243069970416,2.239394294867626
969,0.00017237478017539232,-0.0029932795361105537,2.2396109664604147
970,0.00017237478017539232,-0.0029933066825274784,2.2390624942245836
971,0.00017237478017539232,-0.002993330106160412,2.2392855849940054
972,0.00017807545533583683,-0.0029933564085260376,2.239452692251763
973,0.00017237478017539232,-0.0029933923404722993,2.2391160199748543
974,0.00017237478017539232,-0.0029934309135275007,2.2389976295470326
975,0.00015917482406591554,-0.0029934708570333013,2.2388259848979355
976,0.00018002905869116015,-0.0029934977441468213,2.2389839038633084
977,0.0001861876844192534,-0.0029935158632335267,2.239216992702125
978,0.0001861876844192534,-0.0029935316606420404,2.239468623017081
979,0.00017258479032875582,-0.0029935525786945315,2.239696316271853
980,0.00016250017369354047,-0.002993581170928256,2.2398973020692488
981,0.00016250017369354047,-0.002993618048903986,2.23984944388195
982,0.00016250017369354047,-0.0029936586691575997,2.2397868009170363
983,0.00016250017369354047,-0.002993693028082729,2.2394011278717474
984,0.00016250017369354047,-0.0029937153048362744,2.239145310189268
985,0.00016705097854024592,-0.0029937315863685647,2.2390469043141694
986,0.00016705097854024592,-0.0029937501815530464,2.239007261982954
987,0.00016705097854024592,-0.00299377796558958,2.239190551773692
988,0.00016705097854024592,-0.002993814669021319,2.23941039040312
989,0.00016705097854024592,-0.0029938489414977226,2.2395915805615565
990,0.00016705097854024592,-0.002993882120880836,2.239329902954129
991,0.00016250017369354047,-0.0029939152268961522,2.239025686741041
992,0.00018521383133640905,-0.0029939544553716185,2.2375780282313493
993,0.00018521383133640905,-0.0029940145710550888,2.234960467134079
994,0.00018055539077227507,-0.0029940494844368786,2.23307182945348
995,0.00018534722246129611,-0.002994105798237044,2.231549310295512
996,0.00018534722246129611,-0.0029941856392658164,2.23002561155479
997,0.00018534722246129611,-0.0029942365496108472,2.2277595181869367
998,0.00016772989901836093,-0.0029942871798320572,2.2267840851340237
999,0.0001734117412364002,-0.0029943397982100176,2.227343159423352
1000,0.00017840790685295406,-0.0029944040166026446,2.225896903698509
1001,0.00017840790685295406,-0.0029944445463600776,2.226217563080114
1002,0.00017273746030183819,-0.002994492203116757,2.2248330804440366
1003,0.00017273746030183819,-0.0029945411945680282,2.2241721754291714
1004,0.00017273746030183819,-0.0029945857637785783,2.2238526920755435
1005,0.00017273746030183819,-0.002994643643217986,2.2241479710566936
1006,0.00017273746030183819,-0.002994710456611125,2.2242172999668015
1007,0.00018498292866958146,-0.0029947872675878647,2.2246340065559065
1008,0.00017647225694408341,-0.0029948561844272805,2.224469255011739
1009,0.0001886004586721765,-0.002994903367750762,2.2243452251503384
1010,0.0001886004586721765,-0.002994941758819259,2.224275921984008
1011,0.0001886004586721765,-0.002994983946953866,2.2238293224406207
1012,0.00019805335854083963,-0.0029950442429742697,2.2240914938023963
1013,0.0002294721825725336,-0.0029951215404380002,2.224405027599528
1014,0.00023434164031736716,-0.0029952029763416015,2.224700550076168
1015,0.00022279558468524577,-0.002995281200190166,2.225179118245419
1016,0.00020784442091155138,-0.0029953402107134094,2.225174175427596
1017,0.0001752206231086577,-0.0029953829544511505,2.2248435225081593
1018,0.0001752206231086577,-0.0029954269252278876,2.2251068022019886
1019,0.00018521994203647972,-0.0029954878365972036,2.22461887889874
1020,0.00018521994203647972,-0.0029955658447357487,2.225444517377315
1021,0.00018521994203647972,-0.002995657410821758,2.2254875255732856
1022,0.00017979626399555008,-0.002995758492663133,2.226254601074575
1023,0.00017884419026287137,-0.0029958410542888147,2.2265626586735987
1024,0.00017884419026287137,-0.00299590829792443,2.2265467041340155
1025,0.0001800829595866358,-0.00299597224605416,2.2262802081049564
1026,0.0001800829595866358,-0.002996036516478132,2.2255795209995215
1027,0.00017753171803941244,-0.002996110837858273,2.2247392650036533
1028,0.00018838143356902755,-0.002996203394430416,2.223410134659467
1029,0.00016993049829794684,-0.0029963124319342467,2.222560622896025
1030,0.00016646958388836995,-0.0029964206570204425,2.221994902976972
1031,0.0001741558212196868,-0.0029965077370611164,2.221958424172403
1032,0.0001703887904800174,-0.0029965667997482754,2.223087198696721
1033,0.00017692437634048264,-0.002996616769493991,2.2232836195160783
1034,0.00017577925180962926,-0.0029966788140172343,2.2231972535397095
1035,0.00017692437634048264,-0.0029967499547056396,2.2228260230225403
1036,0.00017720572926741568,-0.002996834208534349,2.2218485173033695
1037,0.00018543055185307587,-0.0029969198526425393,2.2215672250510234
1038,0.00018070543955736257,-0.0029969910300557887,2.2210641411895047
1039,0.00018070543955736257,-0.002997050403840808,2.2220727738664046
1040,0.00018070543955736257,-0.0029971053845949153,2.221944614610646
1041,0.00018070543955736257,-0.002997156744761617,2.2227734545817426
1042,0.0001837014115406985,-0.00299720449117275,2.223180502177085
1043,0.0001837014115406985,-0.002997256925656338,2.223343978127838
1044,0.00018129669164440495,-0.002997324878621137,2.2238307531198784
1045,0.00018129669164440495,-0.0029974048686163884,2.224496918601579
1046,0.00018129669164440495,-0.0029974827747267173,2.2240985412131833
1047,0.00018129669164440495,-0.0029975597943081678,2.2246455954946907
1048,0.00018129669164440495,-0.002997630624333854,2.2239259971561274
1049,0.00017215245450729455,-0.002997686958883019,2.223348435320385
1050,0.00017215245450729455,-0.0029977374964452594,2.223193010443249
1051,0.00016056620983531683,-0.002997802490782326,2.22321741409855
1052,0.00016655423150743038,-0.002997891000780709,2.2238207135276107
1053,0.00016518750964772635,-0.0029979867308758614,2.225560442763699
1054,0.00015425419894524699,-0.002998087159635856,2.2268711918846837
1055,0.00015425419894524699,-0.0029981727694441446,2.2287200701191296
1056,0.0001490674586337161,-0.0029982332547550555,2.228902528123341
1057,0.0001490674586337161,-0.002998279634027445,2.228901326832097
1058,0.0001490674586337161,-0.0029983212748519936,2.228477688610576
1059,0.0001490674586337161,-0.002998360507610718,2.228303420027793
1060,0.0001490674586337161,-0.0029984030809296486,2.228125008311451
1061,0.0001490674586337161,-0.002998451021735236,2.2287238933637257
1062,0.0001531014602832007,-0.0029985072167765746,2.230009648242315
1063,0.00016979047560157907,-0.0029985580500432735,2.2313229724949037
1064,0.0001625985975842547,-0.0029986021753879103,2.233057006239464
1065,0.00015217579290573006,-0.002998636301851249,2.2340345334921556
1066,0.00015217579290573006,-0.0029986614536658598,2.234797255830428
1067,0.00015217579290573006,-0.0029986864571393264,2.235268986609709
1068,0.00015217579290573006,-0.002998716504389157,2.2354632790802045
1069,0.00015217579290573006,-0.002998750981067663,2.2354575346394236
1070,0.00016176003001684545,-0.0029987888372699826,2.234983488694773
1071,0.00016176003001684545,-0.0029988238970296488,2.2343948852845372
1072,0.0001680340432501333,-0.0029988522393392964,2.2341376442683565
1073,0.0001680340432501333,-0.0029988745617610573,2.234178140633675
1074,0.0001680340432501333,-0.002998893413123175,2.234810988420504
1075,0.00017756036818136685,-0.002998913428779909,2.2356157522146862
1076,0.00017756036818136685,-0.0029989392306289733,2.236667674024685
1077,0.00015925139623159014,-0.0029989734990303624,2.2378575026837906
1078,0.00015925139623159014,-0.0029990116023108616,2.238328227814323
1079,0.0001639078939402349,-0.0029990437690068715,2.2383740062163877
1080,0.0001582836262766741,-0.002999066819253745,2.237717608218351
1081,0.00017125258580449223,-0.002999084730905545,2.2372894841640636
1082,0.00017125258580449223,-0.002999103315205422,2.2369742509966057
1083,0.0001663108725002421,-0.002999129433873298,2.237051801056303
1084,0.00016939814380327725,-0.002999163399069351,2.2372386740527364
1085,0.00017114604126009894,-0.0029992019228597786,2.237890549423909
1086,0.00017114604126009894,-0.002999241676722033,2.2381825973855545
1087,0.00017114604126009894,-0.002999275719595281,2.238830488599878
1088,0.00016512085726304044,-0.0029993004525822728,2.239086841312938
1089,0.00017934656268451797,-0.002999318202613989,2.2393261074209034
1090,0.0001842682047078139,-0.0029993337184173715,2.2399063490644107
1091,0.0001842682047078139,-0.0029993513184146765,2.2403018283883838
1092,0.0001842682047078139,-0.0029993736461114413,2.241084094780689
1093,0.00018142697038788983,-0.0029994023937053816,2.2416248379912758
1094,0.00018142697038788983,-0.002999433250068989,2.2421400122653914
1095,0.00018701369030188294,-0.002999461115450904,2.241995184723686
1096,0.00018701369030188294,-0.002999481559865605,2.2420914339911797
1097,0.00018828105734089887,-0.002999496071653896,2.241860498514869
1098,0.00018828105734089887,-0.00299950916126233,2.2421272641542256
1099,0.00018828105734089887,-0.002999527047579452,2.2424184997003875
1100,0.00019376229116992418,-0.0029995531630386428,2.243104228825909
1101,0.00019376229116992418,-0.002999586194485146,2.243653578525223
1102,0.00018649548459440265,-0.0029996174645097315,2.2442236248915965
1103,0.0001922717191085143,-0.0029996414883169836,2.244146320827582
1104,0.0001922717191085143,-0.0029996573994934476,2.2441893767432615
1105,0.0001922717191085143,-0.0029996719598057208,2.2442302303066275
1106,0.00020337142942399128,-0.0029996891841328347,2.2444032416866313
1107,0.00018649548459440265,-0.0029997126186472336,2.2449474477062763
1108,0.00018649548459440265,-0.002999741441004708,2.2457202045883333
1109,0.00018649548459440265,-0.0029997765895122016,2.246520269457219
1110,0.0001922717191085143,-0.002999813355590069,2.247262920041688
1111,0.0001922717191085143,-0.002999844625124939,2.2473185731590646
1112,0.0001922717191085143,-0.002999866356604831,2.2473664432132807
1113,0.0001922717191085143,-0.002999885411730529,2.2469499987950443
1114,0.0001922717191085143,-0.0029999076393014035,2.2467051131700595
1115,0.0001922717191085143,-0.0029999374068661773,2.2464391302854385
1116,0.00021988964354923947,-0.0029999758043927046,2.2461418730235065
1117,0.00021831447061095325,-0.003000023503649361,2.2460002683997216
1118,0.00023853619453867303,-0.0030000695022921967,2.245963974773875
1119,0.0002291385972538177,-0.003000106430463745,2.2460605742948285
1120,0.0002291385972538177,-0.003000128875384932,2.2465531867106097
1121,0.0002291385972538177,-0.0030001498410236293,2.246274106229247
1122,0.0002291385972538177,-0.0030001698865163825,2.246452153729164
1123,0.0002291385972538177,-0.003000189826789077,2.2464843992913
1124,0.0002117769833457584,-0.003000214191848385,2.2464701760860484
1125,0.0002117769833457584,-0.003000238530674117,2.2466189745507696
1126,0.0002043638556314302,-0.0030002591850495732,2.2465453171962073
1127,0.0002043638556314302,-0.003000275418265219,2.246628131740402
1128,0.0002043638556314302,-0.003000288566331998,2.246789786391477
1129,0.0002043638556314302,-0.0030002993970420873,2.246858548413924
1130,0.0001949121680046281,-0.003000309336438401,2.247068587603196
1131,0.0001949121680046281,-0.0030003206536044513,2.24714505338198
1132,0.0001949121680046281,-0.0030003363229816637,2.2472862486436
1133,0.0001949121680046281,-0.0030003555444747016,2.2474250792990875
1134,0.0001949121680046281,-0.0030003791928609673,2.247826880171737
1135,0.00016653714232561946,-0.003000399408549738,2.2483653381194677
1136,0.00016653714232561946,-0.0030004134563576877,2.2489628871583918
1137,0.00016653714232561946,-0.003000425571906882,2.2495182552080464
1138,0.00017385760524944732,-0.0030004398323484646,2.250103356691604
1139,0.00017385760524944732,-0.003000459322906915,2.2506425212291465
1140,0.00017362184594761773,-0.003000486182751196,2.2512986019772034
1141,0.00017362184594761773,-0.003000519546340428,2.2516189233331882
1142,0.00017362184594761773,-0.0030005515580349964,2.2516633166715616
1143,0.00017362184594761773,-0.0030005780237348906,2.2513236556277776
1144,0.00017362184594761773,-0.003000594235568083,2.251512214784494
1145,0.00017362184594761773,-0.0030006085050243935,2.251716130983656
1146,0.00016714834909649094,-0.0030006242741300554,2.252249928926
1147,0.00016714834909649094,-0.0030006453819247363,2.2526578504829895
1148,0.00016714834909649094,-0.0030006687432841093,2.253431282529255
1149,0.00018135510561095682,-0.0030006951260921734,2.2532257973522807
1150,0.00018135510561095682,-0.0030007216149091106,2.2535065064041775
1151,0.00018135510561095682,-0.003000746179508265,2.2531462121070494
1152,0.00018135510561095682,-0.0030007642110515993,2.253280851384226
1153,0.00018135510561095682,-0.003000780505406045,2.2532694492427585
1154,0.0001930597858014904,-0.0030007950195106133,2.253488083486044
1155,0.0002027257900107464,-0.0030008108633935125,2.2535642141045176
1156,0.0002027257900107464,-0.0030008336263827626,2.2536618631353433
1157,0.0001888923610582844,-0.0030008595082235486,2.2537902128478646
1158,0.0001888923610582844,-0.003000882680357311,2.2538488257722786
1159,0.0001930597858014904,-0.0030009006163657158,2.2540357351334888
1160,0.0001930597858014904,-0.0030009146126769807,2.2542219196627378
1161,0.0001930597858014904,-0.00300092670029064,2.2545027105294637
1162,0.0002027257900107464,-0.003000940465472313,2.2547039448673205
1163,0.0002027257900107464,-0.0030009585963993285,2.2551970439280935
1164,0.000194788709215872,-0.003000981513799156,2.2554137988591076
1165,0.000194788709215872,-0.003001006379960727,2.2562143154807575
1166,0.000194788709215872,-0.0030010272169671173,2.2562976909536028
1167,0.00018569020547450877,-0.003001041013575358,2.256702635666122
1168,0.0001869118262316608,-0.0030010504991971132,2.2568264482835683
1169,0.0001934732963003824,-0.0030010597360378534,2.256920062350093
1170,0.0001934732963003824,-0.0030010721476679985,2.25713955735176
1171,0.0001934732963003824,-0.0030010885340651344,2.2575937272638504
1172,0.0001947667169628565,-0.0030011078255192123,2.258005850373605
1173,0.00019347539728706588,-0.0030011275880462026,2.2584730177005716
1174,0.00020126121392542002,-0.0030011434163943152,2.2587983235079734
1175,0.00020126121392542002,-0.0030011542021112377,2.258616151893542
1176,0.00020262812062074337,-0.003001161975902476,2.2586672891250195
1177,0.00020262812062074337,-0.0030011696063020027,2.258389277690744
1178,0.00020262812062074337,-0.0030011787056281277,2.258252537167014
1179,0.00020988768540161274,-0.00300119128590096,2.258240447293225
1180,0.00020552923786225182,-0.0030012090492030122,2.2582708080454466
1181,0.00020552923786225182,-0.003001230005273034,2.258690083685946
1182,0.00020412742141782752,-0.0030012493971837656,2.259186906138406
1183,0.00020412742141782752,-0.0030012636748657476,2.2595575197257927
1184,0.00020412742141782752,-0.0030012735518990035,2.259802150707521
1185,0.00020552923786225182,-0.0030012818169112983,2.2596889066818435
1186,0.00020552923786225182,-0.0030012898258997174,2.259558751938264
1187,0.0001984265143697948,-0.003001298657785057,2.2592056894978065
1188,0.0001984265143697948,-0.0030013099989395805,2.2589621859478783
1189,0.0001984265143697948,-0.0030013257449514412,2.2586068317829646
1190,0.0001984265143697948,-0.0030013441036246245,2.258771598011264
1191,0.0001984265143697948,-0.0030013602361987964,2.258770308318233
1192,0.0001984265143697948,-0.0030013715373853195,2.2592952486174718
1193,0.0001984265143697948,-0.0030013794999215384,2.259590385645445
1194,0.0001984265143697948,-0.003001387002422123,2.2596623887987364
1195,0.0001984265143697948,-0.003001396443047392,2.2597652842422047
1196,0.0001984265143697948,-0.0030014079825408063,2.2597010917540676
1197,0.00020449435266910052,-0.00300141981258067,2.2596692534564276
1198,0.0002088876650548593,-0.003001432776478487,2.25958736138618
1199,0.00020744023137712423,-0.0030014466817052123,2.2594358292108634
1200,0.00020744023137712423,-0.0030014597393216,2.2592291346522972
1201,0.00019435000013006082,-0.00300147002188135,2.25890971235939
1202,0.00019435000013006082,-0.003001477777214813,2.2585988675732684
1203,0.00019435000013006082,-0.003001485319613038,2.2583509478891
1204,0.0002088876650548593,-0.0030014946537435822,2.258084885023237
1205,0.0002088876650548593,-0.003001506762043366,2.2579574966051608
1206,0.0002088876650548593,-0.003001519898142788,2.257942168931294
1207,0.0002088876650548593,-0.0030015316077452578,2.2579698807091058
1208,0.0002088876650548593,-0.0030015402108034277,2.2580682780079178
1209,0.0002088876650548593,-0.003001546218172726,2.2578810694477767
1210,0.0002088876650548593,-0.0030015511066340908,2.2577555650998566
1211,0.0002088876650548593,-0.0030015561649783984,2.257427501624605
1212,0.0002088876650548593,-0.0030015625605202966,2.257220662922167
1213,0.0002088876650548593,-0.0030015712075280297,2.2570172896893155
1214,0.0002088876650548593,-0.003001581861996695,2.257132221206819
1215,0.00020233732100167427,-0.0030015922345828935,2.257453093871887
1216,0.00020233732100167427,-0.0030015999280120446,2.2578604805758813
1217,0.00020233732100167427,-0.0030016051174869803,2.258021038269348
1218,0.00020233732100167427,-0.003001609385589208,2.258092390837166
1219,0.00020233732100167427,-0.0030016139739495137,2.2578477414735434
1220,0.00020233732100167427,-0.0030016200071369256,2.2576821424490503
1221,0.00020233732100167427,-0.003001628467542424,2.2573989042241975
1222,0.00020233732100167427,-0.003001638343303338,2.2574809770585436
1223,0.0001887551701493125,-0.003001647521126956,2.257794457464035
1224,0.0001887551701493125,-0.003001654231307461,2.258300402034735
1225,0.0001887551701493125,-0.003001659118785743,2.258702865608617
1226,0.0001887551701493125,-0.003001663693212767,2.2589135928497277
1227,0.00017591355116764718,-0.0030016692119370246,2.2590155519749824
1228,0.00018827490540021392,-0.003001676175341691,2.258929267207909
1229,0.00018265173149608775,-0.003001684748265225,2.2587662158753603
1230,0.00017085334773962358,-0.0030016940434983265,2.2586314262780176
1231,0.00017085334773962358,-0.0030017020548784245,2.258593532792478
1232,0.00017085334773962358,-0.003001707577162867,2.2588021275528587
1233,0.00017085334773962358,-0.0030017114138790133,2.25892478326853
1234,0.00017085334773962358,-0.003001714958808575,2.259114117971839
1235,0.00017085334773962358,-0.003001719172153998,2.2591413309270014
1236,0.00017085334773962358,-0.003001724737538458,2.2591453694404913
1237,0.00017085334773962358,-0.0030017322654115716,2.259061391098102
1238,0.00018643314363692758,-0.0030017414812912656,2.259001744873781
1239,0.00018155419584125863,-0.0030017506167629316,2.259126364807183
1240,0.00018155419584125863,-0.003001757675437538,2.2593249499777768
1241,0.00018155419584125863,-0.0030017632738801045,2.2596866576115584
1242,0.00018155419584125863,-0.0030017695949620055,2.259995944659802
1243,0.00015313711437483132,-0.0030017794515016243,2.260392373564979
1244,0.00014755879886710276,-0.0030017951278252537,2.2609027421775214
1245,0.00014755879886710276,-0.0030018176878609274,2.2614407654866104
1246,0.00014755879886710276,-0.003001838912389349,2.2616800367208723
1247,0.00014755879886710276,-0.0030018621825466736,2.261063466606796
1248,0.00014535327861556405,-0.003001873813161815,2.2612927970583794
1249,0.00014755879886710276,-0.0030018824988904107,2.2614099957360243
1250,0.00014535327861556405,-0.0030018899126591056,2.2618278261311042
1251,0.00014535327861556405,-0.0030018991232851665,2.2624172132944844
1252,0.00014535327861556405,-0.003001909038163327,2.2628906972542717
1253,0.00014535327861556405,-0.003001923447564537,2.2630462173299315
1254,0.00014469911308643941,-0.003001939773892858,2.2629826730817237
1255,0.00014469911308643941,-0.0030019559692781783,2.2625497632502296
1256,0.00014535327861556405,-0.0030019705603122385,2.2621714411594263
1257,0.00014535327861556405,-0.003001982651085503,2.262212997595321
1258,0.0001437728955197492,-0.003001994375025004,2.262398296126227
1259,0.0001437728955197492,-0.003002006988774905,2.2630452024491614
1260,0.0001437728955197492,-0.003002021518529988,2.26356366219877
1261,0.0001423641845171614,-0.003002038201423928,2.2640316862740018
1262,0.0001438989732263148,-0.0030020556298807318,2.263956737651455
1263,0.0001392163091401324,-0.0030020712258413992,2.2639186527959367
1264,0.00014118217344040912,-0.0030020845339141693,2.263414908436465
1265,0.00014118217344040912,-0.0030020951537627037,2.2634890071205915
1266,0.0001379447247948976,-0.003002105356342957,2.2635495666286483
1267,0.0001379447247948976,-0.0030021179614568567,2.2639339513341277
1268,0.0001379447247948976,-0.0030021350275420294,2.2643397620929036
1269,0.0001379447247948976,-0.0030021555892140537,2.2645686679528634
1270,0.00013725791842432802,-0.0030021759594004846,2.2645140426312205
1271,0.00013725791842432802,-0.0030021925248744363,2.26385967286253
1272,0.00013657171249116624,-0.003002204284593369,2.2635451142309004
1273,0.00013289671226521406,-0.003002213813519914,2.2630803174854837
1274,0.00013289671226521406,-0.0030022229175483807,2.2630141276875566
1275,0.00013289671226521406,-0.0030022346578592357,2.262831187963046
1276,0.00013061022829308647,-0.0030022517418840343,2.2627593512988073
1277,0.00013470849499546114,-0.003002275471435388,2.2622333895234195
1278,0.0001389256015695792,-0.0030023038072574553,2.2615792453217063
1279,0.0001389256015695792,-0.0030023295895946368,2.260624901098259
1280,0.0001389256015695792,-0.0030023467623459224,2.2600200101301935
1281,0.0001389256015695792,-0.0030023575205256566,2.259645654177937
1282,0.0001389256015695792,-0.003002367018845418,2.259491406645204
1283,0.0001389256015695792,-0.0030023782607775072,2.259179964653623
1284,0.0001389256015695792,-0.003002393126580334,2.2587710086885178
1285,0.00013821128531737805,-0.003002414924383777,2.258082261769908
1286,0.000143372761664726,-0.0030024424403568765,2.256980120943043
1287,0.00015508416054988062,-0.003002467007321056,2.256110997746107
1288,0.00014907438135899103,-0.0030024826201425505,2.255564687637676
1289,0.00014907438135899103,-0.0030024919996304382,2.2553130485121344
1290,0.00014743709730128215,-0.003002500004226603,2.2552776437414224
1291,0.00014743709730128215,-0.0030025102313128446,2.2552818642420847
1292,0.00014907438135899103,-0.0030025237514375,2.2548235627402264
1293,0.0001528860613624485,-0.0030025431836170516,2.2545207689268976
1294,0.00016163240935930824,-0.0030025699790400154,2.254169804544876
1295,0.00016163240935930824,-0.0030025935257077595,2.2540357888427507
1296,0.00016163240935930824,-0.0030026093953069905,2.254367306833977
1297,0.00016163240935930824,-0.0030026200132423028,2.2544160790506145
1298,0.00016163240935930824,-0.0030026290736023457,2.2544765049115165
1299,0.00015743052177573567,-0.0030026389049480386,2.254420038335552
1300,0.00015743052177573567,-0.0030026501427905944,2.2541122419355033
1301,0.00014576019893131314,-0.003002664633796411,2.2539662878951336
1302,0.00014576019893131314,-0.003002683020275456,2.253700071552484
1303,0.00014576019893131314,-0.0030027035884019784,2.254002079223763
1304,0.00014576019893131314,-0.0030027211578288423,2.254285827886707
1305,0.0001493419120419751,-0.0030027322885549305,2.254925214028768
1306,0.00015142740970798508,-0.0030027393059626917,2.255216188072174
1307,0.00015142740970798508,-0.0030027455671484938,2.255487663968681
1308,0.00015544577741027167,-0.0030027542127410815,2.255777775674193
1309,0.00015544577741027167,-0.0030027673840405107,2.256244450841086
1310,0.00015544577741027167,-0.003002787606638783,2.2569131029162888
1311,0.00013346380086838572,-0.003002818638523156,2.258438264837343
1312,0.0001451839994493052,-0.0030028506766712247,2.261238293604827
1313,0.0001451839994493052,-0.003002875937251138,2.2612803472292518
1314,0.0001451839994493052,-0.0030029082768965767,2.261697162498373
1315,0.0001417546624340711,-0.003002925273817734,2.262392056827182
1316,0.0001450681883522114,-0.0030029437562674546,2.2622241868253115
1317,0.0001450681883522114,-0.0030029634516165176,2.263461631239221
1318,0.0001450681883522114,-0.00300298447810548,2.2629332296213445
1319,0.0001450681883522114,-0.0030030069858241718,2.2633721908179583
1320,0.0001417546624340711,-0.0030030350236708104,2.2638328075462772
1321,0.0001450681883522114,-0.0030030498736178367,2.264091326035919
1322,0.0001450681883522114,-0.003003061183101871,2.264032821239536
1323,0.0001450681883522114,-0.003003070687828952,2.2636972985694315
1324,0.0001450681883522114,-0.0030030783176100257,2.263589878818329
1325,0.0001450681883522114,-0.0030030878646911115,2.2636510281769313
1326,0.0001450681883522114,-0.0030030977660541083,2.2637834211353987
1327,0.0001450681883522114,-0.0030031075717096697,2.264367755017423
1328,0.0001450681883522114,-0.0030031182470817586,2.2647120949510384
1329,0.00015069712712857547,-0.00300312988833218,2.265176177317513
1330,0.00015069712712857547,-0.003003141153575792,2.265299372445398
1331,0.00014699701863922927,-0.0030031506338231754,2.265126961103152
1332,0.00014699701863922927,-0.0030031581820905585,2.26491009435527
1333,0.00014699701863922927,-0.0030031643714656976,2.264665654304665
1334,0.00014699701863922927,-0.0030031699134734965,2.264659680205142
1335,0.00015599069648626745,-0.003003175466973698,2.2647918945560552
1336,0.00015599069648626745,-0.003003181355566722,2.2651407462429507
1337,0.00016030156439023353,-0.00300318754385609,2.26553990809267
1338,0.00016030156439023353,-0.0030031938175579757,2.265971840636195
1339,0.00016030156439023353,-0.0030032006118505543,2.2662965771576515
1340,0.00016030156439023353,-0.003003208199859493,2.266631645848657
1341,0.0001613209093992194,-0.0030032150712216202,2.2668392093313092
1342,0.0001613209093992194,-0.0030032193215607118,2.267087168714991
1343,0.0001613209093992194,-0.0030032220728185865,2.267144353791547
1344,0.0001613209093992194,-0.0030032246706796642,2.2673184723691255
1345,0.0001613209093992194,-0.0030032280519997944,2.267464087950058
1346,0.00016030156439023353,-0.003003232274097671,2.2675592259614947
1347,0.00016030156439023353,-0.003003236823606113,2.2677431100998864
1348,0.00016030156439023353,-0.0030032409733980574,2.2676636698597354
1349,0.0001613209093992194,-0.0030032440231730234,2.2677872791602405
1350,0.0001613209093992194,-0.0030032459369458715,2.267775870249082
1351,0.0001613209093992194,-0.0030032472173120986,2.2678402005761167
1352,0.0001613209093992194,-0.0030032484204345817,2.267956956359741
1353,0.0001613209093992194,-0.0030032500154831836,2.2680501061183467
1354,0.0001613209093992194,-0.0030032521764544067,2.2681569431776323
1355,0.0001613209093992194,-0.0030032547945827975,2.2681880891658883
1356,0.0001613209093992194,-0.003003257334471413,2.268191621102585
1357,0.0001613209093992194,-0.0030032594291072518,2.2681114747510467
1358,0.0001613209093992194,-0.003003261103988834,2.2681332984879212
1359,0.0001613209093992194,-0.0030032625277156225,2.268119817564436
1360,0.0001613209093992194,-0.0030032638279355733,2.268211595651568
1361,0.0001613209093992194,-0.0030032651854087476,2.2682529567901653
1362,0.0001613209093992194,-0.003003267005645853,2.268306401713318
1363,0.0001613209093992194,-0.0030032695911529394,2.2682652749385657
1364,0.0001613209093992194,-0.003003272643904109,2.268129070745749
1365,0.0001613209093992194,-0.003003275317058944,2.267915685707793
1366,0.0001613209093992194,-0.003003277133830191,2.2677487766052136
1367,0.0001613209093992194,-0.003003278339081173,2.2676555069673276
1368,0.0001613209093992194,-0.0030032793453245842,2.267638881968268
1369,0.0001613209093992194,-0.0030032803970743006,2.267609835990254
1370,0.0001613209093992194,-0.003003281698870009,2.267598245756582
1371,0.0001613209093992194,-0.0030032835023364483,2.267522070171311
1372,0.0001613209093992194,-0.003003285819111722,2.2674205459663015
1373,0.0001613209093992194,-0.003003288143430827,2.2672957245991587
1374,0.0001613209093992194,-0.003003289849695632,2.2672252139244815
1375,0.0001613209093992194,-0.003003290898702713,2.267240441769565
1376,0.0001613209093992194,-0.0030032916873900736,2.2672663824671573
1377,0.0001613209093992194,-0.0030032925773930213,2.2673225845382965
1378,0.0001613209093992194,-0.0030032937828246885,2.267346129767152
1379,0.0001613209093992194,-0.003003295424416799,2.267335638738118
1380,0.0001613209093992194,-0.0030032973440016356,2.2672507839607734
1381,0.0001613209093992194,-0.003003298957118812,2.267107495728836
1382,0.0001613209093992194,-0.0030032999202300598,2.26702015107419
1383,0.0001613209093992194,-0.003003300499757403,2.266961833791896
1384,0.0001613209093992194,-0.003003301054242528,2.2669757857216783
1385,0.0001613209093992194,-0.0030033018446256605,2.2670130113544116
1386,0.0001613209093992194,-0.0030033030588722935,2.267107877407135
1387,0.0001613209093992194,-0.0030033048456052543,2.267272970257968
1388,0.0001613209093992194,-0.003003306922909235,2.267446743364953
1389,0.00015585233007947596,-0.0030033087871378906,2.267615312418836
1390,0.0001613209093992194,-0.0030033099550246275,2.267652287169625
1391,0.0001613209093992194,-0.0030033106261766647,2.2676618824712444
1392,0.0001613209093992194,-0.0030033111344906684,2.267637183582574
1393,0.0001613209093992194,-0.003003311680284313,2.2676191174569635
1394,0.0001613209093992194,-0.003003312352395195,2.2676339354427224
1395,0.0001613209093992194,-0.003003313254688656,2.267654569137734
1396,0.0001613209093992194,-0.003003314512147744,2.267708390379653
1397,0.0001613209093992194,-0.0030033159887827405,2.26776936120306
1398,0.0001613209093992194,-0.0030033172281378772,2.2677916374430205
1399,0.0001613209093992194,-0.0030033179710588017,2.2678124595700377
1400,0.0001613209093992194,-0.0030033184133124334,2.2677845461701414
1401,0.0001613209093992194,-0.00300331880304253,2.2677795454759226
1402,0.00015585233007947596,-0.0030033192846195098,2.267763013137731
1403,0.00015585233007947596,-0.0030033199080062548,2.2677447849860077
1404,0.00015585233007947596,-0.003003320698101185,2.2677165860838233
1405,0.00015585233007947596,-0.0030033215199945264,2.2676489877387596
1406,0.00015585233007947596,-0.0030033221379956714,2.26759267148057
1407,0.00015585233007947596,-0.0030033224977259066,2.2675244166695654
1408,0.00015585233007947596,-0.00300332275031444,2.267491305803567
1409,0.00015585233007947596,-0.0030033230680256303,2.267445836198011
1410,0.00015585233007947596,-0.0030033235636597387,2.267387424062273
1411,0.00015585233007947596,-0.003003324323580823,2.2673113838373276
1412,0.00015585233007947596,-0.0030033253303837666,2.2672264155723014
1413,0.00015585233007947596,-0.0030033262756983124,2.267180839918563
1414,0.00015585233007947596,-0.0030033269664692065,2.2671719267839925
1415,0.00015585233007947596,-0.0030033273443139576,2.2671935605975384
1416,0.00015585233007947596,-0.0030033275950003165,2.267197134925358
1417,0.00015585233007947596,-0.0030033278483841846,2.267187368597116
