Iteration,Energy,Loss Function,Bias
0,0.13578123357938934,0.12937733150985398,0.0
1,0.0038556533975408307,0.00549307670338147,0.6362561532480804
2,0.009892105167973226,-0.000126014898178512,1.4775758589919603
3,0.001560605818752097,-0.0014250664751171084,1.4574360540982012
4,0.0009368702811871609,-0.0014795962956784692,1.4607724408160367
5,0.000847118208013676,-0.0015791781662794241,1.4692946227063999
6,0.0004250760543030854,-0.0017156897251349394,1.4891297439060944
7,0.0005317813644338823,-0.00180634994587787,1.5147222582731639
8,0.00040490565210783816,-0.001829629802905129,1.5244360534759183
9,0.00048441678691187875,-0.001866698609146196,1.5377351190490307
10,0.0009374945782066521,-0.0019245677715715832,1.55264868034752
11,0.0004413161070869473,-0.0019792508301966884,1.5698424298842582
12,0.00033819565740285124,-0.00200518556370663,1.5766845808169208
13,0.00020996203389511984,-0.0020500406823476293,1.5851098599493645
14,0.00021684324241508097,-0.0021018509413268526,1.5945561599375087
15,0.00019516711059391488,-0.0021175190776890744,1.5872379141553448
16,0.00017433736460813396,-0.002143584920511869,1.587121741304545
17,0.00038154502586748687,-0.0021841673055730468,1.5868315858071542
18,0.0003100081179909972,-0.002217049675479946,1.5870221215955873
19,0.0002094370544424571,-0.0022350756468417286,1.5867200686838578
20,0.0001991118742865484,-0.002255880919972822,1.5918842728930933
21,0.00020952971095983565,-0.002271006781282222,1.5932267375577929
22,0.00030778249776279977,-0.002292316317134437,1.5967635461938208
23,0.0004070315451331375,-0.0023090750053148213,1.6002909830647771
24,0.0003783591950001128,-0.002323069212016893,1.6045615768152224
25,0.00023888975980773826,-0.0023375322452343942,1.6097143559889078
26,0.0003070203394023538,-0.00234645405507882,1.6131317232660585
27,0.0002409016320385076,-0.0023566848377031637,1.6175026317735044
28,0.000207308297276134,-0.002364453201103955,1.6226875003107895
29,0.00021042700391629257,-0.0023728365852945885,1.6288271555711327
30,0.00022691611098866451,-0.002380307564506783,1.6358281286184517
31,0.0002742946271187471,-0.0023894038589432247,1.6409301453437777
32,0.0002843431709810479,-0.002397312825967237,1.6441772143447844
33,0.00023762566719946377,-0.0024069918995232283,1.6446272365913404
34,0.000280080054451834,-0.0024122749295335632,1.6477415020513277
35,0.0002878052917022642,-0.002419730479399673,1.6496403358341767
36,0.00027896007811195785,-0.002426054639585072,1.6537943164743745
37,0.00046037632263634263,-0.0024318606940869777,1.6575065588888758
38,0.0005057328468585518,-0.002436345458588981,1.6615214846233775
39,0.00040058728344690174,-0.0024409139863972003,1.6653698586159094
40,0.00037797560537492403,-0.002444964141226449,1.6691223001453368
41,0.00041717466134543325,-0.002448572344429198,1.6722250696923173
42,0.0005100891520021546,-0.0024517127835666807,1.67587952272308
43,0.0004680451578421987,-0.0024555439293093445,1.6809806275956092
44,0.0004068016117674272,-0.0024597726804292297,1.6883373646520323
45,0.0004195094366400415,-0.0024643069453890035,1.6964386059172751
46,0.0004673932262559212,-0.00246885574113056,1.7047262256793108
47,0.00041387423003110083,-0.002473786162562084,1.7117287758869346
48,0.0004308661099020867,-0.0024781921658596274,1.7155067998318296
49,0.00030013357331161423,-0.002482897677985905,1.7164942469171955
50,0.00031670566599964223,-0.00248616431327311,1.7205412158478348
51,0.00031545359661208373,-0.0024896354075449375,1.72191396208942
52,0.00031214027656607053,-0.0024936912138236044,1.7285230557306257
53,0.0003905941979711915,-0.002497837690113878,1.7340322457914135
54,0.00038558921114387835,-0.00250044028201922,1.737909037011992
55,0.00031764204022672124,-0.002503741283641607,1.7415038967864223
56,0.0002489217905557801,-0.002506886634079196,1.7449564288383326
57,0.0002419799732115505,-0.0025098384613472463,1.7481262922787555
58,0.00023097633384357635,-0.0025119198367277123,1.751537900754383
59,0.0002464039678237837,-0.002513743629714441,1.7558865500327268
60,0.0002617910178493161,-0.0025157146853381895,1.7615898832084327
61,0.00036846436059587444,-0.0025177759604566616,1.7707274583236554
62,0.0003401949766359749,-0.0025195754567731376,1.7770786487407593
63,0.0003264196600049413,-0.00252116638294076,1.784991334867262
64,0.0003132367718305318,-0.0025232959388011584,1.7900095630970847
65,0.0003885578745503239,-0.002525455230900399,1.79552734647552
66,0.0003670444123175075,-0.0025272828207002006,1.7989878301867788
67,0.00044645475051005487,-0.0025287639559066727,1.8025779941322817
68,0.00046545151445934603,-0.0025305142740242132,1.8052581976362407
69,0.0005679989284686475,-0.002532319346988058,1.808898214122038
70,0.0004145059226088747,-0.0025341717198957207,1.8089970504622204
71,0.0004531663167802819,-0.0025355529886977217,1.8108790163737105
72,0.00044433654219544114,-0.0025367668703398794,1.808383204653538
73,0.00044433654219544114,-0.00253787061735533,1.8098524280363466
74,0.00046933940713015103,-0.0025392787346683724,1.8098826074604826
75,0.0004877695387838018,-0.0025404078486337984,1.8118500859603164
76,0.00039962231598242965,-0.0025415435222708163,1.8144123949661324
77,0.0004331664097428391,-0.0025427995436324152,1.8176668472779092
78,0.0004289649348104781,-0.0025443952679242935,1.821595523562281
79,0.00041611640353851235,-0.0025459090683779863,1.8236025947739227
80,0.00046861400804205754,-0.002547305111645176,1.8246708680451686
81,0.00041906575951132253,-0.002548537719954879,1.8243018424881527
82,0.0003815317015565977,-0.0025497607637523607,1.8238294216070272
83,0.00024146344654053564,-0.0025508569682870913,1.8234841472639067
84,0.0002478973667994635,-0.0025518903831356007,1.8227235104099202
85,0.000256532351630293,-0.0025528614777436992,1.8242061076923404
86,0.000256532351630293,-0.002553964332252086,1.8235876228118317
87,0.0002611700536339113,-0.0025551037967241124,1.8262193641824676
88,0.00023468152242860034,-0.002556289567825706,1.8261711736525499
89,0.00022865115419197794,-0.0025573560377009446,1.8277586023555856
90,0.00021648014323276006,-0.0025584721691670996,1.8278832410297374
91,0.00021648014323276006,-0.0025595235282035024,1.8289486810638362
92,0.0002611212972730883,-0.0025606421231627163,1.8296295832956146
93,0.00029021537803536356,-0.002561802952994858,1.8314123783900316
94,0.00027046978857188137,-0.002563029243066112,1.8336317342946313
95,0.0003352898159891066,-0.0025640527842608354,1.836625024009676
96,0.0003737250607095591,-0.002564878596403684,1.8391562283020977
97,0.0003379620541734317,-0.0025656263877714375,1.8422227012009404
98,0.0003379620541734317,-0.002566496598177222,1.8456788149664454
99,0.00041607490086574637,-0.0025674754245434165,1.8504796280828728
100,0.0003909335089711272,-0.0025684488241671014,1.8546396038754662
101,0.0003997428555587429,-0.0025692263911881717,1.8582864336179794
102,0.0004199016824906827,-0.0025698838052412415,1.8597562998056316
103,0.00034802315694289324,-0.0025704825102074945,1.8620516423664393
104,0.0003280222724142795,-0.0025711763998260005,1.8628697119337616
105,0.0002895137452691073,-0.0025719458499465476,1.8651919048099694
106,0.0002777135428534084,-0.002572783348926353,1.8662947043733777
107,0.000264769752565602,-0.002573450454210126,1.867598962595406
108,0.0002474125638833115,-0.0025740652551858663,1.8678997214193724
109,0.00023368785711882082,-0.002574747717634333,1.868368051627976
110,0.00023368785711882082,-0.002575679957421336,1.868239348528837
111,0.000300418671186321,-0.002576702713360539,1.8680649608608535
112,0.00032921795133240215,-0.002577667683624303,1.867377291869608
113,0.0003359679758991902,-0.002578439206155511,1.8677313117934577
114,0.0003247740155240059,-0.002579206087852683,1.8679179302473121
115,0.0003145605280696901,-0.002580067903011273,1.8688833885469358
116,0.0002983058092312424,-0.0025808643287624365,1.8684814341776756
117,0.0002983058092312424,-0.0025814413885065454,1.8694281001201294
118,0.00031814993309852156,-0.002581949364731306,1.8685231180711412
119,0.00032675065440649097,-0.002582451462749872,1.869305991531572
120,0.00033871979353990503,-0.0025830444462323792,1.8696750160189646
121,0.0003187104557344043,-0.0025835267011915667,1.8705623649497127
122,0.0003187104557344043,-0.0025840140615464875,1.8714041539450077
123,0.0003187104557344043,-0.0025846535298660296,1.8725424529521582
124,0.0003533068921655317,-0.0025856091931409893,1.8740192534409508
125,0.0003490797310128787,-0.002586784516969127,1.875497353317508
126,0.00036080349075052164,-0.0025879717594824796,1.8757015860006545
127,0.00036080349075052164,-0.0025896231707952687,1.8763546103911253
128,0.00039015418632621214,-0.0025908664991067137,1.8772885721366974
129,0.00037709483847085093,-0.002592233282568702,1.8767545800641479
130,0.0003567786099841736,-0.002593055352864885,1.8782160656076357
131,0.0003567786099841736,-0.0025938045363405227,1.8767435870551183
132,0.0003567786099841736,-0.0025943901850981384,1.8759036287574318
133,0.0003567786099841736,-0.0025951520573676266,1.8748702562113926
134,0.0003567786099841736,-0.0025958267758690846,1.8739815404940492
135,0.00038029790650539417,-0.002596535655577829,1.8735515756992318
136,0.00038029790650539417,-0.0025971177569681127,1.8737415622703453
137,0.00038029790650539417,-0.002597696744203014,1.8742578377984456
138,0.0003850970671394342,-0.0025982272764370007,1.8746251370982747
139,0.0003850970671394342,-0.0025987768788505714,1.8744852295322052
140,0.0003850970671394342,-0.0025993903558965527,1.8736496781326468
141,0.00040685616592436386,-0.00260007412664159,1.8720542695458893
142,0.00037662341278324387,-0.0026007560490776127,1.8702108522302627
143,0.00037662341278324387,-0.0026013923693355384,1.868649651954992
144,0.00036871830243121573,-0.0026020396492176636,1.8676710749304533
145,0.00034864740048081957,-0.0026028121995763398,1.867164363270408
146,0.0003862127403710415,-0.0026036817084278945,1.867445499699952
147,0.0003862127403710415,-0.0026044750685723793,1.8684177584496713
148,0.00038118153435876917,-0.0026051047691650875,1.8696412268197493
149,0.0004026742407482915,-0.002605657828718301,1.8705318151822539
150,0.00038046428500089865,-0.002606192274036341,1.8712673647825278
151,0.00038046428500089865,-0.0026067063098623214,1.871516038561464
152,0.00038046428500089865,-0.0026071859573818246,1.871639714134022
153,0.0003690144860444285,-0.0026076905154009985,1.8713175814778156
154,0.00037630625571318465,-0.00260826219458214,1.8710929486893082
155,0.00037630625571318465,-0.0026088395287989946,1.8705823941744464
156,0.00039192781185982706,-0.0026093207451673007,1.8706045411277432
157,0.00039192781185982706,-0.002609728609221898,1.8704639300031674
158,0.0003501428604177712,-0.002610110327052294,1.870850674945942
159,0.0003501428604177712,-0.002610512462888654,1.871002919452458
160,0.0003501428604177712,-0.0026109207210292603,1.8714955091448378
161,0.0003501428604177712,-0.0026113319991817093,1.8716456305098614
162,0.0003693005501241555,-0.0026117173221759534,1.8718090406713586
163,0.0003693005501241555,-0.0026120977030787596,1.8718347957656267
164,0.00039109239643710835,-0.002612471402120001,1.8719675714307078
165,0.00035311257905630257,-0.002612879358004758,1.872524749141683
166,0.00035311257905630257,-0.002613307249296812,1.8734463982251044
167,0.00039711479510159747,-0.0026137217621336173,1.874917373229965
168,0.0004289927581703895,-0.00261406847532219,1.8763168166604312
169,0.0004289927581703895,-0.002614403512292936,1.8776008878376513
170,0.0004148527959355564,-0.0026147866989860292,1.878925429699766
171,0.0004148527959355564,-0.0026152268583637516,1.8799473166992033
172,0.0003986914739389307,-0.0026156169191258387,1.8808544263283618
173,0.00040271889264629145,-0.0026159463818673364,1.8810064765585501
174,0.00040271889264629145,-0.002616268670784094,1.8814427886904646
175,0.00040271889264629145,-0.00261666574791061,1.881576128357612
176,0.00042546382249087137,-0.0026170811387348316,1.8824225186996169
177,0.000414412337238194,-0.002617429272123059,1.8829312354864858
178,0.000414412337238194,-0.0026177058917053434,1.8836765526190267
179,0.0003631329345713822,-0.0026180194114684033,1.8840900391789688
180,0.0003606457261290311,-0.002618397065494993,1.8847018940739981
181,0.00037019941033068716,-0.002618756944864075,1.8850463348184165
182,0.00037019941033068716,-0.0026190211378691224,1.8852831751002181
183,0.00037019941033068716,-0.0026192457291842426,1.8852964496485314
184,0.00037019941033068716,-0.0026195234504271486,1.8853386897244944
185,0.00037019941033068716,-0.0026198971232690438,1.8854534723355376
186,0.0003524479662374225,-0.002620275402976591,1.8856996345078738
187,0.0003524479662374225,-0.002620583929091642,1.8859275403827003
188,0.00033663716744960234,-0.0026208710052843007,1.8861053250238282
189,0.00033663716744960234,-0.002621224635997036,1.886281214709357
190,0.0003915062732696047,-0.0026216174981008606,1.8864736784681704
191,0.00038303681332100593,-0.00262193638354596,1.8865765117607516
192,0.00041382110679932056,-0.0026221621894294512,1.886651301704641
193,0.00043685795266714864,-0.002622384559059518,1.886739483332361
194,0.00042597830851088007,-0.002622684541787049,1.8870732337778422
195,0.00042178236468628903,-0.00262303718042434,1.8876115527358173
196,0.00043271752757940475,-0.002623341972333207,1.8884172496512757
197,0.0004161335615391772,-0.002623582689611826,1.8890234746866559
198,0.0004161335615391772,-0.0026238285682882796,1.8898951189805635
199,0.0004256485358269591,-0.002624119929990124,1.8907358247467556
200,0.00042385885685111506,-0.002624389163143193,1.8918050658086956
201,0.0003608042946671103,-0.0026246035587649532,1.8922219010664898
202,0.0003394125991590227,-0.002624800596929059,1.8927262820523965
203,0.000325536640897442,-0.002625056325458936,1.8929614486788755
204,0.0003144501120260229,-0.0026253502441947736,1.8935684637767036
205,0.0003144501120260229,-0.002625610149964467,1.893868978165295
206,0.0003029061948569657,-0.0026258003524612396,1.8942763082770013
207,0.00029287208443750317,-0.002626007419624104,1.8943562680066226
208,0.00029287208443750317,-0.002626284767497793,1.8945917077369976
209,0.0002807187216302334,-0.0026265886914344115,1.8944718108048333
210,0.00029056916309676755,-0.002626822354800954,1.8945684620484018
211,0.00029056916309676755,-0.0026270052438458094,1.894407470391143
212,0.00029056916309676755,-0.002627211705651746,1.8947089800542516
213,0.00028488012575967296,-0.0026274863923186997,1.8950367754661184
214,0.0003016754449996383,-0.002627755918865141,1.895956810777563
215,0.0002953563917241236,-0.0026279447811523504,1.896558658030813
216,0.0002953563917241236,-0.0026280867946056018,1.8971806583114845
217,0.0002953563917241236,-0.0026282621778500894,1.897722508530624
218,0.000288701870052541,-0.0026284889208110754,1.8984276447422945
219,0.0003196187675726344,-0.0026286960766566288,1.8989721992155555
220,0.0003196187675726344,-0.002628847503215618,1.899341566890096
221,0.0003196187675726344,-0.0026289969020221846,1.8996921716024053
222,0.0003238216698032885,-0.002629230273835681,1.9003486568148553
223,0.00035142914300490235,-0.0026295706061280535,1.901467621782201
224,0.0003888608911688279,-0.0026299142534675643,1.9024191534460542
225,0.0003991249298726612,-0.002630213943361406,1.903223898974795
226,0.00038641487223500375,-0.0026304138715934652,1.9036240752795677
227,0.000373821313885545,-0.0026306640361873817,1.904012934071029
228,0.00034891870673197414,-0.0026310379563230357,1.9037997109275664
229,0.00033472013894716757,-0.0026314472597305768,1.903991777286933
230,0.0004496168692656322,-0.0026317530593880116,1.9027674842691151
231,0.0004496168692656322,-0.0026320114064794895,1.902928286129566
232,0.0005165288817802088,-0.002632401276057829,1.9032434520472958
233,0.00039640546536106653,-0.0026328737502056927,1.903812305038485
234,0.00039953700129407384,-0.002633328229414508,1.9044580490447334
235,0.0003581840422759614,-0.002633698541985549,1.904973703508548
236,0.0003581840422759614,-0.002633917756766202,1.905106866843362
237,0.0003581840422759614,-0.002634114911840629,1.9051019371015145
238,0.0004087897879602238,-0.0026343723903492528,1.9049785254955651
239,0.0004031202414212156,-0.0026345866504704067,1.905032135997683
240,0.00041620566898006097,-0.002634753254647662,1.9049847034624872
241,0.00041620566898006097,-0.002634896554989071,1.9050974241628822
242,0.00042039192552327493,-0.0026350880235539477,1.905247145382981
243,0.00042039192552327493,-0.002635321208759836,1.9054690172471238
244,0.0004071936378321288,-0.0026355645613194987,1.9056287856840841
245,0.0004071936378321288,-0.0026357811259245974,1.9057824555082357
246,0.00044405026848170776,-0.002636008240342514,1.9059227481753866
247,0.0004350494186974034,-0.002636288533911395,1.9062924440183628
248,0.00036133195260346155,-0.002636612680800019,1.9069634083795888
249,0.00033749607284694707,-0.0026369048741318587,1.9079587363198887
250,0.0003649934086617719,-0.0026371559772746796,1.9089425806709504
251,0.0003337033319708047,-0.002637428619772579,1.9101108878874224
252,0.00023816336572121227,-0.0026377922194389222,1.9116006390413045
253,0.00024493874140671563,-0.0026382457316085355,1.9134711290138002
254,0.00024046436000572336,-0.0026386686292971325,1.9148349413731283
255,0.0002576132234388251,-0.002639001678167182,1.915822946092815
256,0.0002666443665251346,-0.002639302610234981,1.9164346731251711
257,0.0002421584540171535,-0.0026396968131975197,1.917668039136584
258,0.0002421584540171535,-0.002640165466604599,1.9191411227082131
259,0.00026568141590363904,-0.00264055944653617,1.9210602724169934
260,0.00028418584323706676,-0.0026408424050409756,1.9216260922150954
261,0.0002896840032581619,-0.002641085093312403,1.9230317179733631
262,0.0003242514742443947,-0.0026413804335321304,1.9230461791759068
263,0.0003242514742443947,-0.0026417606934460093,1.9240524671389792
264,0.0003242514742443947,-0.002642206977159464,1.9251249729400637
265,0.00036379420337494337,-0.0026425007012098062,1.9254797262938217
266,0.0003332198030179068,-0.0026428167233556706,1.9262123728788203
267,0.00034261066861157884,-0.0026431881256079623,1.9264918155439896
268,0.00033536732783437124,-0.002643637175711416,1.9272019266136493
269,0.00031296531312249935,-0.002644145626633205,1.9270427889346495
270,0.0003404568917492758,-0.0026446662756838195,1.9274477444663893
271,0.00026274641034733457,-0.0026451700429554422,1.9264344227665329
272,0.00026274641034733457,-0.0026455983520393593,1.9265585959207436
273,0.00032659801581759695,-0.0026460656895092955,1.9262236994136064
274,0.0003155019740923703,-0.0026465478877934455,1.9264054258259233
275,0.0003296637920370356,-0.002647235926958736,1.9274683415756373
276,0.00033577503681070717,-0.002647905214464731,1.9283652695623617
277,0.00033577503681070717,-0.002648502623759403,1.9296044755835164
278,0.00030659919071259015,-0.002648944498499998,1.9303259295943604
279,0.00027566334530303887,-0.0026494389183102504,1.930956568800103
280,0.0003072360880523916,-0.002650169202489596,1.932089071267768
281,0.00028295863106761785,-0.002651167280501937,1.9321144210400933
282,0.00028295863106761785,-0.002652112041418296,1.932428381711851
283,0.0002851310226216971,-0.002652979790978726,1.9307469054629887
284,0.00031073035984895554,-0.0026535440709829013,1.9317897356963838
285,0.00031881202384218053,-0.0026544179311796517,1.932075249572837
286,0.00035844857638199,-0.0026554294219328055,1.932565402021451
287,0.00030460238988837295,-0.002656022267392207,1.9321743648400385
288,0.00022385113786603042,-0.0026564775759905642,1.9316674725706224
289,0.0002187160254867436,-0.0026568201790044474,1.931573017192337
290,0.0002187160254867436,-0.0026572275599382423,1.931348974962126
291,0.00022591271296210666,-0.00265775145376686,1.9321705667210654
292,0.00022591271296210666,-0.0026582626181137236,1.9327031291193175
293,0.0002423996977617209,-0.0026586630165699445,1.9334295972577091
294,0.0002463933878129425,-0.0026590507401825308,1.933552474838021
295,0.00023457735700119784,-0.002659584944215574,1.9333529147630675
296,0.00021976472440317802,-0.0026602763364446877,1.9325323007030166
297,0.0001891294578614526,-0.0026612142229265477,1.9309259729339041
298,0.0001844471215524277,-0.002662093638415953,1.9304833065569404
299,0.00017879963393182752,-0.0026627206295274796,1.929777291169373
300,0.00023748026224640939,-0.0026632366688227474,1.930731025559464
301,0.0002205783288836008,-0.0026639187063526404,1.9313800416496676
302,0.00023130622724056724,-0.002664786586005649,1.9324585501562592
303,0.00027008715365354547,-0.0026654998205971362,1.932886887582071
304,0.0002621865560563493,-0.0026659386497944375,1.932131090995732
305,0.0002739972665407421,-0.002666345918022479,1.9310411007259942
306,0.00017426937380866242,-0.00266683975783659,1.9297018187586454
307,0.00020472925909216898,-0.002667549834039728,1.9282959348637816
308,0.0001893694186599132,-0.00266842170258121,1.928152876222032
309,0.00017309258503271193,-0.0026694306164334568,1.9297499902012372
310,0.00019296352889688884,-0.0026699420552998222,1.9316735456249738
311,0.00022709189475032706,-0.002670288718653585,1.9334252144565425
312,0.00022709189475032706,-0.002670708277754028,1.9348420291572488
313,0.0001917227894160678,-0.002671347425128128,1.9367963351866968
314,0.00022273467279258855,-0.002672254735591002,1.9386455847333428
315,0.00027798038665001793,-0.0026730298044002694,1.9398088045913313
316,0.0002461127526945666,-0.002673523929127837,1.9412779769914157
317,0.00021574097627100825,-0.0026739506471581474,1.9412228375012741
318,0.00021574097627100825,-0.002674476351392558,1.9422538646914436
319,0.00023813797368434504,-0.0026753028541201523,1.9428373626240942
320,0.0002671661952064467,-0.0026763524234458816,1.943081608902118
321,0.00021648904931549057,-0.002677131448778253,1.9421319846187304
322,0.0002241807922361363,-0.0026778158238656524,1.9425566435131396
323,0.0002241807922361363,-0.0026781029320929782,1.9418603919043844
324,0.0002241807922361363,-0.002678499176747439,1.941993251891721
325,0.0002006849292531138,-0.002679089270296435,1.9424430148807195
326,0.00024793886538975943,-0.0026797195354009654,1.9434113712074088
327,0.000290852093698306,-0.002680182186818944,1.9445106453488392
328,0.000290852093698306,-0.0026804572180649023,1.9448177137078466
329,0.000290852093698306,-0.0026807017554819714,1.9447836216335144
330,0.0003059509439172227,-0.0026810404627257605,1.944087908612183
331,0.00025823445352064626,-0.002681505709872606,1.9425928194115996
332,0.00022920878642135662,-0.0026819583716498553,1.9407972480731557
333,0.00022920878642135662,-0.0026822923151517243,1.9392738660675988
334,0.00022920878642135662,-0.0026825196719394125,1.9386483619960164
335,0.0002487387651701896,-0.002682727884240465,1.9381201058251476
336,0.00023776220900635506,-0.0026830007147833936,1.9378731242082898
337,0.0002510290615794934,-0.0026833556701220665,1.937334095374915
338,0.0002884256523904426,-0.0026837156188073545,1.9370515936492922
339,0.00029077839574882894,-0.0026840096917999184,1.9366084851224135
340,0.00031334379113688105,-0.0026842551493977953,1.9366442950161677
341,0.00031334379113688105,-0.002684532328640328,1.9365093738358727
342,0.0003279660202341167,-0.0026848701217947776,1.9366481185450513
343,0.00030181687317347417,-0.00268523391172472,1.9364641078578084
344,0.0002802971126065214,-0.002685548042510844,1.936442487452137
345,0.0002459719210255352,-0.0026857799553807616,1.9364164830907356
346,0.0002459719210255352,-0.0026859692290842996,1.936691491317055
347,0.0002459719210255352,-0.0026862362264204187,1.9372651659706532
348,0.00027769435511537974,-0.0026866421077958993,1.938434788208513
349,0.0002488272631148572,-0.0026871342945328927,1.9401901234608554
350,0.0002488272631148572,-0.0026875368185756603,1.941823870116016
351,0.0002798774556664013,-0.0026877965306227177,1.9427746396276089
352,0.0002709875330737115,-0.0026879943954485207,1.9431128179513164
353,0.00027341645002475884,-0.002688256482393574,1.9431066194293696
354,0.0002670182137163004,-0.0026886102548590563,1.9430621620534134
355,0.0002670182137163004,-0.002688973172736272,1.9425928833109805
356,0.0002804896544144058,-0.0026892105456586064,1.9427898542093989
357,0.00026887903025321137,-0.00268935962070589,1.9426129008828341
358,0.00023938041574334213,-0.002689509172441512,1.943042062517278
359,0.00024594471293868243,-0.002689738388993701,1.9433522653075257
360,0.0002649210284325479,-0.002690039214058497,1.94428970190582
361,0.00034758427245983156,-0.00269031483330927,1.9447198166488329
362,0.00034758427245983156,-0.002690535646246394,1.9454398153709194
363,0.0003221988488269089,-0.0026907287872807092,1.9457419327247298
364,0.00031196099804256246,-0.0026909637015978412,1.9467302493537584
365,0.00025561961619765216,-0.0026913030748411527,1.9480060662277152
366,0.00025561961619765216,-0.0026916448521250476,1.9496390735195688
367,0.00019866651975076002,-0.0026918904822143316,1.9505915572114736
368,0.00019866651975076002,-0.0026920284205454795,1.951245528600146
369,0.00025314085812966504,-0.0026921553031104845,1.9513694367473882
370,0.00025314085812966504,-0.0026923479242132483,1.9520368339491836
371,0.00023193785186714414,-0.002692637013444625,1.9523815159320312
372,0.00020889514640477829,-0.0026929810149598278,1.9534869593650306
373,0.00020889514640477829,-0.0026931951911375795,1.9536017214425394
374,0.00017731292360055953,-0.00269332138631267,1.9540264907019946
375,0.00018996801271962702,-0.0026934427534934064,1.954214568026889
376,0.00018996801271962702,-0.002693631578600859,1.9550460893814483
377,0.0001995733423381804,-0.002693896309218583,1.956224343531518
378,0.0001995733423381804,-0.002694106008407985,1.9574741554479067
379,0.0001995733423381804,-0.0026942416244404056,1.9578414045757608
380,0.00020093673810399026,-0.002694342270129396,1.9579361533617463
381,0.00019268944377185884,-0.00269448326822182,1.9576353960677682
382,0.00020682654434995307,-0.0026946949198237663,1.9572660354076616
383,0.00020682654434995307,-0.002694940511376948,1.956827028561947
384,0.00021591681063045732,-0.0026951184150302847,1.956707937248145
385,0.00021591681063045732,-0.002695225680871098,1.9568677973334268
386,0.00021591681063045732,-0.002695321379029623,1.9571363686001613
387,0.000232729932545386,-0.002695457559967413,1.9576401281216091
388,0.000232729932545386,-0.0026956321669823974,1.9581230072719322
389,0.000232729932545386,-0.002695794782455215,1.9585590710618754
390,0.000232729932545386,-0.0026959045451665775,1.9586427978739565
391,0.000232729932545386,-0.002695990376494067,1.9588344546106213
392,0.00024082461628087534,-0.002696105664995575,1.9591235072986688
393,0.00024082461628087534,-0.00269627778153918,1.9599985326409364
394,0.00024082461628087534,-0.0026964676740682046,1.961226799951018
395,0.00025422239250886706,-0.0026966028071702276,1.9624381179910813
396,0.00025422239250886706,-0.002696685339592409,1.9630762812563758
397,0.00025422239250886706,-0.002696767958603011,1.9636140342724853
398,0.00025422239250886706,-0.0026968962646305677,1.964188776586596
399,0.0002865615086215263,-0.0026970792872026196,1.9649637605405978
400,0.0002765473192317304,-0.002697247168766729,1.9654573866287528
401,0.0002765473192317304,-0.002697362540960714,1.965686008388406
402,0.00027135277265411196,-0.0026974454910462333,1.9656351142995894
403,0.00024082461628087534,-0.002697548060287557,1.9656445178120596
404,0.00022741716500844261,-0.0026976968558469197,1.965721295105296
405,0.00022741716500844261,-0.0026978679296859624,1.966114587499892
406,0.00022741716500844261,-0.0026980063653173495,1.966551107882961
407,0.00022741716500844261,-0.002698102614588381,1.9669651243253774
408,0.00022741716500844261,-0.0026982004766698832,1.9672227178542145
409,0.00022741716500844261,-0.00269834234612441,1.9675890197133847
410,0.00022741716500844261,-0.0026985294235889225,1.967748915134172
411,0.00021912069891542353,-0.0026987014057648405,1.9678892639446022
412,0.00024389930158759155,-0.0026988117109793012,1.9675555093366004
413,0.00024389930158759155,-0.0026988841342170966,1.9675152300626249
414,0.00024389930158759155,-0.0026989698278140004,1.967191865706739
415,0.00023586500148249396,-0.002699104911763537,1.967189422244093
416,0.0002657017381860194,-0.0026993103992482012,1.9670233044207137
417,0.0002657017381860194,-0.0026995387091336,1.9673674509735084
418,0.0002657017381860194,-0.0026997045547182867,1.9675763110900955
419,0.0002469472920235923,-0.00269984616369568,1.9680539511011135
420,0.00023844910012616523,-0.002700037534249642,1.968518711991229
421,0.00021210781121627697,-0.002700314650307824,1.969421134320582
422,0.00020480816361405658,-0.002700664406229441,1.970051563489458
423,0.00021210781121627697,-0.0027009329836565955,1.9705213316989953
424,0.00021210781121627697,-0.002701074677530108,1.9698969782061204
425,0.00024369039775734726,-0.002701162723088951,1.9701087411333928
426,0.00024293230544276067,-0.0027012889901691824,1.9694346963481457
427,0.00024293230544276067,-0.002701490120478824,1.9689940788329645
428,0.00024293230544276067,-0.002701722274286434,1.9692756767623927
429,0.00024293230544276067,-0.002701803868211267,1.9696812665002528
430,0.00021170634564863128,-0.0027018811962163103,1.9705830963868303
431,0.00021170634564863128,-0.0027019710399747987,1.9713490370650524
432,0.00021170634564863128,-0.0027021133129256623,1.972421162084286
433,0.0002520957859052645,-0.002702318427406887,1.9735883179122764
434,0.0002520957859052645,-0.0027024759643851396,1.9740474750883263
435,0.0002576386395957403,-0.002702580156958417,1.9738542375926733
436,0.0002576386395957403,-0.0027026591984882706,1.9734718173545318
437,0.0002576386395957403,-0.0027027654521392724,1.9732280515552445
438,0.0002576386395957403,-0.0027029278556325574,1.9733349962532554
439,0.0002479510491386908,-0.002703132167632985,1.9742587076196636
440,0.0002479510491386908,-0.002703297882544824,1.9755566764424528
441,0.0002479510491386908,-0.0027033975552922503,1.9766880776529083
442,0.00024266337652534986,-0.002703476848481887,1.9773835268824567
443,0.0002520957859052645,-0.0027035936985793166,1.9782357663486807
444,0.0002737500024218025,-0.0027037706494557143,1.979086445093324
445,0.0002737500024218025,-0.0027039715693896226,1.9799283724650583
446,0.00025698529316649146,-0.002704111916632488,1.980102036690666
447,0.00026485198072381225,-0.002704192963463172,1.9801506791123158
448,0.00026485198072381225,-0.0027042677788358003,1.9801418453522608
449,0.00026485198072381225,-0.002704383372209953,1.9805390393551692
450,0.00026485198072381225,-0.002704551555183836,1.9813317297627813
451,0.00025698529316649146,-0.0027047130716818294,1.9824721332782391
452,0.00025698529316649146,-0.002704815722738629,1.9831453728015045
453,0.00025698529316649146,-0.0027048812419140597,1.9834667006778608
454,0.0002461326139566606,-0.0027049605569572713,1.9836921819973259
455,0.0002461326139566606,-0.002705084654906773,1.983977840622971
456,0.00024403197545741688,-0.0027052596493460507,1.9845661164413604
457,0.00024403197545741688,-0.002705396562595082,1.9850528125598499
458,0.0002921628569452641,-0.0027054899433257115,1.985614925527255
459,0.0002921628569452641,-0.0027055631641865114,1.98591557956726
460,0.0002921628569452641,-0.002705668380518038,1.9865235197824873
461,0.0003041628645492165,-0.0027058267885681987,1.9871522555178036
462,0.0003041628645492165,-0.0027060033134835666,1.9880350636997302
463,0.0003041628645492165,-0.0027061321336419152,1.9882988730227193
464,0.0003041628645492165,-0.002706213401105248,1.9885358692517918
465,0.0003041628645492165,-0.002706296906740051,1.9885414509760788
466,0.0003041628645492165,-0.002706425990044246,1.9889653794779951
467,0.0002697770184255193,-0.002706611458572122,1.9896477165655064
468,0.0002758048354334361,-0.0027067883607850844,1.9907916406542467
469,0.0002758048354334361,-0.002706900231135127,1.9916069745867007
470,0.0002758048354334361,-0.002706963879504673,1.9920538209831016
471,0.0002758048354334361,-0.0027070287494524543,1.9925414394898342
472,0.0002697770184255193,-0.0027071291616099415,1.9929135817755526
473,0.0002758048354334361,-0.002707280210473835,1.9940193412833933
474,0.00027548748103902143,-0.002707440593428006,1.9948226374946354
475,0.00027548748103902143,-0.002707534405800049,1.9958715717899247
476,0.00027548748103902143,-0.0027075972614197157,1.9959349752990703
477,0.00028279996536865337,-0.0027076604003121235,1.996484665869898
478,0.00025096351968977335,-0.002707760841037634,1.9968355009103644
479,0.00025096351968977335,-0.0027079082821125527,1.9976085648321062
480,0.00025096351968977335,-0.0027080289437373035,1.9978884008569058
481,0.00025096351968977335,-0.002708096037402952,1.997976671510239
482,0.0002608830117114832,-0.002708141019474527,1.9976659315448255
483,0.0002608830117114832,-0.002708193729007961,1.9974613844232247
484,0.0002608830117114832,-0.0027082777678556396,1.996982336407048
485,0.0002551074780582901,-0.002708402688093026,1.9965507233353508
486,0.00022823680891679687,-0.0027085132277624583,1.9960972287933207
487,0.00023332059670047903,-0.0027085755770307257,1.9961337677317577
488,0.00022680230771242432,-0.002708617977563647,1.9961959926932509
489,0.00023181159084599245,-0.0027086660202689547,1.9963165600355948
490,0.00023181159084599245,-0.0027087397822473484,1.9963235987869854
491,0.00023849949115538064,-0.002708834179261066,1.9959291998580888
492,0.00023849949115538064,-0.002708898395527458,1.9954540434901316
493,0.00023849949115538064,-0.00270893478835241,1.994851414153843
494,0.00023849949115538064,-0.0027089637287271355,1.9945572354757537
495,0.00023849949115538064,-0.0027090095568206725,1.9939972051381565
496,0.00023849949115538064,-0.0027090804299307702,1.9933354062673074
497,0.00023849949115538064,-0.0027091651677720865,1.9923663055895333
498,0.00022994229548667773,-0.0027092180918194745,1.9919360654781486
499,0.00022994229548667773,-0.0027092500204731313,1.9917440776204298
500,0.00022994229548667773,-0.002709276116267373,1.9917561229169127
501,0.0002250271458113754,-0.0027093171966166276,1.9916661213338354
502,0.0002250271458113754,-0.0027093785752098946,1.9914591600191385
503,0.0002250271458113754,-0.0027094377160276216,1.9910723611726044
504,0.0002250271458113754,-0.0027094719292023828,1.990795554094802
505,0.0002250271458113754,-0.002709491421630167,1.9907304146558684
506,0.0002250271458113754,-0.0027095121394011754,1.9907355651251575
507,0.0002250271458113754,-0.0027095455373594025,1.9908944473355639
508,0.0002250271458113754,-0.002709596822825626,1.991109016462677
509,0.00022358048858626834,-0.002709649746670113,1.9914908848102317
510,0.00020198468715371687,-0.0027096766313523223,1.991539654429044
511,0.00020198468715371687,-0.0027096933316090605,1.9916339274649726
512,0.00020198468715371687,-0.0027097091832248977,1.9915707053383518
513,0.00020198468715371687,-0.0027097349241511936,1.9916746303111943
514,0.00020198468715371687,-0.0027097752813808468,1.9918336669310865
515,0.00020198468715371687,-0.0027098223683803715,1.9923428882090348
516,0.00020198468715371687,-0.0027098466638711904,1.9926776718395725
517,0.00020198468715371687,-0.00270986341478539,1.9930237307952068
518,0.00020198468715371687,-0.0027098780707398994,1.9932404567733752
519,0.00020198468715371687,-0.0027099020644749377,1.9935604648536907
520,0.00020198468715371687,-0.002709940365858103,1.9939942530636634
521,0.00019682552028043546,-0.0027099917703396624,1.9946208546250381
522,0.00021140982276000303,-0.002710021678264012,1.9948517519634799
523,0.00019682552028043546,-0.0027100426366270087,1.9948646447376739
524,0.00019058339158818367,-0.0027100570849783634,1.994796749430941
525,0.00019058339158818367,-0.0027100799036469505,1.9947463292714223
526,0.00019058339158818367,-0.002710114981645342,1.9947984471548625
527,0.00019058339158818367,-0.0027101566424089754,1.9950616781733468
528,0.00019058339158818367,-0.002710185246585185,1.9953869767427763
529,0.00019058339158818367,-0.0027102025274620403,1.9956483693558256
530,0.0002042451458132671,-0.0027102170035235413,1.9957980222443126
531,0.0002042451458132671,-0.0027102396416317683,1.9959585675820315
532,0.0002042451458132671,-0.0027102739577682345,1.9960884247355704
533,0.000212045405817684,-0.0027103121855942846,1.9961912599988934
534,0.000212045405817684,-0.0027103389574964255,1.9961881646976576
535,0.00020519696444744025,-0.002710355953875256,1.9962094538967847
536,0.00020519696444744025,-0.0027103724659088752,1.9962351609034
537,0.00021243191401860116,-0.002710397887075019,1.996376256351036
538,0.00021243191401860116,-0.0027104325288322536,1.9965746163160256
539,0.00021243191401860116,-0.0027104641216636454,1.9968465931552575
540,0.00021669262050245388,-0.0027104841641977322,1.9969504928755843
541,0.00021224399401377172,-0.0027104978586627838,1.997046384586571
542,0.00021224399401377172,-0.002710515999993442,1.9970975052679247
543,0.00021224399401377172,-0.002710545028221836,1.9973108581706467
544,0.00021833493304273396,-0.002710589206261517,1.9976991554190175
545,0.00021833493304273396,-0.0027106337793871334,1.998365712952477
546,0.00021833493304273396,-0.002710658333826385,1.998781735150501
547,0.00021833493304273396,-0.0027106736155083364,1.9990821679239412
548,0.00021833493304273396,-0.002710688445299823,1.999266385685026
549,0.00021651089820456427,-0.0027107122030036795,1.9995661809006278
550,0.00018341683397352283,-0.0027107484663429146,1.999940124461716
551,0.00016993116796215372,-0.002710786247962717,2.0004028569952554
552,0.00016993116796215372,-0.0027108073687274886,2.0005133641769492
553,0.0001711203045836769,-0.002710819762978898,2.000567094361467
554,0.0001711203045836769,-0.0027108308136652107,2.0005325857122673
555,0.00019301893692925262,-0.0027108488975570097,2.0006252730765817
556,0.00019301893692925262,-0.002710878345122086,2.000877237323443
557,0.00019301893692925262,-0.0027109202924607482,2.0014915248823266
558,0.0002152362375559752,-0.002710946968059549,2.0020961291808796
559,0.0002152362375559752,-0.0027109618144108625,2.0024606889680987
560,0.00021884190637056178,-0.002710972542460911,2.0026763629972297
561,0.00021884190637056178,-0.002710986955865145,2.0028683931600946
562,0.00021884190637056178,-0.002711009076105121,2.0031485019626825
563,0.00021884190637056178,-0.002711035252827622,2.0034508533501088
564,0.00021884190637056178,-0.0027110519935864175,2.0036340122983933
565,0.00021884190637056178,-0.0027110610906262086,2.0036413502610793
566,0.00021884190637056178,-0.002711069017476689,2.0036183369280205
567,0.0002606241711641098,-0.0027110818764132507,2.003536507177174
568,0.00023215623323666812,-0.00271110236006648,2.0034333407148956
569,0.00023215623323666812,-0.002711130067107146,2.0032434675124295
570,0.00023215623323666812,-0.002711145938622678,2.003169029118706
571,0.00023215623323666812,-0.002711155606719072,2.0031280786432206
572,0.00023215623323666812,-0.002711161975348151,2.003142971412037
573,0.00023215623323666812,-0.0027111722519487626,2.003143790848248
574,0.00023215623323666812,-0.002711188621619815,2.0031575254098435
575,0.00023215623323666812,-0.002711211551053345,2.0031358254012552
576,0.00023215623323666812,-0.0027112263843095735,2.0031246106998646
577,0.00023215623323666812,-0.0027112359661050564,2.003091620738276
578,0.00023215623323666812,-0.0027112428278365987,2.003095365328654
579,0.00023215623323666812,-0.0027112536762334874,2.0030968908373605
580,0.00023215623323666812,-0.0027112703976786227,2.0031417245460745
581,0.00023215623323666812,-0.0027112899728001954,2.0031934962105327
582,0.00021601921227843216,-0.002711301906683457,2.003261015691373
583,0.00021601921227843216,-0.002711308633289739,2.003287036792354
584,0.00021601921227843216,-0.002711314636254286,2.003346306949405
585,0.00021601921227843216,-0.0027113244825023677,2.0034261861655924
586,0.00021601921227843216,-0.0027113403123654764,2.0036052482401425
587,0.00021601921227843216,-0.0027113620490033163,2.0038852940071035
588,0.00021601921227843216,-0.0027113742440609463,2.004077627117732
589,0.00021601921227843216,-0.002711381834884299,2.0041374321729393
590,0.00021601921227843216,-0.0027113869657683187,2.0041745389201377
591,0.00021601921227843216,-0.0027113951700475556,2.004184919624192
592,0.00021601921227843216,-0.0027114080566009633,2.0042538276163677
593,0.00021601921227843216,-0.0027114247465442197,2.004335791416501
594,0.00021601921227843216,-0.0027114349666373487,2.0044321986135345
595,0.00021601921227843216,-0.0027114414952095745,2.004443862240481
596,0.00021601921227843216,-0.002711446892174865,2.004450566718665
597,0.00021601921227843216,-0.002711455625855897,2.004382318141785
598,0.00021601921227843216,-0.0027114693649243106,2.004258338722111
599,0.00024003943008174346,-0.002711486378154551,2.003980759764893
600,0.00024003943008174346,-0.002711495820815893,2.003802543730341
601,0.00021601921227843216,-0.002711501652632279,2.003670747277989
602,0.00021601921227843216,-0.002711506152865986,2.003612624732499
603,0.00021601921227843216,-0.0027115135435360808,2.003512479192908
604,0.00021601921227843216,-0.002711525539416593,2.0033653366403317
605,0.00024003943008174346,-0.0027115428445906196,2.0030961195385206
606,0.00024003943008174346,-0.002711555102248347,2.0029023618631623
607,0.00024003943008174346,-0.0027115621986830087,2.0028130106969515
608,0.00024003943008174346,-0.0027115667121553897,2.002817673427305
609,0.00024003943008174346,-0.0027115720008023514,2.0028156999601827
610,0.00024003943008174346,-0.002711580475940873,2.0027882910875077
611,0.0002361414898508713,-0.0027115934360805237,2.0026525495608145
612,0.0002361414898508713,-0.0027116069322390725,2.0023995229751415
613,0.0002361414898508713,-0.0027116145562550045,2.002169176118013
614,0.0002361414898508713,-0.0027116194546789544,2.002013288607167
615,0.0002361414898508713,-0.002711623670927444,2.0018990000653805
616,0.0002361414898508713,-0.002711630261963574,2.00176827503589
617,0.0002361414898508713,-0.0027116402448152687,2.001591297361521
618,0.0002361414898508713,-0.002711651533345289,2.0014360995801153
619,0.0002361414898508713,-0.0027116598750899705,2.0013645857826265
620,0.0002361414898508713,-0.0027116641317100586,2.0013866313027027
621,0.0002361414898508713,-0.0027116670553090816,2.001404994109686
622,0.0002361414898508713,-0.0027116717564478255,2.001415227540195
623,0.0002361414898508713,-0.002711679323961467,2.0013875134730474
624,0.0002361414898508713,-0.0027116904036709267,2.0013060428206386
625,0.0002361414898508713,-0.002711699008798252,2.001200012204652
626,0.0002361414898508713,-0.002711703631546116,2.001135667370309
627,0.0002361414898508713,-0.002711706493277924,2.0011095234396636
628,0.0002361414898508713,-0.002711709948045539,2.0010892863243526
629,0.0002361414898508713,-0.0027117155522874167,2.001055793179317
630,0.0002361414898508713,-0.002711724135598415,2.0009826128644113
631,0.0002361414898508713,-0.0027117325837665547,2.000874273211331
632,0.0002361414898508713,-0.002711736788679602,2.000799815200926
633,0.0002361414898508713,-0.002711739650860225,2.0007540259456307
634,0.0002361414898508713,-0.0027117427835766446,2.000710660408276
635,0.0002361414898508713,-0.002711747930636603,2.0006632065055214
636,0.0002361414898508713,-0.0027117559794226907,2.000601665707879
637,0.0002361414898508713,-0.0027117647239013657,2.0005665117743208
638,0.0002361414898508713,-0.0027117689028374066,2.000589107246864
639,0.0002361414898508713,-0.0027117717013094927,2.0006582387366545
640,0.0002361414898508713,-0.0027117741084705022,2.000724663638482
641,0.0002361414898508713,-0.002711778085179934,2.0008241433230394
642,0.0002361414898508713,-0.0027117844917069213,2.000944050608113
643,0.0002361414898508713,-0.0027117932663408783,2.0010913097113234
644,0.0002361414898508713,-0.002711798258444461,2.0010893690873734
645,0.0002361414898508713,-0.002711801801962016,2.0010145580881367
646,0.0002361414898508713,-0.002711804167559677,2.0009121535434042
647,0.0002361414898508713,-0.0027118078537123965,2.0007829546428786
648,0.0002361414898508713,-0.0027118140040169243,2.0006131751617313
649,0.0002361414898508713,-0.00271182518156265,2.0004129461654916
650,0.00025032995216200775,-0.0027123742337185125,1.997867104662464
651,0.00026267837949549657,-0.002712376736908906,1.9977960569674602
652,0.00027047026604076394,-0.0027124620338686567,1.9974485983848183
653,0.00030799688958341057,-0.0027126040384591295,1.9970970590389456
654,0.00029999223672024373,-0.0027128298027987116,1.9962738146212486
655,0.00029999223672024373,-0.0027131559742316464,1.9957967234891245
656,0.00027768724550075404,-0.0027134876600554136,1.9952345859785734
657,0.0002503503330510904,-0.0027138425243036003,1.9960505774193447
658,0.00023392861312802163,-0.0027140293831824642,1.9964648372248097
659,0.00019082423329330538,-0.0027141190106621344,1.9970919050418448
660,0.00019082423329330538,-0.0027141998114067465,1.997240477381191
661,0.00019082423329330538,-0.002714323254400071,1.9974621859021116
662,0.00019082423329330538,-0.002714483302529851,1.9972687332088526
663,0.00019717627778870116,-0.0027146347487482353,1.9969171099739937
664,0.00023392861312802163,-0.002714749381151652,1.9964025741828684
665,0.00023392861312802163,-0.0027148277974701003,1.9960969264387751
666,0.0002774706004863596,-0.0027148873404394093,1.9959110379864609
667,0.0002896635911827511,-0.002714936208943164,1.9958683704651567
668,0.00026126123325404964,-0.0027149792575873253,1.9958951388471424
669,0.00026126123325404964,-0.0027150305418430854,1.99599014049416
670,0.00026126123325404964,-0.002715104263038011,1.9962062520675188
671,0.0002503145818443646,-0.0027151917803059735,1.9965485141355477
672,0.0002503145818443646,-0.00271525864483174,1.996985148834429
673,0.0002503145818443646,-0.0027152927591336646,1.9972644366489194
674,0.0002503145818443646,-0.0027153158555750525,1.9975357837822205
675,0.0002503145818443646,-0.00271535107059774,1.997876743130054
676,0.00023991474188896563,-0.0027154068063983267,1.9984646360863065
677,0.00026126123325404964,-0.0027154866666324563,1.9992483910999044
678,0.00026126123325404964,-0.0027155424973298705,1.9997861133627852
679,0.00026126123325404964,-0.002715569585444927,1.9998313816577027
680,0.00026126123325404964,-0.0027155856321608757,1.9997937009341191
681,0.00026126123325404964,-0.0027156096575879853,1.9996964883839519
682,0.00026126123325404964,-0.0027156479709427037,1.9997219063530842
683,0.0002375535429918982,-0.0027157040627513998,1.9999447471251937
684,0.00022832659652817716,-0.002715747748252828,2.0004278478517836
685,0.00022832659652817716,-0.002715770997671748,2.000818031720973
686,0.00022832659652817716,-0.0027157876553890576,2.001136970035488
687,0.00022832659652817716,-0.002715811131956822,2.0014938611391475
688,0.00022832659652817716,-0.00271584850420138,2.0019631330857175
689,0.0002070762523100124,-0.0027159029027882873,2.002518416432914
690,0.0002070762523100124,-0.0027159448234511697,2.0027765540415143
691,0.0002070762523100124,-0.0027159686067764572,2.0027010796047477
692,0.00019908004968181698,-0.002715984961097905,2.0025792952578536
693,0.0001775817341229586,-0.002716008592121162,2.002494422378464
694,0.00018868181373716584,-0.0027160510575103603,2.0025960917877708
695,0.0001817591359677794,-0.002716254133733404,2.0035296680571397
696,0.0001817591359677794,-0.002716277207221259,2.0037299832261053
697,0.0001817591359677794,-0.0027163205658597613,2.003926153911105
698,0.00016976388098811747,-0.002716401767282674,2.0043619518025
699,0.0001782192741914786,-0.002716545687743584,2.0051106176836524
700,0.00019978448614113285,-0.0027167609776477166,2.0066877426216925
701,0.00019978448614113285,-0.0027169153140435037,2.007945524496175
702,0.00020620172592855713,-0.0027170473616339313,2.0088188484497644
703,0.00020620172592855713,-0.002717263683878163,2.0092284042232613
704,0.00019978448614113285,-0.0027175729240680843,2.00934313596532
705,0.00018098588840861343,-0.0027177754913860794,2.0085826367145874
706,0.00018098588840861343,-0.0027178827780704002,2.0081401761804796
707,0.00018098588840861343,-0.002717982507806905,2.0079861981868303
708,0.00018098588840861343,-0.0027180662634985974,2.008264757862725
709,0.0001752920524708281,-0.002718149226376993,2.0089588060407535
710,0.0001752920524708281,-0.002718229471684819,2.0093911730634084
711,0.0001752920524708281,-0.0027183292783480085,2.009812209142093
712,0.0001906849179892649,-0.0027184419959823945,2.0095697801293584
713,0.00016618806472165726,-0.002718534119724243,2.009184233724008
714,0.0001709948460141335,-0.0027185939723379923,2.008495713876911
715,0.0001709948460141335,-0.0027186397996447976,2.0082635331613714
716,0.0001709948460141335,-0.002718689353957909,2.0080429379023226
717,0.0001709948460141335,-0.002718757810284231,2.0081662793669737
718,0.0001668965539598161,-0.0027188486308605017,2.0082381493525556
719,0.0001668965539598161,-0.002718931978914437,2.0083089511379466
720,0.0001668965539598161,-0.002718978959916136,2.008033141032175
721,0.0001668965539598161,-0.0027190043748087683,2.0077766382406703
722,0.0001668965539598161,-0.0027190261828366788,2.0074672884514047
723,0.0001709948460141335,-0.00271905904736126,2.0071734570371027
724,0.0001709948460141335,-0.002719109454385246,2.0069042290991717
725,0.0001709948460141335,-0.0027191704793324708,2.006931322411013
726,0.0001709948460141335,-0.0027192097678044903,2.007251871449574
727,0.0001668965539598161,-0.002719227473020495,2.00761211727599
728,0.00017302971343052944,-0.0027192402450289394,2.007843965806585
729,0.00017302971343052944,-0.0027192599411677526,2.008044620764382
730,0.00017302971343052944,-0.002719291467954469,2.0081493502262258
731,0.00017302971343052944,-0.0027193387481892688,2.0080701788010105
732,0.00016654776705606384,-0.0027193811074077744,2.0077923035568546
733,0.00016654776705606384,-0.0027194027848471427,2.0075332819868907
734,0.00016654776705606384,-0.002719417228345625,2.007447212677088
735,0.00016654776705606384,-0.0027194340907687586,2.0074500076610287
736,0.00016654776705606384,-0.002719461593894981,2.0076376974097876
737,0.00016654776705606384,-0.002719504952088381,2.0079914845939237
738,0.00016654776705606384,-0.0027195574970783508,2.008662609047783
739,0.00017302971343052944,-0.0027195860690116492,2.0089530990025826
740,0.00017696988576990127,-0.0027196041438346903,2.009117138704727
741,0.00017696988576990127,-0.0027196151155711033,2.009035582221367
742,0.00017696988576990127,-0.002719631559236193,2.009026114203705
743,0.00017696988576990127,-0.002719657420272712,2.0089874474644476
744,0.0001700030221125606,-0.0027196952492883767,2.0092661930205673
745,0.0001700030221125606,-0.002719726470977241,2.0096296506609654
746,0.0001700030221125606,-0.002719744082283003,2.010104820150425
747,0.0001700030221125606,-0.002719754620204438,2.0103631559576307
748,0.00017545415181982352,-0.0027197649088453934,2.010654906605036
749,0.0001716039370707618,-0.0027197813017741193,2.0109566251856092
750,0.0001716039370707618,-0.0027198072833681665,2.0113985922503548
751,0.00019831658979225304,-0.0027198442038788577,2.011957950516758
752,0.00019831658979225304,-0.002719872260062352,2.0123523642135477
753,0.00019202617220363976,-0.0027198946503511554,2.0126017985383906
754,0.0002005201571528517,-0.002719921219228092,2.012885532140372
755,0.0002049844037351981,-0.0027201079640047712,2.0161065529726883
756,0.00019724497885181212,-0.002720330532921828,2.0161377458929053
757,0.00019724497885181212,-0.002720706643347239,2.015415816820787
758,0.00019724497885181212,-0.0027211770093305766,2.0165877030198964
759,0.00019724497885181212,-0.0027216126966935297,2.0157350045049025
760,0.00019724497885181212,-0.002721744602527075,2.0162037052109123
761,0.0002034319347557276,-0.0027219210733641884,2.0171709041251775
762,0.0002034319347557276,-0.0027219843159360917,2.017764227518721
763,0.0002034319347557276,-0.0027220545433697617,2.0182523453360015
764,0.0002074910990617467,-0.002722170479129402,2.0188089428329383
765,0.00019500229797722794,-0.0027223446444112885,2.0194571641196406
766,0.00019500229797722794,-0.0027224910975934755,2.019850556373859
767,0.00021591616593955729,-0.0027225666003059725,2.0196661287197397
768,0.00021591616593955729,-0.0027226196965086315,2.019435492427508
769,0.00021591616593955729,-0.0027226582036536293,2.019076180741202
770,0.00021591616593955729,-0.0027227160499835564,2.018928422151717
771,0.00021591616593955729,-0.0027228034094253705,2.018873493113091
772,0.00021165983656600977,-0.002722896161076435,2.019163295569857
773,0.00021165983656600977,-0.0027229522067070073,2.0193533818726204
774,0.00020214760617464703,-0.002722982936524246,2.01948950023116
775,0.00020214760617464703,-0.0027230064760764483,2.0193944895730764
776,0.00021026638391987524,-0.0027230423307017843,2.0193581885083294
777,0.00021026638391987524,-0.002723097071668505,2.0191353941852554
778,0.00021026638391987524,-0.0027231638014791897,2.019153702351518
779,0.00021026638391987524,-0.002723209755728627,2.0191006696987226
780,0.00021026638391987524,-0.002723233055755114,2.019352459518405
781,0.00021026638391987524,-0.002723247664302955,2.019424041019415
782,0.00021026638391987524,-0.002723268810548467,2.0195984420139284
783,0.00021026638391987524,-0.0027233024625688707,2.019636797589464
784,0.00021165983656600977,-0.0027233518559208287,2.0195395146339585
785,0.0001988196609358152,-0.002723391970160477,2.0191711937177996
786,0.0001988196609358152,-0.0027234140482551147,2.0188349865746336
787,0.0001988196609358152,-0.002723428070877469,2.0186046258268555
788,0.00020271391622165463,-0.002723445407263873,2.018445229316629
789,0.00020271391622165463,-0.002723473591807228,2.0183251301259766
790,0.00020271391622165463,-0.002723517720712262,2.018294811342009
791,0.00018650993702846896,-0.0027235692321990884,2.0184419180918125
792,0.00018650993702846896,-0.00272359766111252,2.0186814398993054
793,0.00018650993702846896,-0.002723618014349894,2.018937223533559
794,0.00017889064158565035,-0.002723639165766484,2.0191639570184616
795,0.00017889064158565035,-0.002723747993279556,2.0200332431897268
796,0.000176191295835872,-0.0027237849852561414,2.020387475247278
797,0.00018284704657229174,-0.002723849705894909,2.0206087706726086
798,0.00018284704657229174,-0.0027239690184638595,2.0207651845611725
799,0.00018637208980145075,-0.002724183435294904,2.020873112292346
800,0.00018637208980145075,-0.0027245258897801664,2.020888782824462
801,0.00018637208980145075,-0.002724802648958416,2.0206458435444183
802,0.00019325325575949597,-0.002724869853778359,2.0204780067337222
803,0.0002000264464852426,-0.0027249726482178457,2.020288633069714
804,0.0002000264464852426,-0.002725097345127731,2.0201744769585854
805,0.00019269545322863463,-0.0027252512381541116,2.0200633777959887
806,0.00019121712060958965,-0.0027254206502625587,2.020155808277085
807,0.00019269545322863463,-0.0027255262924912142,2.020035085529433
808,0.00019269545322863463,-0.0027255744922943755,2.0200458778121244
809,0.00019269545322863463,-0.002725605262389943,2.019936377146394
810,0.00019269545322863463,-0.0027256469903057866,2.019787320381098
811,0.00019269545322863463,-0.0027257122328739653,2.019489362206446
812,0.00019269545322863463,-0.0027258090360970312,2.0192318562058253
813,0.00019269545322863463,-0.0027259076862858056,2.019032157669173
814,0.00019269545322863463,-0.002725976448468157,2.0192196638186637
815,0.00019269545322863463,-0.0027260094519137752,2.0194411662855978
816,0.00019269545322863463,-0.002726028794183784,2.019663747083113
817,0.00019269545322863463,-0.002726055300103237,2.0198628532885414
818,0.00019269545322863463,-0.002726098881021623,2.0199810085514995
819,0.0002000264464852426,-0.002726167546112785,2.0200252880749208
820,0.0002221562348608979,-0.002726244652375986,2.019771283101
821,0.0002221562348608979,-0.0027262756640039428,2.0195148220906685
822,0.0002221562348608979,-0.0027262914167196874,2.0192737960580076
823,0.0002221562348608979,-0.002726300572518764,2.0192113644808396
824,0.0002221562348608979,-0.0027263158358672105,2.019193768628627
825,0.00021778723034044503,-0.0027263412174163403,2.019252543265628
826,0.00021778723034044503,-0.002726379429414843,2.0194532302652854
827,0.00021778723034044503,-0.0027264108801962903,2.0197548275964574
828,0.00021778723034044503,-0.002726425839248709,2.0199527603318974
829,0.00021778723034044503,-0.0027264352161728658,2.0200739975887925
830,0.00021778723034044503,-0.002726443731356027,2.0201501768020482
831,0.00021778723034044503,-0.0027264579284854568,2.020258011233667
832,0.00021778723034044503,-0.0027264810950691732,2.0204243269898448
833,0.00021778723034044503,-0.002726513425958687,2.020717132787119
834,0.00021778723034044503,-0.0027265315477262094,2.0208717795897484
835,0.00021778723034044503,-0.0027265406968044687,2.0209249227676267
836,0.00021778723034044503,-0.0027265456113847977,2.0209032857751055
837,0.00021778723034044503,-0.002726552739388891,2.020899476030787
838,0.00021778723034044503,-0.002726564640614113,2.0209051887094938
839,0.00021778723034044503,-0.00272658420007844,2.020985343766273
840,0.00021778723034044503,-0.0027266119186769183,2.021178195186573
841,0.00021778723034044503,-0.0027266283215028795,2.0213966683740643
842,0.00021778723034044503,-0.0027266371448263207,2.021534045115111
843,0.00021778723034044503,-0.0027266436650398513,2.0216229501131977
844,0.00021021206473424803,-0.00272665330316358,2.0217071910544044
845,0.00021021206473424803,-0.0027266692614136556,2.021792887482316
846,0.00021021206473424803,-0.002726694887955631,2.0218944477176106
847,0.000208501142611238,-0.002726727724866264,2.021952093915286
848,0.000208501142611238,-0.0027267422352753893,2.0219182637285993
849,0.000208501142611238,-0.0027267508221203427,2.0218049670201306
850,0.000208501142611238,-0.0027267561175010105,2.0217727005962223
851,0.000208501142611238,-0.002726764884185032,2.0217277795042867
852,0.000208501142611238,-0.002726779418560475,2.0217610556115106
853,0.000208501142611238,-0.0027268014317585994,2.0218888274431603
854,0.000208501142611238,-0.0027268203594367066,2.0221842099948306
855,0.000208501142611238,-0.002726829174676102,2.0223903093054267
856,0.000208501142611238,-0.0027268343168102022,2.022558661455029
857,0.000208501142611238,-0.0027268381918581614,2.0226397673059373
858,0.000208501142611238,-0.0027268446379176458,2.0227428676712735
859,0.000208501142611238,-0.002726855313048439,2.022850478661138
860,0.000208501142611238,-0.0027268714556879146,2.0229752151103892
861,0.00020249151607279242,-0.002726885651702294,2.0229958239336474
862,0.00020249151607279242,-0.002726892787887748,2.0229141590875255
863,0.00020249151607279242,-0.002726896894910378,2.0227963528729807
864,0.00020249151607279242,-0.002726900070552166,2.022714235046779
865,0.00020249151607279242,-0.002726905318182876,2.022624396314065
866,0.000208501142611238,-0.002726913940462673,2.022531306664126
867,0.000208501142611238,-0.0027269267070289204,2.022456149908651
868,0.000208501142611238,-0.002726936788932054,2.022462146689307
869,0.000208501142611238,-0.00272694223800901,2.0225535383745052
870,0.000208501142611238,-0.0027269460443406523,2.0226431252102928
871,0.000208501142611238,-0.0027269503112347104,2.022745908897088
872,0.000208501142611238,-0.002726957385178026,2.0228361556511176
873,0.000208501142611238,-0.0027269687713596135,2.0229500214711744
874,0.00021599085142597922,-0.002726983714697888,2.0230127428198426
875,0.00021599085142597922,-0.002726990508891582,2.0229936422422448
876,0.00021599085142597922,-0.0027269943858970742,2.022895658098427
877,0.00021599085142597922,-0.0027269965719692547,2.022876437216813
878,0.00021599085142597922,-0.0027270001963058924,2.0228404996731912
879,0.00021599085142597922,-0.002727006262701459,2.0228589155824093
880,0.0002266408612440204,-0.002727015804723179,2.0229033402914696
881,0.0002002718532616347,-0.002727026315107456,2.0230558258378784
882,0.0002002718532616347,-0.002727031489159831,2.0231350789259763
883,0.0002002718532616347,-0.0027270350990162714,2.0232138389949887
884,0.0002002718532616347,-0.0027270377340550835,2.0232270024721615
885,0.0002002718532616347,-0.0027270420888980728,2.02324739234475
886,0.0002002718532616347,-0.0027270491727009235,2.0232562339998785
887,0.0002002718532616347,-0.002727059179979885,2.0232732393695025
888,0.00020417767329246732,-0.002727065282701949,2.0232728387929684
889,0.00020677455099540852,-0.0027270684243029097,2.0232632113291733
890,0.00020677455099540852,-0.0027270702188411005,2.023250905433891
891,0.00020677455099540852,-0.0027270726966753863,2.023217954616646
892,0.00020677455099540852,-0.00272707678248686,2.0231630290658242
893,0.00020677455099540852,-0.0027270832489791294,2.02304438620453
894,0.00020677455099540852,-0.0027270905927831925,2.0228594644444113
895,0.00020677455099540852,-0.0027270935062508076,2.0227601965677398
896,0.00020677455099540852,-0.0027270949868265872,2.022728565712846
897,0.00020677455099540852,-0.0027270959382301257,2.0227097680288493
898,0.00020677455099540852,-0.0027270975514395767,2.022687101164022
899,0.00020677455099540852,-0.0027271002643870696,2.0226331097538583
900,0.00020677455099540852,-0.0027271043899868247,2.022533421090909
901,0.00020274384966317773,-0.0027271078781144526,2.0224078488687005
902,0.00020274384966317773,-0.002727109518594713,2.0223588666049706
903,0.00020274384966317773,-0.002727110683571924,2.022343467546842
904,0.00020274384966317773,-0.0027271117529703167,2.02234871827785
905,0.00020274384966317773,-0.0027271135648894163,2.0223547020738204
906,0.00020274384966317773,-0.0027271166120619245,2.0223570740652765
907,0.00020274384966317773,-0.0027271212521885538,2.02234277658297
908,0.00020274384966317773,-0.002727125187072031,2.0223062618548395
909,0.00020274384966317773,-0.002727127002172046,2.0222749479139956
910,0.00020274384966317773,-0.0027271282592732046,2.022255193050845
911,0.00020274384966317773,-0.0027271293814172914,2.0222499751820022
912,0.00020274384966317773,-0.0027271312789705236,2.022256097872192
913,0.00020677455099540852,-0.0027271344474541197,2.0222783286308412
914,0.00020677455099540852,-0.002727139152420726,2.0223320121331363
915,0.00020677455099540852,-0.002727142609588441,2.022394309994318
916,0.00020677455099540852,-0.002727144205552301,2.0224247717533212
917,0.00020677455099540852,-0.0027271452212459437,2.0224343964586406
918,0.00020677455099540852,-0.0027271462368709163,2.022434675657574
919,0.00020677455099540852,-0.0027271479449057475,2.022431592649153
920,0.00020677455099540852,-0.002727150761351538,2.022429777212448
921,0.00020677455099540852,-0.0027271547804381554,2.0224332867600845
922,0.00020677455099540852,-0.0027271572422490255,2.022447719044478
923,0.00020677455099540852,-0.0027271585175681124,2.0224631877181847
924,0.00020677455099540852,-0.0027271593308777022,2.0224770395089635
925,0.00020677455099540852,-0.002727160395551236,2.022485962921334
926,0.00020677455099540852,-0.0027271621682590634,2.022490087946267
927,0.00020677455099540852,-0.002727165052527645,2.022475489591645
928,0.00020677455099540852,-0.00272716902879611,2.0224246177416623
929,0.00020677455099540852,-0.0027271711911991104,2.022360049719359
930,0.00020677455099540852,-0.0027271724843971217,2.0223075940111754
931,0.00020677455099540852,-0.0027271733320279544,2.0222694252720452
932,0.00020677455099540852,-0.0027271746716608404,2.022231086692583
933,0.00020677455099540852,-0.0027271768423436336,2.0221837464442416
934,0.00020677455099540852,-0.0027271801689509986,2.022144998361566
935,0.00020677455099540852,-0.002727183443818572,2.0221356771082246
936,0.00020677455099540852,-0.0027271849522953855,2.022179761410374
937,0.00020677455099540852,-0.002727185772558697,2.0222299336442155
938,0.00020677455099540852,-0.002727186462686659,2.022275464178154
939,0.00020677455099540852,-0.0027271876277931506,2.02232466728299
940,0.00020677455099540852,-0.00272718960125811,2.022380749851091
941,0.00020677455099540852,-0.002727192716614478,2.0224367760296893
942,0.00020677455099540852,-0.0027271960785773316,2.022458906798547
943,0.00020677455099540852,-0.002727197627675311,2.0224139981944176
944,0.00020677455099540852,-0.0027271986194160377,2.022347275619064
945,0.00020677455099540852,-0.00272719918282268,2.0223122545466294
946,0.00020677455099540852,-0.002727200125963088,2.0222864242850225
947,0.00020677455099540852,-0.0027272017221922104,2.0222792032727397
948,0.00020677455099540852,-0.002727204290225359,2.0223130877510553
949,0.00020677455099540852,-0.0027272075256954513,2.0224358586204705
950,0.00020677455099540852,-0.002727209075353053,2.022546647040759
951,0.00020677455099540852,-0.002727210089427442,2.0226441140400144
952,0.00020677455099540852,-0.0027272106370306542,2.022680619816058
953,0.00020677455099540852,-0.0027272115509435046,2.0227107172034096
954,0.00020677455099540852,-0.0027272131008579175,2.0227376411362155
955,0.00020677455099540852,-0.0027272156194751884,2.0227571680646577
956,0.00020677455099540852,-0.0027272189960723912,2.0227546190010015
957,0.00020677455099540852,-0.0027272206751915626,2.022718260265561
958,0.00020677455099540852,-0.002727221789044266,2.0226720603545023
959,0.00020677455099540852,-0.002727222407082658,2.022645795088747
960,0.00020677455099540852,-0.00272722342252112,2.0226250062716553
961,0.0001962211403495558,-0.002727225129437309,2.0226092580141626
962,0.0001962211403495558,-0.0027272278922828488,2.0226121927604095
963,0.0001962211403495558,-0.0027272315629546908,2.022646056050847
964,0.0001962211403495558,-0.0027272332320014956,2.02268924689044
965,0.0001962211403495558,-0.0027272342587305754,2.022722810441336
966,0.0001962211403495558,-0.002727234896172337,2.0227492617145795
967,0.0001962211403495558,-0.0027272359410618736,2.0227698416930218
968,0.0001962211403495558,-0.002727237692791721,2.0227930808866663
969,0.0001962211403495558,-0.002727240549846754,2.0227891571824896
970,0.00018846203478040363,-0.002727244686419253,2.022731633382295
971,0.00018846203478040363,-0.0027272484919759954,2.022575541305255
972,0.0002236362319843544,-0.0027274702127821028,2.019724169103129
973,0.0002236362319843544,-0.002727471169927541,2.019669539008845
974,0.00023154233783421956,-0.002727508743892211,2.0193156933335854
975,0.00023154233783421956,-0.002727577581592168,2.0188167068980625
976,0.00023154233783421956,-0.002727690149159906,2.0179580571265703
977,0.00024498843574073166,-0.0027277946727927676,2.0168213712013485
978,0.00024498843574073166,-0.002727831767370413,2.0167711764926346
979,0.00024498843574073166,-0.002727898419551051,2.016728956512969
980,0.00022651143517745208,-0.002728013185413477,2.016896728740373
981,0.00022651143517745208,-0.0027281818700656373,2.0171366447345678
982,0.0002190181056340715,-0.0027282908393852757,2.017543151623217
983,0.0002190181056340715,-0.0027283478490953577,2.0174564097068397
984,0.00021464613726485202,-0.002728382532199245,2.01758859594669
985,0.00021017726154685154,-0.00272839873781024,2.017239653395404
986,0.00021017726154685154,-0.0027284201670113423,2.0171951325706825
987,0.00021464613726485202,-0.002728458078585478,2.017210586508927
988,0.0002219323475607777,-0.002728520989487283,2.0172962694442194
989,0.0002219323475607777,-0.002728596629912285,2.017594148567014
990,0.0002219323475607777,-0.002728615967717294,2.0177305670259202
991,0.0002219323475607777,-0.0027286319318144928,2.017853611429582
992,0.0002219323475607777,-0.0027286409857072997,2.0179118380440855
993,0.0002219323475607777,-0.002728656475170465,2.01789615645633
994,0.0002219323475607777,-0.0027286828694016575,2.017812841770152
995,0.0002219323475607777,-0.0027287242328574864,2.0175498382633967
996,0.00022639407412157407,-0.002728765543919363,2.0170790518664674
997,0.00022639407412157407,-0.002728783942222056,2.01679557443332
998,0.00022639407412157407,-0.002728795483151715,2.016627313443385
999,0.00022639407412157407,-0.0027288012652203126,2.016613838766645
1000,0.00022639407412157407,-0.0027288106579031962,2.0166177855451553
1001,0.00022639407412157407,-0.002728825980414074,2.0166473634924924
1002,0.00022639407412157407,-0.002728849086750886,2.016647306539601
1003,0.00022639407412157407,-0.002728869718196836,2.0166433902903615
1004,0.00022639407412157407,-0.002728879587693777,2.0165749070529966
1005,0.00022639407412157407,-0.0027288847307517074,2.0165638591109274
1006,0.00022639407412157407,-0.002728889105088529,2.0165322082574093
1007,0.00022639407412157407,-0.002728896462892521,2.0165560611315354
1008,0.00022639407412157407,-0.0027289088511102963,2.0165929352043617
1009,0.00022639407412157407,-0.0027289279925976975,2.016732884557011
1010,0.00022639407412157407,-0.0027289456357987036,2.016915932890137
1011,0.00022639407412157407,-0.0027289530944284773,2.0170338574317075
1012,0.00022639407412157407,-0.002728957620743388,2.017073093396191
1013,0.00022639407412157407,-0.0027289607520516648,2.0170988333974145
1014,0.00022639407412157407,-0.002728966022255008,2.017112002608282
1015,0.00022639407412157407,-0.0027289748520714025,2.0171438507548967
1016,0.00022639407412157407,-0.0027289882667630772,2.017190922543921
1017,0.00022157397870766152,-0.00272899956492332,2.017246279445789
1018,0.00022639407412157407,-0.00272900454987191,2.017261566799117
1019,0.00022639407412157407,-0.00272900765467661,2.017260047377954
1020,0.00022639407412157407,-0.002729010295990714,2.0172534903505444
1021,0.00022639407412157407,-0.0027290147613687307,2.0172378545947014
1022,0.00022639407412157407,-0.002729022231245475,2.0172136736922064
1023,0.00022639407412157407,-0.0027290333944086213,2.017162918772513
1024,0.0002219323475607777,-0.002729041848513925,2.0171134995711255
1025,0.0002144407190618926,-0.002729045591875527,2.0170903963628515
1026,0.0002144407190618926,-0.002729047834782996,2.017093803178305
1027,0.0002144407190618926,-0.0027290498981106816,2.0171064074939467
1028,0.0002144407190618926,-0.0027290534239978823,2.0171423548016922
1029,0.0002144407190618926,-0.00272905943049898,2.0172115528533543
1030,0.0002190481358661447,-0.0027290688070315517,2.0173553013820604
1031,0.0002190481358661447,-0.0027290776310387953,2.017565863854493
1032,0.0002190481358661447,-0.00272908107484734,2.0176630866196503
1033,0.0002190481358661447,-0.0027290830285875848,2.017709991490877
1034,0.0002190481358661447,-0.002729084130532787,2.017725694403018
1035,0.0002190481358661447,-0.0027290860149891834,2.0177475467913726
1036,0.0002190481358661447,-0.002729089258139149,2.0177905444751225
1037,0.0002190481358661447,-0.0027290945368410933,2.0178674414381113
1038,0.0002119068561151416,-0.002729101342382967,2.0180078878274794
1039,0.0002119068561151416,-0.0027291042957804596,2.0180569551848464
1040,0.0002119068561151416,-0.0027291062234531447,2.018075299329549
1041,0.0002119068561151416,-0.002729107013259117,2.0180712123788482
1042,0.0002119068561151416,-0.0027291083103465077,2.0180850629064335
1043,0.0002119068561151416,-0.002729110494460974,2.018135673740315
1044,0.0002119068561151416,-0.0027291140551367055,2.0182729270756345
1045,0.0002119068561151416,-0.002729118931476289,2.018579599408673
1046,0.0002119068561151416,-0.0027291214445366013,2.0188220786387903
1047,0.0002119068561151416,-0.002729122740582592,2.018962254630521
1048,0.0002119068561151416,-0.0027291233457769756,2.0190056977217847
1049,0.0002119068561151416,-0.002729124268638932,2.0190371071024003
1050,0.0002119068561151416,-0.0027291258132731188,2.0190829232365495
1051,0.0002119068561151416,-0.0027291283665839597,2.0191440284799986
1052,0.0002119068561151416,-0.0027291320252582295,2.019241798146191
1053,0.0002119068561151416,-0.002729134190069963,2.019283768308906
1054,0.0002119068561151416,-0.0027291351087387022,2.019278384864447
1055,0.0002119068561151416,-0.002729135620042342,2.0192523396548787
1056,0.0002119068561151416,-0.0027291362530323243,2.019234048280605
1057,0.0002119068561151416,-0.002729137327107522,2.0192245474609547
1058,0.0002119068561151416,-0.002729139131932813,2.019248968366802
1059,0.0002119068561151416,-0.0027291418326182864,2.019342864466911
1060,0.0002119068561151416,-0.002729143822724782,2.019506392302576
1061,0.0002119068561151416,-0.002729144650429629,2.019616354777582
1062,0.0002119068561151416,-0.0027291451584129604,2.0196958059099837
1063,0.0002119068561151416,-0.0027291456247333645,2.0197478644263227
1064,0.0002119068561151416,-0.0027291464254074306,2.0198131689191046
1065,0.0002119068561151416,-0.0027291478002238133,2.019903135364266
1066,0.0002119068561151416,-0.0027291499930577716,2.0200358327869776
1067,0.0002119068561151416,-0.002729152373749675,2.0201894596600414
1068,0.0002119068561151416,-0.0027291533419713907,2.0202002067002063
1069,0.0002119068561151416,-0.0027291539703533586,2.0201545755501593
1070,0.0002119068561151416,-0.002729154302892623,2.020118906629207
1071,0.0002119068561151416,-0.0027291548711563638,2.020085654123088
1072,0.0002119068561151416,-0.0027291558568794546,2.0200649799433643
1073,0.0002119068561151416,-0.0027291575108189165,2.020077527991321
1074,0.00021464613726485202,-0.0027291599352262715,2.020174193539552
1075,0.00021464613726485202,-0.0027291616405069673,2.0203475085969265
1076,0.00021464613726485202,-0.0027291625375339365,2.020499651921546
1077,0.00021464613726485202,-0.002729163044444265,2.020603163667157
1078,0.00021464613726485202,-0.0027291634726045464,2.020665595886605
1079,0.00021464613726485202,-0.0027291642050129824,2.020741854693968
1080,0.00021464613726485202,-0.0027291654752542006,2.020848618097229
1081,0.00021464613726485202,-0.0027291675852980516,2.0210143439579
1082,0.00021464613726485202,-0.0027291705165867876,2.021274105149724
1083,0.00021464613726485202,-0.0027291720722536347,2.02139103656767
1084,0.00021464613726485202,-0.002729172913600693,2.0213915002895995
1085,0.00021464613726485202,-0.0027291733096551926,2.0213520981166524
1086,0.00021464613726485202,-0.0027291737601104087,2.0213142719338464
1087,0.00021464613726485202,-0.0027291745206547455,2.0212952180192847
1088,0.00021464613726485202,-0.0027291758002622518,2.021315586079811
1089,0.00021464613726485202,-0.0027291777481680507,2.0214232427344623
1090,0.00021464613726485202,-0.0027291793611585726,2.0216250984870707
1091,0.00021464613726485202,-0.0027291800529995716,2.021759543076925
1092,0.00021464613726485202,-0.0027291805246436977,2.021853352145919
1093,0.00021464613726485202,-0.0027291809544484976,2.0219046608473144
1094,0.00021464613726485202,-0.0027291816854617397,2.021957285038283
1095,0.00021464613726485202,-0.0027291829160154333,2.0220202218143934
1096,0.00021464613726485202,-0.002729184771516357,2.0221028798684393
1097,0.00021464613726485202,-0.0027291862067774135,2.022151726578889
1098,0.00021464613726485202,-0.002729186790439627,2.022139622013407
1099,0.00021464613726485202,-0.0027291871086799536,2.022108152110257
1100,0.00021464613726485202,-0.0027291873492766203,2.0220871142219004
1101,0.00021464613726485202,-0.0027291877635103813,2.0220650334531314
1102,0.00021464613726485202,-0.002729188480575823,2.0220446718605447
1103,0.00021464613726485202,-0.002729189654868431,2.022025136183538
1104,0.00021464613726485202,-0.002729191197963746,2.02201937302505
1105,0.00021464613726485202,-0.0027291918859998526,2.0220370621588715
1106,0.00021464613726485202,-0.002729192354045851,2.022068045245454
1107,0.00021464613726485202,-0.002729192556156642,2.022079346594677
