Iteration,Energy,Loss Function,Bias
0,0.1353885480537002,0.24721634988029687,0.0
1,0.03004281286879604,0.2060157835552484,0.01300274848568159
2,0.034943160095596025,0.1937767150223842,0.012209213348183673
3,0.005323304265358279,0.19230847924746416,0.00927958908654939
4,0.005323304265358279,0.18961567702924695,0.008518660274169391
5,0.005323304265358279,0.1845323739185767,0.006105444523213439
6,0.005323304265358279,0.17631928647637488,0.006343569778224999
7,0.005955744109377823,0.17494998101733059,0.008203774136006047
8,0.01375968032845074,0.1741770348398685,0.012614551229704066
9,0.012839879510615783,0.16604124392057185,0.023119543679266382
10,0.012839879510615783,0.16576748169027167,0.024123818072808674
11,0.012839879510615783,0.16335756391179398,0.024997280472128937
12,0.005684735448273975,0.1601086969139273,0.024489990255603687
13,0.007815515977048182,0.15243358631644688,0.022408419611237067
14,0.007815515977048182,0.15232478003591765,0.022257869506247405
15,0.006039610466118922,0.1513035029395402,0.021804899608644197
16,0.006039610466118922,0.14953901598706673,0.02096186517811238
17,0.006589902116111819,0.14766682228365566,0.02166221758569715
18,0.0050263568139675115,0.14734378697762368,0.020711774608500256
19,0.0050263568139675115,0.14315238849599102,0.017062351084587916
20,0.0050263568139675115,0.14298472759510625,0.016724426588717378
21,0.0050263568139675115,0.14266796704191953,0.016622240321859088
22,0.005204740597001148,0.1420740707205673,0.016123254498981436
23,0.005204740597001148,0.14097891881187602,0.014552977127862314
24,0.005484108048123032,0.13953262010711862,0.010749301637650322
25,0.006039610466118922,0.1394062246373473,0.009634083441849385
26,0.005423768936369474,0.13936176190798136,0.009369310160187631
27,0.005955744109377823,0.13933326917126285,0.008772542152793078
28,0.0061410566533555986,0.13932609709289423,0.008552057102951304
29,0.0061410566533555986,0.13931302155576616,0.007706239065711558
30,0.005423768936369474,0.1372213870477995,-0.05329828140842352
31,0.005423768936369474,0.13721872276160632,-0.05347838613601289
32,0.005423768936369474,0.13550022485584892,-0.05352512088959398
33,0.005423768936369474,0.13244170820753506,-0.050034718843706215
34,0.0061410566533555986,0.12853502181791843,-0.03555182391155598
35,0.005249831714978909,0.12790377555996718,-0.025731330787645897
36,0.005253346900120673,0.1274554803670197,-0.02017790883945579
37,0.005484108048123032,0.12051896083926798,-0.024465969335145218
38,0.005484108048123032,0.12042799158141079,-0.02460538307507728
39,0.005484108048123032,0.11958416239950043,-0.024806169183226433
40,0.005484108048123032,0.11800119688469057,-0.02587676801331793
41,0.00636660720312827,0.11509416113200815,-0.027351803565908214
42,0.012860459660327185,0.11097363476764414,-0.036731166679086984
43,0.01718357300156651,0.1072521448294341,-0.041728566243238424
44,0.040222813769701014,0.10669105240001923,-0.03884436806622971
45,0.01977282058545655,0.10294458422187115,-0.05134625298693966
46,0.01832610947073272,0.10232582733569108,-0.0650742763085528
47,0.022274543480248966,0.10172233585958032,-0.07050191457070511
48,0.008831445200326303,0.10156629083406864,-0.08050304619747534
49,0.012411998026779858,0.10153448054075663,-0.0898968011202911
50,0.005323304265358279,0.10148778937300636,-0.08962493760507587
51,0.00636660720312827,0.1014606518308572,-0.09154306088943137
52,0.005955744109377823,0.10144680724202021,-0.09484632063724092
53,0.007685413296315972,0.10142995001713746,-0.10056225171489283
54,0.007685413296315972,0.10141848586758538,-0.10412194285343301
55,0.007685413296315972,0.10140372921121782,-0.10750401085305673
56,0.005955744109377823,0.1013886806115432,-0.10926583456614808
57,0.00740901475634348,0.10137938015966289,-0.109976377787398
58,0.00740901475634348,0.10137612772352463,-0.1101403306250992
59,0.00740901475634348,0.1013736966388456,-0.1104845193391965
60,0.00740901475634348,0.10136964248591994,-0.11100511550732234
61,0.00740901475634348,0.10136321360504501,-0.11178980289412781
62,0.007685413296315972,0.1013570625316718,-0.11247129387326173
63,0.00740901475634348,0.10135472415599187,-0.1118938846343287
64,0.00740901475634348,0.10135281823399686,-0.11117740734371924
65,0.00740901475634348,0.10135171109285623,-0.11030447707800024
66,0.00740901475634348,0.10135055283912575,-0.10878479367441385
67,0.00740901475634348,0.10134988843776024,-0.10834456545629717
68,0.00740901475634348,0.10134882921382568,-0.10771966027195931
69,0.00740901475634348,0.10134708987128861,-0.10679410542416468
70,0.00740901475634348,0.10134417219376288,-0.10560657838967376
71,0.00740901475634348,0.10133946703410972,-0.10417074999478508
72,0.00740901475634348,0.10133294513350491,-0.102772183413788
73,0.00740901475634348,0.10132646183599767,-0.10238720117267781
74,0.007685413296315972,0.10132135961970012,-0.10263893913819452
75,0.0061201918220613735,0.10132033008580618,-0.09983838497116061
76,0.005097285763690533,0.10131919642088906,-0.0995945361331231
77,0.00740901475634348,0.10131854669922206,-0.0996645177100938
78,0.00740901475634348,0.10131781124190052,-0.09853466972405019
79,0.00740901475634348,0.10131744409711799,-0.09697302369964107
80,0.00740901475634348,0.10131727821888396,-0.09662393354207971
81,0.00740901475634348,0.10131714320898368,-0.09607183501391385
82,0.00740901475634348,0.10131707759622402,-0.09556556316157744
83,0.00740901475634348,0.10131705040130666,-0.09540612608290291
84,0.00740901475634348,0.1013170392816967,-0.09524840888857068
85,0.00740901475634348,0.1013170267204777,-0.09533940445615986
86,0.00740901475634348,0.10131700749279203,-0.09553948116382945
87,0.00740901475634348,0.10131698554243874,-0.09587822522614885
88,0.00740901475634348,0.10131695639301654,-0.09620814434393359
89,0.00740901475634348,0.10131690274427146,-0.09664279973278699
90,0.00740901475634348,0.10131680219934489,-0.0973005094286847
91,0.00740901475634348,0.101316615681989,-0.09841593220740591
92,0.00740901475634348,0.10131628778998393,-0.10044687901384675
93,0.00740901475634348,0.1013158266428936,-0.10441741335702512
94,0.00740901475634348,0.10131541675152073,-0.10805401623173667
95,0.00740901475634348,0.10131498421286478,-0.11115792300242337
96,0.00740901475634348,0.10131445644359083,-0.11347216552098194
97,0.00740901475634348,0.10131426706944227,-0.11618222354144497
98,0.00740901475634348,0.10131409268474255,-0.11902932194875722
99,0.00740901475634348,0.10131393971984724,-0.11987140492341998
100,0.00740901475634348,0.10131377474074156,-0.12377014832450578
101,0.00740901475634348,0.10131363149182364,-0.12425047997976685
102,0.00740901475634348,0.10131354021322246,-0.12680797541770186
103,0.00740901475634348,0.10131350600627072,-0.12728175359559227
104,0.00740901475634348,0.10131346241820305,-0.12782130703617772
105,0.00740901475634348,0.1013134507793172,-0.1285071913677211
106,0.00740901475634348,0.10131343968730647,-0.12835823075749803
107,0.00740901475634348,0.10131342865120792,-0.12863263883795742
108,0.00740901475634348,0.1013134195747567,-0.12891532870514377
109,0.00740901475634348,0.10131340730088283,-0.12950446280904496
110,0.00740901475634348,0.10131339650944926,-0.1297202943847609
111,0.00740901475634348,0.1013133826275734,-0.13020229371218006
112,0.00740901475634348,0.1013133586055125,-0.1303102030583685
113,0.00740901475634348,0.10131331502198088,-0.1304751522000566
114,0.00740901475634348,0.10131323728358023,-0.13056586568855608
115,0.00740901475634348,0.10131311069914652,-0.13079555433465276
116,0.00740901475634348,0.10131296734605898,-0.13048973828885183
117,0.00740901475634348,0.10131289476439878,-0.13132991294075994
118,0.00740901475634348,0.10131280658668194,-0.1316488374487169
119,0.00740901475634348,0.10131268726337797,-0.13178114863029317
120,0.00740901475634348,0.10131252575014947,-0.13317912576244262
121,0.00740901475634348,0.10131229885205757,-0.13569339722263934
122,0.00740901475634348,0.10131216719260336,-0.13930130715507255
123,0.00740901475634348,0.10131206796744005,-0.14080159093344166
124,0.00740901475634348,0.10131194156827251,-0.14152917942951013
125,0.00740901475634348,0.1013118415770501,-0.14445921795348896
126,0.00740901475634348,0.10131176060105268,-0.14599099512054575
127,0.00740901475634348,0.101311716585528,-0.14789914023350506
128,0.00740901475634348,0.10131164807321318,-0.1495746573371349
129,0.00740901475634348,0.10131155756600699,-0.15215458990587388
130,0.00740901475634348,0.1013114697763391,-0.15596416071501076
131,0.00740901475634348,0.1013113903850561,-0.1583417137075026
132,0.00740901475634348,0.10131133250710246,-0.16268068359095544
133,0.00740901475634348,0.10131128170963567,-0.16180812168941755
134,0.00740901475634348,0.10131122631913919,-0.16242457219495646
135,0.00740901475634348,0.10131115544259012,-0.1651613380944397
136,0.00740901475634348,0.10131111979428628,-0.16854691932417826
137,0.00740901475634348,0.10131106630181648,-0.16867582183335283
138,0.00740901475634348,0.10131101443933371,-0.1694500059013944
139,0.00740901475634348,0.10131100004642596,-0.1704957037163422
140,0.00740901475634348,0.10131098578818641,-0.17206613755182187
141,0.00740901475634348,0.10131097563878186,-0.17245434472449314
142,0.00740901475634348,0.10131096345071641,-0.17323680673388028
143,0.00740901475634348,0.10131095558683079,-0.17423103494950085
144,0.00740901475634348,0.10131094632306663,-0.17520385235428906
145,0.00740901475634348,0.10131094067285944,-0.17596580740284348
146,0.00740901475634348,0.1013109391429218,-0.17590425474382354
147,0.00740901475634348,0.10131093702665894,-0.17617802013260553
148,0.00740901475634348,0.10131093564624276,-0.176310403033501
149,0.00740901475634348,0.1013109333156164,-0.17635965465630168
150,0.00740901475634348,0.10131092932772479,-0.17633968864450586
151,0.00740901475634348,0.10131092278086354,-0.17642074856527232
152,0.00740901475634348,0.10131091256308654,-0.1767374610165567
153,0.00740901475634348,0.10131089671878062,-0.17764255275241528
154,0.00740901475634348,0.10131087250043498,-0.1789739813398618
155,0.00740901475634348,0.10131085487137588,-0.1817542142581586
156,0.00740901475634348,0.10131082899239648,-0.18210471175572793
157,0.00740901475634348,0.10131078819120871,-0.1832541703733989
158,0.00740901475634348,0.1013107495784471,-0.18732764089736587
159,0.00740901475634348,0.10131072389209642,-0.18715172903082833
160,0.00740901475634348,0.10131068784077146,-0.18800455254787019
161,0.00740901475634348,0.10131065755853609,-0.19147738483519167
162,0.00740901475634348,0.10131062116368275,-0.19127755879594374
163,0.00740901475634348,0.10131056449007884,-0.19406043835016873
164,0.00740901475634348,0.10131053195578152,-0.19642913299430764
165,0.00740901475634348,0.10131048802903485,-0.19853965148655478
166,0.00740901475634348,0.1013104457275029,-0.2013382633809229
167,0.00740901475634348,0.10131042193772559,-0.2024961729105716
168,0.00740901475634348,0.10131038933149253,-0.20487004943503362
169,0.00740901475634348,0.10131037001403767,-0.20650225437598424
170,0.00740901475634348,0.10131034165333117,-0.20695934146918574
171,0.00740901475634348,0.10131031437628485,-0.2081052874994716
172,0.00740901475634348,0.1013102851958019,-0.21051354491982405
173,0.00740901475634348,0.10131026524939703,-0.21078841623369582
174,0.00740901475634348,0.10131023645107226,-0.21264518284945982
175,0.00740901475634348,0.10131021787520814,-0.21513659663407916
176,0.00740901475634348,0.10131019636927145,-0.2152085670922831
177,0.00740901475634348,0.10131016445419726,-0.21726033940689657
178,0.00740901475634348,0.10131013041202915,-0.22167510793115716
179,0.00740901475634348,0.10131008595775849,-0.22286630252121484
180,0.00740901475634348,0.1013100565663728,-0.2251352974807934
181,0.00740901475634348,0.10131003958774568,-0.22704786707459582
182,0.00740901475634348,0.10131001735310609,-0.22889615800856636
183,0.00740901475634348,0.10130999597879746,-0.23223789500202394
184,0.00740901475634348,0.10130996740444964,-0.2332257029521008
185,0.00740901475634348,0.10130993034069995,-0.2374205258718304
186,0.00740901475634348,0.1013098945191838,-0.23947188976158273
187,0.00740901475634348,0.10130987887878896,-0.24361106184878586
188,0.00740901475634348,0.10130985769597921,-0.24387554358960742
189,0.00740901475634348,0.1013098370843224,-0.24595351821418227
190,0.00740901475634348,0.1013098160265336,-0.24825507513092954
191,0.00740901475634348,0.10130978566021524,-0.25150853781229643
192,0.00740901475634348,0.10130976454261116,-0.25394663291873787
193,0.00740901475634348,0.10130975247220311,-0.2560319149585353
194,0.00740901475634348,0.10130973970456324,-0.2583388423273659
195,0.00740901475634348,0.10130972236375671,-0.2587604760947825
196,0.00740901475634348,0.1013097140542022,-0.2618139343760786
197,0.00740901475634348,0.1013097029862162,-0.26178630323410934
198,0.00740901475634348,0.10130968965165288,-0.26332794779764723
199,0.00740901475634348,0.10130967343702625,-0.2669396829150364
200,0.00740901475634348,0.10130966380780672,-0.2679140156067953
201,0.00740901475634348,0.10130965858705179,-0.26993810761515485
202,0.00740901475634348,0.10130965554111922,-0.2695637773688526
203,0.00740901475634348,0.10130965193580861,-0.27028773422755864
204,0.00740901475634348,0.1013096485260454,-0.2719304056632329
205,0.00740901475634348,0.10130964544492412,-0.27248118293001294
206,0.00740901475634348,0.1013096424226717,-0.27377360539687406
207,0.00740901475634348,0.10130964003286438,-0.2743948825539952
208,0.00740901475634348,0.10130963676073806,-0.2761517054362137
209,0.00740901475634348,0.10130963129152203,-0.2772853848747005
210,0.00740901475634348,0.1013096219291878,-0.27870904312425165
211,0.00740901475634348,0.10130960680718072,-0.2812107779932175
212,0.00740901475634348,0.1013095906967442,-0.2829398217226428
213,0.00740901475634348,0.10130957868722937,-0.2849265436436607
214,0.00740901475634348,0.101309558717161,-0.28685408203046947
215,0.00740901475634348,0.10130952434170985,-0.2886597035218003
216,0.00740901475634348,0.10130947821736488,-0.2929479843786646
217,0.00740901475634348,0.10130945291261867,-0.29386208117105156
218,0.00740901475634348,0.10130942598294847,-0.29734328931507287
219,0.00740901475634348,0.1013094079933511,-0.29837007408964006
220,0.00740901475634348,0.10130939512872422,-0.3001383860047659
221,0.00740901475634348,0.10130938474206565,-0.3022797163664437
222,0.00740901475634348,0.1013093754979621,-0.3022449692237263
223,0.00740901475634348,0.10130936871387647,-0.30357135343336594
224,0.00740901475634348,0.10130936414891938,-0.3045837965742372
225,0.00740901475634348,0.10130936119227889,-0.3045554557562511
226,0.00740901475634348,0.1013093591974564,-0.3048792769548598
227,0.00740901475634348,0.1013093558173064,-0.3048181592039344
228,0.00740901475634348,0.10130934991226032,-0.30446638342401705
229,0.00740901475634348,0.10130934030007685,-0.3034717091661933
230,0.00740901475634348,0.10130933124380798,-0.30134759503323894
231,0.00740901475634348,0.1013093273782003,-0.30112587767891547
232,0.00740901475634348,0.1013093227860216,-0.2994337587484073
233,0.00740901475634348,0.10130931915895906,-0.29790919681873623
234,0.00740901475634348,0.10130931743497906,-0.29694211596711984
235,0.00740901475634348,0.10130931696723157,-0.29655864408489657
