Iteration,Energy,Loss Function,Bias
0,0.005718965207689555,0.026928006849288765,0.0
1,0.0036440515381347864,0.02488788741721178,-0.010814726436119314
2,0.0035480145703023908,0.024867942735874088,-0.0120045010060291
3,0.003403251149914484,0.024713042671061537,-0.012105264765368277
4,0.0033093076947864107,0.024639536868413532,-0.012240272058365632
5,0.003268255201567776,0.024562201463100414,-0.012281856386353313
6,0.0032428433206724283,0.024498054984546457,-0.012331746367151354
7,0.003234908268807217,0.024420121761724114,-0.012361300372698709
8,0.0031825562664614185,0.02438740769385802,-0.01239909756425127
9,0.003172819328484859,0.024348062636587425,-0.012392576958041258
10,0.003195039212839381,0.02428911619809542,-0.012368019196667976
11,0.0031914596073618945,0.0242775955244352,-0.012354587563264298
12,0.003192717636963092,0.02425662034236669,-0.012343723392916808
13,0.0031734638309184656,0.02421424848688478,-0.012239054449268191
14,0.003148363260132059,0.024188642271263508,-0.012215597552179035
15,0.003131975520358265,0.024144773862779138,-0.012197421502474335
16,0.003121286687616938,0.02407824042405758,-0.012158372401097439
17,0.0029975493555857917,0.024045456624834722,-0.012122629037217099
18,0.0030429221161313537,0.024004635563176425,-0.012100094801089735
19,0.0029407548162977814,0.023956585930742985,-0.012058403927750004
20,0.0029812711519535615,0.023903416557107086,-0.012021878791823645
21,0.0029472721996589247,0.023876540209734082,-0.011964104653396044
22,0.002916207616291538,0.023834159487579495,-0.011945989208253864
23,0.002904896135927057,0.023818533482030915,-0.011918855413459337
24,0.0029044196845142904,0.023793490304586235,-0.011911025925198231
25,0.002895850341761375,0.023754373396170505,-0.011885943068449702
26,0.002912419700221009,0.023728568040283986,-0.011868087828388097
27,0.0029463663852662978,0.023703431499978146,-0.011844715222663036
28,0.0029116723645573874,0.02368841484930955,-0.011834572665391023
29,0.002929366619217188,0.023665052486861994,-0.011818406056062526
30,0.0029094096752381817,0.02362844315287578,-0.011801650042370678
31,0.002899793999105469,0.023607782443604668,-0.011781167485617566
32,0.0028835177476932497,0.023582399380213535,-0.01175992899014917
33,0.002927818882778308,0.023560673429327047,-0.011738422911880075
34,0.0028437121668185945,0.02354438730988519,-0.011712842640714117
35,0.002871513450085932,0.02352326674235385,-0.011692296619436783
36,0.002867346179895107,0.023504696497025336,-0.011670562056537326
37,0.0028697231086925287,0.0234878209672622,-0.011656902961621628
38,0.002857736965476991,0.023472953349825264,-0.011647743230799085
39,0.0028807224888949554,0.02345695667832868,-0.011645035067466263
40,0.0029024519738439047,0.02343479552498265,-0.011635465821670112
41,0.0029916472083824763,0.02342594939941137,-0.011621727556879291
42,0.0029098246626397812,0.02341319498123332,-0.011615756810652965
43,0.0029308620201015335,0.023393440243082708,-0.011615489991187417
44,0.00290883762079645,0.02336794060765387,-0.011615484961129423
45,0.0029394729883789154,0.023350673957458035,-0.011608868238387738
46,0.0029614771946431593,0.023340512934467213,-0.01161140590190603
47,0.002899838286701562,0.023328248218568538,-0.011608886276070167
48,0.002876710123953134,0.023311943892010252,-0.011606043593924163
49,0.0028524177411621597,0.023290440230560018,-0.011590097835405407
50,0.0029067266492342914,0.023275384512262465,-0.011572572242843509
51,0.0028756973793827322,0.023261099395671597,-0.01155128990475909
52,0.0029666364334875613,0.023244045900692487,-0.011527555878118885
53,0.002865199028418407,0.023228619219225605,-0.01147837326414226
54,0.002832962404212314,0.023215797164470486,-0.011442831967931428
55,0.002839362244866306,0.02320963964358246,-0.01142661613588306
56,0.002858130342496543,0.023200318320754785,-0.011422555363083986
57,0.0028406528962454766,0.023187156370868947,-0.011418987790260675
58,0.0028344008729234735,0.023174189492957943,-0.011419010528206486
59,0.0028290056710064187,0.02316074535754974,-0.011422476493696817
60,0.002863639380727384,0.023146133258673176,-0.011435149015330527
61,0.002876011286485448,0.023139331369690274,-0.011438405057612462
62,0.002876647886695995,0.02313181856761678,-0.011450017230415067
63,0.002909992643946711,0.023125423107783802,-0.011464581712373263
64,0.0029110635521428347,0.023119566749222397,-0.01147978063803023
65,0.002895979546353286,0.023113345383491527,-0.011486799879434009
66,0.0028954701847757223,0.023105172842117418,-0.011495004617885461
67,0.002961171433765225,0.023095663976037795,-0.011500641575971101
68,0.0029486749455495177,0.023087857266716603,-0.01150048056178219
69,0.0029357473779973247,0.023084625255074667,-0.011503029022223853
70,0.0029104497355224197,0.023080537364030675,-0.011500747125484235
71,0.003071125498457472,0.02307760802122692,-0.011495609897137724
72,0.0030403659806814217,0.02307473894600462,-0.01148811009466228
73,0.003000935747260311,0.02307162714054785,-0.01147707874428781
74,0.0030712489118842412,0.023069088555815836,-0.01146180482555574
75,0.003283608634149449,0.023065031229167674,-0.011448524922274965
76,0.003122990825035546,0.023059782536403624,-0.011425935113914447
77,0.0031530966980224313,0.02305739278634514,-0.011414423775673447
78,0.003198683148444545,0.023053832894265457,-0.011401877806601898
79,0.0032226287343511384,0.023050052299557224,-0.011380726331181206
80,0.002940213444529146,0.023048548387287447,-0.011354403685287343
81,0.002997593286086267,0.023046340576529968,-0.011344897682245525
82,0.0030390236960948897,0.023042588550010817,-0.011328186136245661
83,0.0029767019797830195,0.023036388037519097,-0.011296320493450203
84,0.002879068243112116,0.023033488559695395,-0.011273602075278296
85,0.003044773276644641,0.023030928547871497,-0.011258575257987423
86,0.0029858340154683455,0.023028124006490184,-0.011251713386548484
87,0.00298471819794295,0.023025384644323722,-0.011253104108578799
88,0.003092873670044404,0.02302301000768728,-0.01126121177814327
89,0.0030554271700593176,0.02301996089306076,-0.011271991389021583
90,0.002934185115210381,0.023015306829369354,-0.011282389594400154
91,0.0028891801876271828,0.023006512123044543,-0.011294437938965713
92,0.0029480153510899193,0.023003861377532058,-0.011299250594605965
93,0.002873147824165158,0.023002025751393585,-0.01130362874151212
94,0.0028505783197495804,0.023000328826740926,-0.011307758247205016
95,0.0029164206778287656,0.022998845265406062,-0.011308666822758716
96,0.002932650543237028,0.022997236153095176,-0.011312207951805951
97,0.0030175176327505047,0.022995423689880206,-0.011319057556883626
98,0.003002354690249923,0.02299322370177926,-0.01132930774807356
99,0.003014484266752748,0.022991194675892796,-0.011336684058351438
100,0.0029748092920551437,0.022988697441254088,-0.011340918224017851
101,0.003037223824437301,0.022984904948999175,-0.011346028816417395
102,0.003083552007048401,0.02298326091060831,-0.011343381363943647
103,0.0031384987113041176,0.022980800209759105,-0.011341077980050181
104,0.003001761604048686,0.022978304471668452,-0.011333293131763482
105,0.002923144879526991,0.02297621004646173,-0.011325766846428244
106,0.002968614826096776,0.022973282136502435,-0.011324350497174599
107,0.0029041422701552213,0.022969458159587397,-0.011322807785479231
108,0.002967805386052605,0.02296564908238746,-0.011330246312084437
109,0.003025704904184846,0.022964081587020083,-0.011337008052559147
110,0.003044139365853079,0.022961408220843957,-0.011338763099735362
111,0.003023266674896686,0.022956445467672396,-0.011341463350566395
112,0.00299544216128942,0.022952289928402744,-0.011350587863047091
113,0.0031042982501097455,0.022947124801424926,-0.011364438528348446
114,0.0030608913354852802,0.022943296199711825,-0.011385892736050776
115,0.0029824922264988737,0.02293901556811462,-0.01140142659997741
116,0.0029218668486560716,0.022933418080471658,-0.011422970472644886
117,0.0031074870800536798,0.022924808467265755,-0.011463586895435618
118,0.0031142483496120216,0.022918690411395302,-0.011498375754105904
119,0.0030494912002757436,0.022916147934612413,-0.011554938381387622
120,0.00307812984119365,0.022912777081443493,-0.01157640837534888
121,0.003003227408218462,0.022908964250017694,-0.011604235016784167
122,0.003075765605771041,0.022904018777418548,-0.01163042929838584
123,0.0031100730795225358,0.022902746822105538,-0.011649286009179041
124,0.0030914745914498876,0.022900611007751225,-0.01165135881689886
125,0.003064710546191578,0.022896904260155643,-0.011652648350046722
126,0.0030541767560022803,0.022890270024090345,-0.011653641478051037
127,0.0032118499242973554,0.02288307010289767,-0.011650969767169258
128,0.0031817572232337287,0.02288028672076611,-0.011633524767293874
129,0.0031669779023450278,0.022876815069609535,-0.011602793600388248
130,0.0031345836867468263,0.022873232454698227,-0.011558818207583902
131,0.003250815490217453,0.022868899295152838,-0.011515392400377772
132,0.003066915003160539,0.02286480623680948,-0.011470035961881847
133,0.00298252670488043,0.02286417726707351,-0.01144111414325877
134,0.0030121706393665348,0.022863107510356112,-0.011439631176489546
135,0.0029637881032457502,0.02286144779600778,-0.011435711758304991
136,0.002998934973704509,0.022859046876733673,-0.011427689467827276
137,0.003166551681995799,0.02285628179549268,-0.011410075122117199
138,0.0030954254476663395,0.022855121454608524,-0.011384795327564038
139,0.0031905901525865125,0.022853339720199286,-0.01137662096357005
140,0.003087681676815493,0.02285030321945673,-0.01137039960998814
141,0.0028836743463914113,0.02284395770760849,-0.011365064518359898
142,0.002884608512979005,0.02284235591148519,-0.011365290428319573
143,0.0030147705441199574,0.022840404413085165,-0.011373819696477529
144,0.0030317828250462507,0.022838960194510115,-0.011390495302648357
145,0.0029136870793079906,0.022837780590075907,-0.011403218396752146
146,0.0030372826872034453,0.02283679038777611,-0.011420006279823381
147,0.0030706938329445144,0.02283584660370091,-0.011435896824109044
148,0.0030781900395557994,0.022834881975916935,-0.01144701025616158
149,0.0033290150390938213,0.022833414694180033,-0.011455658723421448
150,0.003312942903402949,0.02283223754549791,-0.011462687039881176
151,0.003348376675442799,0.02283168546086162,-0.011468527822882215
152,0.003359935127678483,0.02283100751020095,-0.01146986194919548
153,0.0033161535336492724,0.022830144129523364,-0.011467021093481324
154,0.0032297071007997527,0.022829431781826906,-0.01146069695175432
155,0.0034824336759265244,0.02282887235756014,-0.011456702778436783
156,0.0034761991398426294,0.022828344176360475,-0.011456772506195183
157,0.0034116225570335937,0.0228276537035487,-0.011459173686823339
158,0.0034460015357374173,0.022824287259890164,-0.011470890999414498
159,0.003528708802529962,0.02282383027774988,-0.011472822305296133
160,0.0035425096581221194,0.02282319253129663,-0.011481541222499631
161,0.003406922902082214,0.0228221888211104,-0.01149271580952511
162,0.0033601974432663894,0.022820132604974463,-0.011509922460959115
163,0.0032929894517908192,0.022819600806114143,-0.011515901962440346
164,0.003455510789621623,0.022819046042496013,-0.01152741669131301
165,0.0033981736315955857,0.022818340200503447,-0.011540998846721077
166,0.0034318615548405993,0.02281746921504029,-0.011559630231202931
167,0.0033075608481201693,0.02281637765710724,-0.011584344072358733
168,0.0032554538161934823,0.02281463652889937,-0.011622724403948993
169,0.003054829730793369,0.022808104675752467,-0.011733907304626624
170,0.003074293049451442,0.022807030174075933,-0.011757744716642095
171,0.0031080326256277316,0.02280534458464873,-0.011789045152684507
172,0.0030914575403633245,0.022804110285583067,-0.011825423680008752
173,0.0030958080413470263,0.02280282934422079,-0.01183882584573713
174,0.0030730920272615475,0.02280091617537125,-0.01184283136733633
175,0.0030019262794634175,0.022798199393406406,-0.011843542773226131
176,0.003060996768855411,0.02279449563426451,-0.011842253616294787
177,0.0031489447198358436,0.022790370289655693,-0.011843008335128666
178,0.0031791230791853877,0.022785501338775473,-0.011852648610674012
179,0.0030265561008835287,0.022779127955254067,-0.011872355473055906
180,0.003126298131658789,0.022774496017558328,-0.011887809795670482
181,0.002985409767105012,0.022773467613649307,-0.011913062189353254
182,0.0030216722879793144,0.022771792388206917,-0.011916175179673423
183,0.0029993211226220606,0.022769324371515895,-0.011917133371863323
184,0.0029827922522398147,0.022765830246746017,-0.011915275274883104
185,0.0031174558082162048,0.02276146199243288,-0.01190399704371372
186,0.00318152334785675,0.02275870841051438,-0.011881857763192552
187,0.0031350244395437414,0.022756716912973332,-0.01187040409659697
188,0.0034188905270336996,0.022755211982593986,-0.011852935258130824
189,0.0033085623945098273,0.022753648018659336,-0.011836724470075293
190,0.0032150767834005756,0.02275146477804852,-0.011807843584017926
191,0.003072798237334306,0.02274873042863462,-0.011760315301784247
192,0.0030393723443115734,0.022746634387222697,-0.011702839797226252
193,0.003085977885829029,0.022745782763713827,-0.011661732984996122
194,0.003043067284958679,0.02274428115689918,-0.01165140532132815
195,0.00304135540363327,0.022741414375057396,-0.01163412511085899
196,0.0030287552598658603,0.022737829209002306,-0.011600956876598163
197,0.003116224530008194,0.022735799471927116,-0.011568608610606055
198,0.0031186025494952642,0.022732882499135444,-0.011553256488363787
199,0.002974534269455758,0.022729677513724744,-0.01153118166327635
200,0.0031618488730677696,0.022727463693518888,-0.011493504683390502
201,0.003253280832806515,0.022725179043379694,-0.011475306021927263
202,0.0032684645457672352,0.022722955606300537,-0.011459535643968184
203,0.0031747117154841053,0.02271875447281589,-0.011442060560401484
204,0.003072172471111029,0.022717142498536336,-0.0114331638155341
205,0.003204049239912401,0.022715033976906936,-0.011418620794479167
206,0.003078890229733645,0.022707454277654117,-0.011358512334207793
207,0.0030753443616545937,0.022703815369152263,-0.011311552958731257
208,0.003067142143901449,0.02270169410173048,-0.011279277360954364
209,0.0030234250104618295,0.022699182989432774,-0.01124949749226369
210,0.002920557041269451,0.022694770565729282,-0.011220330905402214
211,0.00292430820425493,0.022694673049685043,-0.011175699770553497
212,0.0029732878580134765,0.02269121868981586,-0.011172773701296906
213,0.003041362402301462,0.022676631664400117,-0.011184670390211728
214,0.0030985087847378774,0.022672887548035422,-0.011190292828651117
215,0.0031336797017251974,0.022667726687050454,-0.011206620759994524
216,0.0032260240666220053,0.022663481889386033,-0.011228396209817807
217,0.003163478191957263,0.022660090227227793,-0.01125184808173553
218,0.003238744407640952,0.022656816562649243,-0.01127384029831971
219,0.003204820857885572,0.02265578574160564,-0.011292022815960189
220,0.003199762315479694,0.022654137466104455,-0.011294824018701915
221,0.0032699007983309726,0.022652254369765323,-0.011287299249819874
222,0.003358945329189126,0.022650317037633278,-0.011271778321364738
223,0.0035730863875453925,0.022647524658488082,-0.011243082769569219
224,0.003359299160155103,0.02263998846154552,-0.011188891628730106
225,0.0032450918496317155,0.022639222237379113,-0.011179418561808395
226,0.0033233642854077314,0.022638264107484474,-0.011177308861887007
227,0.003332801519535429,0.022636675334168403,-0.011177301173269113
228,0.003169641903630465,0.02262784868225232,-0.011184991667695224
229,0.003243908049190982,0.022626782756807847,-0.01118640894503304
230,0.003354217351991225,0.022625263663124333,-0.01118547259694912
231,0.0033487669211909846,0.022623416886383942,-0.011181121429489432
232,0.0033212153899755854,0.0226210535811756,-0.011175181000410084
233,0.0032883532304474046,0.022620021094851846,-0.011173931047961841
234,0.003319138793684286,0.02261839444082796,-0.011170237470691112
235,0.003389904573015129,0.022616196496511632,-0.011157399514378837
236,0.003371119692005619,0.02261328809940839,-0.01114093977653608
237,0.0031671508948478487,0.02261091027822329,-0.011129443558850587
238,0.003299708560903304,0.02261006518768172,-0.0111269095169142
239,0.003261828539336416,0.02260906152571854,-0.011125396387485864
240,0.003367522966928568,0.0226080771194111,-0.011121745642458063
241,0.003161949044236255,0.022607344809532238,-0.011124697358012662
242,0.003402711726137501,0.02260657306857886,-0.011134191827517943
243,0.003385687590401897,0.02260428995080966,-0.011140898483201076
244,0.0034514373309268553,0.02260376532480814,-0.011143550413324065
245,0.003361684684197156,0.022603060055287404,-0.011145603551163567
246,0.003323244955731127,0.022602116431699064,-0.011149202635158922
247,0.0035097492968130853,0.022601308766459428,-0.011155003519120906
248,0.003439240009362266,0.022600635554501577,-0.01115555786535927
249,0.0034255191254893044,0.022599681842720612,-0.011149530587996054
250,0.003372344990699089,0.022594797651488,-0.011134814981522065
251,0.0034932950394116783,0.022594605304796414,-0.011136213636965786
252,0.0034786469256176743,0.022594242495242233,-0.011137160534821996
253,0.003553113884469688,0.022593589363368034,-0.011135310043882341
254,0.0033832788081842474,0.02259238372335903,-0.011126685886030099
255,0.0031630049358664022,0.022583274520731805,-0.011070187703323195
256,0.0031522114261856122,0.022582560995052976,-0.011054744003893054
257,0.003124186034252414,0.022581285429806065,-0.011049007567895602
258,0.0031550524761882613,0.02257413128923659,-0.011017822070321346
259,0.003053203446154281,0.02257180899945232,-0.011005183057801743
260,0.0031768598935389522,0.02256864011563296,-0.011007082066613919
261,0.0033100780647186837,0.022565059995423686,-0.010999852095708853
262,0.003217934661167769,0.02256179306555268,-0.01098433881918471
263,0.0031358237074306213,0.022557706307741846,-0.010957850194880861
264,0.003200982682112896,0.022551472273086588,-0.010940151845421997
265,0.003104519992098698,0.022540458190104137,-0.01091968655699608
266,0.003220687689507515,0.022537288244181483,-0.01090627700888209
267,0.0033502427331606912,0.022534579542445952,-0.010898496713901355
268,0.0031836955050147334,0.02253236172108631,-0.010891437086386948
269,0.003276524396271248,0.022529776616028563,-0.010895909392652158
270,0.003391902163686307,0.022525210326057404,-0.010881993804495406
271,0.0034006385878467163,0.022522432087513786,-0.010870639375659071
272,0.00332586482619995,0.022520990981205205,-0.010861008015373605
273,0.003374894286824406,0.02252034623688543,-0.01084558359642093
274,0.0033852631732917346,0.02251958615870299,-0.01083322485478366
275,0.0033093963703116585,0.022519098362158412,-0.010829318559670589
276,0.00346285967452375,0.02251860871448013,-0.010820082512139905
277,0.003580631692036015,0.022518220687804742,-0.010812975631266288
278,0.003515235887333623,0.022518133330312592,-0.010797746857063474
279,0.0035068974146422356,0.022517989451309253,-0.01079649719803045
280,0.0035371287945066203,0.022517779110906612,-0.01079306036741093
281,0.003366652864972202,0.022517501660051033,-0.010790750235395516
282,0.0033912415918535468,0.022517188900603117,-0.010781834901437986
283,0.0034288859936915292,0.022513740761013524,-0.01071263835246709
284,0.003410992135489242,0.022513673283317895,-0.01070804703527249
285,0.0034800245722111304,0.02251304986374231,-0.010686894811904223
286,0.0033780314778699303,0.02251172790906312,-0.010648843490133566
287,0.003325548575969237,0.02251127222991456,-0.010632208535394134
288,0.0033234161922469805,0.02251045421891764,-0.010620956946595147
289,0.0032101086665373255,0.022503093207217974,-0.010559709415899003
290,0.003255673033648969,0.022502686597446794,-0.010550512324561173
291,0.0032721448629237466,0.022501941635096848,-0.010545664787387093
292,0.0033435808343025893,0.022500545917995277,-0.0105380253000862
293,0.0033265767828701046,0.022498223666138215,-0.010530647085372333
294,0.003262166926903537,0.022494487003245557,-0.010530223906828567
295,0.0036850484394583094,0.022489144890135548,-0.010545094238889713
296,0.0035728265697351717,0.022477245556389056,-0.010576893355196779
297,0.0037444222781827085,0.022476883928232553,-0.01058527148815889
298,0.0037039041773913677,0.02247384637199498,-0.010580957224507666
299,0.003538825901795565,0.022471851036267792,-0.010549588603985728
300,0.0034986643912005197,0.022468984483587598,-0.0105474496019994
301,0.0033591299158336123,0.02246544233221934,-0.010571144549504004
302,0.0034635722951191768,0.022462947545897366,-0.010621943579249666
303,0.003473224194255034,0.022462050212768134,-0.010644367708361229
304,0.003503573376561945,0.022460801194606316,-0.010657859665214356
305,0.0036299026803753294,0.022459138812629367,-0.010684342544993007
306,0.003462286172587352,0.022458959869784988,-0.010718326045815739
307,0.003514979307635491,0.02245862981693791,-0.01072226850567184
308,0.0034818258781599758,0.02245807391976391,-0.010733038429984748
309,0.003237425648235327,0.02245726945011697,-0.010755336105953748
310,0.0032085771474501595,0.022456503346848487,-0.010806279922181097
311,0.00335940267911215,0.022455870361867605,-0.010880068983220942
312,0.0033976733735102617,0.022455612247212882,-0.010899562389329771
313,0.003420666507468975,0.022455225766956067,-0.010903156625924426
314,0.003515970982936827,0.022454890624878952,-0.010897075412881648
315,0.0034037443788551562,0.022454585653268824,-0.010903794093689982
316,0.00334642414578116,0.02245442426120942,-0.010915598327497278
317,0.0033326642993317234,0.02245439098941479,-0.010928280714601956
318,0.003313665123814607,0.022454337824647737,-0.010928120601784518
319,0.0034200808642992644,0.022454262182666187,-0.010932419412484176
320,0.0034221398856453464,0.022454201902000898,-0.010934713159149423
321,0.0033777268348759077,0.022454164339993563,-0.010939590890678674
322,0.00338345708487969,0.02245411435141996,-0.010943534961827732
323,0.0033795680641505966,0.022454040955645082,-0.010954731230641267
324,0.0034225781771852976,0.02244825186965842,-0.01110501656439941
325,0.0034023238843564514,0.022448246792144955,-0.011106355766660638
326,0.0034368302712329477,0.022448044865411163,-0.01110781978742332
327,0.0034375851053517763,0.022447670974492403,-0.01110747754816001
328,0.003442928803883929,0.022447024887292784,-0.011108792743057278
329,0.0034576784685911867,0.022445969536242703,-0.011115028412484665
330,0.003183497664754325,0.022437195818901495,-0.011142552022490567
331,0.003245369067885321,0.022436932456012835,-0.011153715278340512
332,0.0032352998012108894,0.022436437756954395,-0.011156836925608163
333,0.00328746421721051,0.022435498166828372,-0.01116431645848241
334,0.003191993312439661,0.022433758552200117,-0.011188870290306777
335,0.003637657742437967,0.022425989254251703,-0.011327672587462192
336,0.003573655657619731,0.022425398456104424,-0.011378148731581807
337,0.003513584489190453,0.022424397701283093,-0.011405234464676632
338,0.0036132670450780865,0.022422732477192186,-0.011469892709428997
339,0.0033453359131617065,0.022408293243690338,-0.012044055565552228
340,0.003362512039594241,0.022406795536037794,-0.012088019250394974
341,0.0033562712612877983,0.022404135347642573,-0.012095587697324014
342,0.0035400915615945014,0.022399508904983382,-0.012056394257011504
343,0.0035621648104694815,0.022391709523061448,-0.011953847397880048
344,0.0033060744343666993,0.02238351862350666,-0.0117450392169026
345,0.0032538182380645155,0.02238159481854985,-0.011610726163650869
346,0.0032052025165706937,0.022378296815046397,-0.01159853958235484
347,0.0032716944040809366,0.02237235654778248,-0.011546422764655855
348,0.003626002242746485,0.022369461016096874,-0.011448222944038704
349,0.0035416517925562553,0.02236827625733995,-0.011408439365162993
350,0.003516340479204935,0.022367638295370303,-0.011374074636206412
351,0.0035605472197945145,0.022367430890659856,-0.011325815004302716
352,0.0034507797699302118,0.022367091249681087,-0.01131707510240094
353,0.0034428793632763845,0.022366625329267992,-0.011307325549284604
354,0.003435687132207749,0.022365932454615836,-0.01128623915871952
355,0.0033013638225147662,0.022361365904222538,-0.011225045254050728
356,0.0033377557178405504,0.022361232419600714,-0.011213783642692115
357,0.0033484183631045674,0.02235477425057186,-0.011209357442884815
358,0.003362717469578699,0.02235435877272882,-0.01120500907943341
359,0.003263025404142878,0.022350542858027324,-0.011204816980118628
360,0.0032180931310747214,0.022332281272132597,-0.011159586282624805
361,0.0033200586636554425,0.022330287230387477,-0.011141397399095922
362,0.003485363783986869,0.022328784345840638,-0.011136114452946056
363,0.003570542592514802,0.022327561241897588,-0.011100860513164557
364,0.0036418606189348073,0.022326449639365472,-0.01109350423396572
365,0.0032379392470185046,0.02232210643921402,-0.011088040859998354
366,0.003208602154808773,0.022322011122625055,-0.01109279857994714
367,0.003191038017183973,0.022321194338607752,-0.011110187692348691
368,0.0033040494183280288,0.022319936452626206,-0.01113871085793523
369,0.0032001163714390234,0.022319060003533148,-0.01121883514320744
370,0.0034636741140041827,0.022318511759710873,-0.011245689499099331
371,0.003360795867552798,0.022314934682303077,-0.011243107036500312
372,0.0036520341204159742,0.022313811654460877,-0.011207456362012525
373,0.003557796888120808,0.022312494001902022,-0.011185013579741
374,0.003452682567553218,0.022310945659060423,-0.011159455262190586
375,0.0034332999657722607,0.02230597964055674,-0.011131611694400302
376,0.0034299393296903366,0.022305779748582475,-0.011127705195715057
377,0.003432670152273386,0.022305409557624896,-0.011129000100560157
378,0.003429496892782367,0.02230472108593922,-0.011132134283825297
379,0.0031632356971667197,0.022297795354694002,-0.011180016247791932
380,0.003114225533069812,0.022297340756180138,-0.011190969364472485
381,0.0032084428662251425,0.02229657543545266,-0.011205900002702166
382,0.0033593345961362027,0.022295374907766147,-0.011235178409325959
383,0.003409297145702751,0.02229421981853463,-0.011286597436349837
384,0.0034581783348316864,0.022293710915426247,-0.01133199982238905
385,0.003471909928621676,0.02229338946125628,-0.011326421195291383
386,0.003349474099115934,0.022293216629097518,-0.011315791132728212
387,0.0034571348773930065,0.02229310894823103,-0.011333633837114826
388,0.003382735546430148,0.02229306955618129,-0.011341989342447149
389,0.003397818103247099,0.022293011702371985,-0.011337548925201186
390,0.0033402302054123876,0.02228786363345982,-0.011266235841431996
391,0.0033402302054123876,0.02228785959207739,-0.01126553061837199
392,0.003423679561776785,0.022287294581510447,-0.011249423179787506
393,0.0033873302444448676,0.022286559281181527,-0.011239905124780814
394,0.0033731544958988365,0.02228643159932776,-0.01122531298299814
395,0.0033940932565849472,0.022286307798075687,-0.011225110649251196
396,0.003416310131742732,0.022286290249473067,-0.01122486412914524
397,0.003415957661283087,0.022286263618178117,-0.011219847892372898
398,0.003490346953182752,0.02228621686361494,-0.01120759818808212
399,0.0035932236548853556,0.022277998108530827,-0.010968512853200938
400,0.0035932236548853556,0.022277995977632647,-0.010967411531819309
401,0.0035805850763074515,0.022277650100027694,-0.010961379404888243
402,0.003733179608690584,0.02227300495666581,-0.010869149701279245
403,0.003772268041870705,0.022272714970018925,-0.01082732773957218
404,0.00361686740140018,0.022259305194971327,-0.010625036434898654
405,0.003557149652725659,0.02225888540201472,-0.010610639329496538
406,0.0035067851710256404,0.022258135718511724,-0.01060776524359779
407,0.003516333125576057,0.02225672422242846,-0.010599077821093561
408,0.003516382672364059,0.022254166622541746,-0.010577922417142597
409,0.0035113631683216,0.02225039000772156,-0.01053260297184357
410,0.0035640739403666687,0.02224441144750725,-0.01045299007634934
411,0.0035406599468839,0.022243593452251617,-0.01038854158538861
412,0.003505837118832406,0.022243445534462895,-0.010337769413498718
413,0.003505837118832406,0.022243168634534627,-0.010338788797731242
414,0.003519941605492727,0.022242694954382324,-0.010343401160648696
415,0.0035785262816989336,0.022242227309718265,-0.010351646209962406
416,0.0034776636411853927,0.022242200006715857,-0.010348639380816704
417,0.003485204337646151,0.022242164615974194,-0.010352122054208105
418,0.0034939591697241805,0.022242130739247166,-0.010352725903585117
419,0.0035045757566183216,0.02224208631730228,-0.010361882946366547
420,0.0035772206115863205,0.022242054531745162,-0.01036931207816844
421,0.0034999581884982336,0.02224202142823287,-0.010378874231027554
422,0.0035048544873623974,0.022241990609658462,-0.010396898403363237
423,0.0034368801522592918,0.02223322512542554,-0.010808651152488547
424,0.0034368801522592918,0.02223322319788279,-0.010811083518856944
425,0.003338042138896727,0.02222891856119696,-0.011023225223900583
426,0.0034233334430886827,0.022227305569744026,-0.01104824891541502
427,0.0032720755359013816,0.022224775181484614,-0.011028856356264523
428,0.0033738281884203437,0.022221068562086818,-0.010994264274219857
429,0.00347423383524036,0.022218252517885766,-0.010945529819224774
430,0.00337826114124078,0.02221723970062933,-0.010989272493434753
431,0.0034055326653631376,0.02221279128569802,-0.011134759830796448
432,0.0033215208005779196,0.022212655917406957,-0.011147590110928836
433,0.0034736669482460366,0.0222061524783932,-0.011351761651029017
434,0.0035046036652251634,0.02220498599856072,-0.01141359666494785
435,0.0034346410258612584,0.022203887455858978,-0.01149680704500784
436,0.0034673219952599758,0.02220194181256347,-0.011503864976724442
437,0.003463475252115791,0.022198937215758874,-0.011500235234956108
438,0.003380340235304932,0.022196834430015636,-0.011501029645529607
439,0.00320657818278047,0.02219547609345602,-0.011506251761203564
440,0.0029912103419956013,0.022188595921796,-0.011510305541781214
441,0.00294837615124051,0.02218849575511249,-0.011509862169579443
442,0.0029697674450230855,0.022187577734036734,-0.011504349809800833
443,0.0031192235329368678,0.022185983378051874,-0.011494856888408346
444,0.0032618370462756344,0.02218378255942008,-0.011441808683044131
445,0.0036324771154588463,0.02218269385221996,-0.011408053286536874
446,0.0035997488795111118,0.022177886878186014,-0.011335807222585075
447,0.0035997488795111118,0.022177780616805847,-0.011330628286784722
448,0.003707199339345047,0.02217684358768983,-0.011315914486896558
449,0.0036208861065163953,0.02217547884497735,-0.011285410632207308
450,0.0037885980104874982,0.022174952160641262,-0.01123367799274965
451,0.003553314777305155,0.02217480489428602,-0.011201783757631574
452,0.003638947131224182,0.02216886164149353,-0.010705030822966432
453,0.003638947131224182,0.022168830232343565,-0.010692541217940528
454,0.003588766719585537,0.0221531999841583,-0.010381971859437386
455,0.003612706844006123,0.022152716653451084,-0.010350069622895877
456,0.003659554563987612,0.022148228880202916,-0.01035705684209152
457,0.0036848253590789424,0.02214089645978869,-0.010396370728604642
458,0.0037932012693979427,0.02213158768658243,-0.010386529400474435
459,0.0034530507150381047,0.022123380137776823,-0.010322814457375406
460,0.003551792948472385,0.02211991583690852,-0.010323616098572325
461,0.0034406471894445146,0.0221183359455555,-0.010330311643427416
462,0.0035272457250112976,0.022115729237608087,-0.010355743573240919
463,0.0030832488644596577,0.022109791324640506,-0.010396198059073937
464,0.003036337142257999,0.02210894225390768,-0.010406105324103129
465,0.003056311513956831,0.022107587916248353,-0.01040375115169937
466,0.0030550165541507798,0.02210517908020967,-0.01041610166755863
467,0.003071001155086609,0.02209797042827024,-0.010456422424638756
468,0.0032496035230122843,0.022093927252141595,-0.010500171941620326
469,0.003275296844249907,0.02209218122488055,-0.010521620123999272
470,0.0034447834491802645,0.02208953515037988,-0.01057740568785653
471,0.0035210951770629595,0.022084247375729667,-0.010669915698939521
472,0.003530188893380638,0.022082615845412535,-0.010701702195828099
473,0.0034851476616722028,0.02208033085347399,-0.010776345773988989
474,0.003624461419453422,0.02207706594763414,-0.010890756855753777
475,0.0035836119801735053,0.022074144721912554,-0.011037919644066616
476,0.0035360334900275997,0.02207244270726569,-0.011076409652293792
477,0.0036806861201666074,0.022070549754103733,-0.011050117879772961
478,0.0035414948858843117,0.022067861574381172,-0.011019054049336788
479,0.0034057476319593206,0.022063636182245112,-0.010996042197489375
480,0.003409278802049572,0.022063269398283267,-0.010988660769308435
481,0.003425468760397794,0.022062592111511525,-0.010975759241937295
482,0.0034398656483141518,0.0220613876301918,-0.010949722773059138
483,0.0034122003329620705,0.022059448298810853,-0.010897841500213652
484,0.0037853105220068857,0.02205711713501287,-0.010774667188673911
485,0.00342258036331289,0.022053215550580745,-0.01072778989411661
486,0.003454449417389469,0.02205269353903062,-0.010736050802133012
487,0.003379244745301828,0.0220508544153604,-0.010760561311871671
488,0.0034345302105286495,0.022048293880470356,-0.010876070494249587
489,0.003331043931322502,0.02204728620416295,-0.010987736799417596
490,0.0034202560966294475,0.02204647674012804,-0.011148989655710935
491,0.003542197359462244,0.022046151881887743,-0.011183015973356265
492,0.00360051670276374,0.02204596401864708,-0.011245696197943121
493,0.0036826372455982023,0.022045842635878155,-0.011331958893738316
494,0.0034007611242295732,0.022039653393105128,-0.012044248016822518
495,0.0034318755711440514,0.02203964295349201,-0.012055363639854455
496,0.0036600312872171205,0.022032771899001977,-0.012304250093725705
497,0.0038074731745831028,0.022032245025911456,-0.012367534495019305
498,0.0037727403060600156,0.022031278473433002,-0.012329400101656191
499,0.00371504180751555,0.022029649093743314,-0.012259666168549347
500,0.0034711916064754473,0.022027847062316645,-0.012141065902068364
501,0.0034386053343363914,0.02202740657392171,-0.012154478542110284
502,0.0033883603826567947,0.022027163492079175,-0.012173912322777243
503,0.0037247640687345443,0.022026875244697878,-0.012233322121772292
504,0.0038912647316237613,0.0220243879609634,-0.012433506818981305
505,0.003874278098505375,0.02202437015539308,-0.012438936656992156
506,0.0038787180041609456,0.02202367684356991,-0.012437873827198104
507,0.0037098653073425647,0.022022432998993514,-0.012434311874360341
508,0.003625141879112743,0.022020562317752738,-0.012421727402517468
509,0.0034469510202639253,0.022019693095498644,-0.012434897271615047
510,0.003526759699952772,0.02201954824078996,-0.012462846812516817
511,0.0035668292015562293,0.022019444981902392,-0.0124852441073859
512,0.0035484063368187674,0.022019328005737904,-0.012547107053309458
513,0.0036418038576627337,0.022019258914551722,-0.012562472489668077
514,0.00382148207188512,0.022012477899320176,-0.012728468723833236
515,0.00382148207188512,0.02201247350729883,-0.012729848796955434
516,0.0038157758951452465,0.022010127331930075,-0.01266521613666886
517,0.0035420433531686336,0.02200281470870504,-0.012493287144665102
518,0.0034987731866328374,0.022001955944503698,-0.012460965713619593
519,0.0035509001159242212,0.02200050279180931,-0.012413572347207727
520,0.0036091632110455637,0.021997864879210106,-0.012271740488422053
521,0.00349488041602843,0.02199572944859459,-0.012155958519901141
522,0.00356664331507779,0.021995344749991028,-0.011923536507756714
523,0.003667481829433666,0.021994688116541688,-0.01190189125657068
524,0.003593158798356325,0.021993600123206034,-0.011855487535897756
525,0.003426957638841667,0.021992116234853407,-0.011670651902751005
526,0.0035376823664611135,0.021991710784417463,-0.01157107531928145
527,0.0036168795273366053,0.02199150624591707,-0.011479079703877768
528,0.0036313907826374964,0.02199146153672859,-0.01142656268082773
529,0.0036139364574904968,0.021991385790470188,-0.01142800995322279
530,0.00371494379027814,0.021991290045114482,-0.01142221543157036
531,0.0035898470998883296,0.02199124011379411,-0.011397403107297421
532,0.003149306150582865,0.02198243914732932,-0.010852413108205679
533,0.003141820831194352,0.021982433358431575,-0.01084699337326162
534,0.0031842923713722455,0.021981500933306926,-0.010813439257150103
535,0.0031842923713722455,0.021979911590885033,-0.01078298143142775
536,0.003159674907281566,0.021977337669928144,-0.010786699013445854
537,0.003260739130128034,0.021971365244277535,-0.010787544049610477
538,0.003269544761977808,0.02197115747050118,-0.010800155287019131
539,0.0034558311328683196,0.021969542281116455,-0.010902271069174284
540,0.003512916128379494,0.021964978133867517,-0.011173116322541561
541,0.003327132083068679,0.021964708161302648,-0.011218054902710035
542,0.003321627632498983,0.021964196074243075,-0.011217534210177583
543,0.0033570447305758585,0.021963227597704978,-0.011202125848497528
544,0.0032899345421578264,0.021961433035477842,-0.011165152302315904
545,0.0032230151725974993,0.021953856631707673,-0.011056663927848208
546,0.003171220843929842,0.021953608030264502,-0.011048080745269709
547,0.0031244182677025224,0.02195158276605523,-0.011023497069012785
548,0.0031402527518424395,0.021948505366949592,-0.010954560153251372
549,0.0032391591344485757,0.021946589821778308,-0.010939123944799484
550,0.003246903767155881,0.02194585804471367,-0.010933617483673002
551,0.00324486171118888,0.021944544544419985,-0.010917629815152255
552,0.0032001295867817893,0.021942296587856187,-0.010855246365638048
553,0.0034981641468114885,0.02193899117288733,-0.010709093594397569
554,0.003641369792261824,0.021933837475167903,-0.010567932957415803
555,0.0036337489160298327,0.021933643123425165,-0.01054925107799338
556,0.003435455177043108,0.021932156123153843,-0.010452925266664628
557,0.003446009573113954,0.021930586872544483,-0.010220994739951665
558,0.0034838611507519005,0.02193024617408016,-0.010113134200147707
559,0.0034915038083314755,0.02192999222405609,-0.010029501402592835
560,0.002980560016579884,0.02192483947184665,-0.009235586567847464
561,0.0030262465642575684,0.021924783269652765,-0.009197832166649648
562,0.0028537821848714767,0.021922318434146455,-0.008970887068691378
563,0.002935368226039523,0.021918851362065374,-0.009128104625044627
564,0.0030578795864560876,0.02191723539231454,-0.009439868536677986
565,0.0032916273876652095,0.021915877347893898,-0.00976320451219995
566,0.0032055685325558395,0.02191524311269771,-0.009902762087514916
567,0.003196512851379872,0.02191450145402412,-0.010230119329569404
568,0.003178117441621603,0.021890393792602637,-0.01221385000076564
569,0.003267142974258518,0.02189028715810281,-0.012301120953222791
570,0.0031384400079822344,0.021886684630140877,-0.012306764689440268
571,0.003079865557142448,0.02188165025266602,-0.012238028265075876
572,0.0031561322683170035,0.021876566364240072,-0.011688273015203149
573,0.0032885097654903133,0.02187148706082368,-0.011221932866751202
574,0.003342158167970577,0.02186887175762277,-0.011052565982929523
575,0.0035009957666246585,0.021867015461721626,-0.010962486250874285
576,0.0036156702096319447,0.02186555710770153,-0.011054386439455565
577,0.003399242982795395,0.02186364661860548,-0.01126717311643399
578,0.0035204463002515393,0.021861665795386138,-0.011657699128041713
579,0.0034341927434239647,0.021860877419150507,-0.011830759139672199
580,0.0035045565505207044,0.02186037475756904,-0.01193306714028648
581,0.00356008151331345,0.02186013427234348,-0.011973215085718067
582,0.003460410154369756,0.021859975033959363,-0.012002484392832021
583,0.0034198470011488047,0.021859804775078182,-0.012061984969799183
584,0.0032470931907789256,0.021855392366706125,-0.012545015597742149
585,0.0032470931907789256,0.021855379398784527,-0.012553591084827445
586,0.0032527726956093263,0.02185485837853523,-0.01253043471315755
587,0.00360920088567447,0.021849152544318743,-0.01229598562311906
588,0.0036357519282984594,0.0218490226039465,-0.012271652302825042
589,0.0035613325119294133,0.021848775543472865,-0.012221331183560138
590,0.0035453701062616214,0.021848315654147063,-0.012114558884472168
591,0.0034230484542062305,0.021847533866936414,-0.01189031407706992
592,0.0034291858466511285,0.02184667659422049,-0.011373010212891409
593,0.0034181402771087384,0.021846549882157097,-0.011305361277730097
594,0.0034425301724168573,0.021846363547720297,-0.01122165570876762
595,0.0034291044867453936,0.021846233081865705,-0.011189241855587562
596,0.0034343514257890863,0.021846147716978848,-0.01118022075645539
597,0.0031368524319889905,0.021843759799248984,-0.011133975206474784
598,0.0031368524319889905,0.021843752268165803,-0.011134123253022331
599,0.00317288484580612,0.021843455341006512,-0.011176444919095826
600,0.003290930886081115,0.021842912649836822,-0.01124893954912751
601,0.00340646792360745,0.02184203474133176,-0.011419611926566155
602,0.0034307424239270754,0.021841334362754185,-0.011726603077394752
603,0.003556700722121425,0.021841194762262255,-0.011812669970587006
604,0.0036302289024115644,0.02184097202751593,-0.01191899425273659
605,0.0034909429933769258,0.021833613059597,-0.012239003023663235
606,0.0034909429933769258,0.02183361015570444,-0.012242001647837746
607,0.003527753494818731,0.02183314713167243,-0.012132392030090242
608,0.003540946016390386,0.021832304926110664,-0.011871522708321583
609,0.003447973750730907,0.021831006925860704,-0.011259886209391808
610,0.003608474043319642,0.02183040151808162,-0.010480587562074215
611,0.003568081841114839,0.02183029013214433,-0.010398278934962132
612,0.0034411699017671076,0.021830160898974167,-0.01022940472390215
613,0.0034411699017671076,0.02183012678333155,-0.010143763165981473
614,0.0034695953269402403,0.021830078998991705,-0.0099786147597208
615,0.0034541718974546737,0.021830028742204043,-0.009773149925094132
616,0.0035589697608503657,0.021829945190683292,-0.009415401571807688
617,0.0033808355598564824,0.02181672034152757,-0.005292728310274965
618,0.0033808355598564824,0.02181671735019061,-0.005271282308042639
619,0.003483847215400774,0.02180897891521497,-0.004547595204221418
620,0.0036915484136691985,0.021799898987660424,-0.004259342126344764
621,0.00341468239358935,0.021795859769698955,-0.003936003227451336
622,0.0032991481085794124,0.021788428388494818,-0.00424467900485907
623,0.0034175142770792393,0.02178353463544273,-0.004404464045353253
624,0.0036689039679256206,0.021777121655741,-0.004953559505017577
625,0.003534891128103344,0.021773049883289496,-0.005135493116677591
626,0.003453489157621843,0.021772062343825616,-0.00521371524208653
627,0.003476359401311722,0.021770353426464818,-0.005400496715069013
628,0.0036140044822628756,0.02176770970005721,-0.005843013228246774
629,0.003552912408021902,0.021765434828807,-0.006737606908998715
630,0.0035728947169372523,0.021762233329164694,-0.007483852030601781
631,0.0036547839978956285,0.021762073601950142,-0.0075809474735086665
632,0.0036843725374285413,0.02176075013211864,-0.007555781209698087
633,0.0036020119280865174,0.021758901441207987,-0.007547288101551541
634,0.003794952512829898,0.021758213707325582,-0.0074726051309563935
635,0.0037061490729491118,0.021757967008737895,-0.007758332666809935
636,0.0036714218011556273,0.02175769463353738,-0.008130721440279041
637,0.0036710797480092954,0.021757520499194695,-0.008574925621316022
638,0.0036658453219444984,0.0217574204280505,-0.008891351377928727
639,0.003798397122068383,0.021757339376993083,-0.009192285014519469
640,0.0037617267698203164,0.02175730140190719,-0.009322914173489088
641,0.003737273412567061,0.021757282857540118,-0.009373365210357542
642,0.003823318232192628,0.021757269619698427,-0.009416530136657747
643,0.003767925246295423,0.021757257448795274,-0.00947516033144905
644,0.0037112598179609513,0.021757244504811913,-0.009557589911943689
645,0.003757976481041465,0.021757226056549075,-0.009686667927310039
646,0.003757976481041465,0.02175719303413619,-0.009892992797812594
647,0.003561750821061847,0.021745322447235264,-0.013019660069725512
648,0.003561750821061847,0.021745321634618824,-0.013028589073763733
649,0.0036278199785639044,0.021744821205066392,-0.013040144488890265
650,0.003558641869011576,0.021743948320285863,-0.013127064590010772
651,0.0035514361591844987,0.021742636395248673,-0.013482761522434496
652,0.0038630213160546906,0.021736048559608517,-0.015114945847858519
653,0.003683489842753602,0.02173592554183474,-0.015232047236922504
654,0.003735785043449695,0.021734044967471014,-0.015469102409838934
655,0.0036930648106859557,0.02173331939771583,-0.01556989243427972
656,0.003886461890938429,0.021726596257871905,-0.015755852480062497
657,0.0037910587459135474,0.021724869630314208,-0.01582175633735968
658,0.0037241003422317028,0.02172244283420461,-0.015446230555227694
659,0.003473729407132784,0.021720465122912647,-0.01453243014629863
660,0.0034957392964920244,0.02171868545751346,-0.013760292729645
661,0.0035292139462387425,0.021711394433956664,-0.012071270855558792
662,0.003451908665135353,0.021711167499984016,-0.0119471896908664
663,0.0037746521672495192,0.02170496107493714,-0.010735547766797462
664,0.0037100734127835018,0.021704458319559805,-0.010634836511650191
665,0.003735858777887188,0.021703537940213024,-0.010722899700114781
666,0.003732147890960033,0.02170191460043217,-0.010956228468508276
667,0.003819454160692296,0.021699954240931414,-0.011478749319814815
668,0.003826002220420125,0.021699176992862914,-0.011522326755690796
669,0.0037522701789672853,0.021698779577083622,-0.011571230697970515
670,0.003650014237759737,0.02169839593207681,-0.01142223619783759
671,0.0038215469612846867,0.021698203237096484,-0.011157890589631394
672,0.0038921986446268093,0.021697982460382705,-0.010754971175585345
673,0.00394047946752016,0.021693687679758197,-0.007727587976827774
674,0.003961206563708075,0.0216936597600055,-0.007644307469058348
675,0.004120302916470787,0.02169265735933981,-0.007642834814186161
676,0.003872383956740379,0.021691021929188897,-0.007853253145406622
677,0.003742751749750136,0.021684089489025907,-0.008686586617538553
678,0.0037887672487465556,0.021683693708908325,-0.008752121340459964
679,0.0037948085937702654,0.0216823172963828,-0.008918722369576523
680,0.003744645840366914,0.02168014790200647,-0.008982454105212012
681,0.0037893594943884173,0.021676520544520444,-0.008960537884445993
682,0.003673165061687137,0.021666685309493394,-0.00884316106249486
683,0.003500920844649398,0.02166570947939861,-0.009269711000026042
684,0.0036459699438545104,0.021664121187989965,-0.009318683197842797
685,0.0037358837357801392,0.02166130116147123,-0.009390533800976063
686,0.0039036960351228,0.021657584286861462,-0.009377922226965256
687,0.003567931261296012,0.02165268434858475,-0.0098030382246361
688,0.003632222395186411,0.02165209652960414,-0.009460309381832177
689,0.003669372404294884,0.021651015723260805,-0.009475163644261415
690,0.0037196129526582892,0.02164923322808592,-0.009469140079428087
691,0.003545698163481356,0.02164719985281566,-0.009485363484750924
692,0.0035079607680538827,0.02164443636948791,-0.00954175362234048
693,0.0034690830718841284,0.021644189041732067,-0.009559885184894734
694,0.003488243277655621,0.02164371739578193,-0.009510911317148858
695,0.003932757879248799,0.0216399773025983,-0.009457078499409572
696,0.0038976559133188206,0.021638467182304142,-0.009556553998465956
697,0.004070271605369629,0.021636908367173347,-0.009316154327993315
698,0.004021429528966413,0.021630214225565565,-0.00904405011553021
699,0.003900229528009072,0.021629883352780307,-0.008979512219433484
700,0.004155121536786301,0.0216292723495312,-0.008997794232682425
701,0.004032352786178339,0.02162819299353183,-0.008977563195849459
702,0.003865941358463742,0.021626642160382376,-0.008861251263584922
703,0.0039187186653418865,0.02162602475516977,-0.008658799547957117
704,0.0040577073388798224,0.02162581818611562,-0.00860885124140761
705,0.00422121658815426,0.02162559316562555,-0.008528422280525928
706,0.004113440509412305,0.02162542216761804,-0.00855192176935334
707,0.0040607022203635115,0.021624115458909153,-0.008817951046888407
708,0.004082842015556792,0.02162408430916594,-0.008834811678588662
709,0.0037038163033682745,0.02162379051759096,-0.008883604189413767
710,0.003635344577445705,0.021623234674141414,-0.008948885227180722
711,0.0035375603958706205,0.021622244187600777,-0.009006551566450343
712,0.0034252744616655117,0.021620799905704112,-0.009008323152019349
713,0.00367512271037804,0.021619974898330205,-0.008817039491948495
714,0.003443207768269786,0.0216140843274848,-0.007926250732071363
715,0.0034344341423944687,0.02161396096327713,-0.00789150853724374
716,0.0034049378262598078,0.02161201811318198,-0.008045893688639182
717,0.0037516487818179344,0.021609779810720247,-0.008194101856496168
718,0.003710204486875994,0.02160731127630249,-0.008204231431490128
719,0.0037409854417449553,0.0216056909112432,-0.00862393662089788
720,0.0036455302546524256,0.021604968918069456,-0.008745431368648882
721,0.0036896977732288638,0.02160446939924745,-0.009047970573174267
722,0.0037048458344973653,0.02160412202349425,-0.009462132644342565
723,0.0036254566903016375,0.02159806548386114,-0.013308691796024584
724,0.003729332157332749,0.021597943577856035,-0.013591398599225025
725,0.003691306952491383,0.021594715505617243,-0.014303046501298081
726,0.004070040578521318,0.02159195724032081,-0.014074644607912091
727,0.004170252608065292,0.021588082586323495,-0.01324703745284527
728,0.004097444045951993,0.021585590646714704,-0.011870866162550368
729,0.0040159387462913605,0.02158487113351698,-0.0116852503923452
730,0.0038848982888037976,0.02158422470816938,-0.01114157410104483
731,0.0037279125974032674,0.021583894600542813,-0.01074376706658771
732,0.003595129938441892,0.0215836010908474,-0.010226275689243189
733,0.003511097559109043,0.021583411369020006,-0.009967508642336797
734,0.003618599695219721,0.021583263977056164,-0.009804022625023591
735,0.003738659062227241,0.021583117785112405,-0.00966028639130653
736,0.0036266590128305382,0.02158291379076777,-0.009354957214170848
737,0.0033966730841799913,0.021578163961009422,-0.007380967900370259
738,0.003399457978341587,0.02157814906235396,-0.007310030330771417
739,0.00338137600080042,0.021577589012157627,-0.007317290731457484
740,0.0033877304756830453,0.0215765990992762,-0.0073854430608577566
741,0.0034795473171293488,0.02157502816549801,-0.007340958250439933
742,0.003356996230120748,0.021568734401759312,-0.007720125619800221
743,0.0033842514367813463,0.02156848757743445,-0.007764791731996528
744,0.0033761089911565614,0.021568032792612706,-0.007837326719749868
745,0.003406913868489936,0.02156716860183339,-0.007871008118622685
746,0.0034815440024733345,0.02156557834012256,-0.007900487550931796
747,0.0034634793376471878,0.0215629965149438,-0.00787312205894292
748,0.0034976033007479827,0.021561063140602542,-0.007865276793943332
749,0.003451953326997453,0.02156074526298218,-0.007754455877570945
750,0.003451953326997453,0.021560215336127515,-0.007769668707036338
751,0.0036893977648700753,0.021559492907337205,-0.007741069300647471
752,0.0036523037595473174,0.02155916282975165,-0.007664245425581312
753,0.0036057523031957314,0.021558977445655703,-0.007718475991966234
754,0.0036879562299488105,0.021558766947677763,-0.007857425822223095
755,0.0037009831385535876,0.021558591337360312,-0.008058294967431238
756,0.003973252330370792,0.021553689370690545,-0.00925904120650773
757,0.003905324452918947,0.021553166586306835,-0.009200432834686445
758,0.0038818324237204585,0.02155242023681819,-0.009279831366288085
759,0.003920143819139163,0.021551430118196192,-0.009436222638986896
760,0.003784844668920765,0.021550607813363466,-0.009654596208097098
761,0.0031458353403146597,0.021544738753557616,-0.010307946334004572
762,0.0030162442895756746,0.02154463227379103,-0.010374760207259763
763,0.0031212562703075955,0.021543645555098433,-0.010435636604470892
764,0.003459002556868795,0.021541852464230894,-0.010597182668514294
765,0.003590775632831472,0.021538970533425704,-0.010953937442147333
766,0.00391414105332813,0.0215367291060713,-0.011729835943657015
767,0.003963569719974388,0.021536200527868515,-0.011926312123123405
768,0.004074403827488616,0.021535369835021124,-0.012439296696221822
769,0.004083768702081636,0.021532994848555215,-0.013585353616339401
770,0.004095485241276967,0.021532858717432792,-0.013724774659281078
771,0.004049654434612128,0.021529977835015153,-0.014792346569808058
772,0.003905317093938458,0.021529210072427165,-0.014996341187878773
773,0.004033698501107216,0.02152806036631868,-0.014901165402870313
774,0.004035190656062785,0.021526481231567165,-0.014611556669365524
775,0.0040989065018521495,0.02152546104301733,-0.014423191509736984
776,0.003926989708359507,0.021524453416048143,-0.014251254092270172
777,0.003674297404171921,0.021519825117694003,-0.01428593777437674
778,0.0037283423142813877,0.02151935799780096,-0.01453161673939375
779,0.0037822876473323436,0.02151852233103331,-0.01462638542647377
780,0.003908317735141625,0.02151709124443458,-0.014805979345525038
781,0.003926167401653892,0.021515306580085408,-0.015220442668113069
782,0.0037209079769181977,0.021514791404903016,-0.015445092976906777
783,0.0038335928543926576,0.021514106120058097,-0.015764013640388395
784,0.0035543686372830974,0.021507881828620536,-0.01696695072984084
785,0.0035728828907002027,0.021507706049831193,-0.017110502884495168
786,0.003571136149324032,0.021506126880990642,-0.017351063938447885
787,0.0034780814041154564,0.021503233453910944,-0.0175826841711219
788,0.0034280922743214824,0.021502233601479237,-0.017646938277409867
789,0.003534321942373798,0.021500386613116502,-0.01759159262170994
790,0.003568950432004438,0.021497093606270876,-0.017401863112492377
791,0.0034598833646878723,0.021490713006452677,-0.016954534063798002
792,0.0035596018354187024,0.02148943705465801,-0.016338704779039908
793,0.0035307541508074105,0.02148716116701508,-0.0161146796307035
794,0.003243105147193007,0.021484182748210682,-0.01566039715517798
795,0.003393612890547473,0.021480807618770234,-0.015813391603583356
796,0.0037826069981836043,0.02147881165417164,-0.015621126645034898
797,0.0035082987247188,0.02147726703911449,-0.015568442641792423
798,0.003580733598195704,0.02147651399460087,-0.015654104744666494
799,0.003521695558892684,0.021476058071136093,-0.015771271186810955
800,0.0035906869931838937,0.021475598329420854,-0.016032173413555156
801,0.003518802341675126,0.021475238962503262,-0.01613125690108998
802,0.0031841063267628355,0.021471124334194826,-0.016548548434917664
803,0.0032069849778761047,0.02147107934342909,-0.016552140303134445
804,0.0032287950170518938,0.02147065847268016,-0.016493730375343223
805,0.0031949090615165615,0.021469909237957968,-0.016356419366621976
806,0.0033876580019044427,0.02146883584213743,-0.015955973531662365
807,0.003569265849932705,0.021468429099840165,-0.015552803104456774
808,0.0037740089484469904,0.021468252583826095,-0.015289475387314785
809,0.0038571040760482455,0.021467963706512935,-0.014911124880778781
810,0.003885564633789126,0.021467537172647568,-0.014264356592302779
811,0.004149269537527416,0.021467067100341082,-0.013293081628757183
812,0.003983164453456521,0.02146274869918217,-0.01056475788966553
813,0.00387626594795267,0.02146272377372227,-0.010484407578982675
814,0.0035337771338953073,0.021457017496090157,-0.009802661021107113
815,0.0035287366679190592,0.021456522091609986,-0.00960137519586819
816,0.003433332370788617,0.021455603079693786,-0.009598746576293442
817,0.003533814216139614,0.021453963171364658,-0.009583205346975718
818,0.003250649202925026,0.021451491974954495,-0.009570225686004793
819,0.003402918283766056,0.021450084596310048,-0.009712563165555865
820,0.0033638844970994204,0.02144956114588546,-0.009932012376948959
821,0.0032381957028600043,0.02144882129905096,-0.010332507765500622
822,0.003943765146697863,0.021445065773000784,-0.011205063615395012
823,0.003931487387549914,0.021445001980848897,-0.01125338065397432
824,0.0037545396562031126,0.021444424565045327,-0.011474141363916307
825,0.0035545175031144226,0.021441484661752667,-0.012323594040384682
826,0.0036076710577200885,0.021440938903257628,-0.013042776911934763
827,0.003534727144604066,0.021440060327190227,-0.01316531482164295
828,0.0035962871697128715,0.021438746854489012,-0.013284285206574896
829,0.00381081216837846,0.021437691663321462,-0.013934195356560186
830,0.003862354750336007,0.021437106282650543,-0.01469774391492453
831,0.0038184090306794434,0.021436225490738387,-0.016353403334852794
832,0.0037747927415449096,0.021435303792430246,-0.019162631075574428
833,0.003889518183441091,0.021434781713603926,-0.020751521538459945
834,0.003980254642375378,0.021434234347767474,-0.0227301541590136
835,0.003691286055285565,0.0214338715801037,-0.024338892142808797
836,0.0038585342158478763,0.02143344598510983,-0.02674133085553717
837,0.0037155867755913384,0.021429147880968023,-0.036333536089100345
838,0.0037264034390179666,0.02142912960008004,-0.03671414810090795
839,0.003605908692198524,0.021428458555046746,-0.03615717872619889
840,0.004061430920460476,0.021427374798755845,-0.035382666386453925
841,0.004020360800581099,0.021426297886794562,-0.03349989866157008
842,0.004070764992854891,0.021425874557000547,-0.033266768621135416
843,0.003807302072854525,0.021425119000215764,-0.03265379625661554
844,0.0035875738300530607,0.02142384127901421,-0.03192281010220807
845,0.003374620280903175,0.021422718443566385,-0.03165453800866685
846,0.0033769231627229896,0.021419161538475156,-0.030971460117416836
847,0.0033323054431000005,0.02141837698293706,-0.03143314133576923
848,0.0034262442779344027,0.021416869980511302,-0.032109571588853504
849,0.0033692495925357864,0.021416107565885828,-0.032571457300842
850,0.003527606965732685,0.021415135196971077,-0.03286670909969236
851,0.003378324675382379,0.02141344646952626,-0.032692634063776274
852,0.0033962832088872286,0.021410535379808995,-0.03256356491893222
853,0.0038038342037554997,0.02140459228804959,-0.03179788770930434
854,0.0033826685041704425,0.021399745820708867,-0.032075476686645454
855,0.0033534722330692914,0.021398106739013382,-0.0319942422707826
856,0.0033257205424734623,0.021396350231460512,-0.0317878169471902
857,0.003489784223167149,0.02139454105654215,-0.031328252692803406
858,0.0039472300870352015,0.021392447189027466,-0.03133571578106024
859,0.0037792865418698027,0.021390691928003868,-0.031208934824644444
860,0.003563652618467523,0.021389570112564853,-0.03127788147666787
861,0.0034025384580237002,0.02138840087255119,-0.03141196136413852
862,0.003385485470787058,0.02138765467937369,-0.031735556825706265
863,0.0035685814489567085,0.0213866527070217,-0.032325899846494296
864,0.0032369037094309204,0.02137097613667032,-0.035302814763932114
865,0.003289204180216149,0.02136694440107548,-0.035475642334332154
866,0.003420760414665166,0.021364253692146357,-0.03629787441711676
867,0.0035166697896432163,0.02136298075419768,-0.03660418901675657
868,0.0032377989969081707,0.021360898828569043,-0.03619311297335467
869,0.0032742733756308613,0.021357898880883495,-0.03548010452914501
870,0.003211198669382692,0.021356028694044037,-0.034947472083602306
871,0.0031209074261247627,0.021347582647994887,-0.03230378948228777
872,0.003168409848190566,0.02134720998640699,-0.032098331463059404
873,0.00303746364533077,0.021344031622515934,-0.03194856619601186
874,0.00307907749228128,0.021341727105798475,-0.03221757236802808
875,0.0031060825155025122,0.02133794060470376,-0.03305966086949283
876,0.0030180244848679537,0.0213344673372639,-0.03441645457804702
877,0.00313449205979984,0.021330852978527947,-0.035471290412093695
878,0.003150958161518481,0.021321460484885944,-0.03746041612653312
879,0.003149396288705333,0.02131953367150506,-0.03722171152715565
880,0.0031053220107004355,0.021316447973081035,-0.036831339235519886
881,0.0032886435877410775,0.02131102751488504,-0.036369900083080844
882,0.0034048216862821237,0.02130179039895055,-0.03554793124419688
883,0.003532639818584477,0.02129961867437091,-0.03532065887835272
884,0.0036066586884955596,0.021296891916359088,-0.035454111271766356
885,0.0033612609662248194,0.021294707805402036,-0.036581406327744884
886,0.00369291960566346,0.021292367438944373,-0.03709152108308679
887,0.0036149906564366795,0.02128827706403506,-0.038900050595584316
888,0.0035469338783611034,0.021286092474623677,-0.040091933641450035
889,0.003017133967575306,0.021284406212247788,-0.04218801054038529
890,0.0031334731255185095,0.021282304143591016,-0.0429625082350717
891,0.003174682818653397,0.021280283455401613,-0.04521795567040528
892,0.003136989217794333,0.02126458867888116,-0.05323833387448926
893,0.003040201252959546,0.021260960728547485,-0.055260568177100074
894,0.0031198365133914448,0.021255770653647893,-0.05513254483868663
895,0.003089465033205121,0.021253738264188027,-0.05561319891756634
896,0.0032975497926316997,0.021250114343881375,-0.055515599305298716
897,0.004104422063639398,0.021239923923707583,-0.055848832561244295
898,0.004165398473877975,0.021238117171347007,-0.054675717982540575
899,0.00392562524103119,0.02123508950331134,-0.05546605827310409
900,0.003991975969472483,0.021229097631155443,-0.056862901084667024
901,0.0038770025473015813,0.021227231266318723,-0.057716850630983085
902,0.004001634694162375,0.02122398890201356,-0.05771392037761196
903,0.004315104220926096,0.021218166305546207,-0.0577135431334823
904,0.0038802411817324472,0.02121442108192003,-0.05817631778724748
905,0.0037692976771824013,0.02120965278637043,-0.05846524126682881
906,0.004108763182999145,0.021206855404056663,-0.05868241343713472
907,0.004053929846451904,0.02120267647483134,-0.05844762677741469
908,0.0037510030460961873,0.021198279479564312,-0.060294803874549836
909,0.003980573013170122,0.021197061225048407,-0.060836792303081685
910,0.00385174538480653,0.021194948526978147,-0.06091985422501038
911,0.0038494434252009505,0.021188922615605916,-0.06191936041052747
912,0.003598518165486614,0.021188125156389924,-0.06219875401835252
913,0.0036176248917244185,0.0211866071827197,-0.06228408998882516
914,0.003610051381272936,0.021183630424779575,-0.0625232334683359
915,0.003629430665070786,0.021181908687385193,-0.06307953328468895
916,0.0035536479644684084,0.021178977055125173,-0.06334295469044716
917,0.0034499507972106983,0.021173629330947706,-0.06458084696451323
918,0.0032582861705757055,0.021166910645205882,-0.0670438435639349
919,0.0037171674665797596,0.02116304405188488,-0.06804326389494583
920,0.0035310337854895604,0.021158657772150587,-0.06880543029134059
921,0.0036433966633633414,0.021149140203128174,-0.07115380766180145
922,0.0035565505494953957,0.021147278433012864,-0.07185316488137793
923,0.0034263380978649775,0.0211439306981853,-0.0724167240983605
924,0.0031664140891731547,0.02113816177635728,-0.07371355195129178
925,0.0032160533624173084,0.021131131604819296,-0.07550352628032865
926,0.0034052555267951564,0.02112603648134588,-0.07626317111173884
927,0.0031091632368538394,0.021123465908663947,-0.0775070798171078
928,0.003169785699420929,0.02111962463692206,-0.07735817112345587
929,0.0032818917995319974,0.02111415644440696,-0.07756258663178378
930,0.0029585613411108854,0.02109498025839189,-0.07855079820255903
931,0.0030446537468573126,0.021093771459250864,-0.07864926091944567
932,0.002893731169992536,0.021084957092207826,-0.07924971918498251
933,0.002855812261009089,0.021083270476155658,-0.07963790146587552
934,0.0031070722220830557,0.021080477984680324,-0.08040846023337432
935,0.0030756684464770165,0.021077381082781916,-0.08212338524033258
936,0.003127836721913522,0.021075439953223845,-0.0846897353370367
937,0.0029091334395943283,0.021072834890363032,-0.08626543956999913
938,0.003144758195511292,0.02107139803509035,-0.08753193140816333
939,0.003241584741090873,0.02107042543555686,-0.08775982494853785
940,0.003418536259013105,0.021069000832890355,-0.0887677394723644
941,0.0032357733187801086,0.021066702430138275,-0.09064459293504937
942,0.0033082291052118555,0.02106528228388938,-0.09251721015337058
943,0.003448573820950169,0.021063357757316315,-0.09532806183249223
944,0.0035358174429092216,0.02106031889618633,-0.09939344135294331
945,0.003584111614595873,0.021058198186732043,-0.10255324038777486
946,0.00329825599217974,0.021057639821114003,-0.1066857634145109
947,0.003370511134058549,0.02105658343025263,-0.10694958403869148
948,0.0033811125522055516,0.021045555198202868,-0.11191514800635427
949,0.0032409877926344007,0.021044251959466586,-0.11332366019857318
950,0.003356518797101418,0.021042274207926412,-0.11393816357394829
951,0.003214538534187076,0.02103967497159003,-0.11377426379377657
952,0.0033438196836778756,0.02103658236251324,-0.11595951705586373
953,0.0036473135602846773,0.021032746834268163,-0.11913987664302428
954,0.0034861841427841506,0.02102959003227336,-0.11817451045676856
955,0.003832635682554032,0.02102698640323577,-0.11971264194838899
956,0.0036108429235846467,0.021025829151155633,-0.12042839375851855
957,0.003682077783544351,0.02102452221004744,-0.12022502811852123
958,0.003578167477277591,0.021023157113357553,-0.12000751739689566
959,0.0033714973583164054,0.021020709186923017,-0.12016918409584525
960,0.0034165613927837016,0.021019202966935442,-0.12045904221406985
961,0.0034931235280266605,0.02101809340531287,-0.12072547095690071
962,0.0035045329585742927,0.021016444434314743,-0.1211587311777028
963,0.0036012473052078166,0.021014540278413655,-0.12225535185586565
964,0.003501152508850934,0.021013433271369307,-0.12311201475910867
965,0.003446744407864718,0.021012239129019894,-0.12359108068048996
966,0.0037678380583724335,0.021010656489831598,-0.12525299096125445
967,0.003336669665273506,0.021007867293395485,-0.12875105127181338
968,0.003403613522420982,0.021006206009011857,-0.129121269545679
969,0.003583011204473439,0.021004905906703095,-0.13126242300911398
970,0.0035963535969179374,0.021002964455595928,-0.1320073115036603
971,0.003596710449617364,0.02099994691615766,-0.13392747298812516
972,0.0036495905073006753,0.020997517829703355,-0.13422664033621612
973,0.003996087822557391,0.02099508865618282,-0.13626502581335548
974,0.003480122153119697,0.020993414798621986,-0.13769703754291077
975,0.0035896040701168352,0.020991857292696908,-0.14040914727742013
976,0.003870556999848336,0.020989967482174764,-0.14367827041087158
977,0.0037019044677150405,0.020982446107340763,-0.1539006914417848
978,0.0037506752593579017,0.02098186208173503,-0.15488479678750747
979,0.0036619724201446247,0.020980806064179958,-0.155262151763527
980,0.0037061529887969175,0.020978908643780856,-0.15574218245332042
981,0.003965986597826025,0.020975500895711017,-0.15688165606189694
982,0.004011682961125743,0.020971106537839897,-0.15976672450800797
983,0.004020359357621658,0.020968274891345912,-0.15994471554615694
984,0.0038631218154606085,0.020965750037942866,-0.15859188602994967
985,0.00369861041655226,0.02096436463413105,-0.1598201126140419
986,0.003753150148815229,0.020962517737899415,-0.15992518035512462
987,0.004134714939266112,0.020960165535501986,-0.16017478885772132
988,0.003942115180422706,0.020959411681700433,-0.1611134231117723
989,0.003958444083200463,0.020958380679223097,-0.1610738335090259
990,0.004209144698792819,0.020957251084407158,-0.16141073146702423
991,0.004526178650807476,0.020953627846651335,-0.16355342685957008
992,0.004281941117430717,0.02095337612728972,-0.16392703915131057
993,0.004034469671261118,0.020951059977529378,-0.16419712092034394
994,0.0038023645940457726,0.020945813605193115,-0.16503749857380662
995,0.0038023645940457726,0.0209452748581093,-0.16518317753372241
996,0.003850704697195011,0.020944276459002827,-0.16533254804577333
997,0.003851752586205826,0.02094249231196679,-0.16579923540230393
998,0.004026983933549399,0.02093951026195169,-0.16683283276320562
999,0.0032166680735143715,0.020933024208437057,-0.1696165205419615
1000,0.00322012104557679,0.0209324657895553,-0.17028207280200283
1001,0.003158171773757945,0.02093144920073981,-0.17028044426664984
1002,0.0032231843752228836,0.020929601521694888,-0.17034491605659816
1003,0.003392733815766047,0.020926742676313677,-0.17044949039970314
1004,0.0032909612709587552,0.020924165697267568,-0.17055776931462788
1005,0.003428550309974777,0.020922787675202593,-0.17063566436355093
1006,0.003725157012933684,0.02092020497589385,-0.17067907630567403
1007,0.003815002162652807,0.02091982329197118,-0.17067881338937343
1008,0.003927572538077062,0.020919137971334722,-0.17064086097308792
1009,0.004221864884071209,0.02091795440632616,-0.17066521928164488
1010,0.0037645571097518074,0.02091629054471624,-0.17078156433959793
1011,0.0037065311828806315,0.020915653509859952,-0.17154102366510796
1012,0.0037944813019426676,0.02091491499649788,-0.17152998801553968
1013,0.00321721366998933,0.02091424741201171,-0.1716833565721294
1014,0.0031773554223596856,0.0209134750295509,-0.17204989007533508
1015,0.002875667470315963,0.020909560156918278,-0.17293249019201878
1016,0.0028383306115844086,0.020909459122072534,-0.1730241480038727
1017,0.002830272096886944,0.020908597086105582,-0.17317928568172283
1018,0.002939739203327833,0.020907190939082134,-0.17320365572056076
1019,0.0031411941291732072,0.02090538178089647,-0.17310611170316478
1020,0.0031943837707849804,0.02090292912236407,-0.173603436623481
1021,0.003098564126929144,0.02090273575521891,-0.1737039449055532
1022,0.00314502560328482,0.02090122906579362,-0.17414385543661773
1023,0.0031375167874637174,0.020899236579622504,-0.17489978397521155
1024,0.0031473555001584634,0.020898295708388907,-0.17540956662593749
1025,0.0031414728456878676,0.020897691205040852,-0.17588961762727187
1026,0.003275039613137728,0.020896913094771805,-0.17625295670727956
1027,0.003186692219838894,0.020895889646832318,-0.17676472365094154
1028,0.0031180909185428325,0.020892591055017645,-0.17840466156075913
1029,0.0030618625792100075,0.02089231041005602,-0.17864593186115935
1030,0.003647246884828376,0.02089049564805394,-0.17911331531795668
1031,0.003661310209203668,0.02088862807722755,-0.17872087566207456
1032,0.003816337898341753,0.020887084535698586,-0.17885986917170288
1033,0.003679731009027849,0.02088559626609045,-0.17901119834476645
1034,0.003693563122320127,0.02088441259127723,-0.179521484116879
1035,0.003822367732579127,0.020883217232460352,-0.180791236826177
1036,0.0031616319725036902,0.020879243562578552,-0.18394742902804218
1037,0.0031213615095149485,0.020878388347860315,-0.18466198888897223
1038,0.003140626121256387,0.020876733108479623,-0.1852852672489472
1039,0.0031292828064549824,0.02087464933266635,-0.18605849929025522
1040,0.0033729612668242023,0.02087116084889995,-0.18619233081925451
1041,0.0033201478173809926,0.02086505034050169,-0.187416241224605
1042,0.0030743107632395916,0.02086222015253114,-0.1885804175423025
1043,0.0034017786755339285,0.020858826051716413,-0.18941401974345287
1044,0.003591170479340768,0.02085676592602555,-0.18960528591496897
1045,0.003876327352907988,0.02085302491814186,-0.19100538852471943
1046,0.003571621648964975,0.02084828341850909,-0.19368495497067306
1047,0.003461445957265534,0.020845197534764437,-0.1949342028686817
1048,0.0033791872048740605,0.020840955206732036,-0.19517506212978522
1049,0.0031594317409224097,0.020838063570815545,-0.19592003763030746
1050,0.0031603324501721405,0.020836183401011378,-0.19650816314274222
1051,0.0032496221604109855,0.020833608840748797,-0.19638136523683816
1052,0.0031090646951351226,0.0208305215747374,-0.1964898927818235
1053,0.003059653554677437,0.02082853446164548,-0.197013016551146
1054,0.0032098180523397342,0.02082620695614828,-0.1978917068327733
1055,0.003140050215239241,0.020824997073675588,-0.1987159532571409
1056,0.0032399800774569115,0.02082335672434328,-0.19965709903282192
1057,0.003185245947690111,0.020822199966863915,-0.2009059567258322
1058,0.0029611028788150843,0.020820837939318215,-0.20189227329741274
1059,0.003086473299454647,0.020820043694614022,-0.2032778440791504
1060,0.002966473438339831,0.020818782867579603,-0.20405471614680873
1061,0.0031547900417697545,0.020817024220133956,-0.2060279546063458
1062,0.003220514768200256,0.02081607164596302,-0.2064474167255692
1063,0.003115784925501141,0.020815344732346325,-0.20777036486733655
1064,0.003278772658728483,0.020814264479255645,-0.20793717166542716
1065,0.003295590511491009,0.020812499938699297,-0.20925825910173176
1066,0.0031826070676238966,0.02081164308845762,-0.2100684236413842
1067,0.0032408404089740188,0.020809931325368083,-0.21097831957123456
1068,0.003235566164198321,0.020809391512727777,-0.21132584364621548
1069,0.003244543870104959,0.02080851187745951,-0.21119734845717494
1070,0.0032786438133749524,0.020807048182803854,-0.2110897393567093
1071,0.0033029820223376997,0.020804968705533763,-0.21061785026844135
1072,0.0033418411705858977,0.02080363386698039,-0.21058658968084207
1073,0.0032349846319325165,0.02080273618441946,-0.21094699402990488
1074,0.003148115261972875,0.02080210928981238,-0.2108679804029337
1075,0.003105571592933788,0.020801477122117447,-0.2113815730254379
1076,0.0031257990093216488,0.02080105208432887,-0.2119167164731506
1077,0.0030978636045166327,0.02080066517224908,-0.2123550898747513
1078,0.0030293941605254796,0.020800019251024416,-0.21306937036039444
1079,0.0029928168790742645,0.020798033595126705,-0.21564236544102763
1080,0.0030188094870568375,0.020797501184134492,-0.21660180457183983
1081,0.0029680330061145617,0.020790538876650118,-0.21989948746174745
1082,0.003114624380492816,0.020789880362506216,-0.2204829165000978
1083,0.0030880300803983276,0.02078537429694605,-0.22203933550111335
1084,0.0032014806758714808,0.020783762153339012,-0.2239648048547993
1085,0.0032630930456754594,0.020781052752217453,-0.22374403103795878
1086,0.0036051079079268225,0.020776902322372035,-0.22412885108181912
1087,0.0035466213323884026,0.02077302994144784,-0.22427768662151182
1088,0.0031421400927231923,0.020771752726428352,-0.22565059299168075
1089,0.0031136120414907683,0.020769584272461093,-0.22593986452325293
1090,0.003157686145249407,0.02076586353229824,-0.22678322984784557
1091,0.0031241238920510245,0.020763478554001073,-0.22789278194430038
1092,0.0031556858723162254,0.020760908667792344,-0.2278654875596341
1093,0.002952801305698444,0.020758832567329952,-0.228370539288263
1094,0.002846310759729126,0.02075669099488013,-0.22863786815218207
1095,0.002938658101815239,0.020755060757793223,-0.22885950317410703
1096,0.003004336729674603,0.020753689923340878,-0.22910320894528974
1097,0.0031937339904299106,0.02075241418719089,-0.2292409377708138
1098,0.003120297289500602,0.02075134059725864,-0.22993183526054595
1099,0.0030021629547699073,0.020750554425530535,-0.23055863193528314
1100,0.00312060979356789,0.020749928180349493,-0.23151876090320997
1101,0.003138938235524352,0.020749485370909922,-0.23253834763656264
1102,0.003029381142562695,0.020749100876743507,-0.2334205878413215
1103,0.0031167220491352997,0.020748753473802513,-0.23424031813592425
1104,0.0030841473217674523,0.020748498603754256,-0.23503541202118713
1105,0.0031828754505816917,0.020748244301717855,-0.23600673133647146
1106,0.0029307618448659563,0.020748013190346554,-0.2370761191191414
1107,0.0031167554053474857,0.020747705685175425,-0.2385302617387472
1108,0.0032176990239225797,0.020746311287754827,-0.2426878217901803
1109,0.003212320509421262,0.020745754970987924,-0.24237398609282654
1110,0.0031392939674037413,0.020745360972211805,-0.2404305530385961
1111,0.003078312219193343,0.02074473826712094,-0.24011875619996714
1112,0.0031447300117378686,0.020744490743551357,-0.23976673977160637
1113,0.0031916720326592195,0.020744146834240352,-0.2395656014179479
1114,0.003194676745903416,0.020743916871603083,-0.23936916038660674
1115,0.0032976010762487233,0.020743698430676236,-0.23907671903636799
1116,0.0033628487836408613,0.020743549308601998,-0.23888377854140316
1117,0.00315603112571739,0.020743427252112548,-0.238772503217004
1118,0.0030036183137071813,0.02074333254239368,-0.23871475904971654
1119,0.003188063790586558,0.020743231954440097,-0.23871729121440383
1120,0.0030476459115246065,0.020743134742803256,-0.23865155182416026
1121,0.003119592094495582,0.02074303481481029,-0.2385396697669212
1122,0.0030761653723058568,0.020742932475733795,-0.23831880277005973
1123,0.0030929830646163193,0.020742850835866963,-0.23814608196235554
1124,0.0027914894105206013,0.02074277242797402,-0.23782921251995381
1125,0.0028913509779736886,0.020742695515259542,-0.23766437416765399
1126,0.0029704728373838906,0.020742631435464613,-0.23738252401248078
1127,0.0029475405150417764,0.02074256131452479,-0.2370443848722475
1128,0.003023126938214105,0.02074248155061229,-0.2365032469749263
1129,0.0029443553464835325,0.020742404095300856,-0.2359084853563303
1130,0.002919607853570063,0.020742338106498493,-0.2352852369777834
1131,0.003073992606440104,0.020742290943337204,-0.23485746424398404
1132,0.0030935930356527845,0.02074225420085513,-0.234618809036369
1133,0.0031304607332499983,0.020742219192159895,-0.23442573968005453
1134,0.003110928140978308,0.020742183980007215,-0.2342435357851267
1135,0.003191218042770624,0.020742149574485804,-0.2340747817012128
1136,0.003237364089503808,0.020742116470734356,-0.23394797448581856
1137,0.0032362545527563086,0.020742082846636912,-0.23390018646034064
1138,0.003359041779449145,0.020742046669664282,-0.23398452163769531
1139,0.003407473571555975,0.02074201112071131,-0.23414135022382138
1140,0.0034194252710117727,0.020741978992538417,-0.23432415132515994
1141,0.0033347549237515675,0.020741948253006202,-0.2345059848102507
1142,0.003355131124718816,0.02074191825777511,-0.234671457915066
1143,0.0033448873431669046,0.02074188626928428,-0.23485414979696462
1144,0.003411444033239995,0.02074184810890253,-0.23513699807434643
1145,0.003419773185228122,0.020741799944174716,-0.23557191837626926
1146,0.003358312825101746,0.020741739655002138,-0.2362114702525859
1147,0.0033668178899295,0.020741666512320234,-0.23702771178670184
1148,0.0033576579079923046,0.020741577762117297,-0.23793410362368436
1149,0.0034989367337962293,0.02074146524665232,-0.23891058558763917
1150,0.0035164309885723525,0.02074131683721367,-0.23998403627544096
1151,0.003245134313919185,0.020741120683235366,-0.24119564842215055
1152,0.0031531238595861755,0.020740862967531196,-0.24280276297535922
1153,0.0032741971510133355,0.020740520423586296,-0.24490663095920084
1154,0.003278279380534056,0.02074007616748648,-0.24780856979937965
1155,0.0029926859498354648,0.020739539923094224,-0.2512152365101327
1156,0.003058770032718098,0.020738973534182793,-0.25473691297377893
1157,0.0032258543240107256,0.020738463735235368,-0.2575944235930726
1158,0.0034126291784476693,0.020738089899353267,-0.25958937022864303
1159,0.003258208753969763,0.02073784187423961,-0.2610576043207278
1160,0.003189714602840642,0.02073764251461729,-0.26144804994564935
1161,0.0031611464910690453,0.020737455005116475,-0.2625075629879462
1162,0.0031388707783858933,0.0207372684326961,-0.2630409822431925
1163,0.002997001825446328,0.02073712160912614,-0.26506935646842483
1164,0.00313425175910741,0.020736980436518254,-0.2659020668958521
1165,0.0034572039311723704,0.02073683349458739,-0.2671734165579533
1166,0.003459948051970473,0.02073668439885258,-0.26818291987851445
1167,0.0028362131035335986,0.020727834000918502,-0.27787041198149964
1168,0.0028362131035335986,0.02072782142440523,-0.2780470975426563
1169,0.003257443524210206,0.020725816093710485,-0.27927391705208565
1170,0.003103696058232183,0.02072278030516772,-0.28277875926196855
1171,0.003177589964868018,0.020721396524396325,-0.28261648925234456
1172,0.003250853853096006,0.02071939473100118,-0.28238979986623036
1173,0.0033687488821944403,0.020717591351045315,-0.28141056734445324
1174,0.003542529644497545,0.020715300170122092,-0.28515387238104445
1175,0.003330699570523726,0.02071381326584734,-0.28331267470113636
1176,0.0030731872926828847,0.02071135502792524,-0.2884089238663823
1177,0.0031171417657118454,0.020710074814465854,-0.2907839792245616
1178,0.003228167660465026,0.020709092081624282,-0.2927135211354128
1179,0.003266495739622817,0.020707482345196218,-0.29244556939118604
1180,0.003231698854596595,0.02070511168572235,-0.2914996186614245
1181,0.003363020548162266,0.020703671405419184,-0.2885894756233708
1182,0.00335486361371947,0.02070268146661045,-0.2893299885400639
1183,0.0034028133197080124,0.020700987569833247,-0.2889953001035216
1184,0.003313885269522715,0.0206999456513139,-0.28857714487963
1185,0.003571505375896161,0.0206987231843206,-0.28956934319686023
1186,0.003533695989359514,0.02069768995923492,-0.28939176168331815
1187,0.003593655865133003,0.020696558102831435,-0.29006982401109954
1188,0.003447292102372313,0.020695265946395508,-0.28936790787719086
1189,0.003376205072050493,0.020692473405276128,-0.2888773455105667
1190,0.003349257139526055,0.020692210319505806,-0.2888029343948513
1191,0.003310450675960365,0.020691715298418893,-0.28868567935866646
1192,0.0033292600962335443,0.0206907967443299,-0.2888724729647928
1193,0.0035362445567547404,0.020689206384124456,-0.28875811075810415
1194,0.0034275825273922074,0.020686889619184697,-0.29018455356729567
1195,0.003406175074032088,0.020683005892639387,-0.29079801951594686
1196,0.0033638678409394626,0.02068221986922748,-0.29101768073187795
1197,0.0032706171974678628,0.020678003615404856,-0.29242965306851737
1198,0.003122689038171777,0.02067683762439878,-0.29293305897395394
1199,0.003136788023954981,0.0206747921725563,-0.294069838453942
1200,0.0031275073535652997,0.020671220579008807,-0.2959686317475296
1201,0.0029561942066999246,0.02066579863872035,-0.29964163191906207
1202,0.0029829181657351684,0.020662173133643304,-0.3028233665134848
1203,0.0029031616808243054,0.02065639792877717,-0.3046616164867276
1204,0.002875071835906948,0.020654346106689772,-0.30566304096189406
1205,0.0028057294811108906,0.020650858891454647,-0.30570919143764713
1206,0.0028604348985672447,0.020646306887404448,-0.3086588686325154
1207,0.0029454327671409597,0.020641945763039883,-0.3085946534599079
1208,0.002884823285641944,0.020639124370795132,-0.3121292930536467
1209,0.003119911055901008,0.020636394403299847,-0.3157930547478679
1210,0.0032462614756886073,0.02063409101707036,-0.3170029513433691
1211,0.0032381923633909657,0.02063215582925641,-0.3197383928900976
1212,0.0030735164944443263,0.02063041304098337,-0.32393221373309716
1213,0.003040803231633252,0.020628500283131117,-0.3255200455806603
1214,0.0031658735071138588,0.020626676110363923,-0.3286828260635428
1215,0.0032135470991677805,0.020626093241904127,-0.32984704204511167
1216,0.0032885054822135063,0.020625150894999316,-0.3306800492876751
1217,0.0032948129275419476,0.020623837026738107,-0.33120950560214746
1218,0.0033193099396735515,0.0206229112303445,-0.3339300875153085
1219,0.0031937098381386447,0.02062147270801992,-0.335163789801048
1220,0.003143283733257607,0.020621163760136032,-0.3353897528569978
1221,0.0031725524261929563,0.020620626089552913,-0.33512437734408473
1222,0.003138266468192166,0.020619801822207115,-0.3352550764939855
1223,0.0030851037148629467,0.02061924907761718,-0.33572405794512583
1224,0.0030618079741959446,0.020619022227732604,-0.3369360409136465
1225,0.002972990065684803,0.020618652861775486,-0.33838478870626437
1226,0.002914844127399193,0.02061694372296292,-0.34427658686925444
1227,0.0029107651349681326,0.020616377899714815,-0.3437705990069645
1228,0.003047423627062005,0.020615627410122073,-0.345203805863573
1229,0.002978701501113919,0.02061418759740524,-0.3457110952333429
1230,0.002916097413022429,0.02061384549856538,-0.34591740954084127
1231,0.00299212541467729,0.02061330370553833,-0.3458478557092862
1232,0.0029410962430239463,0.020612653566148057,-0.34621310479248774
1233,0.002926353029074802,0.020612403053165078,-0.3469736738752644
1234,0.002877479141693615,0.020612067630786986,-0.34826854104800303
1235,0.0028239925834356023,0.020611793048539485,-0.34997094789286093
1236,0.0027138992729095015,0.02061155471907369,-0.35197955539021153
1237,0.00269440528052073,0.02061128814823997,-0.3545414050613622
1238,0.002653936155238196,0.020610931251787097,-0.3584753426291232
1239,0.002724814718324019,0.0206105699741317,-0.3636158347229295
1240,0.002702505887618936,0.020610066706840423,-0.3672641244344695
1241,0.002821031636818874,0.020607372206363564,-0.3871079248343906
1242,0.002747732379085664,0.020605222190366833,-0.3945464972270446
1243,0.0027237602323430046,0.020602565603553974,-0.39382631960066344
1244,0.002931829348286725,0.020600290799349733,-0.39409638875511543
1245,0.0028641561578838562,0.020597668477644576,-0.3898617095752431
1246,0.0027641997902582093,0.020589344280003464,-0.38964959528361104
1247,0.0027952491739080022,0.020588974572972308,-0.3894245477318942
1248,0.002838118213360992,0.020588265452220617,-0.3897430998057602
1249,0.002787824300677592,0.020586945132156934,-0.39087007622262154
1250,0.0028128016239783757,0.020584764972579172,-0.39313797920641713
1251,0.002934418075564647,0.020582656989127823,-0.3984419932953544
1252,0.0027320452887621754,0.020581492085057322,-0.40280707400850657
1253,0.0029110487104301646,0.02058034130468091,-0.4014527359515281
1254,0.0029262614936098985,0.02057832008851057,-0.4041590913077769
1255,0.003053345899995194,0.02057735499797418,-0.40633278694717373
1256,0.0029092954149991545,0.020576327936052918,-0.4104877635549471
1257,0.0029247918826722278,0.020575453668871625,-0.4134210524169447
1258,0.0030101511159150757,0.0205745544370641,-0.41753761912328696
1259,0.0030194930669665975,0.02057385734600818,-0.42017659572473903
1260,0.002986562270450408,0.020572864385842177,-0.4231366536328363
1261,0.002937929093673173,0.02057166116831724,-0.4271411621389684
1262,0.0029617130256812396,0.02057039770938554,-0.4289497714251071
1263,0.00298923248071803,0.020567987505717072,-0.4332685085035497
1264,0.0029677127887786136,0.020567591856625957,-0.43432126367220614
1265,0.0028684882698557035,0.020566871939573482,-0.43439662048580774
1266,0.0027475025541057532,0.020565693096744327,-0.4353858015690175
1267,0.002766381121852109,0.020564242047851684,-0.43410511322759554
1268,0.0027940658617575946,0.020563437097708855,-0.43601843370920457
1269,0.0028123922065152063,0.02056230606429025,-0.43666002975642154
1270,0.002792951527367685,0.020560621406735913,-0.43813538522515644
1271,0.0028289000404070398,0.020558958583046856,-0.4407272282423496
1272,0.002888649589806253,0.02055749912294552,-0.4418324477786051
1273,0.003008340420696133,0.020555622963210292,-0.4439149947257324
1274,0.0029351122354804317,0.020554840885743515,-0.44556722300113966
1275,0.0029892347007300026,0.020554002699888763,-0.4483652552178368
1276,0.003041815429412109,0.020553373585668208,-0.4477519858352899
1277,0.0030981177956645057,0.0205529125997085,-0.4484407127425635
1278,0.0030449351437029613,0.020552537916070486,-0.44991074355125704
1279,0.003086295580979349,0.020552240885700124,-0.45014636426911975
1280,0.0030848847116588195,0.020551956116120755,-0.4507777079176154
1281,0.0030848847116588195,0.020551772779989527,-0.4508260886406136
1282,0.003111687684554087,0.020551569571455895,-0.45116288289201734
1283,0.0032217376209014654,0.02055140918066049,-0.45152453367542206
1284,0.0031938801956881875,0.020551295749080118,-0.4515109344488688
1285,0.0031592128996845905,0.020551206519010237,-0.4514908115850739
1286,0.003138751842609158,0.020551130312277188,-0.45120395418985465
1287,0.0030372656602672896,0.020551026980190488,-0.4508690154660669
1288,0.0027607602700861445,0.020549325314092225,-0.44962310859950255
1289,0.0027560684586042552,0.020549308974988866,-0.44958296656407737
1290,0.0027269061851773113,0.02054875010830035,-0.4492389490218121
1291,0.002659547557985005,0.02054781486119141,-0.4494131747244898
1292,0.0026504500401647326,0.020546651260702823,-0.4505085073453516
1293,0.0026014128840741706,0.02054628948619422,-0.4507290151053949
1294,0.0026028976617313974,0.020545958979920953,-0.4513196879233521
1295,0.002639262313461366,0.020545693423456482,-0.45163842402964216
1296,0.0026265539508474292,0.020545568169663624,-0.4518083540093752
1297,0.002644852365792091,0.02054549619459986,-0.45217637098204827
1298,0.0026849982086518767,0.02054543373813656,-0.45256532328556426
1299,0.00271357340960661,0.020545392447171865,-0.45314021496363704
1300,0.002663500131602118,0.020545366049567526,-0.4534597612464745
1301,0.002637334827404817,0.020545342338529553,-0.453843986070513
1302,0.0025856548867487185,0.02054532513429513,-0.45426403133167276
1303,0.0025856548867487185,0.020545312301568218,-0.45467157268259983
1304,0.0026084194360196694,0.020545300567875815,-0.45513556506981384
1305,0.002614440116709891,0.02054529244093033,-0.45558566478647494
1306,0.0026207177632694427,0.0205452865419732,-0.4558770354360806
1307,0.0026207177632694427,0.02054528134450159,-0.45621804222787743
1308,0.0026578975456151427,0.020545277145833794,-0.4564797159365288
1309,0.0026578975456151427,0.02054527449713232,-0.45669086227611994
1310,0.0026578975456151427,0.020545272855656837,-0.4568028065927682
1311,0.0026207177632694427,0.020545271742771463,-0.45688452389677614
1312,0.0026207177632694427,0.02054527096013714,-0.4569424766015139
1313,0.0026207177632694427,0.020545270421172233,-0.45699690892238376
1314,0.0026207177632694427,0.020545270042365834,-0.4570344252470585
1315,0.0026207177632694427,0.02054526976847522,-0.45706455363294624
1316,0.0026207177632694427,0.020545269558514403,-0.45709091831162785
1317,0.0026207177632694427,0.020545269381514034,-0.45711300712380887
1318,0.0026207177632694427,0.020545269221958224,-0.457138144694793
1319,0.0026207177632694427,0.02054526907379762,-0.4571647441580925
1320,0.0026207177632694427,0.020545268939421994,-0.4571916837821855
1321,0.002614440116709891,0.020545268819952573,-0.45721638780049395
1322,0.002614440116709891,0.02054526871982518,-0.45723525683383875
1323,0.002614440116709891,0.020545268644640326,-0.45724733477674673
1324,0.002614440116709891,0.020545268592154588,-0.45725715486791885
1325,0.002614440116709891,0.02054526855395988,-0.4572631985102272
1326,0.002614440116709891,0.020545268525217236,-0.45726994281178945
1327,0.002614440116709891,0.02054526850375478,-0.4572733376473418
1328,0.002614440116709891,0.020545268488914775,-0.4572749765030611
1329,0.002614440116709891,0.020545268478706538,-0.45727254441250803
1330,0.002614440116709891,0.02054526847091067,-0.4572684979699795
1331,0.002614440116709891,0.020545268464209978,-0.45726156539225743
